2.000343427062034607e-02
1.210964843630790710e-01
-8.388686925172805786e-03
-1.508763339370489120e-02
9.721233695745468140e-02
6.695358082652091980e-03
-3.455062210559844971e-02
5.102625861763954163e-02
-7.998491823673248291e-02
8.566872775554656982e-02
4.031325224786996841e-03
-1.210463326424360275e-02
7.304733991622924805e-02
-8.407893031835556030e-02
-4.527982324361801147e-02
-6.109238788485527039e-02
1.150696575641632080e-01
-2.867626771330833435e-02
7.872311770915985107e-02
-2.346433699131011963e-02
-7.603401318192481995e-03
2.962775155901908875e-02
7.505721598863601685e-02
-6.309481803327798843e-03
5.055751278996467590e-02
9.672027081251144409e-03
4.598933830857276917e-02
9.649281948804855347e-02
2.847596630454063416e-02
5.796372517943382263e-02
9.765397012233734131e-02
-2.630717307329177856e-02
-2.908827550709247589e-02
5.130922421813011169e-02
6.048369407653808594e-02
2.143211290240287781e-02
6.334304809570312500e-02
3.410211205482482910e-02
1.301082316786050797e-02
7.407930493354797363e-02
-5.920257791876792908e-02
2.410853095352649689e-02
-1.230681198649108410e-03
-6.472744047641754150e-02
-1.085244268178939819e-01
-7.063987432047724724e-04
-3.917270898818969727e-02
4.223959147930145264e-02
-1.668566651642322540e-02
-8.464752882719039917e-02
-7.262235879898071289e-02
-7.738801185041666031e-03
-1.186571940779685974e-01
3.280203044414520264e-02
-6.148722767829895020e-02
-4.303282126784324646e-02
-4.070289433002471924e-02
5.081343278288841248e-02
6.788357626646757126e-03
6.185743957757949829e-03
-8.984557352960109711e-03
5.519979819655418396e-02
-6.300285458564758301e-02
7.205532491207122803e-02
1.332034450024366379e-02
1.661431044340133667e-02
1.710695773363113403e-02
7.203051447868347168e-02
6.013893336057662964e-02
2.713661268353462219e-02
-8.019554615020751953e-02
4.163848643656820059e-04
-1.563936285674571991e-02
-7.232406735420227051e-02
-7.041390240192413330e-02
7.291408721357584000e-03
-2.384502906352281570e-03
-2.566488832235336304e-02
-1.496846415102481842e-02
-6.157170981168746948e-02
-7.446058839559555054e-02
-6.846006214618682861e-02
-2.822993695735931396e-02
-4.689408466219902039e-02
-5.204963311553001404e-02
3.890573605895042419e-02
-6.607745587825775146e-02
-2.240473031997680664e-02
1.957714185118675232e-02
2.963904291391372681e-02
7.416879385709762573e-02
5.870000272989273071e-02
-3.354015946388244629e-02
1.009176019579172134e-02
-9.758071973919868469e-03
-4.945336282253265381e-02
-4.446254670619964600e-02
-5.139819532632827759e-02
-9.220603853464126587e-03
-6.390222348272800446e-03
-1.284717395901679993e-02
-3.247269615530967712e-02
-5.328108370304107666e-02
-2.519225887954235077e-02
2.068166434764862061e-02
-2.702290378510951996e-02
3.916309401392936707e-02
3.721306100487709045e-02
-9.091654419898986816e-02
-7.745091617107391357e-02
2.700454182922840118e-02
-2.906961925327777863e-02
5.816597025841474533e-03
4.502492770552635193e-02
2.402950823307037354e-02
-9.363377466797828674e-03
-1.874177157878875732e-02
1.377442665398120880e-02
-3.400611877441406250e-02
-5.298096314072608948e-02
-7.860748469829559326e-02
4.191892594099044800e-02
7.092549931257963181e-03
-6.721147894859313965e-02
-5.624978989362716675e-02
4.735299944877624512e-02
-6.143235415220260620e-02
-7.209598273038864136e-02
-3.692201524972915649e-02
1.860270742326974869e-03
-5.661266390234231949e-03
7.641588896512985229e-02
6.056854501366615295e-02
6.500520557165145874e-02
-1.633975654840469360e-02
6.618586182594299316e-02
-4.802365973591804504e-02
1.810516975820064545e-02
4.860411956906318665e-02
-3.716591373085975647e-02
8.304420858621597290e-02
-7.902053184807300568e-03
-3.893943130970001221e-02
-4.752288013696670532e-02
-1.396719366312026978e-02
-6.364944577217102051e-02
-2.156797423958778381e-02
-1.027534622699022293e-02
-2.651247940957546234e-02
6.594697386026382446e-02
-5.473629385232925415e-02
7.575226575136184692e-02
-3.661886975169181824e-02
4.354100301861763000e-02
6.468120962381362915e-02
-4.176328331232070923e-02
-1.889643631875514984e-02
-5.468833819031715393e-02
-4.727799817919731140e-02
9.391026198863983154e-02
1.177441328763961792e-01
-1.655958965420722961e-02
-1.008904291666112840e-04
-2.165833301842212677e-02
2.711439318954944611e-02
3.548020496964454651e-02
9.479282051324844360e-02
3.753234818577766418e-02
9.761601686477661133e-02
-1.953721046447753906e-02
7.683829218149185181e-02
8.785390853881835938e-02
6.905475258827209473e-02
3.316651284694671631e-02
6.250550597906112671e-02
7.329244166612625122e-02
9.691428858786821365e-04
1.016852725297212601e-02
-2.573068439960479736e-02
-4.100691899657249451e-02
-3.816883265972137451e-02
-4.496683552861213684e-02
5.779915489256381989e-03
1.968104764819145203e-02
1.133782267570495605e-01
5.273215472698211670e-02
6.249467376619577408e-03
1.824005274102091789e-03
1.065196692943572998e-01
5.637553334236145020e-02
1.286671012639999390e-01
1.054465770721435547e-01
5.741610378026962280e-02
1.940944977104663849e-02
1.931303367018699646e-02
-3.829156607389450073e-02
-3.762488439679145813e-02
1.742618903517723083e-02
1.065069660544395447e-01
8.885404467582702637e-02
-1.238438650034368038e-03
1.389784365892410278e-02
6.370482593774795532e-02
6.212002784013748169e-02
-5.708980932831764221e-02
-5.263725295662879944e-03
-2.677184715867042542e-02
-8.352724835276603699e-03
-4.740152880549430847e-02
-9.556261822581291199e-03
-1.276005059480667114e-02
-3.102017752826213837e-02
1.869286643341183662e-04
-3.921328485012054443e-02
4.408536851406097412e-02
-5.724014248698949814e-03
3.295525535941123962e-02
2.173434197902679443e-02
-3.294257074594497681e-02
-1.172168273478746414e-02
9.805520623922348022e-02
-2.963251061737537384e-02
2.054765634238719940e-02
7.190568000078201294e-02
-4.751790687441825867e-02
1.129806339740753174e-01
8.879218995571136475e-02
5.924419499933719635e-03
6.464928388595581055e-02
-6.169903278350830078e-02
1.861878484487533569e-02
-8.184493333101272583e-02
2.145097777247428894e-02
3.127103671431541443e-02
-8.182903379201889038e-02
3.562607988715171814e-02
-4.073100537061691284e-02
3.725856170058250427e-02
-9.504149854183197021e-02
-9.921512007713317871e-02
-4.900164529681205750e-02
-1.701829768717288971e-02
5.809208005666732788e-02
-5.383811891078948975e-02
-4.119204357266426086e-02
-5.320171639323234558e-02
-3.126158192753791809e-02
-3.107079118490219116e-02
-9.246451407670974731e-02
-1.011861339211463928e-01
-5.202993378043174744e-02
-1.378832012414932251e-01
3.315374255180358887e-02
-4.984903708100318909e-02
-4.375018179416656494e-02
-9.630450606346130371e-02
-2.730897068977355957e-02
