1.131419911980628967e-01 7.437317073345184326e-02 4.100854508578777313e-03 5.926575139164924622e-02 8.598327636718750000e-02 -3.577186539769172668e-02 1.100590229034423828e-01 4.910168424248695374e-02 1.248878687620162964e-01 -2.025859197601675987e-03 1.654332876205444336e-02 -3.636763617396354675e-02 -3.059338219463825226e-02 2.680051624774932861e-01 -2.155017852783203125e-02 3.982005640864372253e-02 6.506010890007019043e-02 7.095198333263397217e-02 -4.465046897530555725e-02 -5.301572754979133606e-02 3.696839557960629463e-03 1.204633270390331745e-03 -7.741291821002960205e-02 -2.488962560892105103e-02 -3.290515765547752380e-02 -8.016667515039443970e-02 -3.277252018451690674e-01 -1.615119725465774536e-02 -5.256029963493347168e-02 -2.378279808908700943e-03 -3.733963519334793091e-02 -9.441811591386795044e-03 -9.103385359048843384e-02 8.009739220142364502e-02 6.104671582579612732e-02 -1.208500862121582031e-01 -5.482404232025146484e-01 2.072664350271224976e-02 1.542608160525560379e-02 1.640825122594833374e-01 -4.332587867975234985e-02 2.100293338298797607e-01 1.212258543819189072e-02 9.631372056901454926e-03 -1.256659999489784241e-02 6.476192176342010498e-02 3.284692391753196716e-02 -5.204675346612930298e-02 -6.595546007156372070e-02 1.767146214842796326e-02 -4.304565489292144775e-02 -3.042988106608390808e-02 2.033874988555908203e-01 -5.932129919528961182e-02 4.751615971326828003e-02 9.391304105520248413e-02 5.473044142127037048e-02 -4.559922963380813599e-02 -4.437763243913650513e-02 2.456805557012557983e-01 -8.078271895647048950e-02 -6.169699504971504211e-02 5.433055013418197632e-02 -4.779899120330810547e-02 1.437031757086515427e-02 -6.228766590356826782e-02 4.647517204284667969e-02 -6.932044774293899536e-02 4.473967105150222778e-02 -5.071612074971199036e-02 1.827918142080307007e-01 -1.145033724606037140e-02 -1.167392730712890625e-02 7.742039859294891357e-03 -1.482100971043109894e-02 -1.597512140870094299e-02 1.156903244554996490e-02 -4.401599243283271790e-02 1.140947490930557251e-01 2.015382610261440277e-02 -1.093134880065917969e-01 1.493330299854278564e-02 1.283403038978576660e-01 4.353808984160423279e-02 3.266374766826629639e-02 -7.331123109906911850e-03 -2.106943633407354355e-03 -1.446558982133865356e-01 -3.587459400296211243e-02 -6.226157397031784058e-02 -7.957304269075393677e-02 4.753776267170906067e-02 -9.145683608949184418e-03 5.344351753592491150e-02 -4.519798234105110168e-02 6.506833015009760857e-04 1.312794350087642670e-02 -9.343543648719787598e-02 -1.852150112390518188e-01 1.043453216552734375e-01 -5.960813723504543304e-03 4.049157351255416870e-02 5.172097310423851013e-02 -1.003131866455078125e-01 8.530529588460922241e-02 -6.481471657752990723e-02 1.146318539977073669e-01 2.374710701406002045e-02 6.590155512094497681e-02 -4.321232438087463379e-02 3.985162824392318726e-02 -7.043743878602981567e-02 6.044812873005867004e-02 1.949523091316223145e-01 -2.303114719688892365e-02 -5.166543275117874146e-02 -7.839336991310119629e-03 1.290770918130874634e-01 1.306249350309371948e-01 -9.538626670837402344e-02 2.371297683566808701e-03 3.219351917505264282e-02 1.198386847972869873e-01 -4.459477588534355164e-02 3.482006862759590149e-02 -1.336069405078887939e-01 -2.098238617181777954e-01 -6.689061224460601807e-02
-2.516538277268409729e-02 9.078995138406753540e-02 -1.339428275823593140e-01 1.028027683496475220e-01 -2.582014203071594238e-01 -1.652396023273468018e-01 1.076961215585470200e-02 -1.786682903766632080e-01 9.884934872388839722e-02 -6.727437674999237061e-02 7.698955386877059937e-02 2.562613226473331451e-02 -8.184526860713958740e-02 -1.248940676450729370e-01 -1.360581666231155396e-01 -5.239759013056755066e-02 -2.353165298700332642e-01 -3.378869267180562019e-03 7.391065359115600586e-02 5.967415869235992432e-02 -6.137601286172866821e-02 -5.828024074435234070e-02 -7.033101469278335571e-02 -1.682842224836349487e-01 1.117702201008796692e-02 5.928204860538244247e-03 2.242944389581680298e-01 4.527987167239189148e-02 -3.977099433541297913e-02 6.582834571599960327e-02 1.361577063798904419e-01 1.273259967565536499e-01 1.464438159018754959e-02 -7.082679122686386108e-02 -3.817644203081727028e-03 1.464582793414592743e-02 -8.572354912757873535e-02 1.333001255989074707e-01 8.037751913070678711e-02 -5.158768966794013977e-02 -1.031910330057144165e-01 1.105937063694000244e-01 1.030172109603881836e-01 8.904910832643508911e-02 1.499479520134627819e-03 -2.355654090642929077e-01 -3.892444819211959839e-02 5.337130650877952576e-02 -1.087005250155925751e-03 -4.924562200903892517e-02 -5.064895749092102051e-02 -7.177987718023359776e-04 -2.265042811632156372e-01 5.537234991788864136e-02 -4.496942833065986633e-02 -4.148725047707557678e-02 -3.666206076741218567e-02 1.011933013796806335e-01 -1.667048484086990356e-01 -7.203918881714344025e-03 -2.197053097188472748e-02 7.742074877023696899e-02 -1.499593555927276611e-01 4.722098633646965027e-02 7.524972409009933472e-02 -1.139465421438217163e-01 4.577955231070518494e-02 -2.932443656027317047e-02 1.627200990915298462e-01 1.405447814613580704e-02 -4.053615778684616089e-02 6.815065443515777588e-02 -2.504695393145084381e-02 1.015301123261451721e-01 5.785184353590011597e-02 -3.754980489611625671e-02 6.005870550870895386e-02 -9.504387527704238892e-02 1.579367369413375854e-01 1.339635252952575684e-01 4.276322200894355774e-02 1.129577495157718658e-02 -6.363938748836517334e-02 -6.156603246927261353e-02 5.341144651174545288e-02 -3.774770721793174744e-02 4.714645072817802429e-02 6.967502087354660034e-02 1.045255083590745926e-02 2.775000408291816711e-02 7.563231885433197021e-02 -6.774194538593292236e-02 -1.646835207939147949e-01 2.509538643062114716e-02 -7.053925842046737671e-02 -1.661219634115695953e-02 1.732410341501235962e-01 1.494748238474130630e-02 -3.447880223393440247e-02 -4.384545609354972839e-02 4.782541841268539429e-02 -1.061894744634628296e-02 4.883347824215888977e-02 -4.823271557688713074e-02 1.208247896283864975e-02 5.312184616923332214e-02 -9.644707292318344116e-02 -7.977400906383991241e-03 1.875545084476470947e-02 -8.533246815204620361e-02 -2.674826793372631073e-02 7.059869915246963501e-02 -1.178794819861650467e-02 -1.314312070608139038e-01 -4.994649812579154968e-02 3.862606883049011230e-01 7.743018865585327148e-02 -2.836629748344421387e-03 -1.403196807950735092e-02 2.147431299090385437e-02 -1.607585996389389038e-01 7.413752377033233643e-02 1.495033651590347290e-01 -3.236405178904533386e-02 -2.016713283956050873e-02 1.025948077440261841e-01 5.485237110406160355e-03 5.887003988027572632e-02
-2.162207365036010742e-01 1.035656332969665527e-01 -5.087232217192649841e-02 -1.276040971279144287e-01 -5.596234276890754700e-02 8.472691476345062256e-02 -6.728672981262207031e-02 5.507891997694969177e-02 3.431609272956848145e-02 9.428862482309341431e-02 2.459797635674476624e-02 1.457581222057342529e-01 2.321732044219970703e-01 -3.797157853841781616e-02 -1.464899927377700806e-01 1.865957826375961304e-01 5.414090305566787720e-02 -8.081533014774322510e-02 -1.379051357507705688e-01 -2.311648800969123840e-02 -8.457312732934951782e-02 2.856091596186161041e-03 -1.132984533905982971e-01 7.017790526151657104e-02 2.212927490472793579e-02 3.032352924346923828e-01 -1.372747421264648438e-01 8.691633492708206177e-02 -5.328608304262161255e-02 3.102839924395084381e-02 1.322016716003417969e-01 1.700468510389328003e-01 -8.967157453298568726e-02 -8.174248039722442627e-02 2.438940666615962982e-02 2.335996367037296295e-02 1.110857874155044556e-01 8.002102375030517578e-02 8.629851043224334717e-02 1.147461533546447754e-01 2.486719004809856415e-02 8.704286813735961914e-02 -1.722214072942733765e-01 -4.135930445045232773e-03 -1.343642771244049072e-01 -2.947859279811382294e-02 3.784897923469543457e-02 -8.926586806774139404e-02 -8.891154080629348755e-03 1.455502063035964966e-01 1.566551923751831055e-01 5.085193738341331482e-02 3.074799180030822754e-01 -1.937300413846969604e-01 1.053933575749397278e-01 -8.440854959189891815e-03 -9.149919264018535614e-03 -1.022696644067764282e-01 -5.159290973097085953e-03 2.114129252731800079e-02 5.745912343263626099e-02 4.723408445715904236e-02 1.051676049828529358e-01 -3.818947821855545044e-02 2.360675670206546783e-02 -5.702298879623413086e-02 4.559780657291412354e-01 -5.419200286269187927e-02 2.205688692629337311e-02 -1.408806443214416504e-01 2.275477349758148193e-02 -1.873449794948101044e-02 -1.389215141534805298e-01 5.892932042479515076e-02 -1.220203116536140442e-01 -7.594988495111465454e-02 -7.816699892282485962e-02 -8.954650722444057465e-03 -4.667760059237480164e-02 -5.212770774960517883e-02 5.451948568224906921e-02 1.069161295890808105e-01 -1.168298795819282532e-01 -7.826273888349533081e-02 6.033266708254814148e-02 -8.515728265047073364e-02 2.044360786676406860e-01 -2.994530797004699707e-01 -1.448885910212993622e-02 7.464702427387237549e-02 2.350577712059020996e-02 7.924836128950119019e-02 -8.872206509113311768e-02 -9.944781661033630371e-02 1.426430046558380127e-01 9.518034756183624268e-03 -3.705433756113052368e-02 1.360953450202941895e-01 -1.924347728490829468e-01 2.666048705577850342e-02 -9.838628023862838745e-02 -3.732137754559516907e-02 5.147157609462738037e-02 1.266292575746774673e-02 1.245403215289115906e-01 4.656373709440231323e-02 1.620356924831867218e-02 4.984905943274497986e-02 1.904643177986145020e-01 6.042177788913249969e-03 -4.074567928910255432e-02 -4.832994192838668823e-02 -1.437232792377471924e-01 5.126972869038581848e-02 7.257768884301185608e-03 1.771663278341293335e-01 8.263951539993286133e-02 1.642436836846172810e-03 8.804982900619506836e-02 2.734631672501564026e-02 -1.290623191744089127e-02 -6.845494359731674194e-02 8.798214793205261230e-02 -1.151064932346343994e-01 1.736768148839473724e-02 -3.500432521104812622e-02 2.796922624111175537e-02 4.317411687225103378e-03
1.430704295635223389e-01 -1.178936511278152466e-01 9.200456552207469940e-03 -2.178137302398681641e-01 -3.782931715250015259e-02 -1.862403154373168945e-01 1.841974258422851562e-01 4.387494921684265137e-02 1.350743472576141357e-01 4.742161184549331665e-02 1.163945719599723816e-01 7.175701856613159180e-02 -3.346475660800933838e-01 2.965300977230072021e-01 -1.631793975830078125e-01 1.547425091266632080e-01 5.302129313349723816e-02 9.167311340570449829e-02 -1.041493471711874008e-02 -9.510753303766250610e-02 -8.214581757783889771e-03 2.176877669990062714e-02 6.608104705810546875e-02 -1.995753645896911621e-01 -1.060809940099716187e-01 -1.278063375502824783e-02 -2.447702288627624512e-01 2.878171019256114960e-02 -7.559890300035476685e-02 1.090150326490402222e-02 -2.465143240988254547e-02 6.653833389282226562e-02 4.798837751150131226e-02 2.726038098335266113e-01 -8.311931975185871124e-03 -1.173535138368606567e-01 -4.834933951497077942e-02 5.148382112383842468e-02 -9.077072143554687500e-02 8.546759933233261108e-02 -7.507693022489547729e-02 1.892217099666595459e-01 -1.661113798618316650e-01 -1.968206651508808136e-02 -8.648100495338439941e-02 -8.000542409718036652e-03 -2.165558561682701111e-02 7.823830097913742065e-02 -5.807295069098472595e-02 -1.150267571210861206e-01 -2.376994490623474121e-01 9.108092635869979858e-02 9.514152258634567261e-02 1.693064123392105103e-01 6.746046245098114014e-02 1.264038961380720139e-02 5.275641381740570068e-02 2.539169192314147949e-01 -7.574683427810668945e-02 1.053829044103622437e-01 6.085262075066566467e-02 -1.188440769910812378e-01 -1.075072661042213440e-01 -8.078271895647048950e-02 1.290326118469238281e-01 -1.883413456380367279e-02 -1.181097626686096191e-01 1.374818533658981323e-01 3.962348699569702148e-01 1.998987495899200439e-01 -2.597166411578655243e-02 -2.240832149982452393e-02 2.617979645729064941e-01 -6.835249811410903931e-02 -7.188981771469116211e-02 3.336584195494651794e-02 -1.140902116894721985e-01 -1.531345248222351074e-01 2.108878083527088165e-02 -2.915864810347557068e-02 6.728056073188781738e-02 1.890599131584167480e-01 2.580359876155853271e-01 1.999326199293136597e-01 3.139465674757957458e-02 -9.136257320642471313e-02 2.126126736402511597e-02 1.249662116169929504e-01 1.482858974486589432e-02 1.468499600887298584e-01 -8.112327754497528076e-02 -1.683858782052993774e-01 2.608684636652469635e-02 -8.835448324680328369e-02 -1.019755899906158447e-01 -2.270342782139778137e-02 5.014805868268013000e-02 -1.610161066055297852e-01 1.387929730117321014e-02 -2.063356935977935791e-01 1.161083355545997620e-01 -1.046721935272216797e-01 -1.358225047588348389e-01 1.270826309919357300e-01 -4.706494801212102175e-04 2.285439372062683105e-01 6.523744761943817139e-02 1.398997902870178223e-01 1.187974661588668823e-01 8.299862593412399292e-02 -7.710532844066619873e-02 -2.180779129266738892e-01 4.652990028262138367e-02 -1.990090161561965942e-01 -5.583701282739639282e-02 6.071039289236068726e-02 -1.233312189579010010e-01 1.019649356603622437e-01 -6.507848948240280151e-02 -3.148602694272994995e-02 -1.133687607944011688e-02 1.509342491626739502e-01 -8.337941765785217285e-02 -1.339557319879531860e-01 -1.036586239933967590e-02 -1.273435652256011963e-01 -2.182231098413467407e-02 -5.455164238810539246e-02
1.208642795681953430e-01 -1.445948183536529541e-01 -3.244431912899017334e-01 1.039112582802772522e-01 1.746500283479690552e-01 1.355925500392913818e-01 -1.350634992122650146e-01 2.221564948558807373e-02 -1.934295520186424255e-02 3.114425018429756165e-02 9.338170289993286133e-02 1.001985743641853333e-01 1.572392582893371582e-01 -4.568162839859724045e-03 2.407858371734619141e-01 -3.597098588943481445e-02 -3.555088490247726440e-02 -7.326470315456390381e-02 5.247976779937744141e-01 4.012515023350715637e-02 5.412077903747558594e-02 -4.205190762877464294e-02 -1.540268957614898682e-02 2.800092659890651703e-02 -5.236323922872543335e-02 -1.950610429048538208e-02 1.126011535525321960e-01 1.792822964489459991e-02 -1.334610395133495331e-02 -1.495350450277328491e-01 -5.312294140458106995e-02 1.385111212730407715e-01 2.761201746761798859e-02 -2.947214432060718536e-02 8.533260785043239594e-03 -2.033781819045543671e-02 1.076222583651542664e-01 -4.319797083735466003e-02 -1.173918507993221283e-02 -2.965788356959819794e-02 -2.442522719502449036e-02 1.200440973043441772e-01 -6.042222306132316589e-02 -1.208420917391777039e-01 -7.798608392477035522e-02 -8.315749466419219971e-02 -1.477836631238460541e-02 -5.890396609902381897e-02 7.579107582569122314e-02 6.043172627687454224e-02 1.349074672907590866e-02 -3.100098296999931335e-02 -2.262179274111986160e-03 -5.549214314669370651e-03 4.484380409121513367e-02 1.168913021683692932e-02 1.053932681679725647e-02 6.715061515569686890e-02 8.667273074388504028e-02 -1.044142991304397583e-02 3.344453498721122742e-02 -3.579508513212203979e-02 1.681536287069320679e-01 -4.075302183628082275e-02 -5.344387609511613846e-03 2.299819141626358032e-03 -7.179120089858770370e-03 -3.612669184803962708e-02 -1.081041619181632996e-01 -1.197429969906806946e-01 4.230586811900138855e-02 4.457097873091697693e-02 1.297177523374557495e-01 -1.177750993520021439e-02 5.362703464925289154e-03 -1.725679039955139160e-01 -1.134664863348007202e-01 -1.397460252046585083e-01 4.312524199485778809e-02 -5.665822699666023254e-02 -2.179663814604282379e-02 -2.317053452134132385e-02 -6.858657300472259521e-02 -1.533192843198776245e-01 -7.336292415857315063e-02 -9.357175976037979126e-02 2.980132400989532471e-01 -1.323024630546569824e-01 3.839803859591484070e-02 8.024144917726516724e-02 -1.112224627286195755e-02 -2.455517463386058807e-02 -4.778287559747695923e-02 -1.339087821543216705e-02 1.580574214458465576e-01 -1.547992676496505737e-01 -9.150797873735427856e-02 -1.617908179759979248e-01 2.034929208457469940e-02 -8.417226374149322510e-02 3.400525078177452087e-02 1.841105967760086060e-01 -8.372945338487625122e-02 1.804632134735584259e-02 -4.785283654928207397e-02 -1.397921610623598099e-02 -2.117023058235645294e-02 -2.907393872737884521e-01 -1.729314774274826050e-01 5.022776126861572266e-02 -1.274517038837075233e-03 6.323496345430612564e-03 -5.863286927342414856e-02 5.934291332960128784e-02 -1.009715050458908081e-01 9.124680608510971069e-02 -6.121563911437988281e-02 2.240948611870408058e-03 -1.100826784968376160e-01 6.249069422483444214e-02 8.291354402899742126e-03 9.971033036708831787e-02 -8.490576595067977905e-02 -7.047950476408004761e-02 -1.069584414362907410e-01 -1.600667834281921387e-01 9.919273853302001953e-02 -2.290556393563747406e-02
-1.091263890266418457e-01 9.852040559053421021e-02 -4.434971138834953308e-02 -7.244847714900970459e-02 6.473071128129959106e-02 -3.692960739135742188e-02 9.123334288597106934e-02 -1.757827997207641602e-01 -1.248341146856546402e-02 1.675581187009811401e-01 1.103975251317024231e-01 8.164621889591217041e-02 -3.806499391794204712e-02 1.425740867853164673e-01 1.789243668317794800e-01 1.822653971612453461e-02 2.200707197189331055e-01 -4.101472720503807068e-02 -8.327072486281394958e-03 1.177379302680492401e-02 -1.007143128663301468e-02 6.409247964620590210e-02 -1.485331952571868896e-01 6.174397096037864685e-02 -7.369823753833770752e-02 6.450319290161132812e-02 7.258549332618713379e-02 -5.424259230494499207e-02 4.103795066475868225e-02 7.963182404637336731e-03 -5.554060265421867371e-02 3.484250232577323914e-02 -7.417805492877960205e-02 6.491094082593917847e-02 -4.077140614390373230e-02 8.687797002494335175e-03 -1.630362719297409058e-01 -2.717597223818302155e-02 1.174850761890411377e-02 1.888945996761322021e-01 8.631394803524017334e-02 2.477955669164657593e-01 -7.860178500413894653e-02 -4.056911915540695190e-02 1.315163262188434601e-02 2.137750759720802307e-02 1.602808535099029541e-01 -3.193185105919837952e-02 -2.166141010820865631e-02 5.782927200198173523e-02 -6.485556368716061115e-04 -2.801765687763690948e-02 1.576627939939498901e-01 7.218761742115020752e-02 1.568064391613006592e-01 -3.265003114938735962e-02 2.727048657834529877e-02 1.386815495789051056e-02 -2.818817831575870514e-02 1.479437053203582764e-01 3.630022332072257996e-02 -6.806584447622299194e-02 -3.498846292495727539e-02 -5.510853976011276245e-02 -1.385390907526016235e-01 1.318813860416412354e-01 -1.283447742462158203e-01 3.763368353247642517e-02 3.333119153976440430e-01 -7.426886260509490967e-02 -7.693016529083251953e-02 -5.204496905207633972e-02 1.873723566532135010e-01 -1.776219308376312256e-01 -2.638745680451393127e-02 5.217945948243141174e-02 -1.822720468044281006e-01 -7.824721187353134155e-02 -1.176436096429824829e-01 1.786786019802093506e-01 -1.809423714876174927e-01 6.673765927553176880e-02 2.675171792507171631e-01 2.353440672159194946e-01 -3.322669491171836853e-02 -8.344635367393493652e-02 2.847343683242797852e-01 -7.833709567785263062e-02 5.807016044855117798e-02 -5.735835433006286621e-02 -9.611284732818603516e-02 -1.198331341147422791e-01 9.040152281522750854e-02 -6.131613254547119141e-02 3.225873038172721863e-02 8.787502534687519073e-03 -6.520798802375793457e-02 -4.707075282931327820e-02 1.531939804553985596e-01 -8.230414986610412598e-02 7.991402409970760345e-03 -1.072059869766235352e-01 -1.628395467996597290e-01 3.886690735816955566e-02 -8.357531577348709106e-02 2.199381776154041290e-02 2.129971049726009369e-02 -4.663578048348426819e-02 8.204099722206592560e-03 2.617014944553375244e-01 -7.250528037548065186e-02 3.802474588155746460e-02 6.463926285505294800e-02 6.976117193698883057e-02 1.290481165051460266e-02 2.609857022762298584e-01 -1.139008533209562302e-02 2.615175582468509674e-02 1.713939197361469269e-02 5.231408402323722839e-02 8.725980669260025024e-02 -6.376007199287414551e-02 3.958934172987937927e-02 -7.491111755371093750e-02 -1.706896871328353882e-01 3.286975249648094177e-02 1.177978813648223877e-01 -1.981099247932434082e-01
7.450734730809926987e-03 -1.079410314559936523e-01 6.590969860553741455e-02 2.944828271865844727e-01 7.213696092367172241e-02 -3.072601854801177979e-01 -2.594631910324096680e-01 -1.112159900367259979e-02 1.063230708241462708e-01 6.548799574375152588e-02 -1.455073803663253784e-01 4.725290834903717041e-01 1.863634288311004639e-01 -6.437086313962936401e-02 -2.481542080640792847e-01 8.968454599380493164e-02 -1.307370793074369431e-02 7.059121876955032349e-02 -4.821898415684700012e-02 2.899502171203494072e-03 2.336984314024448395e-02 -2.177307382225990295e-02 1.726992130279541016e-01 1.332994401454925537e-01 4.618004709482192993e-02 1.031679008156061172e-02 -2.449329197406768799e-01 -3.549515083432197571e-02 -2.159502208232879639e-01 -6.353750079870223999e-02 1.054372265934944153e-01 1.200193837285041809e-01 -1.748652383685112000e-02 -1.541742216795682907e-02 1.156140416860580444e-01 1.741005331277847290e-01 1.204520836472511292e-01 -8.984614908695220947e-02 8.008393645286560059e-02 1.531069725751876831e-01 8.527670055627822876e-03 -2.104130014777183533e-02 1.106104552745819092e-01 -7.298155128955841064e-02 -1.063115894794464111e-01 2.321341633796691895e-02 -1.589231342077255249e-01 3.803517222404479980e-01 2.647971734404563904e-02 -4.461694136261940002e-02 -6.457263231277465820e-02 2.204296551644802094e-02 1.100064963102340698e-01 8.785835653543472290e-02 -2.311233133077621460e-01 8.284978568553924561e-02 -1.347456313669681549e-02 1.688879132270812988e-01 9.383925795555114746e-02 -2.466653473675251007e-02 -1.223691776394844055e-01 -2.021446637809276581e-02 -2.950775250792503357e-02 8.122003823518753052e-02 -1.606127917766571045e-01 -3.785447776317596436e-02 1.565475761890411377e-02 -4.644757881760597229e-02 2.119102776050567627e-01 -3.534144163131713867e-02 -6.854554265737533569e-02 2.808645665645599365e-01 3.013803660869598389e-01 -1.622907966375350952e-01 -1.057303696870803833e-01 5.608021095395088196e-02 1.360187400132417679e-02 -7.843799889087677002e-02 -3.615163639187812805e-02 2.106712199747562408e-02 8.284275233745574951e-02 1.428710818290710449e-01 6.949225068092346191e-02 -1.916131526231765747e-01 -1.592039167881011963e-01 1.568076759576797485e-01 1.925983875989913940e-01 -3.787032887339591980e-02 -1.448863446712493896e-01 2.642209641635417938e-02 -4.757940024137496948e-02 -9.642545133829116821e-03 -7.148443907499313354e-02 6.287240982055664062e-02 -4.083184525370597839e-02 -3.898354247212409973e-02 5.251140519976615906e-02 3.205955401062965393e-02 -8.705973625183105469e-02 1.032261326909065247e-01 -2.466962039470672607e-01 -1.244184449315071106e-01 1.290442496538162231e-01 2.086376249790191650e-01 1.655778288841247559e-02 -1.509731858968734741e-01 -4.078488424420356750e-02 -1.043541636317968369e-02 9.829965420067310333e-03 -4.704028367996215820e-02 -6.557801365852355957e-01 8.442740887403488159e-03 -3.967193886637687683e-02 2.087922394275665283e-01 -3.131639212369918823e-02 3.258801400661468506e-01 -6.768418103456497192e-02 1.071873605251312256e-01 -2.934174844995141029e-03 -1.128565222024917603e-01 -3.369716554880142212e-02 1.464639455080032349e-01 3.739358484745025635e-02 -6.348424404859542847e-02 2.566562406718730927e-02 1.341889947652816772e-01 1.755798757076263428e-01 -8.755654841661453247e-02
7.282685954123735428e-03 1.093272864818572998e-01 2.437017560005187988e-01 -2.838318981230258942e-02 -1.058222725987434387e-01 4.110705852508544922e-02 8.039503544569015503e-02 9.846146404743194580e-02 -9.646580554544925690e-03 7.931170612573623657e-02 -8.021145127713680267e-03 -1.131459102034568787e-01 1.906637400388717651e-01 -4.212771542370319366e-03 -1.998166367411613464e-02 -4.131912067532539368e-02 -9.988018125295639038e-02 -2.649754285812377930e-03 -1.282900571823120117e-02 1.352983862161636353e-01 -5.732563138008117676e-02 -2.797576785087585449e-01 -9.122124314308166504e-02 -2.865434288978576660e-01 -5.497535690665245056e-02 2.199831977486610413e-02 9.539126604795455933e-02 -6.171809509396553040e-02 2.275527454912662506e-02 -4.035707190632820129e-02 -1.259014159440994263e-01 2.628052234649658203e-02 4.555920884013175964e-02 9.070592373609542847e-02 8.663007616996765137e-02 4.885705709457397461e-01 -4.851552471518516541e-02 7.155882660299539566e-03 -1.144479364156723022e-01 -2.223576605319976807e-02 -9.995697438716888428e-02 3.929506987333297729e-02 8.662559092044830322e-02 2.911346592009067535e-02 8.681156486272811890e-02 6.747592240571975708e-02 1.153124943375587463e-01 -3.544226884841918945e-01 -1.120784655213356018e-01 -1.399323195219039917e-01 -1.009332910180091858e-01 2.989468351006507874e-02 4.904714971780776978e-02 1.101614609360694885e-01 -7.572389394044876099e-02 6.443247199058532715e-02 -2.517858985811471939e-03 -5.610357224941253662e-02 -1.173234581947326660e-01 -4.008985310792922974e-02 3.458341956138610840e-02 2.086081951856613159e-01 -9.284660220146179199e-02 6.875594705343246460e-02 7.572074979543685913e-02 -5.073390156030654907e-02 -1.169953644275665283e-01 1.088170260190963745e-01 -9.815699607133865356e-02 1.932319849729537964e-01 -8.058740943670272827e-02 -9.636039286851882935e-02 -7.259269058704376221e-02 1.353824324905872345e-02 -7.618836313486099243e-02 8.018514513969421387e-02 -1.081493943929672241e-01 7.889763265848159790e-02 7.293219864368438721e-02 -8.821985125541687012e-02 7.359682023525238037e-02 3.760207677260041237e-03 2.694866806268692017e-02 -9.491714835166931152e-02 -4.544852674007415771e-02 -4.278330504894256592e-02 -3.084339499473571777e-01 4.657785221934318542e-02 5.198505893349647522e-02 1.097875181585550308e-02 -5.767943337559700012e-02 2.080980129539966583e-02 1.480612158775329590e-01 -1.609141975641250610e-01 -2.007853426039218903e-02 1.442858576774597168e-01 -1.037796139717102051e-01 -8.383310586214065552e-02 -5.032946169376373291e-02 9.945724904537200928e-02 3.095395676791667938e-02 -8.663292974233627319e-02 1.261656880378723145e-01 -8.498307317495346069e-02 -2.789756655693054199e-02 1.568815857172012329e-01 -2.117983549833297729e-01 -1.403585225343704224e-01 8.145528286695480347e-02 9.629215300083160400e-02 -2.141758427023887634e-02 -5.620306823402643204e-03 4.109631478786468506e-02 1.554189901798963547e-02 -1.822165399789810181e-01 -3.460962176322937012e-01 1.066096127033233643e-01 -2.214850610471330583e-06 4.697080701589584351e-02 -4.611272364854812622e-02 5.222202837467193604e-02 1.399885118007659912e-01 -1.019427627325057983e-01 -1.050205826759338379e-01 -7.958185859024524689e-03 -7.354772090911865234e-02 -2.161108143627643585e-02 6.098001450300216675e-02
9.984194487333297729e-02 2.926088310778141022e-02 -6.570307165384292603e-02 9.073024243116378784e-02 1.380522847175598145e-01 1.189536899328231812e-01 1.153715476393699646e-01 1.098090037703514099e-01 1.024110987782478333e-01 8.981734281405806541e-04 1.100639179348945618e-01 -1.273761987686157227e-01 1.267195120453834534e-02 2.531190216541290283e-01 -5.408251658082008362e-02 -4.411550238728523254e-02 -4.014896694570779800e-03 -1.138973161578178406e-01 -1.089147999882698059e-01 -7.042362540960311890e-02 -1.715963482856750488e-01 -1.213344335556030273e-01 -8.014290034770965576e-02 -1.314031332731246948e-01 -8.762145042419433594e-02 -3.983193635940551758e-02 -2.265906035900115967e-01 -2.482046745717525482e-02 1.056138332933187485e-02 -5.622374638915061951e-02 -7.835206389427185059e-02 -6.978110969066619873e-02 1.599819213151931763e-02 5.610825493931770325e-03 -4.171409830451011658e-02 9.226708114147186279e-02 -1.036759465932846069e-01 -4.419924318790435791e-02 -3.243013098835945129e-02 4.561603069305419922e-02 -5.220520123839378357e-02 8.654915541410446167e-02 1.385732144117355347e-01 -9.356795996427536011e-02 3.604567050933837891e-02 -1.017299890518188477e-01 1.039265021681785583e-01 7.274154108017683029e-03 -1.392913758754730225e-01 2.578753512352705002e-03 1.145504117012023926e-01 1.056869029998779297e-01 9.943477064371109009e-02 6.185999885201454163e-02 -6.299187242984771729e-02 5.461453925818204880e-03 5.695923045277595520e-02 3.724830970168113708e-02 -9.902983903884887695e-02 -1.107984036207199097e-01 1.034244596958160400e-01 2.226869575679302216e-02 -8.592446893453598022e-02 1.988774724304676056e-02 7.768556475639343262e-02 5.067859590053558350e-02 9.531340003013610840e-02 -8.306427625939249992e-04 -2.222899720072746277e-02 -6.013911589980125427e-02 -7.605303823947906494e-02 -6.333006173372268677e-02 1.066430807113647461e-01 6.454487890005111694e-02 -2.449543774127960205e-01 7.510729879140853882e-02 -5.161362513899803162e-02 6.165674701333045959e-02 6.306549161672592163e-02 1.096652746200561523e-01 2.132063172757625580e-02 4.474105313420295715e-02 1.767101883888244629e-01 1.078841537237167358e-01 4.915966186672449112e-03 8.596830070018768311e-02 -5.397681146860122681e-02 1.074539497494697571e-01 -7.497161626815795898e-02 -2.313306927680969238e-02 -1.161789754405617714e-03 -5.854515731334686279e-02 7.859626412391662598e-02 3.273409232497215271e-02 -3.473651409149169922e-02 -4.645949974656105042e-02 9.719114005565643311e-02 -1.263965815305709839e-01 -7.906770706176757812e-02 1.692927330732345581e-01 4.681242629885673523e-02 3.606549650430679321e-02 6.758066266775131226e-02 3.155444562435150146e-02 -2.662566490471363068e-03 4.314671829342842102e-02 2.493593841791152954e-02 1.174454838037490845e-01 -3.481416404247283936e-02 1.332694385200738907e-02 1.095541846007108688e-02 -1.192866265773773193e-02 1.548168510198593140e-01 -6.783880293369293213e-02 -2.269824147224426270e-01 -5.745046772062778473e-03 5.648394301533699036e-02 1.465227901935577393e-01 -5.476183444261550903e-02 -2.206372097134590149e-02 -2.407740801572799683e-02 -1.250047683715820312e-01 -4.390190169215202332e-02 -8.269209414720535278e-02 -3.049354441463947296e-02 6.129069998860359192e-02 3.079084912315011024e-03 -3.805347532033920288e-02
3.795291855931282043e-02 -3.901304304599761963e-02 3.500308841466903687e-02 4.345800355076789856e-02 -2.154721133410930634e-02 1.385874003171920776e-01 1.974365115165710449e-01 -1.157052665948867798e-01 -8.507797494530677795e-03 -8.056514710187911987e-02 5.786921083927154541e-02 4.115433245897293091e-02 1.416769772768020630e-01 3.399962186813354492e-02 -1.614806354045867920e-01 1.267056018114089966e-01 7.818765938282012939e-02 -5.803729966282844543e-02 -2.080189287662506104e-01 -7.476652413606643677e-02 -6.492454558610916138e-02 3.544001281261444092e-02 -1.350453048944473267e-01 -1.025229599326848984e-02 1.686230599880218506e-01 2.315331250429153442e-01 -9.089110046625137329e-02 1.457660943269729614e-01 3.844366371631622314e-01 3.608560189604759216e-02 1.641357988119125366e-01 1.149033308029174805e-01 -3.612934052944183350e-02 2.551089227199554443e-01 2.758789435029029846e-02 -1.617850363254547119e-01 -1.508964896202087402e-01 -5.755095183849334717e-02 3.791805729269981384e-02 -7.127868384122848511e-02 6.561002880334854126e-02 -2.056891024112701416e-01 -9.298790991306304932e-02 2.283206704305484891e-04 1.014478281140327454e-01 1.887326836585998535e-01 4.504049941897392273e-02 1.555197387933731079e-01 3.762931376695632935e-02 1.235800161957740784e-01 -6.762153655290603638e-02 9.297829866409301758e-02 1.811531335115432739e-01 -1.432531792670488358e-02 6.770960986614227295e-02 -1.441492140293121338e-01 1.218104958534240723e-01 -2.552611939609050751e-02 7.684572483412921429e-05 -2.966988980770111084e-01 -4.022543728351593018e-01 1.624089479446411133e-01 -7.435942068696022034e-03 1.474206447601318359e-01 -6.929989904165267944e-02 8.003932237625122070e-02 1.764189451932907104e-01 -1.239224225282669067e-01 -5.793572217226028442e-02 -2.570413351058959961e-01 -1.108508780598640442e-01 -1.862491220235824585e-01 -9.286272525787353516e-02 -9.569424390792846680e-02 -6.070575490593910217e-02 -5.157015752047300339e-03 1.117071881890296936e-01 2.013049572706222534e-01 1.739959605038166046e-02 -1.485558748245239258e-01 -6.137207522988319397e-02 -7.202070206403732300e-02 -1.795236393809318542e-02 4.175443947315216064e-02 -8.866832405328750610e-02 -1.376829594373703003e-01 1.464347839355468750e-01 -5.214981362223625183e-02 2.372583933174610138e-02 -1.059964224696159363e-01 -1.205977573990821838e-01 4.375839233398437500e-02 1.639266610145568848e-01 -3.906534984707832336e-02 2.324337325990200043e-02 8.249245584011077881e-02 1.339918076992034912e-01 -1.173676997423171997e-01 -1.267399638891220093e-01 3.034135103225708008e-01 -3.387246280908584595e-02 7.751449942588806152e-02 1.640215814113616943e-01 4.805674403905868530e-02 6.761605292558670044e-02 -1.827035099267959595e-01 2.780749797821044922e-01 2.099301367998123169e-01 -9.705183655023574829e-02 -2.262406796216964722e-02 -1.502271145582199097e-01 1.698957085609436035e-01 1.563241481781005859e-01 8.907251991331577301e-03 -3.198541328310966492e-02 1.295717805624008179e-01 1.123942583799362183e-01 4.669710062444210052e-03 1.329528633505105972e-02 -1.865423470735549927e-01 -1.092819795012474060e-01 3.590975329279899597e-02 -9.628075361251831055e-02 -5.984239652752876282e-02 -2.048464268445968628e-01 -2.863967791199684143e-02 -1.633050739765167236e-01 9.882145375013351440e-02
-3.890762105584144592e-02 -3.582059592008590698e-02 -5.404208227992057800e-02 7.322596013545989990e-02 5.591579154133796692e-02 5.496032536029815674e-02 -9.076767414808273315e-02 -4.058461263775825500e-02 2.860516309738159180e-02 9.582926332950592041e-02 2.067958712577819824e-01 5.523090809583663940e-02 -1.149590760469436646e-01 1.147556155920028687e-01 7.091537863016128540e-02 1.771312057971954346e-01 -6.515675224363803864e-03 -1.590114980936050415e-01 2.339801751077175140e-02 1.982849687337875366e-01 8.399470895528793335e-02 6.420278549194335938e-02 1.222383752465248108e-01 1.707654744386672974e-01 -1.294144839048385620e-01 -8.723143488168716431e-02 -1.616472005844116211e-01 -8.236272260546684265e-03 6.336985528469085693e-02 5.789055675268173218e-02 -1.135203465819358826e-01 -2.913586795330047607e-02 -1.371922641992568970e-01 3.569759055972099304e-02 -1.699666231870651245e-01 -1.123367901891469955e-02 -1.802314966917037964e-01 -1.334919035434722900e-01 1.203931272029876709e-01 2.600837871432304382e-02 -4.812115803360939026e-02 -5.293019860982894897e-02 -2.379793673753738403e-02 6.592371314764022827e-02 2.056356072425842285e-01 1.871920526027679443e-01 2.431936264038085938e-01 -5.553774535655975342e-02 4.090758040547370911e-02 6.997340917587280273e-02 4.212254658341407776e-02 8.008834719657897949e-02 1.763572543859481812e-01 3.383283689618110657e-02 6.791357696056365967e-02 -7.550529390573501587e-02 8.153996616601943970e-02 7.438924908638000488e-02 6.844417750835418701e-02 -2.521499060094356537e-02 2.140151709318161011e-01 -3.362746909260749817e-02 -9.234870225191116333e-02 -9.206315875053405762e-02 -7.654286921024322510e-02 1.491798609495162964e-01 2.611236274242401123e-01 3.903384506702423096e-02 -2.812759280204772949e-01 -1.266604810953140259e-01 7.026119530200958252e-02 1.299317777156829834e-01 -1.518520805984735489e-02 1.692815124988555908e-01 -7.397821545600891113e-02 2.387411296367645264e-01 2.294337004423141479e-02 -1.510711200535297394e-02 -7.637066766619682312e-03 -3.550413623452186584e-02 -1.085556447505950928e-01 1.576944738626480103e-01 1.070308163762092590e-01 -7.616832852363586426e-02 -4.676545411348342896e-02 1.329896450042724609e-01 -7.101544737815856934e-02 4.077522899024188519e-04 -7.177549600601196289e-02 -5.841087177395820618e-02 -1.312757562845945358e-02 -1.684835553169250488e-01 -6.170573458075523376e-02 1.417580097913742065e-01 -1.923166029155254364e-02 1.040291711688041687e-01 -1.254190355539321899e-01 9.610532224178314209e-02 4.956766031682491302e-03 -3.511844575405120850e-02 3.830470144748687744e-02 -1.656192243099212646e-01 -1.089170426130294800e-01 -1.415339112281799316e-01 -6.810488551855087280e-02 -3.783097956329584122e-03 -3.118921816349029541e-02 -1.071578040719032288e-01 5.951336398720741272e-02 -4.287450015544891357e-02 -1.892818063497543335e-01 6.544186919927597046e-02 -1.218097098171710968e-02 -2.259073592722415924e-02 4.980860278010368347e-02 2.580647822469472885e-03 -4.833154845982789993e-03 1.005925536155700684e-01 -3.942034393548965454e-02 1.778327301144599915e-02 1.415100693702697754e-01 1.127108186483383179e-01 1.215346530079841614e-02 -9.733565896749496460e-02 -1.976853311061859131e-01 5.192479491233825684e-02 -3.471133112907409668e-02 4.570150375366210938e-02
7.778869569301605225e-02 -5.457605794072151184e-02 -1.613071560859680176e-02 -2.521840035915374756e-01 1.370292250066995621e-02 1.361129432916641235e-01 1.483242511749267578e-01 7.463565468788146973e-02 -2.474907040596008301e-02 -9.228101931512355804e-03 7.397837191820144653e-02 -2.551721930503845215e-01 9.436181187629699707e-02 -2.246191650629043579e-01 2.821106929332017899e-03 8.637993037700653076e-02 9.277506172657012939e-02 5.696732550859451294e-02 -1.424462944269180298e-01 -2.438525483012199402e-02 1.674300618469715118e-02 4.151330888271331787e-02 -4.044320285320281982e-01 1.447522640228271484e-01 2.521442621946334839e-02 7.318729162216186523e-02 -3.033929765224456787e-01 1.485468298196792603e-01 -1.313567161560058594e-02 -5.842661112546920776e-02 7.567770779132843018e-02 3.900122269988059998e-02 -3.727766871452331543e-02 -5.542035400867462158e-02 7.842915505170822144e-02 -1.211217343807220459e-01 8.328167349100112915e-02 4.934811592102050781e-02 -5.546575877815485001e-03 3.909686952829360962e-02 6.995447725057601929e-02 -2.104013971984386444e-02 1.000276878476142883e-01 1.633967645466327667e-02 -3.517096862196922302e-02 1.841810345649719238e-01 -1.097484380006790161e-01 -3.092831373214721680e-01 4.096448421478271484e-02 1.134875044226646423e-01 6.633960455656051636e-02 -5.843084678053855896e-02 1.107244268059730530e-01 -2.130127102136611938e-01 -3.798295184969902039e-02 1.434706430882215500e-02 -8.035404607653617859e-03 -2.445404678583145142e-01 1.129781082272529602e-01 -2.730804309248924255e-02 -7.081561535596847534e-02 -9.328452497720718384e-02 -9.748399257659912109e-03 5.573488026857376099e-02 -1.962208896875381470e-01 -2.418445609509944916e-02 5.609359126538038254e-03 2.125164270401000977e-01 -4.241793751716613770e-01 5.147322267293930054e-02 2.722384966909885406e-02 2.404310554265975952e-02 -7.004153728485107422e-02 2.354561090469360352e-01 5.890346318483352661e-02 -8.964887261390686035e-02 5.359411984682083130e-02 -2.861782349646091461e-02 -9.722027182579040527e-02 -5.827957019209861755e-02 -5.923218280076980591e-02 1.093453466892242432e-01 -9.063718467950820923e-02 3.048494644463062286e-02 1.101349145174026489e-01 8.378829061985015869e-02 4.681216552853584290e-02 -2.105158753693103790e-02 1.823362335562705994e-02 -1.735989586450159550e-03 -2.949540689587593079e-02 -2.212777882814407349e-01 -5.515111237764358521e-02 1.920424215495586395e-02 1.048670709133148193e-01 6.464826874434947968e-03 -1.880678683519363403e-01 -1.941219568252563477e-01 -2.111724317073822021e-01 2.069122642278671265e-01 1.043099462985992432e-01 -3.305424749851226807e-02 -2.360665425658226013e-02 -1.834674328565597534e-01 -1.753148809075355530e-02 1.576796290464699268e-03 9.206084907054901123e-02 9.270156174898147583e-02 -8.174593001604080200e-02 1.279735192656517029e-02 1.053725108504295349e-01 -5.393863841891288757e-02 -1.146938353776931763e-01 7.908800989389419556e-02 2.068657428026199341e-01 6.705547869205474854e-02 -7.773698866367340088e-02 -2.628218941390514374e-02 1.006120964884757996e-01 1.264911592006683350e-01 1.205359818413853645e-03 -2.805599756538867950e-02 7.331094145774841309e-02 -5.564528331160545349e-02 -1.506892591714859009e-01 3.027769364416599274e-02 1.229218319058418274e-01 -3.509577736258506775e-02
-1.890819706022739410e-02 4.611552506685256958e-02 7.188159972429275513e-03 2.364198118448257446e-01 -1.276802737265825272e-02 5.963673442602157593e-02 4.309701919555664062e-02 -6.832093931734561920e-03 -5.396492034196853638e-02 -2.472819983959197998e-01 -7.111367583274841309e-02 3.697322309017181396e-02 1.291021257638931274e-01 -3.954556584358215332e-02 3.626939058303833008e-01 6.608165055513381958e-02 -1.621872037649154663e-01 9.117743372917175293e-02 -3.594215586781501770e-02 1.274293214082717896e-01 2.210661396384239197e-02 1.465081423521041870e-01 1.720303446054458618e-01 -2.882515639066696167e-02 2.558984160423278809e-01 7.578866183757781982e-02 2.126128785312175751e-02 1.600866913795471191e-01 -7.088383194059133530e-03 1.169765181839466095e-02 2.831317782402038574e-01 3.502824157476425171e-02 2.112984471023082733e-02 -7.465445995330810547e-02 2.131171971559524536e-01 8.777040243148803711e-02 -1.132410094141960144e-01 -1.894147880375385284e-02 -1.358902826905250549e-02 -8.385578542947769165e-02 8.629959076642990112e-03 3.385375440120697021e-02 -3.575370460748672485e-02 2.423297241330146790e-02 -1.651607155799865723e-01 5.069077759981155396e-02 -1.514905542135238647e-01 9.056824259459972382e-03 7.267867680639028549e-03 1.458996534347534180e-01 2.438223659992218018e-01 1.795949041843414307e-02 1.275276988744735718e-01 2.951662801206111908e-02 2.767291665077209473e-01 -6.370505783706903458e-03 -1.409239023923873901e-01 6.765977945178747177e-03 -9.983977675437927246e-02 1.976216286420822144e-01 7.006473094224929810e-02 -3.974813222885131836e-02 -4.860640689730644226e-02 3.342904895544052124e-02 -1.018391326069831848e-01 -3.087342716753482819e-02 1.157889962196350098e-01 -4.062247574329376221e-01 -9.002066217362880707e-03 -1.758705973625183105e-01 -1.171390414237976074e-01 -2.887030132114887238e-02 -8.856742084026336670e-02 1.237350106239318848e-01 -4.407634958624839783e-02 3.308276459574699402e-02 1.701468229293823242e-01 3.628997877240180969e-02 1.687754541635513306e-01 -1.081091538071632385e-01 -1.468452066183090210e-01 1.303765028715133667e-01 -1.736133396625518799e-01 8.655576407909393311e-02 -1.677137985825538635e-02 -4.194222763180732727e-02 -2.118146717548370361e-01 -1.012654006481170654e-01 6.509752571582794189e-02 9.907636046409606934e-02 5.993324145674705505e-02 -2.204057425260543823e-01 2.831516601145267487e-02 2.204580232501029968e-02 -6.413365155458450317e-02 7.482509315013885498e-02 -8.078129030764102936e-03 1.846785545349121094e-01 7.802666723728179932e-02 1.385607868432998657e-01 -2.028562687337398529e-02 1.695054471492767334e-01 1.173968389630317688e-01 4.188208281993865967e-02 -7.412478327751159668e-02 -8.547118306159973145e-02 2.117551863193511963e-01 -4.150694608688354492e-02 2.468186989426612854e-02 -7.104476448148488998e-03 9.316366165876388550e-02 2.476236224174499512e-02 2.172143459320068359e-01 8.815968036651611328e-02 -2.233762443065643311e-01 1.327787339687347412e-01 2.254044115543365479e-01 -1.217649057507514954e-01 5.972018465399742126e-02 -9.937451034784317017e-02 6.452345848083496094e-02 -6.029463559389114380e-02 -1.403363049030303955e-01 -9.998599998652935028e-03 -1.074561700224876404e-01 7.545974105596542358e-02 2.376870512962341309e-01 5.164455994963645935e-02
3.256139904260635376e-02 -8.526677638292312622e-02 -2.978841364383697510e-01 2.098389118909835815e-01 7.184713333845138550e-02 -1.603884845972061157e-01 -2.052019983530044556e-01 1.581989042460918427e-02 9.929224103689193726e-02 1.000813841819763184e-01 8.205733448266983032e-02 2.957099676132202148e-01 -5.625614523887634277e-01 4.793505370616912842e-02 8.899118751287460327e-02 4.796652868390083313e-02 -1.341047286987304688e-01 2.107234001159667969e-01 1.904843002557754517e-01 -1.258882582187652588e-01 -4.099822789430618286e-02 -9.847177565097808838e-02 6.390609592199325562e-02 2.545472979545593262e-02 -1.584010273218154907e-01 -1.697363406419754028e-01 -2.432512938976287842e-01 1.127212420105934143e-01 -9.230496734380722046e-02 8.713874965906143188e-02 -1.541167050600051880e-01 5.847664177417755127e-02 3.572407662868499756e-01 -1.585977673530578613e-01 -1.433244496583938599e-01 3.072165250778198242e-01 2.360865473747253418e-02 -4.994757007807493210e-03 -7.516808807849884033e-02 2.200438231229782104e-01 -3.946008533239364624e-02 1.241694912314414978e-01 1.941325515508651733e-02 -8.540599606931209564e-03 -1.058668792247772217e-01 -1.277651078999042511e-02 -5.292712152004241943e-02 5.177365615963935852e-02 -1.070797294378280640e-01 -2.214103490114212036e-01 -3.174715638160705566e-01 2.580167539417743683e-02 3.538141772150993347e-02 3.052923679351806641e-01 4.056533053517341614e-02 -7.367037236690521240e-02 -1.937083005905151367e-01 -1.463649272918701172e-01 -6.554275006055831909e-02 2.723036566749215126e-03 -1.078898087143898010e-01 -8.012736588716506958e-02 8.864410221576690674e-02 2.415836006402969360e-01 2.439493238925933838e-01 -1.208970416337251663e-02 8.676049113273620605e-02 1.863863021135330200e-01 -9.378947317600250244e-02 -6.280415505170822144e-02 -8.857290446758270264e-02 -1.332589685916900635e-01 2.370291799306869507e-01 -8.973813056945800781e-02 -5.713668093085289001e-02 2.473338693380355835e-02 -1.980840116739273071e-01 1.890472024679183960e-01 5.377859994769096375e-02 1.502539217472076416e-01 1.511754840612411499e-01 -1.321214735507965088e-01 3.838292658329010010e-01 -2.879093289375305176e-01 -1.734065264463424683e-02 -1.086081042885780334e-01 -1.599171459674835205e-01 1.064693778753280640e-01 5.902807042002677917e-02 -2.099534273147583008e-01 -3.838170319795608521e-02 3.108603060245513916e-01 2.847754359245300293e-01 8.759191259741783142e-03 2.881647050380706787e-01 -5.953259021043777466e-02 -7.964986376464366913e-03 -1.197840720415115356e-01 2.088909409940242767e-02 -1.884646713733673096e-01 6.840708106756210327e-02 -5.284681916236877441e-01 1.800297051668167114e-01 -8.785784989595413208e-02 -3.129244968295097351e-02 2.588206529617309570e-02 -2.763722790405154228e-03 -1.716217994689941406e-01 8.951319009065628052e-02 -7.457426935434341431e-02 -1.222323328256607056e-01 -5.050719529390335083e-02 1.457952857017517090e-01 -9.491258859634399414e-02 2.821735106408596039e-03 -1.030577272176742554e-01 8.175371587276458740e-02 8.181581646203994751e-02 -1.260404288768768311e-01 -1.884622424840927124e-01 -3.875497356057167053e-02 8.116295933723449707e-02 7.288902252912521362e-02 -2.120423316955566406e-02 4.312783479690551758e-03 -4.708560183644294739e-02 -3.561428561806678772e-02 3.937331959605216980e-02
-1.548029631376266479e-01 -6.448574364185333252e-02 9.458133950829505920e-03 -2.404852770268917084e-02 -6.626444309949874878e-02 -5.876051262021064758e-02 -3.180227428674697876e-02 -7.400429248809814453e-02 5.715445615351200104e-03 -5.586316436529159546e-02 -3.919577971100807190e-02 1.447502076625823975e-01 -4.385951161384582520e-02 2.422064989805221558e-01 -9.414451196789741516e-03 -1.685080677270889282e-02 -5.511505063623189926e-03 2.695166319608688354e-02 7.963146269321441650e-02 -8.728346228599548340e-02 7.828374393284320831e-03 3.209921345114707947e-02 6.404720991849899292e-02 -3.229538500308990479e-01 -4.313366115093231201e-02 -8.872793614864349365e-02 -7.169873267412185669e-02 6.421822309494018555e-02 5.873095244169235229e-02 1.303084008395671844e-02 -1.266087889671325684e-01 2.041253075003623962e-02 6.140057742595672607e-02 -3.787327557802200317e-02 -1.453550308942794800e-01 -3.835424780845642090e-02 6.436126679182052612e-02 -4.924035817384719849e-02 -4.267381876707077026e-02 -3.724892856553196907e-03 -2.976753190159797668e-02 1.650663465261459351e-01 9.313515573740005493e-02 -4.337273538112640381e-02 -1.330353468656539917e-01 4.138818010687828064e-02 2.873769216239452362e-02 -8.992646634578704834e-02 -3.192449361085891724e-02 5.926522985100746155e-02 -3.364488855004310608e-02 5.971870943903923035e-02 2.513011991977691650e-01 1.638565510511398315e-01 2.467849552631378174e-01 9.989934973418712616e-03 -6.922499835491180420e-02 -1.550513356924057007e-01 -2.103272080421447754e-01 1.483445316553115845e-01 1.309963781386613846e-02 -4.409148544073104858e-02 1.959716714918613434e-02 3.814320638775825500e-02 1.619504019618034363e-02 1.193782165646553040e-01 -1.664168834686279297e-01 -5.760972946882247925e-02 2.306174114346504211e-02 1.882201880216598511e-01 -1.879415363073348999e-01 -1.010139007121324539e-02 -2.994776330888271332e-02 -3.780963644385337830e-02 -1.360175479203462601e-02 1.305491030216217041e-01 -7.794898003339767456e-02 -4.742740839719772339e-02 2.954097464680671692e-02 1.935522705316543579e-01 8.407673984766006470e-02 -1.872244058176875114e-03 1.474043726921081543e-01 9.212634712457656860e-02 2.583944983780384064e-02 2.037182822823524475e-02 -1.031447015702724457e-02 1.322570070624351501e-02 -1.820597238838672638e-02 -9.327072650194168091e-02 4.610931500792503357e-02 4.431111738085746765e-02 -6.077019870281219482e-02 4.867381602525711060e-02 9.757069498300552368e-02 -3.360588848590850830e-02 3.608596452977508307e-04 1.121112555265426636e-01 1.898992508649826050e-01 -1.585371792316436768e-01 7.953064888715744019e-02 -3.259874582290649414e-01 3.530919551849365234e-02 -5.265733227133750916e-02 -1.684469915926456451e-02 1.757117807865142822e-01 -5.328216776251792908e-02 1.198822408914566040e-01 -6.716544926166534424e-02 2.546221017837524414e-02 1.567848920822143555e-01 -2.424823120236396790e-02 3.936533629894256592e-02 5.135358497500419617e-02 5.364566296339035034e-02 2.676489390432834625e-02 1.491171270608901978e-01 2.238829433917999268e-02 -7.999339699745178223e-02 -1.374978572130203247e-02 -3.777687624096870422e-02 4.704275354743003845e-02 -1.768677979707717896e-01 -5.698912218213081360e-02 2.488713525235652924e-02 1.246663257479667664e-01 -1.643724367022514343e-02 3.141779452562332153e-02
6.836010515689849854e-02 -9.762551635503768921e-02 -1.237850040197372437e-01 4.236705228686332703e-02 -4.401993006467819214e-02 -9.620229899883270264e-02 1.199637725949287415e-01 -2.494770335033535957e-03 -4.450220614671707153e-02 4.070363193750381470e-02 9.046996384859085083e-02 -1.212152931839227676e-02 -3.146049380302429199e-02 1.789206862449645996e-01 -6.183962250361219049e-05 1.256792992353439331e-01 1.416864804923534393e-02 1.213625594973564148e-01 -3.350228443741798401e-02 -7.388302125036716461e-03 -3.371898084878921509e-02 -1.326789986342191696e-02 1.463496237993240356e-01 -7.594043016433715820e-02 8.534967154264450073e-02 1.690175533294677734e-01 -1.552474796772003174e-01 8.084220439195632935e-02 9.211136028170585632e-03 2.077792398631572723e-02 6.806045025587081909e-02 1.173598989844322205e-01 1.825566776096820831e-02 2.575959265232086182e-02 2.589589916169643402e-03 -2.390586584806442261e-02 1.041952222585678101e-01 -5.902048572897911072e-02 -8.641394972801208496e-02 1.673910766839981079e-01 1.313393712043762207e-01 8.484679460525512695e-02 -1.349145472049713135e-01 4.396508913487195969e-03 -1.145642921328544617e-01 2.038775086402893066e-01 1.005462110042572021e-01 -3.729333356022834778e-02 -1.074644625186920166e-01 1.050672829151153564e-01 -2.875453326851129532e-03 3.178767161443829536e-03 -9.555866569280624390e-02 -8.844844996929168701e-02 1.681803613901138306e-01 6.042431667447090149e-02 9.176778048276901245e-02 1.212839931249618530e-01 8.000247180461883545e-02 -1.375815737992525101e-02 2.782536111772060394e-02 -9.315134026110172272e-03 6.931488215923309326e-02 4.403357207775115967e-02 -4.024868831038475037e-02 -1.793439239263534546e-01 2.139933109283447266e-01 -6.780149042606353760e-02 2.543085515499114990e-01 -3.374361991882324219e-02 -1.363574620336294174e-02 5.744914524257183075e-03 -1.471807016059756279e-03 -7.303392887115478516e-02 1.931658014655113220e-03 -9.384222328662872314e-02 6.515249609947204590e-02 -1.149936988949775696e-01 -5.326095595955848694e-02 -2.550447359681129456e-03 1.318173110485076904e-01 1.005385592579841614e-01 1.124513894319534302e-02 1.630849540233612061e-01 -1.210266500711441040e-01 -7.327201962471008301e-02 2.990480326116085052e-02 1.553296297788619995e-02 4.068767651915550232e-03 1.658278889954090118e-02 -1.085357666015625000e-01 1.370459198951721191e-01 1.298269629478454590e-01 3.551144897937774658e-02 1.206070110201835632e-01 -1.024586409330368042e-01 -4.018297418951988220e-03 9.993909299373626709e-02 4.454487189650535583e-02 6.549222022294998169e-02 -3.653741255402565002e-02 -2.379201352596282959e-02 5.237813107669353485e-03 -1.760871708393096924e-01 -3.119509480893611908e-02 -2.599876001477241516e-02 -2.001923741772770882e-03 2.401168048381805420e-01 8.232481032609939575e-02 1.580216288566589355e-01 -1.263459399342536926e-02 1.067004650831222534e-01 -8.910556137561798096e-02 1.762813031673431396e-01 -2.368934638798236847e-02 -3.644705563783645630e-02 -7.735711336135864258e-02 -2.401389740407466888e-02 5.032572150230407715e-02 9.808066487312316895e-02 -1.654620319604873657e-01 1.406152844429016113e-01 -1.156433597207069397e-01 7.937311194837093353e-03 2.564513385295867920e-01 -7.043746858835220337e-02 1.407970041036605835e-01 1.387183219194412231e-01
-4.689439386129379272e-02 1.492186039686203003e-01 1.229851096868515015e-01 -1.001547439955174923e-03 9.980437159538269043e-02 8.348013460636138916e-02 5.541540309786796570e-02 -1.542911231517791748e-01 -3.322131931781768799e-02 5.628408864140510559e-02 -5.869945511221885681e-02 -7.047427445650100708e-02 -1.028850302100181580e-01 -2.858701050281524658e-01 -9.546036273241043091e-02 9.224255383014678955e-02 -1.083235442638397217e-01 1.071172859519720078e-02 1.016270965337753296e-01 -2.419126033782958984e-02 -9.676871448755264282e-02 7.539707422256469727e-02 9.519211202859878540e-02 1.510157585144042969e-01 -3.174755349755287170e-02 -3.915987163782119751e-02 1.864623576402664185e-01 8.090768754482269287e-02 -1.233075410127639771e-01 -1.746549829840660095e-02 1.227944493293762207e-01 -7.402840256690979004e-02 2.395981550216674805e-02 2.786313369870185852e-02 -8.079998940229415894e-02 -1.386746019124984741e-01 2.273357808589935303e-01 -9.171242266893386841e-02 1.698687858879566193e-02 -5.727915838360786438e-02 3.541338816285133362e-02 6.674215663224458694e-03 -2.386117726564407349e-01 -9.332538396120071411e-02 9.744726121425628662e-02 1.320637762546539307e-01 -3.341997787356376648e-02 -5.548944324254989624e-02 -8.840767294168472290e-02 1.021495759487152100e-01 -6.638319790363311768e-02 1.576183177530765533e-02 1.300175637006759644e-01 -1.121121272444725037e-01 -3.683448582887649536e-02 6.123804301023483276e-02 1.940372884273529053e-01 -1.529335509985685349e-02 -4.667852073907852173e-02 2.007610201835632324e-01 -1.243027020245790482e-02 -4.876239597797393799e-02 -1.183319836854934692e-01 -4.424264654517173767e-02 -1.538218408823013306e-01 2.990119159221649170e-02 -5.613644793629646301e-02 6.751821935176849365e-02 -3.294881060719490051e-02 8.004317060112953186e-03 5.974077805876731873e-02 8.917310833930969238e-02 8.130119740962982178e-02 8.833625167608261108e-02 1.235006656497716904e-02 8.795880526304244995e-02 -1.565079689025878906e-01 -3.519479930400848389e-02 -2.324529737234115601e-02 2.277119830250740051e-02 3.843889757990837097e-02 5.273182690143585205e-02 1.008102390915155411e-02 -8.214823901653289795e-03 8.399865590035915375e-03 7.991291880607604980e-01 2.323926240205764771e-01 1.100801825523376465e-01 -6.179065629839897156e-02 -2.956650685518980026e-03 2.335616946220397949e-02 4.371775314211845398e-02 1.013274211436510086e-02 -1.106411516666412354e-01 -1.734870113432407379e-02 1.384053099900484085e-02 2.466430328786373138e-02 -8.736292272806167603e-02 -5.939140915870666504e-02 1.706472248770296574e-03 5.321259796619415283e-02 1.056366600096225739e-03 3.854922950267791748e-02 1.237741298973560333e-02 1.174351666122674942e-02 -4.222337901592254639e-02 5.710386857390403748e-02 -2.384323440492153168e-02 -1.446850001811981201e-01 -5.724966153502464294e-02 2.108193933963775635e-01 4.923938587307929993e-02 -1.095761135220527649e-01 -1.044022105634212494e-02 1.237419471144676208e-01 2.009349018335342407e-01 -1.243716012686491013e-02 2.903439477086067200e-02 -9.404352307319641113e-02 -6.103536486625671387e-02 3.669475018978118896e-01 -1.759420521557331085e-02 1.149056386202573776e-02 2.857444435358047485e-02 -8.770652115345001221e-02 -2.901713922619819641e-02 -8.091706037521362305e-02 9.575105458498001099e-02
-8.069450408220291138e-02 1.136905178427696228e-01 3.273062780499458313e-02 -1.066630035638809204e-01 2.059077173471450806e-01 -2.685528807342052460e-02 -7.726342976093292236e-02 7.510540634393692017e-02 -1.262798998504877090e-02 1.407876461744308472e-01 7.395137101411819458e-02 -6.357754021883010864e-02 -3.561947494745254517e-02 -8.688089996576309204e-02 -2.446404844522476196e-01 -2.840506145730614662e-03 -1.139339432120323181e-01 -1.224497333168983459e-01 3.465323522686958313e-02 1.411940306425094604e-01 3.100200183689594269e-02 -5.732622742652893066e-02 -1.508317291736602783e-01 5.125997960567474365e-02 -1.722772233188152313e-02 1.179615482687950134e-01 -1.922104209661483765e-01 -2.394385635852813721e-01 -1.691976487636566162e-01 -1.746799610555171967e-02 6.056271865963935852e-02 6.097373086959123611e-03 8.714951574802398682e-03 1.999666541814804077e-01 4.531341046094894409e-02 -4.835677891969680786e-02 -3.837204352021217346e-02 8.659439533948898315e-02 7.548489421606063843e-02 -6.335794180631637573e-02 -7.382200658321380615e-02 -1.820218712091445923e-01 -9.283839166164398193e-02 2.138803899288177490e-02 1.181440129876136780e-01 1.267644912004470825e-01 1.026233583688735962e-01 3.205392509698867798e-02 7.853481918573379517e-03 2.568267285823822021e-02 1.419787295162677765e-02 6.436818279325962067e-03 4.521757662296295166e-01 -1.034731790423393250e-02 1.495913714170455933e-01 -1.196601465344429016e-01 1.991773843765258789e-01 3.841030597686767578e-01 -5.570830777287483215e-02 -1.048222705721855164e-01 4.439852014183998108e-02 -4.511914402246475220e-02 4.756144061684608459e-02 -6.632275134325027466e-02 -2.177781611680984497e-02 -6.003988161683082581e-02 -1.173402145504951477e-01 2.836919389665126801e-02 -7.795655727386474609e-02 -2.871604263782501221e-01 1.069418564438819885e-01 1.340799480676651001e-01 -1.523056626319885254e-01 1.178344488143920898e-01 -1.033530831336975098e-01 -9.177686274051666260e-02 -1.347418725490570068e-01 -3.055288828909397125e-02 1.126107200980186462e-02 1.126563847064971924e-01 -8.432561159133911133e-02 -9.343789517879486084e-02 -4.001971706748008728e-02 3.821735829114913940e-02 -6.008791923522949219e-02 -5.198472738265991211e-02 -2.448246330022811890e-01 -2.820378541946411133e-01 1.515844464302062988e-02 4.002318531274795532e-02 -1.092954427003860474e-01 -1.156488582491874695e-01 -1.062666326761245728e-01 6.189981475472450256e-02 -1.073713973164558411e-01 1.973454840481281281e-02 -2.030902057886123657e-01 -1.694012992084026337e-02 -6.892400979995727539e-02 -2.149667590856552124e-02 7.728654146194458008e-02 -1.101882606744766235e-01 6.369571387767791748e-02 -1.050125285983085632e-01 1.402822285890579224e-01 1.482919789850711823e-02 1.033269613981246948e-01 3.498946130275726318e-02 1.916980892419815063e-01 1.529750972986221313e-01 4.522786661982536316e-02 -5.123472958803176880e-02 4.225210100412368774e-02 1.545738726854324341e-01 1.370032131671905518e-01 -3.656617552042007446e-02 -4.188702907413244247e-03 1.414202898740768433e-02 2.268824726343154907e-02 -5.429780483245849609e-02 -1.185840740799903870e-02 2.239187955856323242e-01 3.123991936445236206e-02 -3.872703015804290771e-02 -6.437519192695617676e-02 -7.194923609495162964e-02 -1.586391627788543701e-01 -1.128831282258033752e-01
1.952984742820262909e-02 -1.395056694746017456e-01 1.095293089747428894e-01 -1.055433601140975952e-01 3.936833515763282776e-02 1.512421816587448120e-01 -4.665297269821166992e-02 -4.840185120701789856e-02 -1.705178804695606232e-02 -1.806396432220935822e-02 1.132222451269626617e-02 -4.452662542462348938e-02 2.992018684744834900e-02 -1.706363633275032043e-02 7.588148117065429688e-02 -5.483328551054000854e-02 -1.162801831960678101e-01 -5.187689512968063354e-02 9.138470888137817383e-02 8.501690626144409180e-02 -1.040369421243667603e-01 5.987798795104026794e-03 9.141560643911361694e-03 -7.844223827123641968e-02 1.537395268678665161e-02 2.565968334674835205e-01 7.217948883771896362e-02 -2.550179958343505859e-01 -9.120954573154449463e-02 9.889125078916549683e-02 -7.082807365804910660e-03 6.863854080438613892e-02 8.609200268983840942e-02 1.428470201790332794e-02 -3.203479945659637451e-02 4.983209818601608276e-02 -2.038646042346954346e-01 8.486336469650268555e-02 2.035975456237792969e-02 5.076422169804573059e-02 3.690927848219871521e-02 1.271877437829971313e-01 -9.603676199913024902e-02 4.049016628414392471e-03 -8.881221711635589600e-02 -2.092945203185081482e-02 1.579326950013637543e-02 9.550542384386062622e-02 -6.876924633979797363e-02 -2.010773867368698120e-02 -9.556002169847488403e-02 6.348599493503570557e-02 3.140197992324829102e-01 1.047503948211669922e-02 -6.132621690630912781e-02 5.604315549135208130e-02 1.817262149415910244e-03 -6.418350338935852051e-02 -1.786562800407409668e-01 6.766648590564727783e-02 8.790201693773269653e-02 -1.360107958316802979e-01 9.793023765087127686e-02 2.612205594778060913e-02 3.993931040167808533e-02 1.493108831346035004e-02 -1.313059777021408081e-01 1.061860918998718262e-01 -4.613085463643074036e-02 1.999339647591114044e-02 -3.628886863589286804e-02 -8.466681838035583496e-02 1.171259880065917969e-01 -1.568125374615192413e-02 -9.339455515146255493e-02 8.698284626007080078e-02 -7.034440338611602783e-02 -1.216168608516454697e-02 1.383118331432342529e-01 -7.004793733358383179e-02 2.877297811210155487e-02 -3.184717148542404175e-02 1.200422868132591248e-01 -1.200995668768882751e-01 1.490316633135080338e-02 5.793378129601478577e-02 -3.298283517360687256e-01 -5.502061173319816589e-02 -1.104393899440765381e-01 4.647419601678848267e-02 -3.479009494185447693e-02 8.891064673662185669e-02 1.354292873293161392e-02 -8.563790470361709595e-02 1.014882028102874756e-01 -4.858864098787307739e-02 2.409111522138118744e-02 4.766662791371345520e-02 -3.134170919656753540e-02 2.892415225505828857e-02 7.524923980236053467e-02 -4.056395962834358215e-02 2.165629900991916656e-02 -1.185329258441925049e-01 -8.183078467845916748e-02 -1.278215553611516953e-02 6.942819803953170776e-02 -8.843076974153518677e-02 -8.352828025817871094e-02 3.271292080171406269e-04 -2.696735411882400513e-02 1.542341057211160660e-02 3.018875606358051300e-02 2.175039798021316528e-02 3.649090602993965149e-02 3.227275609970092773e-01 -2.478917874395847321e-02 -1.301688998937606812e-01 1.355960667133331299e-01 -1.524012982845306396e-01 -8.886025100946426392e-02 1.410470455884933472e-01 1.017419993877410889e-01 9.725838899612426758e-02 1.146284341812133789e-01 -1.425663828849792480e-01 6.637690961360931396e-02 -3.477850183844566345e-02
-2.006896771490573883e-02 4.988049715757369995e-02 -1.214468628168106079e-01 -4.221810102462768555e-01 -3.113923594355583191e-02 -5.609284713864326477e-02 2.619936466217041016e-01 -5.618931353092193604e-02 3.938234224915504456e-02 -1.782603375613689423e-02 3.655272722244262695e-02 -1.430323570966720581e-01 -2.209288254380226135e-02 -7.076958566904067993e-02 2.059406414628028870e-02 2.404574900865554810e-01 -8.150377124547958374e-02 -3.979460150003433228e-02 3.065102361142635345e-02 2.165520042181015015e-01 8.012057095766067505e-02 8.202262967824935913e-02 -1.862437576055526733e-01 1.948411613702774048e-01 -2.967084199190139771e-02 9.890286624431610107e-02 -1.674550957977771759e-02 -4.461759701371192932e-02 -1.920703053474426270e-01 1.665942519903182983e-01 -6.746282428503036499e-02 6.148235499858856201e-02 -3.954522684216499329e-02 -6.062316149473190308e-02 1.019140779972076416e-01 -1.162296682596206665e-01 4.869867116212844849e-02 -1.135855615139007568e-01 5.975802987813949585e-02 -1.891085132956504822e-02 1.050109136849641800e-02 -6.269241869449615479e-02 2.244072407484054565e-01 5.599157884716987610e-02 2.496696263551712036e-02 5.761224403977394104e-02 1.821832805871963501e-01 -6.751939654350280762e-02 -1.064312011003494263e-01 1.715213954448699951e-01 2.912103384733200073e-02 1.646107248961925507e-02 6.084917113184928894e-03 -1.286813616752624512e-01 1.254502683877944946e-02 -6.104576960206031799e-02 -4.194650948047637939e-01 1.255564540624618530e-01 3.369942307472229004e-02 5.269427318125963211e-03 8.080849051475524902e-02 1.468187272548675537e-01 1.547314077615737915e-01 4.356724396347999573e-02 -6.641626358032226562e-03 -4.603468254208564758e-02 -1.973723769187927246e-01 3.584481775760650635e-02 1.450817734003067017e-01 6.569950282573699951e-02 4.714915994554758072e-03 -7.577505707740783691e-02 4.560433793812990189e-03 1.501228958368301392e-01 8.057127147912979126e-02 1.073602354153990746e-03 3.669813740998506546e-03 -4.447271302342414856e-02 -1.876731067895889282e-01 1.816085167229175568e-02 -9.478220343589782715e-02 -8.727043122053146362e-02 -3.199801594018936157e-02 2.519640028476715088e-01 -1.235378347337245941e-02 -1.081730052828788757e-02 -1.105592101812362671e-01 -2.014026045799255371e-01 1.499475985765457153e-01 9.222248941659927368e-02 -1.015963330864906311e-01 1.227862834930419922e-01 1.473873388022184372e-02 -7.151851803064346313e-02 2.166016027331352234e-02 -1.039022300392389297e-02 6.769680231809616089e-02 -8.729121088981628418e-02 -1.462254114449024200e-02 1.679130047559738159e-01 6.749989464879035950e-03 1.030285805463790894e-01 1.046197023242712021e-03 1.628680378198623657e-01 6.258667260408401489e-02 7.539592683315277100e-03 -5.675447732210159302e-02 9.455037862062454224e-02 -7.716751098632812500e-02 -2.305761724710464478e-02 4.981371387839317322e-02 4.985755681991577148e-02 3.078310936689376831e-02 -1.264393776655197144e-01 9.695229679346084595e-02 -1.961474493145942688e-02 -6.173938512802124023e-02 -1.337048113346099854e-01 -1.201664470136165619e-02 3.417216837406158447e-01 3.005785681307315826e-02 1.395912766456604004e-01 1.117545738816261292e-01 -5.691619962453842163e-02 2.994374036788940430e-01 1.036888659000396729e-01 2.408448159694671631e-01 -9.656577557325363159e-02
-9.475736320018768311e-02 2.808729000389575958e-02 1.433991193771362305e-01 1.274878233671188354e-01 -6.527260877192020416e-03 1.417987346649169922e-01 1.248060241341590881e-01 4.666303843259811401e-02 5.759103968739509583e-02 -1.655466109514236450e-01 9.502366185188293457e-02 -1.487693376839160919e-02 -3.811493143439292908e-02 -7.447106763720512390e-03 -1.002678181976079941e-03 -6.335734575986862183e-02 -8.791403472423553467e-02 7.269322406500577927e-03 -2.474322319030761719e-01 -1.302268207073211670e-01 6.757547706365585327e-02 -1.853378564119338989e-01 1.202495098114013672e-01 -9.815622121095657349e-03 7.744059711694717407e-02 8.076706528663635254e-02 5.403390899300575256e-02 -1.369972825050354004e-01 -4.056626185774803162e-02 -4.035041853785514832e-02 2.366403192281723022e-01 8.803079277276992798e-02 -1.658520475029945374e-02 1.735892146825790405e-01 -1.111736446619033813e-01 5.567719787359237671e-02 9.742588549852371216e-02 -5.598140135407447815e-02 8.666139096021652222e-02 1.103009954094886780e-01 -2.938338369131088257e-02 5.095458123832941055e-03 9.771282970905303955e-02 1.009081602096557617e-01 7.095514796674251556e-03 3.460709005594253540e-02 6.238051503896713257e-02 -3.141684085130691528e-02 -5.149643868207931519e-02 4.718457534909248352e-02 -7.148839533329010010e-02 1.133264228701591492e-01 2.823339700698852539e-01 -1.828503049910068512e-02 7.031553983688354492e-02 -2.124054133892059326e-01 4.251767322421073914e-02 -1.495739519596099854e-01 -5.964536103419959545e-04 -9.215512871742248535e-02 -2.087331563234329224e-02 -1.125165596604347229e-01 7.077299058437347412e-02 3.341751173138618469e-02 -5.787315592169761658e-02 4.530322272330522537e-03 -8.569077402353286743e-02 -1.744241267442703247e-01 5.370521917939186096e-02 -1.674708165228366852e-02 5.587548390030860901e-02 -1.823253333568572998e-01 -7.220149785280227661e-02 1.218941733241081238e-01 -6.166188791394233704e-02 4.559049382805824280e-02 1.362513601779937744e-01 -1.733670085668563843e-01 1.124182194471359253e-01 -2.128837257623672485e-02 2.703757025301456451e-02 -1.159417554736137390e-01 5.538828670978546143e-02 -3.477372229099273682e-02 4.522420838475227356e-02 1.642870754003524780e-01 1.533952057361602783e-01 -7.946950942277908325e-02 -1.470595598220825195e-02 4.978486895561218262e-02 -7.920690113678574562e-04 -1.844556629657745361e-02 -1.842292398214340210e-02 2.212729305028915405e-01 1.182134449481964111e-01 1.334151625633239746e-01 1.002653986215591431e-01 6.727280467748641968e-02 -4.442311078310012817e-02 6.658525671809911728e-03 -9.942200779914855957e-02 -1.339405775070190430e-01 1.685203313827514648e-01 -8.044851571321487427e-02 3.226102516055107117e-02 -4.234363138675689697e-02 4.596959054470062256e-02 2.062814310193061829e-02 7.049420475959777832e-02 -1.997045725584030151e-01 8.979824930429458618e-02 -9.072981774806976318e-02 -2.378976494073867798e-01 1.814624518156051636e-01 -1.472579222172498703e-02 -1.387981921434402466e-01 1.414117664098739624e-01 -1.397412717342376709e-01 -9.858539700508117676e-02 -1.416809856891632080e-01 -6.498992443084716797e-02 -1.526250839233398438e-01 -1.954120099544525146e-01 2.645695954561233521e-02 1.256420463323593140e-01 1.697816140949726105e-02 -3.021795749664306641e-01 -1.126134116202592850e-02
-4.081629589200019836e-02 4.459540173411369324e-02 4.585123807191848755e-02 2.878469824790954590e-01 1.271409634500741959e-02 -1.761594563722610474e-01 5.056295543909072876e-02 -3.392365574836730957e-02 -4.008683562278747559e-02 -3.508071601390838623e-02 5.742507800459861755e-02 1.088948920369148254e-01 -1.753231883049011230e-02 1.535669267177581787e-01 -2.082526087760925293e-01 -1.621868088841438293e-02 -1.576283425092697144e-01 7.591278105974197388e-02 3.081095963716506958e-02 -3.637389093637466431e-02 -1.256140135228633881e-02 -7.353653665632009506e-03 1.235655881464481354e-02 -1.568210870027542114e-01 -1.146365236490964890e-02 -2.191309817135334015e-02 -3.939286246895790100e-02 5.375748965889215469e-03 3.423747792840003967e-02 3.492397069931030273e-02 9.490869194269180298e-02 2.459848672151565552e-01 1.508863121271133423e-01 -8.905477076768875122e-02 -2.215796858072280884e-01 6.883103400468826294e-02 -1.148020178079605103e-01 2.857104875147342682e-02 1.343632210046052933e-02 5.672698467969894409e-02 -1.458949744701385498e-01 1.106227636337280273e-01 -1.005037575960159302e-01 7.767999544739723206e-03 -1.312900334596633911e-01 -9.218513965606689453e-02 -6.728431675583124161e-03 -1.219582371413707733e-02 -6.240633502602577209e-02 -9.036154299974441528e-02 -1.157665997743606567e-02 1.177693754434585571e-01 -8.217000216245651245e-02 2.636108398437500000e-01 -9.050115197896957397e-02 -8.684229850769042969e-02 4.566140100359916687e-02 5.862940102815628052e-02 -2.840859349817037582e-03 6.802360713481903076e-02 4.564938694238662720e-02 8.616091683506965637e-03 -1.257044225931167603e-01 1.406377851963043213e-01 -2.316742390394210815e-02 -9.479612112045288086e-02 7.518599182367324829e-02 3.465418890118598938e-02 -9.103060513734817505e-02 1.534472964704036713e-02 -8.448528498411178589e-02 -8.272404223680496216e-02 1.622475981712341309e-01 -6.645683944225311279e-02 4.663460329174995422e-02 -3.581675142049789429e-02 6.896384805440902710e-02 3.153865411877632141e-02 1.071458458900451660e-01 -2.440313063561916351e-02 1.034859940409660339e-01 -1.007183119654655457e-01 1.199635565280914307e-01 -4.948438145220279694e-03 1.787119358777999878e-02 1.862822920083999634e-01 -3.781249225139617920e-01 1.014397814869880676e-01 7.406832277774810791e-02 -4.233541712164878845e-02 -3.813581541180610657e-02 -2.330694943666458130e-01 -1.751756221055984497e-01 3.667792677879333496e-02 -1.013066247105598450e-01 7.106281816959381104e-03 1.732175797224044800e-01 -4.095715284347534180e-02 -2.046483457088470459e-01 1.386672705411911011e-01 6.807423382997512817e-02 -1.204326152801513672e-01 2.581022381782531738e-01 -2.204349264502525330e-02 -3.334559127688407898e-02 4.717315360903739929e-02 1.169469058513641357e-01 -7.221385836601257324e-02 -2.906380593776702881e-02 -8.577679842710494995e-02 -1.792944222688674927e-01 -7.220648229122161865e-02 -3.627778217196464539e-02 3.762552514672279358e-02 -2.589493691921234131e-01 -1.541184186935424805e-01 1.106563061475753784e-01 1.769626885652542114e-02 -6.301046907901763916e-02 -2.897271187976002693e-03 1.063802912831306458e-01 -2.009813673794269562e-02 1.842363178730010986e-01 3.243492543697357178e-02 -1.648384928703308105e-01 8.039352484047412872e-03 -2.523970603942871094e-01 -6.330525875091552734e-02
5.274226889014244080e-03 -7.331136614084243774e-02 7.837797701358795166e-02 2.420648932456970215e-01 -6.879531592130661011e-02 -8.726464956998825073e-02 -1.136466413736343384e-01 2.322006970643997192e-02 -7.961822301149368286e-02 -2.348510921001434326e-02 6.475391983985900879e-02 1.715035438537597656e-01 9.633350186049938202e-03 1.399134099483489990e-01 -4.160300269722938538e-02 6.559330224990844727e-02 -4.738282039761543274e-02 8.259502798318862915e-02 -3.758942708373069763e-02 8.424487896263599396e-03 -3.122493252158164978e-02 2.026850823312997818e-03 1.623909026384353638e-01 -1.458301208913326263e-02 1.272318605333566666e-02 -3.901625797152519226e-02 2.036842890083789825e-02 1.377184838056564331e-01 -2.143679000437259674e-02 -4.085959494113922119e-02 7.595752179622650146e-02 -1.821225881576538086e-02 1.028609350323677063e-01 -1.054906994104385376e-01 5.888615176081657410e-02 2.853507697582244873e-01 1.639667898416519165e-02 1.167022213339805603e-01 -7.406914234161376953e-02 1.532613933086395264e-01 2.885049879550933838e-01 2.063974887132644653e-01 3.290010988712310791e-02 -6.744882464408874512e-02 6.464277859777212143e-03 -1.938288658857345581e-01 -2.124976925551891327e-02 1.230405084788799286e-02 7.423186302185058594e-02 -2.145067602396011353e-01 1.036104485392570496e-01 3.241968899965286255e-02 -4.749353975057601929e-02 6.097142398357391357e-02 -4.092780351638793945e-01 -1.491268398240208626e-03 -4.487954452633857727e-02 -1.259462982416152954e-01 -8.784194290637969971e-02 1.483867615461349487e-01 1.245455257594585419e-02 2.528743073344230652e-02 -5.641480088233947754e-01 1.985833644866943359e-01 1.526408195495605469e-01 -1.904087364673614502e-01 2.371205836534500122e-01 -1.560906171798706055e-01 -1.388013064861297607e-01 -1.937343776226043701e-01 1.273652655072510242e-03 -2.026367932558059692e-01 1.445453613996505737e-01 -5.897465720772743225e-02 7.943776436150074005e-03 1.293485015630722046e-01 -4.113185778260231018e-02 1.573882699012756348e-01 -5.560739897191524506e-03 3.389840945601463318e-02 -5.733060836791992188e-02 4.532093554735183716e-02 1.343438327312469482e-01 -2.328715985640883446e-03 1.035301983356475830e-01 1.467386484146118164e-01 6.129144132137298584e-02 1.060306131839752197e-01 -8.842734247446060181e-02 -1.256503313779830933e-01 7.927212864160537720e-02 1.995044387876987457e-02 2.251037061214447021e-01 -3.605998307466506958e-02 -1.507344543933868408e-01 -1.567451842129230499e-02 5.059513077139854431e-02 3.096689097583293915e-02 1.064402163028717041e-01 1.809712201356887817e-01 1.217591576278209686e-02 -1.895873248577117920e-01 -1.280259042978286743e-01 2.501745708286762238e-02 -2.264501154422760010e-02 6.667876988649368286e-02 7.536242157220840454e-02 1.179620027542114258e-01 -1.054382324218750000e-02 3.849454596638679504e-02 -1.081698983907699585e-01 2.422149479389190674e-01 2.287903428077697754e-01 -2.203617542982101440e-01 -1.514147967100143433e-01 1.660958379507064819e-01 2.606516480445861816e-01 -7.753647863864898682e-02 -5.733269080519676208e-02 -1.612621098756790161e-01 -1.256776005029678345e-01 1.074150130152702332e-01 1.671599745750427246e-01 -6.129655241966247559e-02 1.977480351924896240e-01 4.746006429195404053e-02 -4.542835429310798645e-02 -2.574994862079620361e-01
5.491755902767181396e-02 -1.793887317180633545e-01 -2.118323557078838348e-02 2.280505448579788208e-01 1.953348666429519653e-01 3.856962174177169800e-02 -1.173994615674018860e-01 4.254734516143798828e-02 -5.834220908582210541e-03 8.563938736915588379e-02 2.511818520724773407e-02 -1.736331582069396973e-01 1.849147975444793701e-01 -6.646810472011566162e-02 -2.194553817389532924e-04 -7.862629741430282593e-02 3.541171178221702576e-02 6.306298077106475830e-02 1.867111213505268097e-02 1.476359516382217407e-01 -2.807930856943130493e-02 1.577264368534088135e-01 9.189154952764511108e-03 1.654193103313446045e-01 1.214099749922752380e-01 2.404734678566455841e-02 -1.957537233829498291e-02 1.740699112415313721e-01 -3.677439689636230469e-02 1.187167912721633911e-01 -1.412042528390884399e-01 -5.545609164983034134e-03 -1.211205720901489258e-01 -1.887450218200683594e-01 2.342423051595687866e-01 -1.265416890382766724e-01 -2.147923968732357025e-02 -7.009979337453842163e-02 -2.608045563101768494e-02 2.655677311122417450e-02 -3.616889938712120056e-02 1.580383032560348511e-01 9.090970270335674286e-03 1.513973623514175415e-01 3.134638071060180664e-02 -1.081848442554473877e-01 -5.458297953009605408e-02 1.390988081693649292e-01 -3.634590283036231995e-02 1.305380761623382568e-01 -8.542928099632263184e-02 -1.597318425774574280e-02 4.161047935485839844e-02 -2.216399461030960083e-02 -3.219902049750089645e-03 2.626661062240600586e-01 -3.491692012175917625e-03 9.067994356155395508e-02 -2.062632702291011810e-02 5.269533395767211914e-02 8.669842779636383057e-02 -4.906416684389114380e-02 3.453507553786039352e-03 -1.155888512730598450e-01 -1.802760064601898193e-01 6.212360784411430359e-02 2.184806391596794128e-02 -8.169095963239669800e-02 -2.847295999526977539e-01 -8.495111763477325439e-02 9.022247791290283203e-02 1.293099373579025269e-01 5.228454619646072388e-02 4.356937482953071594e-02 -7.395391166210174561e-02 -1.667220443487167358e-01 -9.528107196092605591e-02 1.869278103113174438e-01 -1.368865668773651123e-01 8.947499096393585205e-02 -2.806112170219421387e-01 1.680959910154342651e-01 -2.548375353217124939e-02 1.197144836187362671e-01 -1.264139860868453979e-01 -2.491483688354492188e-01 1.368482876569032669e-02 -1.852948665618896484e-01 -5.968118458986282349e-02 4.754747450351715088e-02 -7.321853935718536377e-02 2.092575095593929291e-02 -4.721809178590774536e-02 -2.204246073961257935e-01 -6.734465807676315308e-02 -1.434276551008224487e-01 -7.946703583002090454e-02 9.761296212673187256e-02 1.643486022949218750e-01 2.863601781427860260e-02 2.592818997800350189e-02 -8.200239390134811401e-02 -1.962891817092895508e-01 9.567616134881973267e-02 -4.100394248962402344e-02 -1.897603832185268402e-02 1.890946477651596069e-01 3.612082451581954956e-02 -2.844160795211791992e-02 1.771407760679721832e-02 7.436973508447408676e-03 1.665496528148651123e-01 -3.132817149162292480e-02 -3.692004457116127014e-02 8.948791772127151489e-02 1.710307598114013672e-01 -5.064087733626365662e-02 -6.211982294917106628e-02 9.895081073045730591e-02 3.582859039306640625e-02 -1.077461056411266327e-03 5.235931277275085449e-02 8.172030211426317692e-04 7.766211032867431641e-02 -9.691179543733596802e-02 1.466213911771774292e-01 2.967330627143383026e-02 1.162018924951553345e-01
4.971971362829208374e-02 -5.103710666298866272e-02 -1.297953873872756958e-01 -1.054251641035079956e-01 -8.846506476402282715e-02 -4.965303465723991394e-02 2.063660509884357452e-02 -4.281533882021903992e-02 4.626855254173278809e-02 -8.101151324808597565e-03 6.134345009922981262e-02 -6.346048414707183838e-02 -6.203239560127258301e-01 1.140607520937919617e-01 1.538884043693542480e-01 1.058373451232910156e-01 3.317985916510224342e-03 2.771437726914882660e-02 -2.751117199659347534e-02 -1.296201162040233612e-02 -1.074932217597961426e-01 1.362958848476409912e-01 -1.201031953096389771e-01 -8.633771538734436035e-02 1.808036565780639648e-01 1.356804668903350830e-01 1.902370601892471313e-01 1.512252073734998703e-02 -7.696291804313659668e-02 1.195190846920013428e-02 -1.686866730451583862e-01 3.203847631812095642e-02 7.607866078615188599e-02 -7.181505113840103149e-02 -9.049023687839508057e-02 3.257533535361289978e-02 -7.602471858263015747e-02 1.777175068855285645e-01 2.478529885411262512e-02 6.536074727773666382e-02 4.829622339457273483e-03 1.931431144475936890e-02 1.077666059136390686e-01 1.562283001840114594e-02 -5.704246461391448975e-02 -1.599880307912826538e-01 -3.428674489259719849e-02 -1.115384995937347412e-01 -5.935041233897209167e-02 1.359971165657043457e-01 -5.243430286645889282e-02 3.973347321152687073e-02 -4.421120882034301758e-02 2.446246147155761719e-02 -7.041222602128982544e-02 -4.305543750524520874e-02 -7.743656635284423828e-02 1.266051083803176880e-01 -1.022541671991348267e-01 1.259774565696716309e-01 4.966375231742858887e-02 1.467575281858444214e-01 -2.117507755756378174e-01 1.984571218490600586e-01 6.357525289058685303e-02 1.316137462854385376e-01 3.655861020088195801e-01 -9.615110233426094055e-03 2.010389268398284912e-01 7.403966039419174194e-02 8.807451277971267700e-02 -1.357232034206390381e-01 1.663950085639953613e-01 -4.148019105195999146e-02 1.247915998101234436e-01 -5.923909693956375122e-02 -2.864764817059040070e-02 5.368106439709663391e-02 -4.590924456715583801e-02 1.083605810999870300e-01 2.218711972236633301e-01 -1.172440871596336365e-01 2.434947639703750610e-01 1.117756217718124390e-01 -6.126719713211059570e-02 9.924196638166904449e-03 -4.399971291422843933e-02 -1.158886104822158813e-01 -6.435466557741165161e-02 1.041378006339073181e-01 -8.251623809337615967e-02 2.711236104369163513e-02 3.449970856308937073e-02 -4.841621220111846924e-02 1.531420350074768066e-01 -1.059985253959894180e-02 3.948662802577018738e-02 1.937348023056983948e-02 4.957009106874465942e-03 1.279181391000747681e-01 4.628070443868637085e-02 -9.992210566997528076e-02 -6.791278254240751266e-03 4.521071538329124451e-02 7.123565673828125000e-02 -7.900181412696838379e-02 6.835128366947174072e-02 -1.396369487047195435e-01 6.403984129428863525e-02 2.955246269702911377e-01 8.803293853998184204e-02 -8.456858247518539429e-02 -1.030672043561935425e-01 -4.257244765758514404e-01 1.369564980268478394e-01 6.766681373119354248e-02 -1.359333544969558716e-01 -3.950938116759061813e-04 1.598977297544479370e-01 -3.378672152757644653e-02 -4.034396260976791382e-02 1.939383298158645630e-01 8.380032330751419067e-02 1.088909804821014404e-03 -9.456123411655426025e-02 7.187106460332870483e-02 -2.093586921691894531e-01 -4.847880825400352478e-02
6.412343680858612061e-02 -1.082804501056671143e-01 3.455659747123718262e-02 -5.353806540369987488e-02 -1.224851161241531372e-01 4.665986448526382446e-02 1.216449737548828125e-01 -1.634875237941741943e-01 -2.160751633346080780e-02 1.644806563854217529e-02 -3.010303713381290436e-02 6.069709360599517822e-02 -2.153997123241424561e-02 -2.392230033874511719e-01 2.326887845993041992e-02 -8.372910320758819580e-02 -5.012097768485546112e-03 -1.231066044420003891e-02 8.180963993072509766e-02 1.406630408018827438e-02 1.558213029056787491e-02 -9.863654151558876038e-03 -5.782482773065567017e-02 -9.796766191720962524e-02 9.019988775253295898e-02 1.046771407127380371e-01 -9.949081391096115112e-02 -6.624797731637954712e-02 -5.267260596156120300e-02 9.522852301597595215e-02 8.123451471328735352e-02 2.792017534375190735e-03 -8.849514275789260864e-02 -1.341871451586484909e-02 2.914351783692836761e-02 -3.248186036944389343e-02 -2.293367385864257812e-01 -5.636155605316162109e-02 -1.021505519747734070e-01 -1.403916534036397934e-02 -4.562182724475860596e-02 -1.811642316170036793e-03 9.945028275251388550e-02 4.621727019548416138e-02 -1.234677247703075409e-02 6.174759566783905029e-02 -1.966510340571403503e-02 3.361365199089050293e-02 -4.736767709255218506e-02 -1.620105840265750885e-02 1.142593100666999817e-01 -1.599408127367496490e-02 2.624410688877105713e-01 -1.016442403197288513e-01 5.786743015050888062e-02 -3.148216009140014648e-02 3.717499971389770508e-02 -6.466004997491836548e-02 1.248894110321998596e-01 6.342491507530212402e-02 -6.566836684942245483e-02 -8.273904025554656982e-02 2.116650156676769257e-02 -2.189612202346324921e-02 -4.887612909078598022e-02 1.188764721155166626e-02 -3.428978100419044495e-02 8.663003146648406982e-02 -1.009935364127159119e-01 3.425663337111473083e-02 4.152995720505714417e-02 7.750362157821655273e-02 -4.502404108643531799e-02 -4.550289362668991089e-02 1.638190262019634247e-02 1.552485628053545952e-03 3.087742812931537628e-02 -4.632714018225669861e-02 3.494998672977089882e-03 1.555628050118684769e-02 -6.710004806518554688e-02 1.912299357354640961e-02 -3.975514695048332214e-02 -2.572571858763694763e-02 -5.270032212138175964e-02 1.829269342124462128e-02 2.627460658550262451e-02 8.493633568286895752e-02 3.491995111107826233e-02 5.436594039201736450e-02 -7.170688360929489136e-02 -1.151904314756393433e-01 5.087196454405784607e-02 4.513787850737571716e-02 -5.490550771355628967e-02 -5.985144525766372681e-02 1.333663463592529297e-01 -1.741670966148376465e-01 -2.524124979972839355e-01 6.300776451826095581e-02 2.865603007376194000e-02 2.846496738493442535e-02 4.374331980943679810e-02 4.315121844410896301e-02 3.945108503103256226e-02 -1.246373951435089111e-01 8.236511051654815674e-02 -2.494857311248779297e-01 -1.175772026181221008e-01 -1.144932582974433899e-01 -1.443967595696449280e-02 1.891515590250492096e-02 1.285354793071746826e-01 -4.014474526047706604e-02 1.887388713657855988e-02 2.806636504828929901e-02 -3.886626660823822021e-02 -9.946908103302121162e-04 1.684862188994884491e-02 -2.045202702283859253e-01 2.173487842082977295e-01 -8.732629008591175079e-03 1.766020059585571289e-01 6.399587728083133698e-03 1.367684453725814819e-01 -2.002111636102199554e-02 -9.905862621963024139e-03 8.505091071128845215e-02
-4.555124342441558838e-01 2.501987665891647339e-02 1.469204667955636978e-02 -1.383603960275650024e-01 4.223682731389999390e-02 -9.838267415761947632e-02 4.175761714577674866e-03 2.441211044788360596e-02 7.861357182264328003e-02 -1.296662837266921997e-01 5.721456557512283325e-02 9.567784518003463745e-02 2.570721320807933807e-02 1.013783738017082214e-01 -1.749789714813232422e-01 -2.063352763652801514e-01 -2.985818870365619659e-02 3.003294765949249268e-01 -3.506442159414291382e-02 -1.651354283094406128e-01 2.633029036223888397e-02 -1.829363256692886353e-01 7.594767212867736816e-02 -2.305199205875396729e-01 -4.400432109832763672e-02 1.804501563310623169e-01 -1.754415035247802734e-01 2.482978850603103638e-01 -7.372927665710449219e-02 8.638957887887954712e-02 2.259560972452163696e-01 2.312943339347839355e-02 3.542882855981588364e-03 9.460347145795822144e-02 -6.976792961359024048e-02 4.826533421874046326e-02 -3.077890491113066673e-03 3.528086468577384949e-02 -2.338403761386871338e-01 2.062430605292320251e-02 -1.543853878974914551e-01 1.199974194169044495e-01 -2.457298338413238525e-01 -7.613775320351123810e-03 -1.930327713489532471e-01 -1.008998006582260132e-01 -2.899740822613239288e-02 1.219415515661239624e-01 -1.294870376586914062e-01 3.170391917228698730e-02 -4.989507794380187988e-02 4.340239241719245911e-02 -2.226567827165126801e-02 5.272396374493837357e-03 1.563004553318023682e-01 -1.082415599375963211e-02 4.919793456792831421e-02 -1.377095431089401245e-01 -1.100443527102470398e-01 -5.983899533748626709e-02 -8.860690891742706299e-02 -1.526461988687515259e-01 -1.306791976094245911e-02 4.482295364141464233e-02 3.032698482275009155e-02 -7.984267175197601318e-02 1.267332583665847778e-01 -1.882699551060795784e-03 7.828008383512496948e-02 -4.293293878436088562e-02 -1.633980721235275269e-01 -5.206783115863800049e-02 2.531059272587299347e-02 -2.394106984138488770e-02 3.122766874730587006e-02 -1.142611261457204819e-03 2.177223563194274902e-01 -2.990578711032867432e-01 1.565966457128524780e-01 1.656854450702667236e-01 7.221864908933639526e-02 -1.831690818071365356e-01 -3.387992829084396362e-02 6.188419461250305176e-01 -1.130346860736608505e-02 1.258998364210128784e-01 -2.009873539209365845e-01 2.996528521180152893e-02 -4.401781409978866577e-02 -3.049728460609912872e-02 -5.848867446184158325e-02 1.227969080209732056e-01 2.332987785339355469e-01 -2.025431254878640175e-03 -4.307919442653656006e-01 1.119449436664581299e-01 1.834581196308135986e-01 -8.933792263269424438e-02 -5.010658130049705505e-02 6.197123974561691284e-02 4.825372993946075439e-02 1.867783218622207642e-01 2.442959249019622803e-01 -4.010690376162528992e-02 -1.360861808061599731e-01 1.495067924261093140e-01 2.794970385730266571e-02 4.939803779125213623e-01 2.566876709461212158e-01 -3.271520435810089111e-01 -1.637584995478391647e-03 -1.887529790401458740e-01 6.394477933645248413e-02 -7.398453075438737869e-03 1.454884558916091919e-01 8.895540609955787659e-03 3.380657732486724854e-02 8.936927467584609985e-02 3.758012503385543823e-02 -1.354384273290634155e-01 -7.739228755235671997e-02 -1.343360096216201782e-01 -9.499486535787582397e-02 -9.131518751382827759e-02 2.418294101953506470e-01 1.206688657402992249e-01 7.794866338372230530e-03 1.333830803632736206e-01
-6.426222622394561768e-02 -1.694922596216201782e-01 6.773094832897186279e-02 -3.040765970945358276e-02 1.031373441219329834e-01 1.813369803130626678e-02 -9.658739902079105377e-03 -7.848489098250865936e-03 2.486813114956021309e-03 1.369096189737319946e-01 -7.272405922412872314e-02 4.647934064269065857e-02 1.090670228004455566e-01 1.349223107099533081e-01 -1.254711747169494629e-01 -3.161479160189628601e-02 3.054993227124214172e-02 6.694879382848739624e-02 -5.166007578372955322e-02 5.218257382512092590e-02 5.945439264178276062e-02 5.677005741745233536e-03 -1.525089051574468613e-02 1.103710159659385681e-01 -7.402133941650390625e-02 -9.396617114543914795e-02 -6.990322470664978027e-02 -9.319903329014778137e-03 3.050184249877929688e-02 -1.264012455940246582e-01 -9.808944910764694214e-02 -4.107169061899185181e-02 -2.789585385471582413e-03 -4.888371564447879791e-03 2.147715091705322266e-01 -1.036025881767272949e-01 -1.386711597442626953e-01 -9.322889149188995361e-02 4.515657573938369751e-02 6.241381540894508362e-02 -4.124246910214424133e-02 -8.701957762241363525e-02 -4.108971450477838516e-03 8.828007616102695465e-03 1.649486571550369263e-01 -1.312685757875442505e-02 3.262494131922721863e-02 7.040020078420639038e-02 6.903218477964401245e-02 1.280178129673004150e-02 7.052239030599594116e-02 7.806298881769180298e-02 -5.094219371676445007e-02 2.253501676023006439e-02 2.384404651820659637e-02 -5.731072649359703064e-02 8.747103810310363770e-02 -1.132877692580223083e-01 -2.349309250712394714e-02 -1.098829582333564758e-01 9.286154061555862427e-03 7.671112660318613052e-03 -2.326941117644309998e-02 -1.377534419298171997e-01 -2.744434587657451630e-02 9.354870766401290894e-02 -7.385409623384475708e-02 -4.588512331247329712e-02 -1.748297661542892456e-01 -1.984368562698364258e-01 9.760315716266632080e-02 1.148323789238929749e-01 -5.586548149585723877e-02 3.949812427163124084e-02 -4.868140816688537598e-02 -1.507210582494735718e-01 5.045801401138305664e-02 -5.844810046255588531e-03 1.240899693220853806e-02 -6.918419152498245239e-02 -2.598962485790252686e-01 4.551314190030097961e-02 -4.945220425724983215e-02 7.569497823715209961e-02 -9.562725573778152466e-02 -1.794732809066772461e-01 1.170319318771362305e-01 -3.043741546571254730e-02 7.424403727054595947e-02 9.878013283014297485e-02 -5.234280601143836975e-02 -1.268565356731414795e-01 -1.185409650206565857e-01 1.387495994567871094e-01 6.504318118095397949e-02 -7.875890471041202545e-03 -9.971446543931961060e-02 -9.548140317201614380e-02 1.804096549749374390e-01 1.351172924041748047e-01 -4.009767435491085052e-03 -7.704956084489822388e-02 6.920742243528366089e-02 -8.665375411510467529e-02 7.919954508543014526e-02 8.354364335536956787e-02 9.639623016119003296e-02 7.325057685375213623e-02 1.404473781585693359e-01 -1.719876378774642944e-01 9.108423255383968353e-03 -1.781226992607116699e-01 -1.871492713689804077e-02 1.019625142216682434e-01 4.167371615767478943e-02 -4.467365518212318420e-02 -1.690702326595783234e-02 1.233041379600763321e-02 1.016887873411178589e-01 1.468422822654247284e-02 3.167526423931121826e-02 -1.311140060424804688e-01 9.990015625953674316e-02 -7.878917455673217773e-02 -2.727840542793273926e-01 -8.193906396627426147e-03 -1.898150891065597534e-01 -8.755262941122055054e-02
-1.931544542312622070e-01 -1.634655147790908813e-01 3.618051111698150635e-02 -7.679682224988937378e-02 -1.932881213724613190e-02 -5.325828865170478821e-02 1.112514082342386246e-02 5.216011404991149902e-02 3.370408341288566589e-02 -9.577041864395141602e-02 7.453373074531555176e-02 3.951111435890197754e-02 -4.840789735317230225e-02 7.889679819345474243e-02 7.044168654829263687e-03 -2.832171618938446045e-01 1.336344778537750244e-01 6.449466943740844727e-02 -3.945241682231426239e-03 -1.357575356960296631e-01 1.902059651911258698e-02 -5.579134821891784668e-02 6.633088737726211548e-02 -9.509925544261932373e-02 -1.547837853431701660e-01 -2.216395176947116852e-02 -1.443110257387161255e-01 1.014442741870880127e-01 -2.501958608627319336e-01 1.812817901372909546e-01 1.255713850259780884e-01 -2.889525331556797028e-02 1.941850632429122925e-01 -1.099122501909732819e-02 -5.183361936360597610e-03 -9.641935117542743683e-03 9.722610563039779663e-02 -7.140185683965682983e-02 -9.274340420961380005e-02 5.650620907545089722e-02 1.764416992664337158e-01 3.449367284774780273e-01 -4.818321019411087036e-02 -2.434548586606979370e-01 -1.170601621270179749e-01 -6.321021169424057007e-02 4.456603154540061951e-02 9.393655508756637573e-02 -1.188539117574691772e-01 -6.007535755634307861e-02 -1.740798540413379669e-02 7.123550772666931152e-02 3.279971331357955933e-02 -1.160767674446105957e-01 6.580552458763122559e-02 4.654425382614135742e-02 1.282959803938865662e-02 -8.119083195924758911e-02 5.148013308644294739e-02 -1.719727069139480591e-01 -2.922822348773479462e-02 -1.566829830408096313e-01 -6.934317294508218765e-03 1.539358943700790405e-01 1.640339642763137817e-01 -2.244934625923633575e-02 9.606563299894332886e-02 -9.264726191759109497e-02 1.155650913715362549e-01 -3.546268492937088013e-02 -1.559178344905376434e-02 -2.323559522628784180e-01 6.994973868131637573e-02 -1.455249041318893433e-01 -1.838878355920314789e-02 1.654239147901535034e-01 9.082584083080291748e-02 -7.082626968622207642e-02 5.403001233935356140e-02 -1.284334212541580200e-01 9.170174598693847656e-02 -1.244109719991683960e-01 1.048932969570159912e-01 2.704578340053558350e-01 8.176729083061218262e-02 4.482418298721313477e-02 3.061354160308837891e-01 -1.044859382091090083e-04 -1.619081646203994751e-01 -3.254361450672149658e-01 9.768814593553543091e-02 3.389617800712585449e-01 1.398020088672637939e-01 1.475455909967422485e-01 -6.330583989620208740e-02 1.545007377862930298e-01 6.604932248592376709e-02 9.461715072393417358e-02 1.335343867540359497e-01 6.294269859790802002e-02 3.636179864406585693e-02 1.508064195513725281e-02 -3.117689117789268494e-02 -6.099414080381393433e-02 -5.277751013636589050e-03 -5.780575796961784363e-02 -2.038451880216598511e-01 9.023942798376083374e-02 5.812302231788635254e-02 -1.531080454587936401e-01 6.498438864946365356e-02 -1.275791525840759277e-01 9.683266282081604004e-02 -3.020701929926872253e-03 1.899687051773071289e-01 -2.876341110095381737e-03 1.520681828260421753e-01 1.810987889766693115e-01 6.488886661827564240e-03 6.916651129722595215e-02 6.011927500367164612e-02 9.134446829557418823e-02 5.111211910843849182e-02 -4.460729286074638367e-02 -2.738001011312007904e-02 7.767932116985321045e-02 2.702915109694004059e-02 9.038622677326202393e-02
1.099249999970197678e-02 1.619183123111724854e-01 -6.096241250634193420e-02 2.892221696674823761e-02 -1.900596767663955688e-01 -1.742919385433197021e-01 -7.479172199964523315e-02 3.151182085275650024e-02 2.528713457286357880e-02 -2.319935560226440430e-01 3.862807154655456543e-02 -2.600654214620590210e-02 3.497389331459999084e-02 -1.703261584043502808e-01 -1.692583039402961731e-02 -8.972718566656112671e-02 9.407610632479190826e-03 1.835015118122100830e-01 -2.620485424995422363e-01 -7.409974932670593262e-02 7.638184726238250732e-02 -1.930809766054153442e-01 2.256426215171813965e-01 -2.558793425559997559e-01 8.860286325216293335e-02 -4.394279420375823975e-02 4.686894267797470093e-02 1.702544987201690674e-01 3.147700801491737366e-02 1.797217130661010742e-02 -3.919506072998046875e-02 4.630416631698608398e-02 -6.807199865579605103e-02 2.028955519199371338e-01 1.686157733201980591e-01 2.945462614297866821e-02 -4.371809586882591248e-02 -1.062251180410385132e-01 -1.451012045145034790e-01 -1.573396772146224976e-01 -1.973135024309158325e-01 -6.302039325237274170e-02 6.581133604049682617e-02 3.549139946699142456e-02 -2.297031320631504059e-02 -6.617878563702106476e-03 -1.030256878584623337e-02 6.489767879247665405e-02 -2.152058854699134827e-02 -1.571987867355346680e-01 -7.189724594354629517e-02 1.189411357045173645e-01 3.339628875255584717e-02 6.460617482662200928e-02 -1.632214784622192383e-01 -1.635693572461605072e-02 1.344652473926544189e-01 1.399186439812183380e-02 -1.626006215810775757e-01 -9.544786065816879272e-02 -1.704079806804656982e-01 1.210387200117111206e-01 -1.669300198554992676e-01 1.649144589900970459e-01 -2.679671347141265869e-02 -6.980942189693450928e-02 1.034434139728546143e-01 -2.571873739361763000e-02 1.669212877750396729e-01 8.106644451618194580e-02 1.188965421169996262e-02 -3.190347552299499512e-02 -1.239595562219619751e-01 4.490085318684577942e-02 -8.252368122339248657e-02 2.039114832878112793e-01 3.511320650577545166e-01 2.832255326211452484e-02 -5.970602855086326599e-02 -5.185021087527275085e-03 -3.602688759565353394e-02 -1.488464027643203735e-01 9.747720509767532349e-02 -1.509821116924285889e-01 -7.662560045719146729e-02 1.528529673814773560e-01 -2.429766505956649780e-01 2.285583764314651489e-01 1.305910944938659668e-01 -1.533711608499288559e-02 5.291029810905456543e-02 -6.145008653402328491e-02 5.805264413356781006e-02 7.335336506366729736e-02 -3.057048320770263672e-01 2.274849265813827515e-01 2.029611021280288696e-01 7.717081159353256226e-02 6.499122828245162964e-02 9.215224534273147583e-02 9.183961153030395508e-02 4.731160029768943787e-02 1.169910654425621033e-01 -2.610117942094802856e-02 1.165385730564594269e-02 9.564266353845596313e-02 -7.057970762252807617e-02 1.247602105140686035e-01 8.009950071573257446e-02 9.389545023441314697e-02 -7.321266084909439087e-02 -7.168505340814590454e-02 -8.830992877483367920e-02 -8.332012593746185303e-02 -1.326084285974502563e-01 -4.242850244045257568e-01 -8.398835547268390656e-03 1.380738243460655212e-02 -2.176495641469955444e-01 1.553804427385330200e-01 -3.729467466473579407e-02 7.491984218358993530e-02 9.598385542631149292e-02 -1.193348616361618042e-01 8.874888718128204346e-02 1.527245193719863892e-01 -1.014544256031513214e-02 -3.300219029188156128e-02
