1.511971503496170044e-01 -8.902245759963989258e-02 -6.258238106966018677e-02 -1.345419436693191528e-01 6.814239919185638428e-02 -6.466302089393138885e-03 -3.896273970603942871e-01 9.263291023671627045e-03 1.808173209428787231e-02 1.523065716028213501e-01 1.330533437430858612e-02 1.067071259021759033e-01 2.267652302980422974e-01 -1.227556392550468445e-01 9.823004715144634247e-03 5.425731539726257324e-01 -8.706010878086090088e-02 -5.958898738026618958e-02 9.208216518163681030e-02 3.847044408321380615e-01 -1.012277603149414062e-01 1.496744249016046524e-02 1.221880838274955750e-01 1.799283325672149658e-01 1.241342797875404358e-01 4.164039343595504761e-02 -8.984611928462982178e-02 -8.969572186470031738e-02 -7.403472065925598145e-02 6.837991625070571899e-02 7.694161683320999146e-02 6.558847427368164062e-02 -1.091723218560218811e-01 -7.017796486616134644e-02 -7.215466350317001343e-02 -5.862216651439666748e-02 1.338358372449874878e-01 1.724012382328510284e-02 6.631399691104888916e-02 -1.099122539162635803e-01 -2.318886369466781616e-01 1.776911318302154541e-02 1.651000380516052246e-01 1.770486384630203247e-01 8.176388591527938843e-02 -1.268260627985000610e-01 5.234938859939575195e-02 3.180344775319099426e-02 -2.117428481578826904e-01 1.910853385925292969e-01 8.943824470043182373e-02 -3.791632875800132751e-02 6.382452696561813354e-02 1.662745773792266846e-01 1.957330107688903809e-01 1.230794042348861694e-01 -6.209173053503036499e-02 1.352771669626235962e-01 -1.033657714724540710e-01 2.638596296310424805e-01 1.463303714990615845e-01 3.311045467853546143e-02 -1.161954030394554138e-01 -2.319397628307342529e-01 -1.441192626953125000e-01 6.808293052017688751e-03 1.484186016023159027e-02 3.355328738689422607e-02 -3.490437269210815430e-01 -6.245845183730125427e-02 7.901432365179061890e-02 2.855624854564666748e-01 -1.560663729906082153e-01 3.426804766058921814e-02 -3.915685229003429413e-03 3.300483152270317078e-02 -1.943520386703312397e-03 2.276669591665267944e-01 6.256764382123947144e-02 8.095230907201766968e-03 -5.904173478484153748e-02 2.749713361263275146e-01 2.277765274047851562e-01 1.143695637583732605e-01 -1.242313683032989502e-01 -6.951446086168289185e-02 -1.791252791881561279e-01 5.794946849346160889e-02 1.095551438629627228e-02 4.410559684038162231e-02 -8.355695754289627075e-02 -2.612503170967102051e-01 1.436179280281066895e-01 4.891668632626533508e-02 3.425027057528495789e-02 -4.960966110229492188e-02 -1.721889227628707886e-01 -2.285965681076049805e-01 -8.091041445732116699e-02 4.297686740756034851e-02 -9.106031060218811035e-02 8.305636793375015259e-02 -9.021117351949214935e-03 -2.072247713804244995e-01 3.620295086875557899e-03 5.918133631348609924e-02 1.583353057503700256e-02 5.281686037778854370e-02 6.199132278561592102e-02 -1.860820688307285309e-02 -2.250922173261642456e-01 1.128743286244571209e-03 6.032416597008705139e-02 1.213851422071456909e-01 1.438085827976465225e-02 -1.205960288643836975e-01 -1.451191306114196777e-01 1.731585152447223663e-02 -6.140858680009841919e-02 2.178570069372653961e-02 1.002982705831527710e-01 -6.882543116807937622e-02 1.387864202260971069e-01 -1.033698767423629761e-02 -1.847253441810607910e-01 -3.058138862252235413e-02 -9.351978451013565063e-02 -2.684090435504913330e-01
-3.572417199611663818e-01 1.020904332399368286e-01 -9.798005968332290649e-02 1.703111827373504639e-02 7.124722748994827271e-02 1.003385987132787704e-02 4.376346617937088013e-02 1.059853807091712952e-01 9.892323613166809082e-02 2.617422044277191162e-01 -1.029182150959968567e-01 -9.360156953334808350e-02 2.709088921546936035e-01 -5.505468696355819702e-02 3.700215518474578857e-01 -2.168190181255340576e-01 1.220176443457603455e-01 4.153910651803016663e-02 1.287617385387420654e-01 3.405680879950523376e-02 -6.320440769195556641e-02 -1.600432991981506348e-01 2.993303537368774414e-02 1.484096236526966095e-02 1.056915298104286194e-01 3.944339156150817871e-01 2.357680052518844604e-01 2.626650631427764893e-01 1.185641661286354065e-01 9.499687701463699341e-02 9.834144264459609985e-02 1.329269707202911377e-01 -9.417952597141265869e-02 1.087944284081459045e-01 1.009316816926002502e-01 -9.048859030008316040e-02 -3.145576715469360352e-01 -4.754152894020080566e-02 1.818969696760177612e-01 5.058049783110618591e-02 -1.018829792737960815e-01 -7.333573698997497559e-02 1.502919197082519531e-01 -2.665875852108001709e-02 1.151681840419769287e-01 1.998864710330963135e-01 6.388099491596221924e-02 1.468579471111297607e-01 -9.258351475000381470e-02 -9.746750444173812866e-02 -1.786146312952041626e-01 1.713583618402481079e-02 3.555932641029357910e-02 7.991181313991546631e-02 2.648377120494842529e-01 8.877028524875640869e-02 7.807168364524841309e-02 -1.805300563573837280e-01 2.750326097011566162e-01 -4.007379338145256042e-02 -2.693333327770233154e-01 -9.334642440080642700e-02 6.184018775820732117e-02 7.388123124837875366e-02 8.355463854968547821e-03 -1.781887710094451904e-01 -2.363703399896621704e-01 -1.361861079931259155e-01 -3.162221238017082214e-02 1.211086846888065338e-02 1.325241327285766602e-01 -1.382710188627243042e-01 1.334500163793563843e-01 -1.951199583709239960e-02 -7.420907169580459595e-02 1.389731615781784058e-01 -2.226278334856033325e-01 -1.058241501450538635e-01 -1.019516144879162312e-03 -2.941620051860809326e-01 -1.918255686759948730e-01 1.320406645536422729e-01 1.724154129624366760e-02 -1.108048483729362488e-01 -2.351555377244949341e-01 8.591845631599426270e-02 -3.973374888300895691e-02 -4.212532192468643188e-02 -5.909429164603352547e-04 3.753946349024772644e-02 -1.133472323417663574e-01 -5.354447290301322937e-02 1.371465027332305908e-01 1.065047085285186768e-01 6.796353310346603394e-02 6.931023206561803818e-03 -5.531098693609237671e-02 3.602849543094635010e-01 7.133634388446807861e-02 -2.129932492971420288e-02 1.123013999313116074e-02 -9.540306776762008667e-02 6.331180036067962646e-02 -2.951785326004028320e-01 5.321889370679855347e-02 2.501790784299373627e-02 -1.685491502285003662e-01 2.962756156921386719e-02 -5.816617608070373535e-02 7.629466708749532700e-04 1.042669937014579773e-01 7.955136150121688843e-02 -2.237408235669136047e-02 2.365505397319793701e-01 3.138141706585884094e-02 -1.970493793487548828e-01 -2.869751155376434326e-01 6.352449208498001099e-02 -7.479033619165420532e-02 1.804854422807693481e-01 3.452342152595520020e-01 1.725728213787078857e-01 -2.657074928283691406e-01 -8.178264647722244263e-02 2.918166220188140869e-01 4.383724555373191833e-02 1.693117916584014893e-01 -2.323839217424392700e-01
-2.068573236465454102e-01 -1.018606871366500854e-01 -4.928993061184883118e-02 -1.511690318584442139e-01 1.028710082173347473e-01 -1.205854490399360657e-01 -9.296832233667373657e-02 3.521005436778068542e-02 3.461087495088577271e-02 1.466713994741439819e-01 -6.939994171261787415e-03 -3.042790889739990234e-01 -1.381018459796905518e-01 7.005304843187332153e-02 -1.155260279774665833e-01 -5.923625081777572632e-02 -1.088668182492256165e-01 4.343150928616523743e-02 -1.748587936162948608e-01 1.279789656400680542e-01 -7.070869207382202148e-02 -6.972105056047439575e-02 -1.005861326120793819e-03 -7.207534462213516235e-02 -7.223104126751422882e-03 -3.331935778260231018e-02 -4.549074769020080566e-01 -4.367746412754058838e-02 5.264443531632423401e-02 3.591307625174522400e-02 -2.255651056766510010e-01 3.516579046845436096e-02 1.360432244837284088e-02 8.281435002572834492e-04 5.446328222751617432e-02 6.996943801641464233e-02 4.142750427126884460e-02 -2.543395571410655975e-02 -5.027179792523384094e-02 2.480767518281936646e-01 -3.151355087757110596e-01 -1.014264523983001709e-01 2.218882739543914795e-01 3.848388046026229858e-02 -1.544414833188056946e-02 -8.754029870033264160e-02 -4.149630293250083923e-02 2.859941720962524414e-01 1.595665141940116882e-02 -1.510070860385894775e-01 -2.503616213798522949e-01 -5.321022123098373413e-03 -1.303050369024276733e-01 1.016314849257469177e-01 -3.414269387722015381e-01 3.763657063245773315e-02 4.041070044040679932e-01 -3.008102178573608398e-01 -4.105514287948608398e-02 -2.709580212831497192e-02 4.070017933845520020e-01 -9.910134226083755493e-02 1.515587717294692993e-01 8.380757644772529602e-03 9.149836748838424683e-02 6.508335471153259277e-02 -5.003141239285469055e-02 -4.917244985699653625e-02 -9.949390590190887451e-02 1.906800270080566406e-01 -1.537628006190061569e-02 -1.720501482486724854e-01 1.210363581776618958e-01 7.041445374488830566e-02 2.255978062748908997e-02 -1.864831149578094482e-01 2.259172648191452026e-01 -5.441925302147865295e-02 1.049060374498367310e-01 1.076791808009147644e-01 2.587428987026214600e-01 -1.301490142941474915e-02 2.637616395950317383e-01 2.369142770767211914e-01 -6.548645347356796265e-02 1.409558951854705811e-01 6.203210726380348206e-02 4.463367164134979248e-02 -1.846010684967041016e-01 -2.955649048089981079e-03 8.809248916804790497e-03 -1.516522020101547241e-01 -3.760027140378952026e-02 1.423915922641754150e-01 -9.946978092193603516e-02 1.266099363565444946e-01 1.052177399396896362e-01 -9.788943827152252197e-02 1.284257974475622177e-02 -2.523835282772779465e-03 1.636782586574554443e-01 -1.549788117408752441e-01 9.760612994432449341e-02 -6.445374339818954468e-02 -7.607214152812957764e-02 -8.633215911686420441e-03 -5.601838231086730957e-03 7.711764425039291382e-02 -1.103684604167938232e-01 -3.171035051345825195e-01 -4.760790616273880005e-02 -2.029357701539993286e-01 -9.313436597585678101e-02 8.392406255006790161e-02 1.688543409109115601e-01 -1.360181570053100586e-01 -2.242914885282516479e-01 1.346438080072402954e-01 4.743003100156784058e-02 2.145675420761108398e-01 -1.099442988634109497e-01 1.984724402427673340e-01 -1.472554802894592285e-01 -2.034175395965576172e-02 6.607042998075485229e-02 -1.021865978837013245e-01 -4.556103423237800598e-02 2.092858776450157166e-02
-3.985226452350616455e-01 5.981452763080596924e-02 8.368763327598571777e-02 -1.227615326642990112e-01 1.009029224514961243e-01 8.614934980869293213e-02 -1.056689843535423279e-01 1.303183138370513916e-01 8.792438358068466187e-02 -1.118113193660974503e-02 1.151685491204261780e-01 2.015472650527954102e-01 6.397208571434020996e-02 7.812561839818954468e-02 -1.315346062183380127e-01 8.134620636701583862e-02 1.082812249660491943e-01 1.164318993687629700e-01 1.041129380464553833e-01 -1.571037769317626953e-01 -6.078322883695363998e-03 2.935069380328059196e-03 -1.211773790419101715e-02 9.661222249269485474e-02 1.008566170930862427e-01 3.162368535995483398e-01 -6.313458681106567383e-01 -1.109539065510034561e-02 -3.738733939826488495e-03 3.393299132585525513e-02 9.979443252086639404e-02 1.272641569375991821e-01 4.395646974444389343e-02 -2.108572237193584442e-02 6.144289299845695496e-02 -9.471406228840351105e-03 -2.881611287593841553e-01 -5.935934931039810181e-02 -1.584474295377731323e-01 1.064693853259086609e-01 -6.960250437259674072e-02 1.473385002464056015e-02 -1.341778188943862915e-01 -8.609420806169509888e-02 -1.541561782360076904e-01 -5.031482875347137451e-02 9.179198741912841797e-02 2.347688227891921997e-01 -7.011420279741287231e-02 -3.616557270288467407e-02 -3.497906029224395752e-02 1.119336485862731934e-01 -5.009462311863899231e-02 6.990922614932060242e-03 2.114315629005432129e-01 9.713896363973617554e-02 -4.250880703330039978e-02 1.984980851411819458e-01 1.599541157484054565e-01 1.388091444969177246e-01 2.210627049207687378e-01 -3.864295184612274170e-01 1.711972653865814209e-01 -2.968496456742286682e-02 4.948947951197624207e-02 -6.352351605892181396e-02 4.467536881566047668e-02 1.148486286401748657e-01 -1.543746888637542725e-01 1.380420327186584473e-01 -1.287033781409263611e-02 -2.155009806156158447e-01 3.409729525446891785e-02 -1.273060739040374756e-01 -6.662065628916025162e-03 1.430985331535339355e-01 -4.916640464216470718e-04 1.004936695098876953e-01 1.817537248134613037e-01 1.964764297008514404e-01 -9.031146764755249023e-02 -1.220223754644393921e-01 -6.181859597563743591e-02 3.270601034164428711e-01 -9.578595310449600220e-02 5.444060266017913818e-02 1.323907971382141113e-01 1.994320563971996307e-02 -3.427637368440628052e-02 -1.131889224052429199e-01 -1.520992517471313477e-01 1.158619523048400879e-01 1.064959168434143066e-01 -7.260628789663314819e-02 -2.040116339921951294e-01 9.606084972620010376e-02 -1.937861144542694092e-01 -1.454950720071792603e-01 3.914763405919075012e-02 -2.588091492652893066e-01 5.339345708489418030e-02 -1.451491862535476685e-01 2.721882164478302002e-01 -3.607764840126037598e-02 -1.056904196739196777e-01 1.049668192863464355e-01 1.247049346566200256e-01 2.219552546739578247e-01 1.618365496397018433e-01 -2.329962104558944702e-01 -2.878230810165405273e-01 1.010679379105567932e-01 -2.857542969286441803e-02 5.159006714820861816e-01 9.270563721656799316e-03 -6.631012260913848877e-02 -1.107800677418708801e-01 3.119155205786228180e-02 -4.060148447751998901e-02 -1.412874758243560791e-01 1.678204387426376343e-01 2.729211449623107910e-01 -2.277193367481231689e-01 -1.036680042743682861e-01 5.096986144781112671e-02 -4.854767397046089172e-02 -5.856657773256301880e-02 4.027893394231796265e-02
1.838644295930862427e-01 -7.271463423967361450e-02 1.605345755815505981e-01 9.191505610942840576e-02 2.534708678722381592e-01 -1.759907603263854980e-01 -1.078855097293853760e-01 -2.905531041324138641e-02 -2.289314568042755127e-02 -3.578637551981955767e-04 7.490092515945434570e-02 3.904550969600677490e-01 6.249088421463966370e-02 6.888221204280853271e-02 6.950030103325843811e-03 -1.850965619087219238e-01 -7.062867283821105957e-02 2.262142449617385864e-01 -2.465107142925262451e-01 1.071128845214843750e-01 2.299452945590019226e-02 -9.434223920106887817e-02 2.138064652681350708e-01 -2.400857210159301758e-01 -1.158424019813537598e-01 -2.904525399208068848e-01 2.844578027725219727e-02 -2.884404957294464111e-01 -8.905078284442424774e-03 6.028225645422935486e-02 8.840825408697128296e-02 3.666776791214942932e-02 1.225868239998817444e-01 -2.767232805490493774e-02 -8.547508716583251953e-02 1.214219033718109131e-01 2.531888186931610107e-01 3.553188173100352287e-03 9.343585371971130371e-02 -9.725867211818695068e-02 1.042249947786331177e-01 2.445100247859954834e-01 -9.052123874425888062e-02 -1.369322985410690308e-01 1.312627494335174561e-01 -1.431469619274139404e-01 8.429533988237380981e-02 1.750214993953704834e-01 -1.356948446482419968e-02 -9.369558095932006836e-02 6.051137670874595642e-02 1.058398783206939697e-01 -9.864144772291183472e-02 -6.299858540296554565e-02 4.974084496498107910e-01 -9.699484705924987793e-02 3.970652353018522263e-03 -4.263004660606384277e-02 5.057955533266067505e-02 2.313168160617351532e-02 -7.944596558809280396e-02 7.225272059440612793e-02 -1.226833090186119080e-01 1.573662012815475464e-01 1.206140592694282532e-01 -8.092026412487030029e-02 8.918788284063339233e-02 -1.219908818602561951e-01 2.132245451211929321e-01 -1.377021670341491699e-01 -2.336112409830093384e-01 -1.831430755555629730e-02 1.666840016841888428e-01 -1.270042955875396729e-01 -4.573978111147880554e-02 -1.847470179200172424e-02 -2.185210585594177246e-03 -7.263696193695068359e-02 -1.122466102242469788e-01 8.791692554950714111e-02 -2.042882293462753296e-01 -5.464769527316093445e-02 2.370853573083877563e-01 -4.558220133185386658e-02 -6.607955694198608398e-02 6.208041682839393616e-02 -1.606828421354293823e-01 6.296873092651367188e-02 3.387039154767990112e-02 -4.650930315256118774e-02 1.517335921525955200e-01 -1.002791672945022583e-01 4.166730865836143494e-02 4.540441557765007019e-02 -2.252279669046401978e-01 7.742388546466827393e-02 -2.837531641125679016e-02 2.941200733184814453e-01 -3.655598461627960205e-01 1.352622061967849731e-01 1.114363446831703186e-01 -2.166414856910705566e-01 -2.689288556575775146e-01 -3.321436345577239990e-01 4.182228352874517441e-03 -1.868029236793518066e-01 -1.676428616046905518e-01 -1.119542941451072693e-01 4.641576483845710754e-02 2.937636077404022217e-01 -4.786481335759162903e-02 3.719636797904968262e-01 1.569652557373046875e-01 -1.817762106657028198e-01 1.960128098726272583e-01 -5.787445604801177979e-02 3.199236690998077393e-01 2.864903956651687622e-02 -8.322737365961074829e-02 -1.671502366662025452e-02 1.250169724225997925e-01 1.708073765039443970e-01 -4.827329516410827637e-02 -7.590594142675399780e-02 -1.003599017858505249e-01 -2.248048316687345505e-03 -2.703104913234710693e-01 -7.184323668479919434e-02
4.658297821879386902e-02 -4.352911934256553650e-02 4.325820878148078918e-02 2.444561719894409180e-01 -3.466298431158065796e-02 -2.212492525577545166e-01 -1.062184199690818787e-02 2.945834957063198090e-02 5.160648003220558167e-02 -1.419613063335418701e-01 7.559987902641296387e-02 -1.510960161685943604e-01 2.302615940570831299e-01 -2.161696702241897583e-01 3.860643599182367325e-03 1.315626502037048340e-01 2.274125069379806519e-02 1.530161201953887939e-01 -1.895685642957687378e-01 -6.626495718955993652e-02 -1.084329094737768173e-02 -5.539001151919364929e-02 -5.142363533377647400e-02 -1.927192658185958862e-01 -2.081044018268585205e-02 -1.746038496494293213e-01 -1.938898861408233643e-01 8.703044801950454712e-02 3.739662468433380127e-02 -4.062669724225997925e-02 -4.619354903697967529e-01 -5.970588698983192444e-02 4.001332446932792664e-02 1.737157106399536133e-01 4.245164990425109863e-02 9.624714404344558716e-02 4.015509486198425293e-01 -4.905538633465766907e-02 -2.127488404512405396e-01 -4.030189290642738342e-02 9.882406890392303467e-02 -1.473277062177658081e-01 -6.814370304346084595e-02 -1.711630523204803467e-01 -5.728131532669067383e-02 1.605729609727859497e-01 1.068962663412094116e-01 -1.266567856073379517e-01 -1.143784821033477783e-01 -4.668291658163070679e-02 -1.036507859826087952e-01 5.634309351444244385e-02 -4.219411872327327728e-03 1.651351749897003174e-01 8.223461359739303589e-02 1.350183133035898209e-02 8.302921801805496216e-02 1.458124220371246338e-01 -3.763623535633087158e-02 -2.901521921157836914e-01 -2.969224452972412109e-01 2.564373016357421875e-01 2.186428159475326538e-01 8.131318539381027222e-02 1.190811619162559509e-01 2.182315289974212646e-01 -1.263407617807388306e-01 5.388339608907699585e-02 -2.182948142290115356e-01 -4.995510727167129517e-02 -1.911451816558837891e-01 -4.220872744917869568e-02 4.890133067965507507e-02 5.368681624531745911e-02 -1.469244062900543213e-01 -8.098042011260986328e-02 2.736714780330657959e-01 3.189867828041315079e-03 -4.910183325409889221e-02 4.742487668991088867e-01 1.456817388534545898e-01 -7.436443865299224854e-02 1.791325025260448456e-02 9.811618365347385406e-03 1.676367968320846558e-02 -1.749524474143981934e-01 -2.574232220649719238e-01 9.528459608554840088e-02 -6.242212280631065369e-02 -2.400230802595615387e-02 3.088653087615966797e-01 5.859013646841049194e-02 -3.551413118839263916e-02 3.492626547813415527e-01 -3.942701816558837891e-01 3.736592084169387817e-02 6.674785166978836060e-02 -3.524609804153442383e-01 7.777747511863708496e-02 1.865468621253967285e-01 1.118563041090965271e-01 -1.043563112616539001e-01 -1.284015178680419922e-02 8.441890776157379150e-02 -1.370365619659423828e-01 6.358304992318153381e-03 -3.324129432439804077e-02 1.611045002937316895e-01 1.765090674161911011e-01 6.848747376352548599e-03 -1.044652834534645081e-01 -2.468937635421752930e-01 3.134869784116744995e-02 2.514085546135902405e-02 1.469281315803527832e-01 -1.721896976232528687e-01 6.401775777339935303e-02 4.822605103254318237e-02 -9.095250070095062256e-02 -1.270881891250610352e-01 -6.915912032127380371e-02 -8.100042492151260376e-02 1.687266528606414795e-01 -2.664873003959655762e-02 1.570013910531997681e-01 1.098338812589645386e-01 6.565155833959579468e-02 5.978690087795257568e-02
-1.572832167148590088e-01 3.633243143558502197e-01 3.119239211082458496e-01 -1.312115341424942017e-01 1.674446165561676025e-01 -4.861718416213989258e-02 -1.228436306118965149e-01 -9.817928075790405273e-03 1.618642918765544891e-02 -1.021608188748359680e-01 6.829214841127395630e-02 1.680428087711334229e-01 -2.399100176990032196e-02 1.865374743938446045e-01 -1.497542392462491989e-02 -1.204051822423934937e-01 -2.386666834354400635e-01 1.843305528163909912e-01 -2.829496860504150391e-01 -4.638090133666992188e-01 2.653831988573074341e-02 4.924903810024261475e-02 3.347976878285408020e-02 1.353102326393127441e-01 -4.642463754862546921e-03 -1.624269187450408936e-01 -1.730203032493591309e-01 -4.812147468328475952e-02 -6.656257808208465576e-02 5.415332317352294922e-02 1.557548642158508301e-01 7.737505715340375900e-03 9.785360097885131836e-02 -3.846542909741401672e-02 1.787663698196411133e-01 -2.645365707576274872e-02 3.545824438333511353e-02 -3.042987780645489693e-03 -1.861862242221832275e-01 -8.749438077211380005e-02 -1.094973459839820862e-01 -5.722877010703086853e-02 -2.166911512613296509e-01 -2.076960504055023193e-01 6.929261982440948486e-02 -5.699233710765838623e-02 -9.784224629402160645e-02 3.439798355102539062e-01 -4.118237271904945374e-02 -1.369764059782028198e-01 1.738516241312026978e-01 5.817477032542228699e-02 -8.760906010866165161e-02 6.857331097126007080e-02 9.633671492338180542e-02 -7.662738114595413208e-02 -2.056927084922790527e-01 3.139162361621856689e-01 -1.712483614683151245e-01 4.734282381832599640e-03 -1.774919480085372925e-01 1.371774729341268539e-02 2.254413366317749023e-01 -9.062843397259712219e-03 -4.040558636188507080e-02 1.224354878067970276e-01 -1.249889656901359558e-01 -1.931591331958770752e-01 -1.112648397684097290e-01 -1.188934966921806335e-02 -1.617845892906188965e-01 -3.866860270500183105e-02 -2.473774366080760956e-02 6.741178687661886215e-03 -7.643307000398635864e-02 -8.364778012037277222e-02 3.001933395862579346e-01 -8.803708106279373169e-02 8.767567574977874756e-02 4.581288099288940430e-01 -2.605440616607666016e-01 -4.675890505313873291e-02 8.532047271728515625e-02 -1.725379526615142822e-01 7.161627709865570068e-02 -2.172511667013168335e-01 -7.967081665992736816e-02 1.754946261644363403e-01 -1.321140676736831665e-01 -8.222267031669616699e-02 4.074876662343740463e-03 -3.341075207572430372e-04 4.402548819780349731e-02 2.494213171303272247e-02 -9.060464054346084595e-02 1.943199336528778076e-01 -1.447613537311553955e-01 -1.153050959110260010e-01 8.170911669731140137e-02 -1.834412515163421631e-01 1.011651083827018738e-01 7.199461571872234344e-03 3.400348424911499023e-01 1.207715421915054321e-01 -4.611638933420181274e-02 1.381902545690536499e-01 -2.218954451382160187e-02 2.304009497165679932e-01 -1.919198036193847656e-02 2.633191272616386414e-02 4.400362446904182434e-02 -3.110927902162075043e-02 5.623327568173408508e-03 1.089462265372276306e-01 -2.623633481562137604e-02 -3.132706135511398315e-02 4.512197896838188171e-02 7.691443711519241333e-02 -9.136988222599029541e-02 -7.669712603092193604e-02 -2.793112993240356445e-01 1.838543117046356201e-01 -1.637639999389648438e-01 -3.769162669777870178e-02 3.226171135902404785e-01 1.400190293788909912e-01 -1.774894818663597107e-02 1.621097177267074585e-01
-1.373620238155126572e-02 2.046013474464416504e-01 -1.000076532363891602e-02 -5.500486120581626892e-03 -8.498151600360870361e-02 -1.467294394969940186e-01 -2.509127557277679443e-01 7.726433128118515015e-02 7.561824470758438110e-02 2.348029911518096924e-01 9.092119336128234863e-02 3.303696513175964355e-01 -2.307917736470699310e-02 1.111589744687080383e-01 2.887218892574310303e-01 -1.568566262722015381e-02 2.510349452495574951e-01 -1.058189347386360168e-01 1.885839849710464478e-01 -2.296654134988784790e-01 -5.550939589738845825e-02 -7.721839938312768936e-03 1.823492348194122314e-01 -2.017006874084472656e-01 -1.207753196358680725e-01 1.061279773712158203e-01 1.344457715749740601e-01 5.539734847843647003e-03 7.035013288259506226e-02 -2.070178650319576263e-02 -3.960377275943756104e-01 2.484885305166244507e-01 9.299458563327789307e-02 1.771122664213180542e-01 -1.435584872961044312e-01 2.633572556078433990e-02 3.770375847816467285e-01 -7.898639142513275146e-02 -5.156750604510307312e-02 -8.759564161300659180e-02 -1.224758196622133255e-02 1.953595727682113647e-01 1.524053812026977539e-01 6.443490833044052124e-02 4.363517835736274719e-02 6.731007993221282959e-02 -5.469055846333503723e-02 -2.078067325055599213e-02 -7.070151716470718384e-02 -3.235561400651931763e-02 1.139513999223709106e-01 7.960988581180572510e-02 1.159583926200866699e-01 -1.290116459131240845e-01 -1.900565028190612793e-01 4.422623664140701294e-02 1.154369637370109558e-01 -7.144413888454437256e-02 1.461540609598159790e-01 -6.089258193969726562e-02 1.947282254695892334e-01 3.247959613800048828e-01 1.333536207675933838e-01 6.612460315227508545e-02 -7.871753722429275513e-02 -3.098803460597991943e-01 1.467688232660293579e-01 -1.743037849664688110e-01 1.936472803354263306e-01 5.017656367272138596e-03 -1.315268129110336304e-01 -1.339025050401687622e-01 2.039246559143066406e-01 -8.840931206941604614e-02 -1.489054597914218903e-02 2.067085653543472290e-01 -2.683069407939910889e-01 -7.639458030462265015e-02 -2.127466946840286255e-01 4.704836010932922363e-02 -1.468451172113418579e-01 -7.123726606369018555e-02 -3.166309325024485588e-04 5.884265899658203125e-02 -8.636692911386489868e-02 -7.259355485439300537e-02 -1.204135790467262268e-01 1.732317507266998291e-01 -1.880747266113758087e-02 4.709486663341522217e-02 1.273703724145889282e-01 -3.657476976513862610e-02 2.143291831016540527e-01 9.018760174512863159e-02 3.557571172714233398e-01 -1.465667188167572021e-01 -1.481509357690811157e-01 2.630703747272491455e-01 -9.246832877397537231e-02 9.469792991876602173e-02 -1.188652007840573788e-03 -1.719530299305915833e-02 -2.417573332786560059e-01 -1.005633398890495300e-01 -4.888001829385757446e-02 -2.361708432435989380e-01 -1.629106402397155762e-01 -1.138918027281761169e-01 -1.265718042850494385e-01 -1.399215608835220337e-01 1.224656328558921814e-01 -1.459598988294601440e-01 8.528531342744827271e-02 6.038851663470268250e-02 -3.835328221321105957e-01 1.888253726065158844e-02 1.285499632358551025e-01 9.858649969100952148e-02 -1.218315958976745605e-01 9.755147248506546021e-02 4.827659130096435547e-01 -2.453984618186950684e-01 1.866481453180313110e-01 -3.155481442809104919e-02 -3.060499131679534912e-01 7.778050005435943604e-02 9.175332635641098022e-02 -1.349451839923858643e-01
2.570605576038360596e-01 2.806143760681152344e-01 -8.322708308696746826e-02 -2.282736599445343018e-01 1.157416030764579773e-01 2.512569539248943329e-02 7.092420477420091629e-03 3.095502220094203949e-02 3.981816023588180542e-02 -1.482113897800445557e-01 1.683064550161361694e-01 1.543507277965545654e-01 3.549448028206825256e-02 2.608857154846191406e-01 -3.534587621688842773e-01 2.779492437839508057e-01 -2.861156500875949860e-02 9.499548375606536865e-02 -4.714690744876861572e-01 -5.385325103998184204e-02 -6.017040088772773743e-02 -4.076349735260009766e-02 1.324520166963338852e-02 -3.777276277542114258e-01 1.235807985067367554e-01 -1.628084629774093628e-01 1.855101734399795532e-01 4.447343945503234863e-02 -2.443014271557331085e-02 1.004682257771492004e-01 -7.880398631095886230e-02 2.343625128269195557e-01 8.215225487947463989e-02 -1.531471312046051025e-02 5.481533706188201904e-03 1.304582692682743073e-02 1.479421406984329224e-01 -1.479068994522094727e-01 -1.273206472396850586e-01 -5.190046876668930054e-02 8.954454958438873291e-02 7.213096134364604950e-03 2.798967063426971436e-01 -2.171421237289905548e-02 7.052049785852432251e-02 -3.988312184810638428e-02 2.083041667938232422e-01 1.350174844264984131e-01 -6.750645115971565247e-03 7.462390512228012085e-02 -9.358331561088562012e-02 9.570930898189544678e-02 -1.919144988059997559e-01 2.416990250349044800e-01 2.662595808506011963e-01 -2.818855345249176025e-01 -8.232122659683227539e-02 -7.560022175312042236e-02 3.693699836730957031e-02 2.444490045309066772e-01 -1.667738333344459534e-02 1.042094081640243530e-01 -1.877676099538803101e-01 2.641273289918899536e-02 1.406697034835815430e-01 6.394104659557342529e-02 -2.111801952123641968e-01 -9.281681850552558899e-03 -1.098331995308399200e-02 -3.578540980815887451e-01 2.277242392301559448e-01 -1.273218095302581787e-01 -1.402337104082107544e-01 1.640265434980392456e-02 -1.523135788738727570e-02 -4.935782402753829956e-02 -4.562534857541322708e-03 4.454236924648284912e-01 -1.068650092929601669e-02 -7.092753797769546509e-02 3.237002193927764893e-01 -6.246733665466308594e-02 -9.606889635324478149e-02 -1.245132312178611755e-01 -1.722077606245875359e-03 -1.891374029219150543e-02 -2.410854995250701904e-01 1.313070207834243774e-01 -9.860841184854507446e-02 -5.495821125805377960e-03 1.920638680458068848e-01 1.765389144420623779e-01 1.336084008216857910e-01 -2.465365976095199585e-01 -3.200263679027557373e-01 2.251205146312713623e-01 -1.053350940346717834e-01 -3.459133207798004150e-02 2.185893952846527100e-01 -2.195831984281539917e-01 1.474441736936569214e-01 -2.071448266506195068e-01 1.079601943492889404e-01 -2.985278330743312836e-02 -3.059998154640197754e-02 2.327333837747573853e-01 -2.454490214586257935e-02 1.843435615301132202e-01 3.987041413784027100e-01 1.997597143054008484e-02 -1.997101455926895142e-01 5.367930047214031219e-03 -1.235036179423332214e-02 -2.480550901964306831e-03 2.460830360651016235e-01 -2.568582594394683838e-01 -1.450403686612844467e-02 9.970817714929580688e-02 3.015119209885597229e-02 7.281520962715148926e-02 1.589533984661102295e-01 -1.174227073788642883e-01 -1.943818181753158569e-01 -1.957036852836608887e-01 -1.892388612031936646e-01 -1.671825945377349854e-01 -1.159718185663223267e-01 -1.990268230438232422e-01
2.576995193958282471e-01 -1.976973414421081543e-01 5.132879316806793213e-02 -3.681223988533020020e-01 5.055195838212966919e-02 -1.199456602334976196e-01 1.026595756411552429e-02 6.520021706819534302e-02 8.468037843704223633e-02 -3.688365221023559570e-01 7.865416817367076874e-03 2.193767428398132324e-01 8.228013664484024048e-02 -1.154187023639678955e-01 -2.702233493328094482e-01 8.084665238857269287e-02 -1.202611252665519714e-01 7.972219586372375488e-02 -5.155944079160690308e-02 2.605369091033935547e-01 -2.050936687737703323e-03 -6.137803941965103149e-02 1.643027216196060181e-01 -2.068223357200622559e-01 5.642388388514518738e-02 7.826971262693405151e-02 -3.180744349956512451e-01 6.084388494491577148e-02 -4.229275137186050415e-02 -5.104568228125572205e-02 2.749715745449066162e-01 -2.222997834905982018e-03 2.832269854843616486e-02 5.066526588052511215e-03 -1.880649179220199585e-01 -1.715291664004325867e-02 2.285763770341873169e-01 1.354552153497934341e-02 -1.486712098121643066e-01 -3.926212340593338013e-02 9.920173324644565582e-03 6.535113602876663208e-02 -2.905492112040519714e-02 3.458644449710845947e-02 -2.527418732643127441e-01 -9.452135860919952393e-02 -2.114668041467666626e-01 -6.631603837013244629e-02 3.080513142049312592e-02 -8.795143663883209229e-02 -5.626916140317916870e-02 8.665195107460021973e-02 -2.437578141689300537e-01 -1.697762757539749146e-01 -8.843319118022918701e-02 1.126534119248390198e-02 2.486372143030166626e-01 3.732742071151733398e-01 -7.114330679178237915e-02 9.882420301437377930e-02 -2.475632578134536743e-01 7.050374895334243774e-02 -4.346697777509689331e-02 4.782043397426605225e-02 1.549531426280736923e-02 -1.683513820171356201e-01 1.250161230564117432e-01 4.334698244929313660e-02 2.926440238952636719e-01 8.003472536802291870e-02 3.276854520663619041e-03 -2.126537114381790161e-01 6.257814355194568634e-03 -2.561031281948089600e-02 -3.401255235075950623e-02 -1.657235203310847282e-03 1.963060796260833740e-01 1.963808834552764893e-01 1.741760224103927612e-02 -2.892069816589355469e-01 -8.193999528884887695e-02 -1.689340174198150635e-01 -1.609723865985870361e-01 6.450058519840240479e-02 1.788344532251358032e-01 1.355823725461959839e-01 -1.597826629877090454e-01 4.885808750987052917e-02 -1.090334802865982056e-01 3.541334345936775208e-02 1.002251878380775452e-01 6.284091621637344360e-02 2.362820208072662354e-01 3.191463649272918701e-02 2.032045423984527588e-01 3.385074436664581299e-02 1.703922003507614136e-01 1.326167136430740356e-01 -1.967318654060363770e-01 5.060849785804748535e-01 9.550923854112625122e-02 -1.097521483898162842e-01 -1.596958786249160767e-01 1.154632344841957092e-01 -8.345207571983337402e-02 1.515886336565017700e-01 -1.633467152714729309e-02 -2.028079330921173096e-02 2.776612155139446259e-02 2.848143503069877625e-02 1.119292378425598145e-01 5.440854653716087341e-02 8.929626643657684326e-02 -1.077714115381240845e-01 -2.274648547172546387e-01 1.942918077111244202e-02 1.250108778476715088e-01 6.433368474245071411e-02 1.074843183159828186e-01 -1.029903590679168701e-01 1.169999875128269196e-02 3.267817944288253784e-02 1.080112755298614502e-01 -7.101076841354370117e-02 -3.027116060256958008e-01 -5.831663310527801514e-02 -3.301081806421279907e-02 8.560696989297866821e-02
-1.137279644608497620e-01 8.670368790626525879e-02 8.717803284525871277e-03 1.312076672911643982e-02 1.303472518920898438e-01 2.569215893745422363e-01 1.940322667360305786e-01 2.774879103526473045e-03 2.989706955850124359e-02 -1.538452804088592529e-01 6.906864047050476074e-02 -1.735393702983856201e-01 -3.586968034505844116e-02 2.831392288208007812e-01 3.127597570419311523e-01 -2.060435116291046143e-01 -2.228096686303615570e-02 7.728059776127338409e-03 2.610867321491241455e-01 -4.903450235724449158e-02 -6.121932715177536011e-02 -7.485527545213699341e-02 1.248262897133827209e-01 1.953646242618560791e-01 -1.230346634984016418e-01 1.123856008052825928e-01 -2.293191701173782349e-01 -1.738505996763706207e-02 8.368822187185287476e-02 -1.341335102915763855e-02 1.237454041838645935e-01 -9.788707643747329712e-02 6.033840402960777283e-02 1.261101663112640381e-01 5.770950019359588623e-02 1.188913062214851379e-01 -5.490979179739952087e-03 3.997272625565528870e-02 1.388179231435060501e-02 4.554506838321685791e-01 -1.773258149623870850e-01 1.728309541940689087e-01 -1.522673666477203369e-01 -1.401143968105316162e-01 -2.461394220590591431e-01 -3.710451349616050720e-02 -1.756237447261810303e-02 4.266232997179031372e-02 -9.208515286445617676e-02 -1.769088953733444214e-01 -8.482166379690170288e-02 8.024320751428604126e-02 -5.727097392082214355e-02 1.087149903178215027e-01 -6.523105315864086151e-03 3.480832092463970184e-03 2.404439449310302734e-01 -1.344434916973114014e-01 -8.552562445402145386e-02 2.133118510246276855e-01 -2.006025165319442749e-01 -5.727424845099449158e-02 2.878851071000099182e-02 4.540259391069412231e-02 -4.733098670840263367e-02 1.293808668851852417e-01 2.306461036205291748e-01 2.364470623433589935e-02 1.719796359539031982e-01 2.101795375347137451e-01 -1.572899520397186279e-01 -1.649109572172164917e-01 1.298542171716690063e-01 3.828650712966918945e-02 -2.185522764921188354e-02 4.871713742613792419e-02 3.566832840442657471e-01 -9.786974638700485229e-02 -1.292635798454284668e-01 -1.081122532486915588e-01 2.435531653463840485e-02 -1.782472729682922363e-01 1.519914567470550537e-01 2.432289123535156250e-01 9.318967163562774658e-02 1.040739864110946655e-01 1.283724009990692139e-01 4.672740995883941650e-01 -1.435369700193405151e-01 8.311823010444641113e-03 -6.259457767009735107e-02 5.443547293543815613e-02 1.920821219682693481e-01 -1.599793881177902222e-01 6.628412008285522461e-02 3.280141390860080719e-03 1.802208572626113892e-01 -4.206984117627143860e-02 -1.648645102977752686e-01 -2.229113131761550903e-01 1.133850440382957458e-01 -3.079135715961456299e-01 -8.558657020330429077e-03 1.090863626450300217e-02 -7.618619594722986221e-03 2.490526139736175537e-01 7.394572347402572632e-02 1.337392348796129227e-02 7.431934773921966553e-02 -1.893843561410903931e-01 1.646216213703155518e-01 2.109488546848297119e-01 1.307224668562412262e-02 1.752942204475402832e-01 -1.068999916315078735e-01 2.204643003642559052e-02 2.851517200469970703e-01 7.431501150131225586e-02 -7.355425506830215454e-02 -1.070194020867347717e-01 -2.900128364562988281e-01 3.585795313119888306e-02 1.621502190828323364e-01 -7.470802962779998779e-02 7.488840818405151367e-02 -1.045983806252479553e-01 -7.401399314403533936e-03 -1.420973520725965500e-02
-8.842220902442932129e-02 -2.259624302387237549e-01 -1.347422748804092407e-01 -5.325929820537567139e-02 -5.631908029317855835e-02 -3.957507759332656860e-02 9.525830298662185669e-02 6.084755528718233109e-03 5.268008448183536530e-03 -3.282715082168579102e-01 6.705773621797561646e-02 -1.533434540033340454e-01 2.282003127038478851e-02 -1.732164025306701660e-01 -3.164713084697723389e-01 -7.783068809658288956e-03 3.073002398014068604e-01 1.441091299057006836e-01 -1.204608380794525146e-02 2.487974166870117188e-01 -5.473453924059867859e-02 -2.550479024648666382e-03 -2.099083662033081055e-01 8.170702308416366577e-02 3.013326786458492279e-02 1.007004305720329285e-01 -5.806962251663208008e-01 3.251894414424896240e-01 -3.699920326471328735e-02 -6.106701493263244629e-02 2.112202048301696777e-01 3.019043616950511932e-02 9.097649157047271729e-02 1.109565347433090210e-01 2.007387578487396240e-02 -2.459412440657615662e-02 -4.490997176617383957e-03 -2.255450375378131866e-02 -2.427432127296924591e-02 1.651468575000762939e-01 1.312092244625091553e-01 4.958553239703178406e-02 1.693041622638702393e-02 -1.045073419809341431e-01 -2.637588046491146088e-02 1.016242653131484985e-01 -1.366569008678197861e-02 -7.392650097608566284e-02 5.689384788274765015e-02 1.031853631138801575e-01 -2.568790912628173828e-01 1.441788524389266968e-01 -3.869089111685752869e-02 -1.477165520191192627e-01 6.619753688573837280e-02 1.405144184827804565e-01 3.271054625511169434e-01 -7.731021940708160400e-02 -3.393531218171119690e-02 -2.531655691564083099e-02 4.755331277847290039e-01 -1.920505762100219727e-01 1.810780316591262817e-01 4.681734368205070496e-02 9.496451914310455322e-02 -2.075756490230560303e-01 -8.761317282915115356e-02 1.859806776046752930e-01 4.050506651401519775e-02 7.118355482816696167e-02 -2.950167953968048096e-01 -5.236093699932098389e-02 1.520019471645355225e-01 2.056923955678939819e-01 -7.020578533411026001e-02 -1.618861220777034760e-02 2.473890036344528198e-02 -2.162738703191280365e-02 3.901208192110061646e-02 -7.452513556927442551e-03 7.498940825462341309e-02 -8.074557036161422729e-02 -5.064575001597404480e-02 2.966619133949279785e-01 7.429262995719909668e-02 2.431545592844486237e-02 1.088570132851600647e-01 3.119743466377258301e-01 -1.773383319377899170e-01 -5.396034568548202515e-02 1.436734199523925781e-01 -5.767437070608139038e-02 7.034953683614730835e-02 1.113177314400672913e-01 -6.560868024826049805e-02 -7.889317721128463745e-02 3.416657745838165283e-01 -1.177685260772705078e-01 1.499516665935516357e-01 2.219237834215164185e-01 1.724403351545333862e-01 9.980433434247970581e-02 3.196793794631958008e-01 -1.892480403184890747e-01 -1.249491646885871887e-01 -1.493421941995620728e-01 1.031410065479576588e-03 2.513099014759063721e-01 1.083004921674728394e-01 8.333556354045867920e-02 1.548238545656204224e-01 -4.844870045781135559e-02 9.882302582263946533e-02 1.623863428831100464e-01 -8.024370670318603516e-02 6.088443100452423096e-02 9.424035251140594482e-02 -1.814679987728595734e-02 1.283390633761882782e-02 -1.072384789586067200e-01 1.922470629215240479e-01 -2.937545776367187500e-01 3.327445983886718750e-01 -1.396525651216506958e-01 -9.722859412431716919e-02 1.636289060115814209e-01 -2.380769327282905579e-02 -9.464944899082183838e-02
2.002061307430267334e-01 4.882172867655754089e-02 -8.682589977979660034e-02 -8.865554630756378174e-02 1.876379176974296570e-02 -4.650668054819107056e-02 9.773753583431243896e-02 9.117819368839263916e-02 2.356352657079696655e-02 -2.168413996696472168e-02 9.074862301349639893e-02 1.505062431097030640e-01 1.371375024318695068e-01 -1.435396354645490646e-02 1.446117758750915527e-01 1.506084501743316650e-01 -4.161495342850685120e-02 2.809583395719528198e-02 -2.221262603998184204e-01 -1.999939084053039551e-01 3.053542925044894218e-03 -1.356918215751647949e-01 9.460683912038803101e-02 -2.967705763876438141e-02 -7.401697337627410889e-02 -3.186108767986297607e-01 5.838371813297271729e-02 4.424311518669128418e-01 9.395308047533035278e-02 -5.622273311018943787e-02 4.990293085575103760e-02 1.626639440655708313e-02 -1.056477427482604980e-02 1.162877827882766724e-01 3.824945166707038879e-02 -1.836658269166946411e-02 3.854009807109832764e-01 -1.166398599743843079e-01 -2.800313234329223633e-01 -1.457738727331161499e-01 -1.413296163082122803e-01 -2.087965458631515503e-01 -3.372708559036254883e-01 -1.231857016682624817e-01 2.616138458251953125e-01 4.951415117830038071e-03 -8.341445587575435638e-03 -2.286915108561515808e-02 -1.003470718860626221e-01 -1.695098355412483215e-02 -1.154045909643173218e-01 1.447203159332275391e-01 -2.352889254689216614e-02 1.689993776381015778e-02 6.285715848207473755e-02 -2.530577480792999268e-01 6.764044612646102905e-02 -2.194301225244998932e-02 -1.971100121736526489e-01 -1.328962892293930054e-01 -3.209132254123687744e-01 2.216734588146209717e-01 -4.047891870141029358e-02 7.521286606788635254e-02 2.310647629201412201e-03 2.193803489208221436e-01 -1.963890194892883301e-01 -1.778362877666950226e-02 1.086332350969314575e-01 -6.843669712543487549e-02 -1.033251360058784485e-02 3.491831198334693909e-02 4.086444526910781860e-02 2.436391636729240417e-02 -5.088042095303535461e-02 -4.845933243632316589e-02 4.971938729286193848e-01 -6.430817767977714539e-03 -1.214686483144760132e-01 2.356194704771041870e-01 -1.064637675881385803e-01 -1.106130145490169525e-02 1.197856813669204712e-01 -4.454434812068939209e-01 4.601328633725643158e-03 -1.651656776666641235e-01 -5.324004888534545898e-01 3.238066136837005615e-01 1.451869867742061615e-02 -3.374278917908668518e-02 2.893660962581634521e-01 1.552496571093797684e-02 -1.013919636607170105e-01 3.664090633392333984e-01 -1.693513393402099609e-01 2.284920513629913330e-01 1.652836501598358154e-01 -3.466347604990005493e-02 2.717601656913757324e-01 1.341563016176223755e-01 7.112504541873931885e-02 -1.457332074642181396e-02 1.394409835338592529e-01 -7.398224622011184692e-02 -2.251073569059371948e-01 1.886763721704483032e-01 -1.451213061809539795e-01 3.283810019493103027e-01 1.557434648275375366e-01 2.113879024982452393e-01 -8.970828354358673096e-02 -3.722060099244117737e-02 1.071312129497528076e-01 -2.221501022577285767e-01 4.602120257914066315e-03 -2.201779484748840332e-01 1.554546654224395752e-01 1.141999065876007080e-01 -8.073914796113967896e-02 1.034154519438743591e-01 -9.223601967096328735e-02 -1.234047040343284607e-01 1.656060516834259033e-01 -2.773131802678108215e-02 2.508195340633392334e-01 2.528385818004608154e-01 7.265262305736541748e-02 -1.627944409847259521e-02
-1.521486490964889526e-01 3.639149665832519531e-02 -1.621338576078414917e-01 -3.466635569930076599e-02 1.541564911603927612e-01 -9.922216832637786865e-02 -2.284930497407913208e-01 -5.019453167915344238e-02 4.260184243321418762e-02 4.042656123638153076e-01 -6.665796786546707153e-02 -1.061095669865608215e-01 -2.423570491373538971e-02 3.161052763462066650e-01 2.487492710351943970e-01 -1.990026682615280151e-01 -8.728974498808383942e-03 -9.360626339912414551e-02 1.146141998469829559e-02 3.108920753002166748e-01 -4.348691552877426147e-03 -1.103114038705825806e-01 1.754029244184494019e-01 -7.108208537101745605e-02 -3.063986077904701233e-03 -1.116805002093315125e-01 6.976444274187088013e-02 8.630446344614028931e-02 2.851355448365211487e-02 1.494160145521163940e-01 1.737332195043563843e-01 7.097063586115837097e-03 -8.536859601736068726e-02 -1.048850081861019135e-02 2.136584967374801636e-01 -1.230463609099388123e-01 1.543800979852676392e-01 -1.557987183332443237e-01 6.196021288633346558e-02 2.794112861156463623e-01 -3.276703357696533203e-01 -9.037788957357406616e-02 3.649454191327095032e-02 1.423868536949157715e-01 -8.296096324920654297e-02 7.866109907627105713e-02 1.647928543388843536e-02 1.975389719009399414e-01 -1.714580059051513672e-01 -1.388894021511077881e-01 -1.652744710445404053e-01 2.965826354920864105e-02 1.340359747409820557e-01 3.363229101523756981e-03 -1.360600739717483521e-01 -1.983766630291938782e-02 1.645291447639465332e-01 1.585805090144276619e-03 -5.302097648382186890e-02 1.799885332584381104e-01 -1.292891148477792740e-02 4.559552669525146484e-02 5.243384838104248047e-02 -7.568847388029098511e-02 5.797998514026403427e-03 -1.825289577245712280e-01 -3.164662513881921768e-03 1.074448227882385254e-01 3.153989613056182861e-01 -1.922369934618473053e-02 -1.496278494596481323e-01 2.909666299819946289e-02 1.282090693712234497e-01 -4.939233139157295227e-02 -6.020764261484146118e-02 2.221376597881317139e-01 -2.622256875038146973e-01 -1.752373576164245605e-02 -9.750635176897048950e-02 -3.004193902015686035e-01 -8.040939271450042725e-02 4.525841400027275085e-02 3.365330994129180908e-01 3.754077246412634850e-03 -5.091366171836853027e-02 1.112389960326254368e-03 -1.562160998582839966e-01 -4.440716467797756195e-03 -2.741855755448341370e-02 -1.116016581654548645e-01 1.007947884500026703e-02 2.355400286614894867e-02 -7.659401744604110718e-02 6.570286303758621216e-02 3.628524243831634521e-01 -8.372537791728973389e-02 9.143832139670848846e-03 -2.022055685520172119e-01 1.926640123128890991e-01 -7.611419260501861572e-02 -3.409589454531669617e-02 1.762661635875701904e-01 -4.970999062061309814e-01 -1.245509758591651917e-01 2.893323823809623718e-02 -3.218490257859230042e-02 -1.057799011468887329e-01 -4.746684432029724121e-02 -2.709955573081970215e-01 -1.404476463794708252e-01 1.319654881954193115e-01 2.514992952346801758e-01 -1.507303584367036819e-02 1.939171850681304932e-01 5.036204308271408081e-02 -1.141173541545867920e-01 9.173031896352767944e-02 5.773565545678138733e-02 -1.503144800662994385e-01 1.190364733338356018e-01 -1.149754077196121216e-01 1.306992024183273315e-01 -4.805134981870651245e-02 -5.092755332589149475e-02 -6.413991749286651611e-02 -5.734193325042724609e-02 2.093272060155868530e-01 -1.506568193435668945e-01
-2.678548097610473633e-01 -9.612586349248886108e-02 2.333187585463747382e-04 1.485307067632675171e-01 -2.633693218231201172e-01 3.214770182967185974e-02 -2.416101694107055664e-01 1.267873495817184448e-01 -3.967703133821487427e-02 1.712805628776550293e-01 -2.521959505975246429e-02 -9.952251613140106201e-02 1.584602445363998413e-01 -4.428078979253768921e-02 4.378636181354522705e-01 5.376442149281501770e-02 -8.112612366676330566e-02 -2.438588887453079224e-01 4.470711052417755127e-01 1.227427050471305847e-01 -1.997843235731124878e-01 -1.786476373672485352e-01 1.629896759986877441e-01 2.343570739030838013e-01 2.199369296431541443e-02 3.708083331584930420e-01 -1.093011908233165741e-02 1.622849255800247192e-01 9.458139538764953613e-02 2.792997099459171295e-02 -7.681976258754730225e-02 -2.600091099739074707e-01 3.150631859898567200e-02 1.066081523895263672e-01 9.936081187333911657e-05 -1.227388344705104828e-02 -3.441091626882553101e-02 -1.994339562952518463e-02 1.308328509330749512e-01 1.397078633308410645e-01 -1.103204265236854553e-01 -4.713463038206100464e-02 -1.558017283678054810e-01 1.454546302556991577e-01 -2.089470475912094116e-01 2.128587365150451660e-01 -5.901375040411949158e-02 -1.789457648992538452e-01 -4.161817021667957306e-03 4.227707535028457642e-02 7.763113360852003098e-03 1.144436560571193695e-02 1.575596034526824951e-01 -6.908539682626724243e-02 -1.454038023948669434e-01 1.077685281634330750e-01 -9.139876812696456909e-02 -9.101681411266326904e-02 -3.715123236179351807e-02 -7.366590946912765503e-02 9.420804679393768311e-02 7.630728930234909058e-02 4.660890623927116394e-02 -1.298921089619398117e-02 -8.981229364871978760e-02 -1.205880120396614075e-01 3.424473404884338379e-01 4.105775803327560425e-02 -2.437578886747360229e-02 4.199945926666259766e-01 -1.335927844047546387e-01 5.110918730497360229e-02 1.752620004117488861e-02 1.346261352300643921e-01 -2.668282762169837952e-02 2.390043288469314575e-01 -2.494085021317005157e-02 1.291847880929708481e-02 -8.860614895820617676e-02 -1.294130273163318634e-02 2.546441853046417236e-01 4.660196602344512939e-02 -2.484939433634281158e-02 3.707404481247067451e-03 -1.734544634819030762e-01 -7.454062998294830322e-02 -6.188787147402763367e-02 -2.356052845716476440e-01 7.791309151798486710e-03 -9.295920282602310181e-02 -1.038529500365257263e-01 1.121134907007217407e-01 1.748385280370712280e-01 1.160089597105979919e-01 1.423265784978866577e-02 -2.081467956304550171e-01 9.759578853845596313e-02 -1.461615264415740967e-01 2.301536500453948975e-01 -2.256635203957557678e-02 -3.208034439012408257e-03 1.560366004705429077e-01 -2.116522789001464844e-01 -7.172191143035888672e-02 -2.061855979263782501e-02 1.038827374577522278e-01 -2.176406234502792358e-02 4.357136320322751999e-03 -1.684607267379760742e-01 -3.500981330871582031e-01 -1.233779564499855042e-01 1.329629570245742798e-01 5.258499458432197571e-02 2.113103717565536499e-01 -3.651368021965026855e-01 -2.138111926615238190e-02 -3.275288641452789307e-02 9.595723450183868408e-02 -1.102479174733161926e-01 -5.958931520581245422e-02 5.874470248818397522e-02 -1.019107848405838013e-01 4.688850417733192444e-02 -2.529218234121799469e-02 -1.241886541247367859e-01 -6.563021242618560791e-02 6.470663100481033325e-02 -3.827405720949172974e-02
2.629798352718353271e-01 1.587442704476416111e-03 2.350527346134185791e-01 -1.963790692389011383e-02 9.698267281055450439e-02 1.653652638196945190e-01 -1.755574047565460205e-01 1.902770698070526123e-01 2.754146605730056763e-02 5.507268756628036499e-02 9.528187662363052368e-02 -3.757649958133697510e-01 -1.538756191730499268e-01 1.794087588787078857e-01 -1.128378696739673615e-02 -1.013435497879981995e-01 3.127079904079437256e-01 -9.705797582864761353e-02 -1.735370978713035583e-02 -2.127989232540130615e-01 -1.442511379718780518e-01 -4.278514534235000610e-02 1.017458271235227585e-02 3.012063503265380859e-01 -2.646915316581726074e-01 1.752604395151138306e-01 2.738457322120666504e-01 -3.435111343860626221e-01 -1.327200531959533691e-01 1.006336063146591187e-01 -1.921777725219726562e-01 1.037052348256111145e-01 5.662097781896591187e-02 9.377809613943099976e-02 -1.147206649184226990e-01 1.012240946292877197e-01 2.952026724815368652e-01 -1.463667452335357666e-01 2.947097271680831909e-02 9.961875528097152710e-02 -1.056253835558891296e-01 3.150078058242797852e-01 4.200536012649536133e-01 1.893856525421142578e-01 3.741854429244995117e-01 -2.066752463579177856e-01 2.577867917716503143e-02 1.945985108613967896e-01 -1.601057350635528564e-01 -1.567512005567550659e-01 -2.700025588274002075e-02 1.412655264139175415e-01 7.381638139486312866e-02 -2.147254347801208496e-02 -1.248798891901969910e-01 -8.149731904268264771e-02 -7.810149341821670532e-02 3.303817808628082275e-01 1.975953727960586548e-01 6.308303680270910263e-03 4.048548042774200439e-01 1.675773859024047852e-01 -7.963122427463531494e-02 8.051238209009170532e-02 -1.771432720124721527e-02 3.468050956726074219e-01 1.887145787477493286e-01 4.786251112818717957e-03 -1.776639521121978760e-01 -2.310816757380962372e-02 -9.151740372180938721e-02 6.178925186395645142e-02 1.271946579217910767e-01 1.627332121133804321e-01 -1.106700375676155090e-01 2.367522269487380981e-01 7.105404883623123169e-02 2.622072696685791016e-01 -1.965421736240386963e-01 -1.483106985688209534e-02 1.636689603328704834e-01 -7.450574636459350586e-02 -2.838383615016937256e-01 -3.048334717750549316e-01 -1.124152541160583496e-01 -8.896021544933319092e-02 -6.145620718598365784e-02 2.124921977519989014e-01 -1.967587321996688843e-01 -1.916762590408325195e-01 4.644306004047393799e-02 2.372010052204132080e-01 1.464324742555618286e-01 -2.404384464025497437e-01 -2.224609851837158203e-01 -2.122885733842849731e-01 2.279749372974038124e-03 -8.654447644948959351e-02 2.356497645378112793e-01 -1.276103109121322632e-01 3.037900896742939949e-03 -2.762381359934806824e-02 3.331298530101776123e-01 1.307292878627777100e-01 4.844436049461364746e-02 3.009291738271713257e-02 -3.030417114496231079e-02 -2.145249210298061371e-02 -1.562981307506561279e-01 2.565145725384354591e-03 -5.145338922739028931e-02 -4.369821399450302124e-02 8.086475729942321777e-02 -6.266562640666961670e-02 -3.974007666110992432e-01 -6.776971369981765747e-02 1.571812331676483154e-01 4.859958216547966003e-02 -8.823850750923156738e-02 1.912550814449787140e-02 3.291915655136108398e-01 -1.939305216073989868e-01 -2.618069350719451904e-01 -2.570378221571445465e-02 -4.998668730258941650e-01 1.618489027023315430e-01 2.320205233991146088e-02 7.930792868137359619e-02
7.200379669666290283e-02 -2.630842290818691254e-02 1.079537495970726013e-01 -2.741123437881469727e-01 2.757296860218048096e-01 8.352706581354141235e-02 1.136150211095809937e-01 7.939966022968292236e-02 3.320877905935049057e-03 -1.135158240795135498e-01 7.287322729825973511e-02 9.329807362519204617e-04 -2.109085172414779663e-01 1.718787103891372681e-01 2.302237600088119507e-01 -8.342686295509338379e-02 -4.370982199907302856e-02 1.611799895763397217e-01 -2.253882586956024170e-01 -1.920223981142044067e-01 1.559729455038905144e-03 -1.371872574090957642e-01 -1.481503900140523911e-02 3.071405366063117981e-02 -1.215146109461784363e-01 -8.942136913537979126e-02 2.013298571109771729e-01 -2.276627421379089355e-01 1.977156847715377808e-01 1.753005385398864746e-02 1.028356850147247314e-01 -5.990262702107429504e-02 -3.424968942999839783e-02 -4.343287274241447449e-02 5.341186746954917908e-02 5.716793611645698547e-02 1.708296984434127808e-01 -1.828575506806373596e-02 1.169167906045913696e-01 -4.403019323945045471e-02 8.929850906133651733e-02 5.518782138824462891e-02 4.377202093601226807e-01 -4.084320366382598877e-01 1.842145435512065887e-02 8.694592863321304321e-02 2.689864933490753174e-01 -1.474350839853286743e-01 -1.680777519941329956e-01 -2.563591897487640381e-01 3.881064057350158691e-02 3.300995379686355591e-02 1.760984063148498535e-01 -1.369492262601852417e-01 -9.114556759595870972e-02 4.331512004137039185e-02 2.514303624629974365e-01 4.057806134223937988e-01 1.150542125105857849e-01 1.049892455339431763e-01 -1.134646609425544739e-01 1.258731782436370850e-01 1.165069341659545898e-01 1.219249516725540161e-01 1.057657003402709961e-01 2.828420996665954590e-01 -4.049430191516876221e-01 2.781432867050170898e-01 3.358919024467468262e-01 -1.720754355192184448e-01 2.294751107692718506e-01 -7.417594641447067261e-02 -1.084527373313903809e-01 -1.117302849888801575e-01 -1.633554995059967041e-01 4.611133411526679993e-02 -2.298902869224548340e-01 -2.359758876264095306e-02 5.778124928474426270e-02 -7.126630842685699463e-02 -1.289018392562866211e-01 5.848775804042816162e-02 3.321582376956939697e-01 -1.958046257495880127e-01 8.569005131721496582e-02 -9.609989821910858154e-02 7.199310511350631714e-02 -7.844423502683639526e-02 -1.360918134450912476e-01 5.325391516089439392e-02 1.054447814822196960e-01 1.555899381637573242e-01 -1.754296571016311646e-01 -3.200289607048034668e-02 2.003998458385467529e-01 3.236223384737968445e-02 -7.341399043798446655e-02 -1.660303175449371338e-01 -1.210525855422019958e-01 -4.615019261837005615e-02 2.067157477140426636e-01 -9.778394550085067749e-02 -3.997518494725227356e-02 -4.924201592803001404e-02 -7.740148156881332397e-02 2.009167522192001343e-01 -7.026490569114685059e-02 -7.356393337249755859e-02 7.475372403860092163e-02 1.736999303102493286e-01 2.498817443847656250e-01 5.361384246498346329e-03 7.096233963966369629e-02 -5.126836523413658142e-02 3.034391105175018311e-01 -1.451149433851242065e-01 -5.637607537209987640e-03 1.409104764461517334e-01 -2.626390159130096436e-01 1.973271518945693970e-01 6.372889131307601929e-02 -1.972851715981960297e-02 -1.785152107477188110e-01 -8.935142308473587036e-02 3.185377418994903564e-01 3.701479732990264893e-02 1.912647932767868042e-01 1.891181687824428082e-03
-5.388910323381423950e-02 2.638246119022369385e-01 -1.311251223087310791e-01 -1.689845509827136993e-02 2.158890217542648315e-01 5.468542501330375671e-02 2.272414416074752808e-02 4.238564521074295044e-02 6.181456893682479858e-02 -1.334839463233947754e-01 1.202026382088661194e-01 -3.276911005377769470e-02 6.006917357444763184e-02 4.158143419772386551e-03 -1.372148543596267700e-01 -1.698358654975891113e-01 6.863956805318593979e-03 2.918596565723419189e-01 -5.439597964286804199e-01 -3.519307821989059448e-02 5.775180459022521973e-02 -1.249619349837303162e-01 1.849590614438056946e-02 -8.142674714326858521e-02 -8.292161673307418823e-02 9.523904882371425629e-03 -2.454337291419506073e-02 1.404407024383544922e-01 1.203491911292076111e-01 -4.095364362001419067e-02 4.423927664756774902e-01 1.365577131509780884e-01 4.912552610039710999e-02 2.928757965564727783e-01 1.801528483629226685e-01 -1.435914542526006699e-02 2.069690078496932983e-02 -1.635290235280990601e-01 -6.142762303352355957e-02 1.919507049024105072e-04 -2.569326944649219513e-02 -1.245829388499259949e-01 1.424649506807327271e-01 -2.024476379156112671e-01 5.384322628378868103e-02 6.968978047370910645e-02 2.870479412376880646e-02 6.877516955137252808e-02 -5.468306690454483032e-02 -7.066781073808670044e-02 -1.793825030326843262e-01 4.706558585166931152e-02 -9.724714607000350952e-02 -5.434055998921394348e-02 -8.803188800811767578e-03 -1.449567377567291260e-01 1.170432195067405701e-01 3.437413275241851807e-02 7.245434820652008057e-02 1.250448375940322876e-01 -2.068932354450225830e-01 1.127679180353879929e-02 3.751811012625694275e-02 8.013566583395004272e-02 1.158784404397010803e-01 1.747827678918838501e-01 -1.060805022716522217e-01 -9.378781914710998535e-02 2.538267150521278381e-02 -2.693798243999481201e-01 -1.794840693473815918e-01 -4.045541211962699890e-02 -6.412520259618759155e-02 6.653854250907897949e-02 -1.000865772366523743e-01 -1.824513822793960571e-01 1.213318109512329102e-01 -7.005508989095687866e-02 1.086462587118148804e-01 3.242506384849548340e-01 9.424810111522674561e-02 -4.601339343935251236e-03 -5.674351751804351807e-02 -1.380563974380493164e-01 4.899151995778083801e-02 2.030503749847412109e-02 -2.747019231319427490e-01 1.652955263853073120e-02 -8.400106430053710938e-02 -7.057826220989227295e-02 2.173761278390884399e-01 3.448161482810974121e-02 -5.828410759568214417e-02 1.440305709838867188e-01 -6.176177784800529480e-02 3.023703396320343018e-01 2.188055813312530518e-01 -7.340348511934280396e-02 1.396274119615554810e-01 -1.152552217245101929e-01 9.912367910146713257e-02 -4.116408899426460266e-02 3.589230775833129883e-01 1.420405576936900616e-03 -2.075267285108566284e-01 -2.924006618559360504e-02 -1.149423122406005859e-01 3.486739397048950195e-01 1.338760703802108765e-01 7.976304739713668823e-02 -5.101255606859922409e-03 -4.096402227878570557e-02 -6.911112368106842041e-02 1.189327836036682129e-01 1.367846131324768066e-01 -2.306944727897644043e-01 -5.996915698051452637e-02 6.280060112476348877e-02 -9.841330349445343018e-02 2.477592080831527710e-01 1.041242033243179321e-01 -3.104285895824432373e-02 -4.492462147027254105e-03 -6.702890992164611816e-02 6.944795697927474976e-02 1.379935741424560547e-01 8.439880795776844025e-03 -1.377139091491699219e-01
-1.728187799453735352e-01 -2.380924820899963379e-01 7.812550663948059082e-02 -2.014825344085693359e-01 -7.251921296119689941e-02 -7.765907794237136841e-02 2.006657123565673828e-01 -2.272854000329971313e-02 9.212805330753326416e-02 -5.396593362092971802e-02 6.944154947996139526e-02 2.571990191936492920e-01 8.465138077735900879e-02 5.380756258964538574e-01 9.224483370780944824e-02 2.329404950141906738e-01 1.072590053081512451e-01 3.793837130069732666e-02 1.017195731401443481e-01 -3.907044231891632080e-01 -1.206296086311340332e-01 -1.746227405965328217e-02 8.800344169139862061e-02 -1.358184963464736938e-01 1.131489723920822144e-01 5.985184013843536377e-02 -1.789423674345016479e-01 2.463617324829101562e-01 -2.303135581314563751e-02 -5.118595436215400696e-02 2.611979842185974121e-02 1.503507643938064575e-01 9.757237881422042847e-02 -8.084929548203945160e-03 -2.918313071131706238e-02 -1.558448839932680130e-02 1.511362381279468536e-02 -3.266940591856837273e-03 7.140689343214035034e-02 -1.616953611373901367e-01 -8.908343315124511719e-02 3.608859181404113770e-01 -6.952401250600814819e-02 -3.506701290607452393e-01 -3.004780113697052002e-01 -1.285717822611331940e-02 1.775638759136199951e-01 1.795392781496047974e-01 -6.103805825114250183e-02 -9.864532202482223511e-02 1.217021867632865906e-01 1.388051211833953857e-01 1.317078247666358948e-03 4.300808906555175781e-02 3.560203313827514648e-02 2.275549322366714478e-01 2.673687338829040527e-01 1.985138654708862305e-01 1.980991363525390625e-01 4.090640693902969360e-02 9.207615628838539124e-03 -1.593363285064697266e-01 -1.307910215109586716e-02 8.782708644866943359e-02 6.699293851852416992e-02 1.838232949376106262e-02 4.124644398689270020e-02 6.968028098344802856e-02 -1.523883491754531860e-01 1.631203144788742065e-01 1.696736961603164673e-01 -1.535966396331787109e-01 -8.354079723358154297e-02 1.234267950057983398e-01 -1.078800782561302185e-01 4.765466228127479553e-02 -6.367630511522293091e-02 1.502947416156530380e-02 1.097076386213302612e-02 -7.310959696769714355e-02 1.102069951593875885e-02 -1.019316539168357849e-01 -2.975619770586490631e-02 7.563585042953491211e-02 9.626260399818420410e-02 -1.674433797597885132e-01 1.959769576787948608e-01 1.470841281116008759e-02 1.444110553711652756e-02 3.160669654607772827e-02 -5.401195213198661804e-02 1.846392601728439331e-01 -4.077303409576416016e-02 4.422332718968391418e-02 2.902903556823730469e-01 -9.200635552406311035e-02 5.323507264256477356e-02 1.585119515657424927e-01 2.300886660814285278e-01 2.491783201694488525e-01 8.815079927444458008e-02 -4.842472374439239502e-01 -1.423648744821548462e-01 -8.163804560899734497e-02 -4.434874281287193298e-02 3.090808093547821045e-01 3.205747110769152641e-03 4.988561570644378662e-02 5.830528214573860168e-02 -9.587437659502029419e-02 5.892205238342285156e-02 -9.145662188529968262e-02 -7.592294365167617798e-02 3.809568881988525391e-01 3.904611617326736450e-02 -4.391697049140930176e-02 7.149812579154968262e-02 -2.678771317005157471e-02 -1.249720081686973572e-01 -2.372616082429885864e-01 2.941322624683380127e-01 3.962432220578193665e-02 -4.590966925024986267e-02 -1.130874380469322205e-01 2.855874598026275635e-01 -2.288779765367507935e-01 -9.100548923015594482e-02 -2.328481823205947876e-01
-2.971767261624336243e-02 -3.820005357265472412e-01 -1.885614544153213501e-01 6.098418310284614563e-02 -1.184656769037246704e-01 -1.075794324278831482e-01 1.160205155611038208e-01 -2.796180546283721924e-02 2.380502969026565552e-02 -1.690417081117630005e-01 1.016660109162330627e-01 -1.595758646726608276e-01 -2.997429966926574707e-01 6.955140829086303711e-02 2.114651054143905640e-01 1.233018711209297180e-01 3.635997697710990906e-02 2.810462750494480133e-02 3.982709944248199463e-01 1.278617680072784424e-01 -7.019639480859041214e-03 7.921786163933575153e-04 2.443974465131759644e-02 9.654623270034790039e-02 -9.678799659013748169e-02 -2.093575167236849666e-04 5.922225490212440491e-02 1.157488822937011719e-01 -6.244136020541191101e-02 1.345906704664230347e-01 -2.773291170597076416e-01 -1.015599593520164490e-01 5.752410367131233215e-02 -2.340078912675380707e-02 -7.989653944969177246e-02 1.004053205251693726e-01 -2.530754357576370239e-02 1.247413530945777893e-01 -5.974579229950904846e-02 3.381623625755310059e-01 -2.839013934135437012e-01 -8.798673003911972046e-02 -1.124949529767036438e-01 1.349234580993652344e-01 -2.707015909254550934e-02 3.969741612672805786e-02 -1.010240912437438965e-01 -4.749717190861701965e-02 3.417206555604934692e-02 -4.931838810443878174e-02 6.899151951074600220e-03 8.256287127733230591e-02 -1.144324317574501038e-01 -6.863182783126831055e-02 -4.110221937298774719e-02 1.428920775651931763e-01 -1.846756786108016968e-01 3.557687103748321533e-01 -3.256171941757202148e-02 -9.190831333398818970e-02 8.372699469327926636e-02 -2.292647212743759155e-01 4.616441577672958374e-02 9.678542613983154297e-02 1.075097620487213135e-01 -2.600960135459899902e-01 1.379445195198059082e-01 -1.026479899883270264e-01 5.192791670560836792e-02 2.942004501819610596e-01 -5.864785239100456238e-02 -2.389409542083740234e-01 -2.284127473831176758e-01 -1.066037714481353760e-01 -2.787896804511547089e-02 -1.162069197744131088e-02 1.937373876571655273e-01 -6.637843698263168335e-02 4.503318294882774353e-02 -1.936316192150115967e-01 4.561735987663269043e-01 -9.803497791290283203e-02 7.921034097671508789e-02 -2.624001912772655487e-02 2.331341058015823364e-01 6.545906513929367065e-02 -1.479651480913162231e-01 -1.299812197685241699e-01 -1.164780110120773315e-01 -4.070050641894340515e-02 1.352562159299850464e-01 -4.758927505463361740e-03 -3.305034041404724121e-01 2.915823757648468018e-01 1.935883313417434692e-01 4.502758383750915527e-02 -1.622997671365737915e-01 -2.992670536041259766e-01 -2.476584315299987793e-01 9.732341021299362183e-02 -5.896734539419412613e-03 -1.151595339179039001e-01 1.422676295042037964e-01 -1.088970899581909180e-01 -3.399805724620819092e-02 -9.864935278892517090e-02 -3.099663183093070984e-02 -2.192540317773818970e-01 1.301598548889160156e-01 -7.195217162370681763e-02 1.574484109878540039e-01 -3.213841617107391357e-01 -9.818629175424575806e-02 -2.091660499572753906e-01 -6.318850908428430557e-03 -3.081217408180236816e-02 1.643778979778289795e-01 1.114172711968421936e-01 -1.127501949667930603e-01 1.320478171110153198e-01 1.377667039632797241e-01 1.649230867624282837e-01 2.023337781429290771e-01 -1.231302842497825623e-01 2.482338696718215942e-01 -2.808672608807682991e-03 -8.730627596378326416e-02 -1.461794823408126831e-01
2.053126245737075806e-01 4.292586445808410645e-02 -3.235052227973937988e-01 -2.718470692634582520e-01 -7.906883209943771362e-02 6.743403524160385132e-02 2.112790048122406006e-01 1.069390773773193359e-01 7.876615226268768311e-02 -8.552355319261550903e-02 2.957761846482753754e-02 2.653694152832031250e-01 -2.797265909612178802e-02 -1.036880165338516235e-01 1.891748793423175812e-02 3.046448528766632080e-01 1.593222171068191528e-01 -9.499663859605789185e-02 3.392507433891296387e-01 -2.016732655465602875e-02 -7.297582924365997314e-02 -8.505402505397796631e-02 2.151608616113662720e-01 -4.712437391281127930e-01 -2.082510143518447876e-01 2.392787635326385498e-01 -3.375093936920166016e-01 8.177337050437927246e-02 6.974672526121139526e-02 1.633327752351760864e-01 -4.187454283237457275e-01 -3.651688992977142334e-02 8.934763073921203613e-02 2.778123505413532257e-02 6.853254046291112900e-03 2.715098671615123749e-02 3.416088223457336426e-02 4.144287109375000000e-02 -3.189562261104583740e-01 7.553710043430328369e-02 -3.520637154579162598e-01 2.104813046753406525e-02 -1.155173406004905701e-02 6.232616305351257324e-01 -1.388441175222396851e-01 2.585930228233337402e-01 -8.916938304901123047e-02 -7.335335016250610352e-02 -1.127110645174980164e-01 -1.680493801832199097e-01 -4.013330116868019104e-02 8.779660612344741821e-02 -5.462472513318061829e-02 -1.920716315507888794e-01 -3.359591960906982422e-01 -5.779749527573585510e-02 -2.222491502761840820e-01 -5.311362147331237793e-01 -2.958648204803466797e-01 8.828881382942199707e-02 -5.510971322655677795e-02 9.071323275566101074e-02 1.047610044479370117e-01 -9.709587693214416504e-02 -6.095394492149353027e-04 -4.495320469141006470e-02 -3.896624967455863953e-02 1.331283599138259888e-01 4.931892454624176025e-01 2.736189365386962891e-01 1.310426592826843262e-01 -1.841377317905426025e-01 -1.772234141826629639e-01 -7.235825061798095703e-02 -1.358259022235870361e-01 1.218340620398521423e-01 -1.714314073324203491e-01 9.532435238361358643e-02 -1.740815788507461548e-01 -7.407023757696151733e-02 -2.292759120464324951e-01 -1.336785405874252319e-02 5.112385377287864685e-03 9.952769428491592407e-02 -1.065636500716209412e-01 -1.510570198297500610e-01 -1.971606612205505371e-01 3.088625967502593994e-01 1.340908277779817581e-02 -1.869323700666427612e-01 -1.411587148904800415e-01 -7.585661858320236206e-02 3.451600670814514160e-01 -1.058735474944114685e-01 2.592775225639343262e-01 -6.522224843502044678e-02 -1.064790487289428711e-01 4.187549278140068054e-02 4.736615717411041260e-02 -2.677497267723083496e-01 1.373200863599777222e-01 1.082873940467834473e-01 3.347830474376678467e-01 8.718160539865493774e-02 1.128496136516332626e-03 5.759271606802940369e-02 -7.687962613999843597e-03 1.097046285867691040e-01 1.700699925422668457e-01 -7.448155432939529419e-02 2.260984033346176147e-01 -2.421347051858901978e-01 -4.140151664614677429e-02 -3.588414564728736877e-02 -2.703945040702819824e-01 4.089415445923805237e-02 6.607403606176376343e-02 4.628170281648635864e-02 -5.300592631101608276e-02 -9.608800709247589111e-02 -8.684686571359634399e-02 -2.181406617164611816e-01 2.522163391113281250e-01 -4.329206049442291260e-02 -2.050972431898117065e-01 -3.332322835922241211e-01 1.097451150417327881e-01 2.161222323775291443e-02
5.037041381001472473e-02 -3.238002583384513855e-02 1.100922375917434692e-01 1.933255940675735474e-01 -2.406783401966094971e-02 -4.123186692595481873e-02 -6.907047354616224766e-04 8.775238692760467529e-02 1.297040879726409912e-01 -8.617480844259262085e-02 1.157568618655204773e-01 1.798835992813110352e-01 -1.414835751056671143e-01 1.577566415071487427e-01 2.759576961398124695e-02 1.061995178461074829e-01 2.378394007682800293e-01 1.312850415706634521e-01 -7.606247812509536743e-02 -1.548687368631362915e-01 -1.167377680540084839e-01 -1.282333135604858398e-01 3.772504031658172607e-01 6.031395494937896729e-02 2.987132221460342407e-02 2.111921161413192749e-01 3.603541254997253418e-01 1.266131401062011719e-01 -1.121391728520393372e-01 1.971766911447048187e-02 -3.769145905971527100e-01 4.129237681627273560e-02 6.552894413471221924e-02 1.223339065909385681e-01 -1.581919044256210327e-01 5.946017056703567505e-02 2.115218639373779297e-01 3.276111185550689697e-02 9.053374826908111572e-02 -7.527290284633636475e-02 4.866161197423934937e-02 9.901698678731918335e-02 -9.921646118164062500e-02 -1.069339960813522339e-01 1.105751320719718933e-01 -1.418220102787017822e-01 1.872171014547348022e-01 -4.700163006782531738e-02 -5.518671125173568726e-02 1.377554330974817276e-02 1.630301773548126221e-01 1.223265826702117920e-01 -1.166532412171363831e-01 1.982468813657760620e-01 2.111510336399078369e-01 8.249948918819427490e-02 4.653419926762580872e-02 5.788150802254676819e-02 1.776941679418087006e-02 -5.731624737381935120e-02 -4.209429025650024414e-01 7.697315514087677002e-02 7.636759430170059204e-02 1.475823223590850830e-01 1.369989812374114990e-01 1.470080614089965820e-01 2.980251237750053406e-02 -1.060136333107948303e-01 -2.700087726116180420e-01 -1.240312587469816208e-02 -4.938700422644615173e-02 -1.115477383136749268e-01 -5.081416293978691101e-02 -2.540985941886901855e-01 -2.727365493774414062e-02 -5.347529798746109009e-02 4.276051372289657593e-02 3.645766675472259521e-01 -8.242065669037401676e-04 1.339529305696487427e-01 -4.241640865802764893e-02 -4.233794659376144409e-02 1.041307020932435989e-02 -1.620834134519100189e-02 -2.184646278619766235e-01 1.064940392971038818e-01 -1.222096607089042664e-01 -2.142515629529953003e-01 3.708383813500404358e-02 -6.412883102893829346e-02 -1.114786323159933090e-02 1.134581416845321655e-01 -1.828486025333404541e-01 3.554749116301536560e-02 -2.181641161441802979e-01 5.745789501816034317e-03 5.049929395318031311e-02 3.086803555488586426e-01 3.417139872908592224e-02 1.203751936554908752e-01 4.982310347259044647e-03 -4.910567104816436768e-01 -1.884752660989761353e-01 -2.289169728755950928e-01 -4.883682355284690857e-02 1.061134040355682373e-01 2.121352776885032654e-02 -1.150382682681083679e-01 3.003674745559692383e-01 1.438524853438138962e-02 -4.021735787391662598e-01 5.667906999588012695e-02 5.753425508737564087e-02 -1.703256182372570038e-02 3.720583915710449219e-01 -7.289013266563415527e-02 2.211401611566543579e-01 9.693306870758533478e-03 5.927275121212005615e-02 -1.291735619306564331e-01 2.930316329002380371e-01 -2.930450625717639923e-02 1.255972236394882202e-01 -9.246601909399032593e-02 7.806356996297836304e-02 -5.687899515032768250e-02 -8.348911255598068237e-02 -1.444608122110366821e-01
6.451746821403503418e-02 1.490436792373657227e-01 2.198136895895004272e-01 1.561472564935684204e-01 6.040455028414726257e-02 1.094297170639038086e-01 -1.775824427604675293e-01 1.590016335248947144e-01 5.469197407364845276e-02 4.685542359948158264e-02 -6.580609828233718872e-03 -1.528138965368270874e-01 -2.792081981897354126e-02 -7.654964923858642578e-02 1.075712963938713074e-01 -2.665635943412780762e-01 -1.251440495252609253e-01 5.501355603337287903e-02 2.141744494438171387e-01 2.926372289657592773e-01 -3.352836146950721741e-02 -3.479691967368125916e-02 -9.116951376199722290e-02 2.111109644174575806e-01 -1.649542599916458130e-01 -1.995807141065597534e-02 -3.574383631348609924e-02 -2.238722443580627441e-01 -5.793441459536552429e-02 2.547434344887733459e-02 -3.164243698120117188e-01 1.411961466073989868e-01 1.089080274105072021e-01 -1.349767595529556274e-01 1.406149119138717651e-01 9.999401122331619263e-02 1.520642787218093872e-01 1.023660972714424133e-02 -9.351165592670440674e-02 1.161762699484825134e-01 -2.364828288555145264e-01 5.769417807459831238e-02 2.241958528757095337e-01 -5.788318440318107605e-02 -1.910437829792499542e-02 -2.212109863758087158e-01 6.633681710809469223e-03 1.937742084264755249e-01 -4.274300113320350647e-02 -4.245457053184509277e-02 -1.736389547586441040e-01 3.852539137005805969e-02 -2.134084850549697876e-01 2.835111320018768311e-01 4.141273722052574158e-02 -4.200803115963935852e-02 1.559122353792190552e-01 -6.507401354610919952e-03 -2.136062085628509521e-02 8.541686832904815674e-02 1.351194977760314941e-01 3.434704244136810303e-02 -4.900148808956146240e-01 2.874662876129150391e-01 -5.248944740742444992e-03 2.031569331884384155e-01 3.900802135467529297e-01 -2.699346840381622314e-01 1.436177492141723633e-01 1.405637711286544800e-01 -3.150395154953002930e-01 -7.408618927001953125e-02 2.185828238725662231e-01 1.858704537153244019e-01 -8.639049530029296875e-02 -9.154597669839859009e-02 1.641286164522171021e-01 1.036841496825218201e-01 7.927889935672283173e-03 1.250977665185928345e-01 2.921644598245620728e-02 -7.409483939409255981e-02 1.054294705390930176e-01 7.826408371329307556e-03 -1.743175834417343140e-01 7.695590704679489136e-02 -7.663021981716156006e-02 -6.959901750087738037e-02 -2.956487238407135010e-02 -4.937477037310600281e-02 -3.047521039843559265e-02 -5.386224016547203064e-02 1.343583017587661743e-01 2.188331075012683868e-02 -2.193807810544967651e-01 1.172804608941078186e-01 2.017316967248916626e-01 -2.124922126531600952e-01 1.580668240785598755e-01 -1.865891665220260620e-01 6.675241515040397644e-03 -1.134311407804489136e-01 3.318179547786712646e-01 3.414952754974365234e-01 -1.760464347898960114e-02 -1.269987598061561584e-02 -7.293736189603805542e-02 -1.991042122244834900e-02 5.077642202377319336e-02 -8.375317603349685669e-02 -2.009603828191757202e-01 -1.214184761047363281e-01 1.136878039687871933e-02 1.270596776157617569e-02 -2.738313674926757812e-01 -1.090484559535980225e-01 -5.096726119518280029e-02 3.462638333439826965e-02 -7.040017843246459961e-02 6.261910498142242432e-02 1.507955193519592285e-01 -8.200739324092864990e-02 7.335951179265975952e-02 -9.701956063508987427e-02 1.687570214271545410e-01 5.333267897367477417e-02 -8.642381429672241211e-02 1.007375195622444153e-01
-5.632255971431732178e-02 -8.051038533449172974e-02 -1.776604801416397095e-01 6.507275998592376709e-02 1.986028999090194702e-01 -8.318454027175903320e-02 2.676164731383323669e-02 1.959137991070747375e-02 -3.112415410578250885e-02 3.833880275487899780e-02 1.357204373925924301e-02 2.181270420551300049e-01 1.380743831396102905e-01 -4.224546253681182861e-02 1.408693492412567139e-01 -1.296998858451843262e-01 1.947966963052749634e-02 -1.363034099340438843e-01 1.205750182271003723e-01 -1.370829492807388306e-01 -3.733141720294952393e-02 -9.918003529310226440e-02 1.072433292865753174e-01 -4.639283940196037292e-02 1.622771471738815308e-02 2.119015604257583618e-01 -3.240033984184265137e-01 -4.181653857231140137e-01 -1.729289442300796509e-02 6.026756018400192261e-02 1.568258106708526611e-01 -7.494058459997177124e-02 6.447567790746688843e-02 -1.127088814973831177e-01 -9.554973244667053223e-02 -3.302112966775894165e-02 -1.487722396850585938e-01 -8.298576623201370239e-02 -1.108623370528221130e-01 -5.535359308123588562e-02 -3.129794001579284668e-01 1.557852327823638916e-01 -4.396990314126014709e-02 -6.002928316593170166e-02 -1.119140535593032837e-01 2.316844183951616287e-03 1.806425899267196655e-01 1.069187223911285400e-01 -1.984423957765102386e-02 5.964768305420875549e-02 3.307018429040908813e-02 9.585538506507873535e-02 8.942903578281402588e-02 -1.121464967727661133e-01 3.452141582965850830e-02 1.015803739428520203e-01 7.136682420969009399e-02 -4.124231636524200439e-01 8.711457997560501099e-02 -3.693554922938346863e-02 3.540621101856231689e-01 -1.006909683346748352e-01 1.541630327701568604e-01 -1.183217912912368774e-01 4.414989054203033447e-02 4.223208725452423096e-01 -2.083137184381484985e-01 3.022923171520233154e-01 2.253423631191253662e-02 1.040919497609138489e-01 1.576267927885055542e-01 -1.825679689645767212e-01 4.455424100160598755e-02 -2.160778492689132690e-01 -9.252368472516536713e-03 6.438154727220535278e-02 -1.837677508592605591e-01 2.891706228256225586e-01 2.470674179494380951e-02 -7.369537651538848877e-02 -1.930138766765594482e-01 -5.296007543802261353e-02 2.438694685697555542e-01 8.262372761964797974e-02 1.650665327906608582e-02 1.286872774362564087e-01 2.960707843303680420e-01 2.901463210582733154e-01 8.057876676321029663e-02 -7.095968723297119141e-02 -1.881692111492156982e-01 9.283029474318027496e-03 4.194645956158638000e-02 -1.840131133794784546e-01 -2.822560369968414307e-01 5.261199921369552612e-02 -9.594096243381500244e-02 2.747219204902648926e-01 -3.696053028106689453e-01 1.077415943145751953e-01 9.362804889678955078e-02 -2.325995266437530518e-01 -4.621967300772666931e-02 -3.544488921761512756e-02 -7.266271114349365234e-02 1.303898245096206665e-01 -2.156792394816875458e-02 -1.370807141065597534e-01 1.145167499780654907e-01 -1.638460904359817505e-01 -9.353953599929809570e-02 1.552655547857284546e-01 9.778729081153869629e-02 1.143507212400436401e-01 2.240033634006977081e-02 -1.658219099044799805e-01 2.959554195404052734e-01 9.346057474613189697e-02 -1.134234145283699036e-01 -2.257542312145233154e-01 -1.087705790996551514e-02 4.667762517929077148e-01 -2.396624982357025146e-01 -1.026934087276458740e-01 -1.323787420988082886e-01 1.896436139941215515e-02 -2.270040661096572876e-02 -2.434907481074333191e-02
-2.966737747192382812e-01 -1.062795892357826233e-01 7.557829841971397400e-03 1.167722344398498535e-01 -7.277520000934600830e-02 -4.316143691539764404e-02 -1.735700666904449463e-01 1.115073934197425842e-01 3.327716886997222900e-02 5.490474402904510498e-02 2.941953763365745544e-02 8.797466754913330078e-02 3.149434030055999756e-01 -2.233313620090484619e-01 -1.820559203624725342e-01 1.476576328277587891e-01 1.178041845560073853e-01 -2.515283785760402679e-02 2.691291868686676025e-01 -1.675407439470291138e-01 -1.333377361297607422e-01 -5.198479816317558289e-02 2.280009724199771881e-02 -2.381151318550109863e-01 1.072076931595802307e-01 2.822934277355670929e-02 -1.605180799961090088e-01 3.625358641147613525e-01 9.723424166440963745e-02 6.264167279005050659e-02 -2.256348282098770142e-01 -1.195945739746093750e-01 1.204898804426193237e-01 -8.836208842694759369e-03 4.098672419786453247e-02 1.446871310472488403e-01 -6.524550914764404297e-02 -8.101040124893188477e-02 -2.269195020198822021e-01 1.153465658426284790e-01 -1.772869229316711426e-01 -2.161879390478134155e-01 -3.975195884704589844e-01 2.571359872817993164e-01 -2.052140682935714722e-01 1.260761320590972900e-01 2.965922653675079346e-02 2.218875735998153687e-01 -1.925622671842575073e-02 8.328844606876373291e-02 -4.057019203901290894e-02 6.018782034516334534e-02 -6.252838764339685440e-03 -4.575862362980842590e-02 -2.850062027573585510e-02 4.306766763329505920e-02 -2.175481766462326050e-01 -2.282641269266605377e-02 -1.981053650379180908e-01 6.041069701313972473e-02 5.219146981835365295e-02 -1.818511486053466797e-01 7.955660670995712280e-02 -6.040157284587621689e-03 -4.158333316445350647e-02 -9.025235474109649658e-02 1.548024713993072510e-01 -1.238021925091743469e-01 7.818214595317840576e-02 4.160164296627044678e-01 -2.231505513191223145e-01 1.027269288897514343e-02 -1.296849548816680908e-01 -6.371212005615234375e-02 6.043256726115942001e-03 1.717392653226852417e-01 1.413210630416870117e-01 1.162254214286804199e-01 -8.856542408466339111e-02 1.392330825328826904e-01 -1.927473843097686768e-01 -3.322782739996910095e-02 1.992560736835002899e-02 7.509657740592956543e-02 -5.067588388919830322e-02 -2.585202753543853760e-01 -9.749141335487365723e-02 7.003567367792129517e-02 8.064904063940048218e-02 -1.192118450999259949e-01 7.602204103022813797e-03 2.017451263964176178e-02 -5.321434512734413147e-02 2.309235185384750366e-01 1.106970831751823425e-01 -3.472273051738739014e-02 -1.751279681921005249e-01 -3.623186945915222168e-01 5.022970438003540039e-01 -2.790597500279545784e-04 -2.755321376025676727e-02 4.013989865779876709e-01 3.402567282319068909e-02 7.865096628665924072e-02 -9.548677504062652588e-02 -8.933315426111221313e-02 3.351416811347007751e-02 1.971338689327239990e-01 -9.484919160604476929e-02 1.817287355661392212e-01 3.622895479202270508e-02 -1.285922229290008545e-01 1.174935139715671539e-03 2.633916735649108887e-01 -2.921575307846069336e-01 -1.573068201541900635e-01 -1.273875385522842407e-01 1.319571956992149353e-02 6.260497495532035828e-03 2.661304362118244171e-02 -9.518913179636001587e-02 1.750859469175338745e-01 -1.133278012275695801e-02 2.432883158326148987e-02 3.387040793895721436e-01 -2.108208537101745605e-01 -1.750142686069011688e-02 -2.088829874992370605e-01
-2.546820342540740967e-01 6.094723939895629883e-02 3.623671829700469971e-01 -8.950501680374145508e-02 8.231393992900848389e-02 -1.034836843609809875e-01 9.124229103326797485e-02 -1.859457232058048248e-02 5.426729097962379456e-02 3.852514922618865967e-02 5.177197232842445374e-02 -6.248954683542251587e-02 -3.617201149463653564e-01 2.809477150440216064e-01 -7.487408816814422607e-02 -9.315349906682968140e-02 6.801246851682662964e-02 2.061051130294799805e-01 -1.011819317936897278e-01 -2.362456470727920532e-01 3.844555467367172241e-02 -2.826423197984695435e-02 -2.258073166012763977e-02 2.610169164836406708e-02 2.368681691586971283e-02 2.416011691093444824e-01 -7.556422799825668335e-02 1.187407448887825012e-01 -6.847298145294189453e-02 -5.004129931330680847e-02 -1.444537565112113953e-02 7.827536761760711670e-02 -3.809716552495956421e-02 5.275699123740196228e-02 1.485217660665512085e-01 4.091799259185791016e-02 -8.146921545267105103e-02 -2.090250886976718903e-02 6.732311565428972244e-03 3.048691153526306152e-01 -7.639417797327041626e-02 8.293367922306060791e-02 2.389809340238571167e-01 7.922497391700744629e-02 -5.766095966100692749e-02 -3.319375589489936829e-02 -4.264163784682750702e-03 1.542770713567733765e-01 -4.256721958518028259e-02 -1.590014994144439697e-01 7.093752920627593994e-02 8.772429078817367554e-02 -2.038797885179519653e-01 3.775843232870101929e-02 1.215786263346672058e-01 -3.914096206426620483e-02 -2.869440317153930664e-01 3.772666752338409424e-01 -6.244438514113426208e-02 2.091033160686492920e-01 1.581454426050186157e-01 -1.959995031356811523e-01 1.480510272085666656e-02 1.439655721187591553e-01 7.737156003713607788e-02 -3.251860141754150391e-01 4.117859899997711182e-02 -7.283362746238708496e-02 -1.921818777918815613e-02 -8.124391734600067139e-02 -7.784554362297058105e-02 -1.834047138690948486e-01 -1.278051435947418213e-01 2.618709346279501915e-03 -9.829782694578170776e-02 -1.108038518577814102e-02 -1.344498246908187866e-01 -1.029863581061363220e-02 -3.880690783262252808e-02 -3.356848657131195068e-02 -4.862140864133834839e-02 1.070730295032262802e-02 8.237193524837493896e-02 9.754392318427562714e-03 1.153329163789749146e-01 5.306948907673358917e-03 -7.078706473112106323e-02 2.439374923706054688e-01 5.510329268872737885e-03 -6.567870825529098511e-02 5.786925926804542542e-02 1.190001964569091797e-01 -1.848931908607482910e-01 8.896816521883010864e-03 3.639248432591557503e-03 1.620206236839294434e-01 1.665728241205215454e-01 -6.413407623767852783e-02 -2.325714007019996643e-02 -3.132300078868865967e-01 9.213684499263763428e-02 -3.935998976230621338e-01 4.023946821689605713e-01 -2.691345512866973877e-01 -1.852794736623764038e-02 6.442066514864563942e-04 6.443927995860576630e-03 1.700806319713592529e-01 -1.976056396961212158e-01 7.156516611576080322e-02 9.102408587932586670e-02 4.378606006503105164e-02 5.603013560175895691e-02 1.901893019676208496e-01 -7.026574760675430298e-02 3.550437837839126587e-02 2.113965339958667755e-02 4.323104768991470337e-02 8.760827034711837769e-02 4.134819656610488892e-02 3.005513362586498260e-02 -4.187458753585815430e-02 1.277178078889846802e-01 -8.884248137474060059e-02 -4.076908156275749207e-02 -1.397696435451507568e-01 -1.420048624277114868e-01 2.586518228054046631e-02
7.810556888580322266e-02 -2.648997306823730469e-01 6.189182773232460022e-02 1.720565557479858398e-01 -7.981439679861068726e-02 -7.158607244491577148e-02 3.187446668744087219e-02 -2.618704922497272491e-02 1.303796023130416870e-01 2.371579036116600037e-02 1.024894565343856812e-01 1.017694324254989624e-01 -1.210215911269187927e-01 -1.936756372451782227e-01 -2.060047686100006104e-01 -3.069650940597057343e-02 -1.901250332593917847e-01 3.680406138300895691e-02 4.725786671042442322e-02 2.260171808302402496e-02 -1.195732183987274766e-04 -7.208197563886642456e-02 1.247634142637252808e-01 -2.721349298954010010e-01 -1.234487742185592651e-01 -9.535742551088333130e-02 1.259244829416275024e-01 -3.738080710172653198e-02 2.104173600673675537e-02 3.097216598689556122e-02 -4.928987324237823486e-01 -9.112056344747543335e-02 8.362340927124023438e-02 3.567863628268241882e-02 -2.290924638509750366e-01 1.460081785917282104e-01 6.749516725540161133e-02 9.686744213104248047e-02 -5.220799893140792847e-02 -1.063855364918708801e-01 2.177366912364959717e-01 7.021456211805343628e-02 -1.244675889611244202e-01 1.036338582634925842e-01 1.855134218931198120e-01 -1.824940443038940430e-01 -1.937149651348590851e-02 1.646670103073120117e-01 1.012021452188491821e-01 -9.410298429429531097e-03 6.247504800558090210e-02 6.732546538114547729e-02 -1.126873940229415894e-01 5.670785438269376755e-03 1.899419873952865601e-01 -1.153898686170578003e-01 2.436587959527969360e-02 1.713421046733856201e-01 -7.156521826982498169e-02 -2.312221080064773560e-01 2.464550919830799103e-02 -4.673425108194351196e-03 -1.593730598688125610e-01 1.601022332906723022e-01 7.356880605220794678e-02 -1.947055198252201080e-02 -1.457897424697875977e-01 -7.848922908306121826e-02 -5.542563740164041519e-03 -5.937966331839561462e-02 -1.320931017398834229e-01 -7.862284034490585327e-02 -1.004714369773864746e-01 -8.967041969299316406e-02 -1.656372845172882080e-02 1.345945056527853012e-02 2.224285751581192017e-01 9.236613661050796509e-02 -6.769401580095291138e-02 8.219692111015319824e-02 -2.059209197759628296e-01 -2.399903908371925354e-02 8.600682020187377930e-02 1.872938941232860088e-03 4.095282405614852905e-02 8.994615636765956879e-03 -1.204973319545388222e-03 3.427943214774131775e-02 -1.313776671886444092e-01 -1.081684902310371399e-01 -4.205272346735000610e-02 -3.559054806828498840e-03 -1.297307312488555908e-01 5.521055310964584351e-03 -1.977565586566925049e-01 9.621118195354938507e-03 -2.664132714271545410e-01 5.591230839490890503e-02 -8.493173867464065552e-02 2.022889256477355957e-01 -3.992746770381927490e-02 -2.142848074436187744e-01 8.114862442016601562e-02 -2.679270803928375244e-01 -9.396930783987045288e-02 -1.171085536479949951e-01 -3.434357699006795883e-03 -9.122125804424285889e-03 1.116207521408796310e-02 -2.714714221656322479e-02 -2.113326787948608398e-01 -2.278400212526321411e-01 1.132820472121238708e-01 -2.030890285968780518e-01 1.011062860488891602e-01 1.623550057411193848e-01 1.776174902915954590e-01 1.230911910533905029e-01 4.137791693210601807e-03 2.349892705678939819e-01 1.430318225175142288e-02 -5.682992562651634216e-02 5.208369111642241478e-04 -1.238614246249198914e-01 -3.364141881465911865e-01 2.901390790939331055e-01 -5.775611847639083862e-02 1.134187877178192139e-01
-1.148018985986709595e-02 7.447389513254165649e-02 -2.991982996463775635e-01 2.034289576113224030e-02 -4.273103922605514526e-02 1.503064334392547607e-01 1.607092171907424927e-01 7.503256946802139282e-02 -1.582601293921470642e-02 -1.120148226618766785e-01 1.626613549888134003e-02 3.757403418421745300e-02 -6.164334481582045555e-04 -1.182484775781631470e-01 1.657783836126327515e-01 3.124845586717128754e-02 -2.247257679700851440e-01 4.796851798892021179e-02 1.161645501852035522e-01 2.865895628929138184e-01 -4.446180164813995361e-02 -8.266689628362655640e-02 9.161783754825592041e-02 -2.319878637790679932e-01 -9.530843794345855713e-02 5.326346307992935181e-02 -1.059083938598632812e-01 2.625569887459278107e-02 -5.222656950354576111e-02 -5.212097987532615662e-02 -3.673880994319915771e-01 -1.977065019309520721e-02 8.752778917551040649e-02 1.189250424504280090e-01 -7.999847829341888428e-02 -1.498071197420358658e-02 -3.536484837532043457e-01 9.253119677305221558e-02 -4.369763284921646118e-02 -1.684107482433319092e-01 -1.547489613294601440e-01 -1.307780295610427856e-01 1.961007863283157349e-01 2.195873111486434937e-01 -1.473029851913452148e-01 -1.552641093730926514e-01 -1.892556250095367432e-01 -6.848981231451034546e-02 -9.762445837259292603e-02 -1.461704224348068237e-01 -3.851293399930000305e-02 6.746261566877365112e-02 -1.926836520433425903e-01 5.570616200566291809e-02 2.240829169750213623e-01 -9.386826306581497192e-02 9.902471303939819336e-02 -9.057126194238662720e-02 -2.043316662311553955e-01 -9.054049104452133179e-02 1.748939752578735352e-01 -3.851692676544189453e-01 7.317927479743957520e-02 2.985605271533131599e-03 1.197409704327583313e-01 4.417201504111289978e-02 -1.578396558761596680e-01 -2.817743644118309021e-02 2.131868451833724976e-01 8.679442107677459717e-02 -3.380246832966804504e-02 -2.209563851356506348e-01 3.087111748754978180e-02 -8.780902624130249023e-02 7.515334058552980423e-03 8.099227398633956909e-02 -1.445977687835693359e-01 1.250943690538406372e-01 2.166787832975387573e-01 -1.437664628028869629e-01 -5.995568260550498962e-02 3.701302409172058105e-02 8.437652140855789185e-02 -1.099629104137420654e-01 9.639488905668258667e-02 6.350675970315933228e-02 -1.127713099122047424e-01 1.261105090379714966e-01 -9.214268624782562256e-02 -2.482293732464313507e-02 -2.094774506986141205e-02 -2.829305268824100494e-02 1.735500097274780273e-01 5.786255374550819397e-02 -5.121759176254272461e-01 3.393726050853729248e-01 8.356375619769096375e-03 -1.571645140647888184e-01 -1.389295011758804321e-01 2.616313993930816650e-01 3.684062138199806213e-02 -1.018883138895034790e-01 5.813129544258117676e-01 -3.649953380227088928e-02 -1.099002137780189514e-01 4.604503512382507324e-02 1.251778751611709595e-01 1.652494370937347412e-01 2.526175379753112793e-01 -9.318232536315917969e-02 -1.835534349083900452e-02 -1.898261606693267822e-01 9.584522247314453125e-02 -1.559001505374908447e-01 -2.408372461795806885e-01 -2.420071363449096680e-01 5.406054854393005371e-02 1.523487083613872528e-02 -2.223974838852882385e-02 -7.691278308629989624e-02 -6.197270471602678299e-03 7.116093486547470093e-02 1.140749379992485046e-01 -1.315445154905319214e-01 -1.090559363365173340e-01 6.904572993516921997e-02 9.469724260270595551e-03 -1.590566895902156830e-02
-3.371813595294952393e-01 -6.779471784830093384e-02 1.720828413963317871e-01 2.317502051591873169e-01 1.141655743122100830e-01 -2.587938010692596436e-01 1.251132488250732422e-01 1.793169416487216949e-02 7.742830365896224976e-02 -1.017035171389579773e-02 5.013304203748703003e-02 -1.027195826172828674e-01 6.129758805036544800e-02 4.656307026743888855e-02 3.256681561470031738e-02 -6.498094648122787476e-02 4.386933520436286926e-02 1.365346610546112061e-01 1.578068584203720093e-01 -1.697921901941299438e-01 -5.929766688495874405e-03 -1.010043770074844360e-01 -4.944326356053352356e-02 -3.191721737384796143e-01 -1.408464163541793823e-01 -7.297744601964950562e-02 -4.323237240314483643e-01 -1.887037605047225952e-02 9.249555878341197968e-03 4.258135333657264709e-02 -3.198401033878326416e-01 -9.479172527790069580e-02 4.728194326162338257e-02 -1.050412505865097046e-01 -1.778572648763656616e-01 -5.134180560708045959e-02 1.779442876577377319e-01 -5.037014372646808624e-03 -9.874086827039718628e-02 1.890720725059509277e-01 -1.355683952569961548e-01 1.897897869348526001e-01 4.018500819802284241e-02 1.938070356845855713e-02 -6.316296011209487915e-02 -6.976307183504104614e-02 -1.691766269505023956e-02 2.592374086380004883e-01 6.817585788667201996e-03 -1.372502297163009644e-01 -1.196761503815650940e-01 2.246548235416412354e-02 -5.221777036786079407e-02 -9.166128933429718018e-02 -9.487987309694290161e-02 1.466470360755920410e-01 7.019766420125961304e-02 -2.716925442218780518e-01 1.403804216533899307e-02 -1.342076957225799561e-01 2.261182218790054321e-01 -3.630542382597923279e-02 3.507052063941955566e-01 -5.019994825124740601e-02 4.401441197842359543e-03 3.236815035343170166e-01 -1.014006659388542175e-01 -3.825184330344200134e-02 2.345293462276458740e-01 1.214429289102554321e-01 -2.281017899513244629e-01 -7.838780432939529419e-02 -1.304042041301727295e-01 2.827655524015426636e-02 -3.027088008821010590e-02 -1.237014308571815491e-01 8.030441403388977051e-02 -1.485545374453067780e-02 -1.245114430785179138e-01 5.688285827636718750e-02 -2.602777779102325439e-01 -9.737816639244556427e-03 2.938392758369445801e-01 1.344536244869232178e-01 1.774935722351074219e-01 -7.400090247392654419e-02 9.479545056819915771e-02 3.381030261516571045e-01 -1.191946566104888916e-01 -2.914468571543693542e-02 6.927105039358139038e-02 1.635919697582721710e-02 3.284902870655059814e-02 6.179881840944290161e-02 1.039140000939369202e-01 -3.304477408528327942e-02 -9.827211499214172363e-02 1.801221445202827454e-02 -2.813830971717834473e-01 2.382875531911849976e-01 1.783206313848495483e-02 -4.083387851715087891e-01 1.400277316570281982e-01 -2.490327954292297363e-01 4.989422112703323364e-02 -9.583467245101928711e-02 2.425633557140827179e-02 1.409512311220169067e-01 -2.030451297760009766e-01 -1.225423365831375122e-01 3.123033642768859863e-01 -2.902445197105407715e-01 4.054048657417297363e-02 1.229745149612426758e-01 3.338486701250076294e-02 7.729951757937669754e-03 4.685143381357192993e-02 1.226788833737373352e-01 2.163237333297729492e-02 1.880691153928637505e-03 -1.117587462067604065e-01 6.670010834932327271e-02 1.661943793296813965e-01 7.086095865815877914e-03 -3.337363153696060181e-02 1.104874685406684875e-01 -8.221451193094253540e-02 1.080646440386772156e-01
-3.194799721240997314e-01 1.177958622574806213e-01 -1.464962144382297993e-03 5.485063791275024414e-02 2.174297720193862915e-01 1.533741801977157593e-01 -5.144169926643371582e-02 6.198600307106971741e-02 9.639218449592590332e-02 -4.130532592535018921e-02 9.987946599721908569e-02 -8.137806504964828491e-02 1.031462918035686016e-03 2.526869177818298340e-01 -8.403662592172622681e-02 -9.728724509477615356e-02 2.294348739087581635e-02 1.774217635393142700e-01 -6.013120412826538086e-01 2.069750614464282990e-02 4.867861419916152954e-02 -3.407123312354087830e-02 1.049952134490013123e-01 -1.058542076498270035e-02 -1.370877325534820557e-01 -1.847073137760162354e-01 2.218227535486221313e-01 2.820728421211242676e-01 4.128847643733024597e-02 2.210062555968761444e-02 7.391458004713058472e-02 1.231171265244483948e-01 7.547701895236968994e-02 1.611078083515167236e-01 1.009155511856079102e-01 1.280278805643320084e-02 -1.553531140089035034e-01 -1.071190759539604187e-01 -7.489901036024093628e-02 1.287567466497421265e-01 -9.081332385540008545e-02 3.864995762705802917e-02 2.938140034675598145e-01 -1.376555413007736206e-01 1.625939458608627319e-01 1.554131414741277695e-02 6.867440044879913330e-02 -1.091281920671463013e-01 -8.577532321214675903e-02 -1.750971227884292603e-01 -1.003971472382545471e-01 3.098330646753311157e-02 -4.194121807813644409e-02 -8.543244563043117523e-03 -1.996959298849105835e-01 -1.309646070003509521e-01 1.019416153430938721e-01 -1.231734361499547958e-02 9.798621386289596558e-02 3.063559234142303467e-01 2.065127640962600708e-01 1.014916109852492809e-03 -1.209550872445106506e-01 -5.697368178516626358e-03 6.676514446735382080e-02 -1.020428091287612915e-01 -2.262313105165958405e-02 -3.443028405308723450e-02 1.152789145708084106e-01 -3.727957010269165039e-01 -1.111196354031562805e-01 -1.125052347779273987e-01 5.343547835946083069e-02 -8.800779283046722412e-02 -5.508025735616683960e-02 4.371012747287750244e-02 -2.067185938358306885e-02 -1.797334849834442139e-01 1.276712864637374878e-01 -4.985864087939262390e-02 8.585356175899505615e-02 -2.639012597501277924e-02 -7.548114657402038574e-02 -7.542612496763467789e-03 1.298669129610061646e-01 -6.529033184051513672e-02 -2.111554592847824097e-01 6.481672078371047974e-02 -1.750637590885162354e-01 -5.862014368176460266e-02 1.483196020126342773e-01 9.527375921607017517e-03 -9.937128424644470215e-02 -9.689061343669891357e-02 2.697429433465003967e-02 1.749556511640548706e-01 1.089176163077354431e-01 -2.358659058809280396e-01 1.131134405732154846e-01 5.822253599762916565e-02 4.452178254723548889e-02 -3.414931520819664001e-02 1.723762750625610352e-01 -1.587729454040527344e-01 -6.707628071308135986e-02 -5.689232051372528076e-02 3.205941990017890930e-02 2.258239537477493286e-01 1.262881904840469360e-01 -1.383332163095474243e-01 -6.420967727899551392e-02 2.105884850025177002e-01 2.695392817258834839e-03 6.444163620471954346e-02 9.022266417741775513e-02 -1.709026992321014404e-01 9.723757207393646240e-02 8.033496141433715820e-02 -8.487414568662643433e-02 2.792835235595703125e-01 6.838869303464889526e-02 -1.995732933282852173e-01 7.028402388095855713e-02 2.946045249700546265e-02 -6.371375918388366699e-02 3.135123550891876221e-01 -7.209835201501846313e-02 -2.254974097013473511e-01
