-2.877748385071754456e-02 -1.640359312295913696e-01 6.485922634601593018e-02 -5.309154838323593140e-02 -6.427098810672760010e-02 2.073260769248008728e-02 1.083468720316886902e-01 -1.841124743223190308e-01 -8.265756815671920776e-02 8.387368172407150269e-02 1.426542252302169800e-01 1.354509126394987106e-02 6.313471496105194092e-02 8.605121076107025146e-02 -6.927154026925563812e-03 -1.342182159423828125e-01 -4.532724246382713318e-02 -5.735736712813377380e-02 -1.120160818099975586e-01 -6.599229574203491211e-02 8.067231625318527222e-02 -1.991113275289535522e-02 -7.390613108873367310e-02 8.350350894033908844e-03 7.986523956060409546e-02 -3.376711159944534302e-02 -1.169022358953952789e-02 9.765052050352096558e-02 2.728656306862831116e-02 -1.644155755639076233e-02 -5.786238610744476318e-02 4.920745268464088440e-02 -1.589760184288024902e-01 7.964622974395751953e-02 -1.135636419057846069e-01 -1.611166447401046753e-01 -1.526373028755187988e-01 1.027585417032241821e-01 1.748061031103134155e-01 -1.335286796092987061e-01 8.368835784494876862e-03 -1.894384920597076416e-01 -1.783975283615291119e-03 -1.831560730934143066e-01 1.471985578536987305e-01 4.900962859392166138e-02 -1.463482230901718140e-01 -1.305416878312826157e-02 7.788233458995819092e-02 -6.497327238321304321e-02 -7.529602199792861938e-02 1.196719557046890259e-01 1.988632529973983765e-01 6.419514119625091553e-02 -5.218460783362388611e-02 -2.409676648676395416e-02 -1.107248738408088684e-01 1.840624809265136719e-01 1.197336390614509583e-01 6.147939711809158325e-02 -6.518521904945373535e-02 -4.969089105725288391e-02 -2.003501951694488525e-01 -1.452228277921676636e-01 1.017884165048599243e-01 2.082188874483108521e-01 7.152039557695388794e-02 5.156124755740165710e-02 2.588162384927272797e-02 -2.262056805193424225e-02 4.150787740945816040e-02 -2.802048809826374054e-02 5.866937711834907532e-02 2.820796333253383636e-02 2.490553632378578186e-02 -6.103337928652763367e-02 -3.885410726070404053e-02 1.146386470645666122e-02 -4.358776286244392395e-02 1.084852665662765503e-01 -3.181753680109977722e-02 -1.037374660372734070e-01 -1.243990510702133179e-01 2.280701510608196259e-02 -5.873922631144523621e-02 -1.633661240339279175e-01 1.287057548761367798e-01 -1.004752367734909058e-01 4.347507655620574951e-02 2.478048205375671387e-02 -2.072646841406822205e-02 -1.221150252968072891e-02 1.603624224662780762e-01 -1.095442846417427063e-01 9.114945307374000549e-03 -2.513548433780670166e-01 2.167487889528274536e-01 -1.622520238161087036e-01 -5.862753093242645264e-02 -2.558106482028961182e-01 -1.282153278589248657e-01 -1.416385173797607422e-01 -6.024334207177162170e-02 -1.298551261425018311e-01 6.816462427377700806e-02 -1.906720995903015137e-01 2.752342820167541504e-01 6.145302951335906982e-02 3.009263053536415100e-02 -1.851244717836380005e-01 -2.270714193582534790e-02 2.760690823197364807e-02 2.804019115865230560e-02 1.401478350162506104e-01 1.636666432023048401e-02 1.316409558057785034e-01 -1.024060398340225220e-01 -7.908800244331359863e-02 -3.523404896259307861e-02 -9.364066645503044128e-03 1.865117251873016357e-01 1.298749744892120361e-01 -4.715164750814437866e-02 1.773176640272140503e-01 -1.986838504672050476e-02 1.095700040459632874e-01 1.011221632361412048e-01 -6.484629958868026733e-02
1.094216406345367432e-01 -7.952978461980819702e-02 3.138509392738342285e-02 -4.631438851356506348e-02 3.009260864928364754e-03 6.740615516901016235e-02 1.871823668479919434e-01 -2.471898198127746582e-01 -1.877182396128773689e-03 1.058519002981483936e-03 4.808069765567779541e-02 -1.279176473617553711e-01 1.159241572022438049e-01 5.632834509015083313e-02 9.632901847362518311e-02 -6.248715892434120178e-02 1.360707879066467285e-01 5.996229127049446106e-02 4.693892970681190491e-02 -4.931227117776870728e-02 1.035582274198532104e-02 -1.357397139072418213e-01 9.102641791105270386e-02 5.646252632141113281e-02 1.248087286949157715e-01 -1.482886075973510742e-01 -2.580699278041720390e-03 9.492241591215133667e-02 4.190341010689735413e-02 -6.584974378347396851e-02 -9.905850142240524292e-02 -9.280319511890411377e-02 2.351211197674274445e-02 8.589950948953628540e-02 -1.179451271891593933e-01 -2.757591903209686279e-01 -1.414577811956405640e-01 -5.311240255832672119e-02 1.506709009408950806e-01 -2.326406165957450867e-02 -2.663669362664222717e-02 -1.829642355442047119e-01 -1.326745450496673584e-01 -1.914599835872650146e-01 6.731808185577392578e-02 -2.491287142038345337e-02 -2.006917633116245270e-02 -1.086686626076698303e-01 4.847032204270362854e-02 5.463263764977455139e-02 -1.727315038442611694e-01 1.809190362691879272e-01 1.982191652059555054e-01 3.790414705872535706e-02 -1.484020501375198364e-01 3.228606146876700222e-05 -1.898531466722488403e-01 1.654365509748458862e-01 1.192630827426910400e-01 1.804845593869686127e-02 -2.549503445625305176e-01 1.639890833757817745e-03 -2.648545205593109131e-01 -1.135793849825859070e-01 1.122440025210380554e-01 1.781062483787536621e-01 1.533907502889633179e-01 5.109825730323791504e-02 4.696202464401721954e-03 8.316078782081604004e-02 1.676208823919296265e-01 1.213578786700963974e-02 -1.458350848406553268e-02 9.827162139117717743e-03 1.789768226444721222e-02 5.169871076941490173e-02 -4.634820669889450073e-02 -1.116586942225694656e-02 -1.024887263774871826e-01 4.955207556486129761e-02 -5.903745442628860474e-02 -4.695228114724159241e-02 -8.689224720001220703e-02 -7.875135540962219238e-02 -5.321804061532020569e-02 -1.110475584864616394e-01 1.546678543090820312e-01 -1.021832972764968872e-01 3.354707360267639160e-02 -4.416182264685630798e-02 1.993612572550773621e-02 -1.654507815837860107e-01 1.633080095052719116e-01 -9.384386986494064331e-02 -2.768314257264137268e-02 -2.814879417419433594e-01 2.173375040292739868e-01 -1.759863346815109253e-01 -3.810132667422294617e-02 -1.929107755422592163e-01 -1.234898790717124939e-01 -1.287619699724018574e-03 -8.181742392480373383e-03 -1.113288942724466324e-02 1.878839880228042603e-01 -1.967262178659439087e-01 2.277820706367492676e-01 1.824017614126205444e-01 -2.335340343415737152e-02 -6.901953369379043579e-02 -2.407428808510303497e-02 -1.536686439067125320e-02 -9.859786182641983032e-02 -4.841850697994232178e-02 9.329879283905029297e-02 1.337879896163940430e-01 -9.306231141090393066e-02 8.408201485872268677e-02 6.178028136491775513e-02 -1.355504244565963745e-01 1.794051080942153931e-01 9.153155982494354248e-02 -1.716933250427246094e-01 1.290017962455749512e-01 1.324459612369537354e-01 7.608431391417980194e-03 1.402470469474792480e-01 1.050309687852859497e-01
5.135311186313629150e-02 3.961090371012687683e-02 1.474173814058303833e-01 2.388000860810279846e-02 -1.984594762325286865e-02 -7.170350104570388794e-02 2.061978727579116821e-01 -2.481422759592533112e-02 2.498525530099868774e-01 -8.479204773902893066e-02 9.455190598964691162e-02 -1.669836193323135376e-01 1.293886005878448486e-01 1.739668846130371094e-01 -4.827443510293960571e-02 1.692083328962326050e-01 -3.535370575264096260e-03 6.617350131273269653e-02 2.142520248889923096e-01 -9.831206500530242920e-02 -4.757133126258850098e-02 1.352889090776443481e-01 2.608610689640045166e-01 -1.115836426615715027e-01 9.172079153358936310e-03 2.394651435315608978e-02 -1.404603272676467896e-01 6.090956926345825195e-02 -7.606066763401031494e-02 4.484140127897262573e-02 1.689217835664749146e-01 1.490727066993713379e-02 -5.281449854373931885e-02 1.695197671651840210e-01 -1.456094440072774887e-02 -1.379206776618957520e-01 -1.069026067852973938e-01 -2.308287471532821655e-01 2.204642444849014282e-02 7.060538977384567261e-02 -6.783427298069000244e-02 -8.906073868274688721e-02 -1.285780519247055054e-01 -1.302763521671295166e-01 -2.519621253013610840e-01 9.643365442752838135e-02 1.474481970071792603e-01 -7.906985282897949219e-02 -1.189901307225227356e-01 1.776843965053558350e-01 -1.816784441471099854e-01 2.491087317466735840e-01 1.665915399789810181e-01 2.642183601856231689e-01 -2.051521837711334229e-01 1.456209868192672729e-01 -2.292685657739639282e-01 5.788823589682579041e-02 2.133167237043380737e-01 -3.327120468020439148e-02 -1.634991466999053955e-01 1.443829089403152466e-01 -7.427954673767089844e-02 7.633588463068008423e-02 -5.042172223329544067e-02 -1.217124164104461670e-01 1.799385994672775269e-01 5.435946956276893616e-02 -2.353587420657277107e-03 -1.876530051231384277e-02 1.689976155757904053e-01 -9.394338726997375488e-02 -5.439548566937446594e-02 -1.830742061138153076e-01 -5.527740716934204102e-02 -5.853039398789405823e-02 -2.007518410682678223e-01 -9.924381226301193237e-02 9.900057315826416016e-02 5.476927384734153748e-02 -2.592038176953792572e-02 -1.077104434370994568e-01 6.560819596052169800e-02 1.768649071455001831e-01 -1.692555285990238190e-02 6.873155385255813599e-02 1.008419133722782135e-02 2.789112329483032227e-01 2.417183294892311096e-02 -2.517841570079326630e-02 2.127400934696197510e-01 7.081528753042221069e-02 -1.106742024421691895e-01 -1.509216725826263428e-01 1.197896781377494335e-03 -3.509128391742706299e-01 -3.333743661642074585e-03 -1.095095351338386536e-01 1.862587966024875641e-02 1.109331380575895309e-02 -2.247356995940208435e-02 -5.817853286862373352e-02 -6.692371517419815063e-02 -3.465487435460090637e-02 1.838383823633193970e-01 -9.572099894285202026e-02 1.888140290975570679e-01 -1.001442596316337585e-01 -3.139536827802658081e-02 1.116504613310098648e-02 5.253621935844421387e-02 -3.015190660953521729e-01 -7.022695988416671753e-02 -1.135973706841468811e-01 9.897803887724876404e-03 2.381129860877990723e-01 -8.441307395696640015e-02 1.250201314687728882e-01 -1.518488824367523193e-01 -3.994314670562744141e-01 1.503571271896362305e-01 -2.572118937969207764e-01 -3.061763346195220947e-01 1.179074347019195557e-01 4.385399520397186279e-01 1.465582996606826782e-01 -1.141744032502174377e-01 -4.726324602961540222e-02
-2.514899941161274910e-03 1.040062680840492249e-01 1.981970220804214478e-01 2.232134789228439331e-01 4.245208948850631714e-02 9.355004876852035522e-02 -3.569821268320083618e-02 1.061977702192962170e-03 2.433901578187942505e-01 -3.343787742778658867e-03 -1.006305143237113953e-01 -8.451912552118301392e-02 -7.150460733100771904e-04 4.277620464563369751e-02 1.707067899405956268e-02 4.705270007252693176e-02 -7.527038455009460449e-02 -4.547662660479545593e-02 5.693279206752777100e-02 -1.066258829087018967e-02 -7.518491148948669434e-02 2.624446153640747070e-01 1.092199534177780151e-01 3.893079236149787903e-02 -7.965131103992462158e-02 1.199657469987869263e-01 1.264528781175613403e-01 3.437042608857154846e-02 -1.433521509170532227e-01 1.313812192529439926e-02 7.054033875465393066e-02 -4.852388799190521240e-02 3.473970573395490646e-03 -8.529345504939556122e-03 -1.208058446645736694e-01 -3.072226233780384064e-02 -5.398106202483177185e-02 -1.204909235239028931e-01 7.223454862833023071e-02 5.875236820429563522e-03 1.818655133247375488e-01 -8.478472940623760223e-03 -1.380183845758438110e-01 2.515635825693607330e-02 -1.684476882219314575e-01 7.439859956502914429e-02 2.288345247507095337e-02 -9.370873123407363892e-02 -1.340313814580440521e-02 -3.890242427587509155e-02 -1.869891136884689331e-01 5.917212739586830139e-02 2.078976482152938843e-01 1.033425778150558472e-01 -2.504319846630096436e-01 8.650810271501541138e-02 -9.123919159173965454e-02 2.509625852108001709e-01 1.704297810792922974e-01 -5.437634885311126709e-02 1.472678631544113159e-01 1.530921906232833862e-01 6.579766422510147095e-02 5.569871887564659119e-02 -1.261294186115264893e-01 -8.372166752815246582e-02 1.690716147422790527e-01 1.107095703482627869e-01 -8.857918903231620789e-03 -2.638843953609466553e-01 1.511535048484802246e-01 4.496249556541442871e-02 4.787809401750564575e-02 -7.532053440809249878e-02 -7.854299247264862061e-02 -7.653216272592544556e-02 -3.372428566217422485e-02 3.562222421169281006e-02 -1.541552692651748657e-01 -2.000698633491992950e-02 -3.787136077880859375e-02 -1.432063430547714233e-01 7.265550643205642700e-02 2.439785748720169067e-01 -4.454161971807479858e-02 1.798687279224395752e-01 -5.224459245800971985e-02 2.480633370578289032e-02 4.334382712841033936e-03 7.204134762287139893e-02 8.260514587163925171e-03 9.551183879375457764e-02 -8.890759199857711792e-02 -8.750243484973907471e-02 6.448101252317428589e-02 -5.583063364028930664e-01 -5.411751568317413330e-03 -8.376502245664596558e-02 -1.269501894712448120e-01 1.502124816179275513e-01 -8.602766692638397217e-02 -1.485140770673751831e-01 -3.213777244091033936e-01 -5.352891236543655396e-02 -9.293141961097717285e-02 9.397217631340026855e-02 1.845716089010238647e-01 -1.554009169340133667e-01 2.458336353302001953e-01 -1.763714402914047241e-01 -1.609778106212615967e-01 -3.312425017356872559e-01 -1.170484274625778198e-01 1.166279911994934082e-01 -1.056491509079933167e-01 3.013897314667701721e-02 6.578508764505386353e-02 2.033658325672149658e-01 -1.501893401145935059e-01 -3.572350740432739258e-01 1.758409589529037476e-01 -1.790049970149993896e-01 -1.335643082857131958e-01 1.440354138612747192e-01 1.978723406791687012e-01 4.833967424929141998e-03 5.858863238245248795e-03 -3.384914621710777283e-02
7.415097672492265701e-03 -1.806229799985885620e-01 -4.897513985633850098e-02 3.586778044700622559e-02 1.547309756278991699e-01 1.997523382306098938e-02 -1.270570605993270874e-01 1.712577044963836670e-02 1.078427433967590332e-01 9.887146204710006714e-02 -1.273097395896911621e-01 -1.087022125720977783e-01 -6.239590048789978027e-02 -1.508823633193969727e-01 5.982351675629615784e-02 -1.564571633934974670e-02 -1.442184001207351685e-01 -1.237661093473434448e-01 1.039271950721740723e-01 1.118624657392501831e-01 -1.821189075708389282e-01 2.543184459209442139e-01 7.809992879629135132e-02 4.918508231639862061e-02 6.766712665557861328e-02 6.203860417008399963e-02 1.499735713005065918e-01 4.480021446943283081e-02 -8.628107607364654541e-02 -1.367372274398803711e-02 -6.710537523031234741e-02 -1.491478532552719116e-01 -1.249657869338989258e-01 8.607587777078151703e-03 -1.608818918466567993e-01 -1.848317533731460571e-01 8.602725714445114136e-02 6.065900996327400208e-02 1.558116376399993896e-01 1.537485122680664062e-01 1.148222610354423523e-01 2.129067480564117432e-01 -1.338043510913848877e-01 3.759214282035827637e-02 5.324251204729080200e-02 1.213982626795768738e-01 2.892526052892208099e-02 4.280717298388481140e-02 5.665489286184310913e-02 -9.494936466217041016e-02 -1.179577261209487915e-01 4.028650373220443726e-02 1.693238615989685059e-01 -8.193806558847427368e-02 -1.512574702501296997e-01 6.291355192661285400e-02 -1.858032867312431335e-02 1.112597137689590454e-01 1.245014071464538574e-01 -1.986785233020782471e-02 1.347431689500808716e-01 2.340408414602279663e-01 -2.119539380073547363e-01 -2.001259662210941315e-02 -3.583554178476333618e-03 7.414622604846954346e-02 1.269526481628417969e-01 1.051028352230787277e-02 -1.504312902688980103e-01 -3.188365101814270020e-01 2.296864986419677734e-01 -1.208586990833282471e-01 1.957872658967971802e-01 1.187787950038909912e-01 -6.535355001688003540e-02 -1.123766005039215088e-01 -4.841093719005584717e-02 7.288739830255508423e-02 8.415658026933670044e-02 1.411970853805541992e-01 9.251018054783344269e-03 2.286062017083168030e-02 1.939049959182739258e-01 1.461840420961380005e-01 1.021367311477661133e-02 5.389510840177536011e-02 -1.002547070384025574e-01 -1.930941641330718994e-01 9.812937676906585693e-02 -2.483466081321239471e-02 -4.877294003963470459e-01 1.022352743893861771e-02 7.261906564235687256e-02 1.354014128446578979e-01 4.001668095588684082e-02 -5.951629877090454102e-01 -3.237877041101455688e-02 -5.069974437355995178e-02 1.476438492536544800e-01 -7.665047794580459595e-02 8.567793667316436768e-02 -1.102829873561859131e-01 -4.402285218238830566e-01 -5.913431197404861450e-02 -1.233177259564399719e-02 -1.025386229157447815e-01 -7.783508300781250000e-02 1.418955773115158081e-01 2.216020822525024414e-01 -1.855992674827575684e-01 -9.832705557346343994e-02 -4.191907942295074463e-01 -1.009395122528076172e-01 2.078758776187896729e-01 -7.935886085033416748e-02 -1.761153787374496460e-01 2.327376753091812134e-01 2.367737293243408203e-01 4.299438372254371643e-02 -1.638666540384292603e-01 3.490197286009788513e-02 -4.421244934201240540e-02 -8.592326194047927856e-03 8.416935801506042480e-02 -1.746880076825618744e-02 3.247577464208006859e-03 3.297960758209228516e-02 8.735770732164382935e-02
-8.577627688646316528e-02 2.626376599073410034e-02 -2.047098278999328613e-01 -5.775827541947364807e-02 2.321987301111221313e-01 -1.795204877853393555e-01 6.246420368552207947e-02 1.086284443736076355e-01 -9.784208238124847412e-02 1.456850171089172363e-01 1.086328998208045959e-01 8.197333081625401974e-04 1.063233334571123123e-02 7.224397361278533936e-02 3.603734448552131653e-02 1.093087047338485718e-01 -1.686053574085235596e-01 -4.733987152576446533e-02 -1.229367405176162720e-01 -1.000931039452552795e-01 -6.717327982187271118e-02 2.744620107114315033e-02 2.973530888557434082e-01 -3.467639908194541931e-02 9.228531271219253540e-02 2.530479617416858673e-02 -1.583151705563068390e-02 1.034777238965034485e-01 -1.601506620645523071e-01 3.099427372217178345e-02 2.516070902347564697e-01 -2.554098069667816162e-01 -1.068421676754951477e-01 3.694218024611473083e-02 -2.078211456537246704e-01 -1.223124712705612183e-01 2.193198539316654205e-03 1.943865604698657990e-02 1.390959024429321289e-01 1.374146342277526855e-01 3.962104395031929016e-02 -4.116383567452430725e-02 -1.955320090055465698e-01 -2.771764434874057770e-02 2.548062987625598907e-02 8.671274036169052124e-02 1.187508553266525269e-01 -1.705156452953815460e-02 -2.030753195285797119e-01 -1.266825795173645020e-01 -5.690529942512512207e-02 3.750724345445632935e-02 -6.635906547307968140e-02 6.698433309793472290e-02 -4.810879752039909363e-02 -1.558226048946380615e-01 8.059132844209671021e-02 2.158658057451248169e-01 1.215439513325691223e-01 9.192255139350891113e-02 -8.422988653182983398e-02 4.402501136064529419e-02 -1.710276305675506592e-01 1.526829302310943604e-01 1.398363560438156128e-01 1.828678101301193237e-01 5.446817874908447266e-01 -1.042760908603668213e-01 1.502151135355234146e-02 -9.884978830814361572e-02 2.756098806858062744e-01 -1.335036307573318481e-01 1.799085736274719238e-01 1.353775262832641602e-01 -3.386858105659484863e-02 2.098328620195388794e-01 6.357385963201522827e-02 2.476466000080108643e-01 5.040648952126502991e-02 -6.107173115015029907e-02 1.209318935871124268e-01 -4.468446597456932068e-02 2.881086198613047600e-03 1.119285151362419128e-01 1.342732757329940796e-01 9.571480751037597656e-02 -1.693053394556045532e-01 5.158019065856933594e-02 -8.562196046113967896e-02 -5.603674799203872681e-03 -5.469320416450500488e-01 2.888560667634010315e-02 1.904433406889438629e-02 7.753482460975646973e-02 2.112195640802383423e-02 -4.799839854240417480e-01 -1.122841611504554749e-01 -6.753632426261901855e-02 2.644217945635318756e-02 -1.785246655344963074e-02 9.828975051641464233e-02 2.126014587702229619e-04 -2.145255059003829956e-01 8.444146811962127686e-02 -8.314071223139762878e-03 -1.575736999511718750e-01 9.370679408311843872e-02 2.346280813217163086e-01 -4.649007692933082581e-02 -9.554481506347656250e-02 2.297538071870803833e-01 -6.205142140388488770e-01 -5.727702751755714417e-02 -1.529436111450195312e-01 -2.195166237652301788e-02 -1.690449714660644531e-01 1.911970674991607666e-01 1.358423233032226562e-01 1.168193295598030090e-01 -1.086597330868244171e-02 -9.384686499834060669e-02 1.195975951850414276e-02 -2.757574431598186493e-02 -2.310712449252605438e-02 -9.021989256143569946e-02 -8.104366809129714966e-02 -6.624913960695266724e-02 -1.846210211515426636e-01
-3.960464298725128174e-01 -1.673125177621841431e-01 1.159558892250061035e-01 -1.019761115312576294e-01 -1.545208245515823364e-01 -6.831658631563186646e-02 2.188554219901561737e-02 -5.077134817838668823e-02 -3.121229074895381927e-02 -1.985045894980430603e-02 8.123995363712310791e-02 -9.186016768217086792e-02 -9.656967967748641968e-02 -1.241288706660270691e-01 -1.713957078754901886e-02 1.489802449941635132e-01 2.288617938756942749e-02 6.074767187237739563e-02 -1.172228083014488220e-01 2.752847969532012939e-01 1.678562164306640625e-02 -7.722564786672592163e-02 1.921210736036300659e-01 -1.880946010351181030e-01 -7.506010681390762329e-02 1.159472204744815826e-02 1.412551384419202805e-02 -1.939385011792182922e-02 -1.065702140331268311e-01 6.241516023874282837e-02 5.828907713294029236e-02 -1.825034990906715393e-02 -8.029174804687500000e-02 -1.463952958583831787e-01 2.058085203170776367e-01 1.100894585251808167e-01 -7.461293786764144897e-02 1.728183031082153320e-02 8.149608224630355835e-02 2.833862006664276123e-01 1.650953590869903564e-01 5.965933203697204590e-02 -1.092539876699447632e-01 6.236263737082481384e-02 -1.619128584861755371e-01 -9.233172051608562469e-03 6.571171432733535767e-02 -1.158116292208433151e-02 -1.071741655468940735e-01 1.501837074756622314e-01 -7.282752543687820435e-02 1.234017238020896912e-01 -3.860737010836601257e-02 2.437448352575302124e-01 -1.632619202136993408e-01 -4.713970236480236053e-03 -2.267538905143737793e-01 5.864423885941505432e-02 -1.212050542235374451e-01 5.961228534579277039e-02 3.971753641963005066e-02 -5.684387683868408203e-02 4.226566478610038757e-02 4.655433818697929382e-02 1.892687827348709106e-01 3.901696205139160156e-02 -1.102279424667358398e-01 -3.180013969540596008e-02 -1.144416034221649170e-01 -1.037876754999160767e-01 1.445079594850540161e-01 -2.177137732505798340e-01 -1.891719847917556763e-01 8.922553807497024536e-02 -2.741020172834396362e-02 1.971131116151809692e-01 1.353063993155956268e-02 2.401782274246215820e-01 -1.828134991228580475e-02 -1.946510523557662964e-01 9.415993094444274902e-02 1.070991307497024536e-01 7.293508946895599365e-02 1.710571944713592529e-01 8.368066698312759399e-02 -1.293884217739105225e-01 3.863190487027168274e-02 1.401696652173995972e-01 -3.181472420692443848e-01 2.245673686265945435e-01 -4.146147072315216064e-01 -4.875594750046730042e-02 1.653277128934860229e-01 5.895624309778213501e-02 5.752836167812347412e-02 -4.559311270713806152e-01 2.363022789359092712e-02 -4.015697911381721497e-02 2.164058983325958252e-01 9.725118428468704224e-02 4.922486841678619385e-02 1.124666780233383179e-01 -4.386920854449272156e-02 -1.065667644143104553e-01 5.423834919929504395e-02 -1.046368703246116638e-01 -2.409791201353073120e-02 1.508887708187103271e-01 -2.837163023650646210e-02 -1.530114859342575073e-01 1.202647015452384949e-01 -8.092470169067382812e-01 -1.899339854717254639e-01 -5.365849286317825317e-02 1.187581866979598999e-01 -9.590603411197662354e-02 7.782624568790197372e-03 8.720221370458602905e-02 1.140659954398870468e-02 8.086246997117996216e-02 -5.324527993798255920e-02 1.634426712989807129e-01 -2.780338190495967865e-02 1.366494446992874146e-01 -5.801358073949813843e-02 6.446503847837448120e-02 9.209677577018737793e-02 -1.377744972705841064e-01
-3.234320282936096191e-01 -1.173311695456504822e-01 2.637840211391448975e-01 -6.736740469932556152e-02 1.191079616546630859e-01 -2.609899267554283142e-03 -1.149577349424362183e-01 -2.908454462885856628e-02 4.884569440037012100e-03 1.441556960344314575e-01 1.911013573408126831e-02 1.279801726341247559e-01 6.298933923244476318e-02 -1.213230267167091370e-01 -1.692916750907897949e-01 2.586713247001171112e-02 8.402027934789657593e-02 -8.281913399696350098e-02 7.245528697967529297e-02 1.513079702854156494e-01 2.428634464740753174e-02 2.847332693636417389e-02 1.758246570825576782e-01 3.795605897903442383e-02 -1.238779351115226746e-01 -4.518548026680946350e-02 1.839754730463027954e-01 9.772109240293502808e-02 1.487850993871688843e-01 1.364088617265224457e-02 -6.977658718824386597e-02 -1.044794246554374695e-01 1.589829474687576294e-01 4.655147902667522430e-03 5.418190732598304749e-02 4.039763286709785461e-02 8.102262020111083984e-02 -6.994996964931488037e-02 -8.344361931085586548e-02 5.250662937760353088e-02 2.541619166731834412e-02 -1.504256576299667358e-02 6.787749379873275757e-02 7.875953614711761475e-02 -1.463158726692199707e-01 -6.885040551424026489e-02 1.105375513434410095e-01 8.445565402507781982e-02 -1.329460591077804565e-01 -1.686556041240692139e-01 4.379159584641456604e-02 7.212096452713012695e-02 5.476862937211990356e-02 1.685524433851242065e-01 -1.410503387451171875e-01 -3.725675120949745178e-02 -8.738194592297077179e-03 -3.894903510808944702e-02 4.810108989477157593e-02 4.190365318208932877e-03 -8.110012114048004150e-02 -9.602609276771545410e-02 6.468652933835983276e-02 4.516203701496124268e-02 1.692067384719848633e-01 -4.810171201825141907e-02 -1.572856754064559937e-01 -6.935954838991165161e-02 -1.536710113286972046e-01 7.827721536159515381e-02 2.926037311553955078e-01 -2.900443226099014282e-02 -2.517928779125213623e-01 -1.113486960530281067e-01 -1.012605205178260803e-01 2.407400459051132202e-01 -4.742037132382392883e-02 2.464402765035629272e-01 9.269338101148605347e-03 -6.332109868526458740e-02 -9.977567195892333984e-02 -1.167520210146903992e-01 1.148314923048019409e-01 3.793238103389739990e-02 -8.154767006635665894e-02 6.594049185514450073e-02 1.200486421585083008e-01 1.532559096813201904e-01 2.862482368946075439e-01 1.518773287534713745e-01 -2.334025353193283081e-01 -7.694170624017715454e-02 1.070761680603027344e-01 1.286427825689315796e-01 9.208366274833679199e-02 -4.624621868133544922e-01 2.382686138153076172e-01 -7.733091711997985840e-02 -7.645706534385681152e-01 9.179508686065673828e-02 2.994677796959877014e-02 -8.395534008741378784e-02 -3.947788476943969727e-02 1.025243662297725677e-02 -1.024968773126602173e-01 2.659104019403457642e-02 2.677776478230953217e-02 -6.831602752208709717e-02 1.332728415727615356e-01 -1.494622230529785156e-01 -1.065396144986152649e-01 -6.889840364456176758e-01 5.399038083851337433e-03 -6.845283508300781250e-02 -6.330809742212295532e-02 -1.068987920880317688e-01 2.501207776367664337e-02 -5.890625063329935074e-03 1.370282620191574097e-01 -2.121008783578872681e-01 9.484643489122390747e-02 1.521578878164291382e-01 -6.995411962270736694e-02 -7.687233388423919678e-02 -1.905348747968673706e-01 2.330814152956008911e-01 1.165390610694885254e-01 -1.475212574005126953e-01
-3.922101557254791260e-01 -1.779395192861557007e-01 -1.184547990560531616e-01 -9.457536041736602783e-02 2.639662623405456543e-01 -1.027525961399078369e-01 8.870971202850341797e-02 1.107803359627723694e-01 -2.753474190831184387e-02 1.275524199008941650e-01 1.891279071569442749e-01 -8.790892362594604492e-02 5.032628029584884644e-02 -6.021927669644355774e-02 -1.372684389352798462e-01 -5.294578522443771362e-02 1.221360266208648682e-01 -7.510824501514434814e-02 1.627425849437713623e-01 2.186610996723175049e-01 1.166524887084960938e-01 2.060952633619308472e-01 -1.385570764541625977e-01 1.617694646120071411e-01 -2.233282476663589478e-01 2.367508709430694580e-01 2.335788160562515259e-01 1.501224040985107422e-01 1.957156211137771606e-01 -4.535465268418192863e-04 -1.019838377833366394e-01 1.993080414831638336e-02 1.223866716027259827e-01 -3.521146997809410095e-02 9.194710850715637207e-02 1.953373700380325317e-01 -7.019990682601928711e-02 5.287088826298713684e-02 1.158409640192985535e-01 1.615501753985881805e-02 1.057942658662796021e-01 -5.047532264143228531e-03 2.628082223236560822e-02 -8.591661602258682251e-02 8.157378435134887695e-02 -1.273640245199203491e-01 9.422957152128219604e-02 -1.861131340265274048e-01 -1.101393252611160278e-01 -7.014507800340652466e-02 -1.078856885433197021e-01 3.277679905295372009e-02 7.935003936290740967e-02 6.326336879283189774e-03 -1.095553766936063766e-02 7.974873483180999756e-02 7.119991630315780640e-02 1.627957224845886230e-01 1.292981654405593872e-01 -6.510325521230697632e-02 -5.370945483446121216e-02 5.811777082271873951e-04 -2.515010237693786621e-01 2.953736484050750732e-01 6.002270430326461792e-02 -1.732468754053115845e-01 1.655106544494628906e-01 -1.015227362513542175e-01 -2.301196753978729248e-01 3.446345031261444092e-02 1.590861678123474121e-01 3.314407169818878174e-02 -2.200032472610473633e-01 -7.343129813671112061e-02 -1.670665293931961060e-01 8.948901295661926270e-02 4.010679200291633606e-02 -9.978257119655609131e-02 -1.907996949739754200e-03 -4.641842842102050781e-02 2.196627557277679443e-01 -6.033471599221229553e-02 1.924269050359725952e-01 1.596108525991439819e-01 2.270623855292797089e-02 -2.140082977712154388e-02 -4.451497457921504974e-03 1.549068093299865723e-01 1.785853654146194458e-01 -1.422564983367919922e-01 2.980572730302810669e-02 -7.176166027784347534e-02 -5.431734025478363037e-02 -1.091260612010955811e-01 2.328278571367263794e-01 -3.740624189376831055e-01 3.467614054679870605e-01 -1.392513513565063477e-01 -7.338549941778182983e-02 1.916732639074325562e-03 2.092464640736579895e-02 -4.431372880935668945e-02 -5.990614891052246094e-01 5.253472179174423218e-02 -1.392520070075988770e-01 -1.089980360120534897e-02 1.396149629727005959e-03 8.337226510047912598e-02 -9.682710468769073486e-02 1.337260007858276367e-01 -1.833278983831405640e-01 -6.319047808647155762e-01 5.304168909788131714e-02 -3.963280096650123596e-02 -5.296074971556663513e-02 -1.285356841981410980e-02 -9.420458972454071045e-02 1.851425506174564362e-02 1.930903196334838867e-01 -1.295402944087982178e-01 2.399659156799316406e-02 -1.626778095960617065e-01 4.784025996923446655e-02 -1.538810282945632935e-01 -6.531585752964019775e-02 1.392976380884647369e-02 4.170186072587966919e-02 -1.266998201608657837e-01
-3.305644392967224121e-01 -3.394645452499389648e-02 8.673177659511566162e-02 -1.004694849252700806e-01 1.286012381315231323e-01 1.560902968049049377e-02 -9.619574993848800659e-02 1.324624270200729370e-01 -1.039835736155509949e-01 1.482489705085754395e-01 1.513891518115997314e-01 9.036915749311447144e-02 -4.029347002506256104e-02 -1.815010756254196167e-01 -9.110533283092081547e-04 9.883271902799606323e-02 -1.943141222000122070e-01 -1.182343885302543640e-01 -5.442367121577262878e-02 3.174524381756782532e-02 -7.008124142885208130e-02 6.005257740616798401e-02 1.082567051053047180e-01 8.977387845516204834e-02 -2.087959051132202148e-01 -8.475653827190399170e-02 2.369987219572067261e-01 1.622022986412048340e-01 2.156536132097244263e-01 -1.264221072196960449e-01 -6.644282490015029907e-02 2.126092612743377686e-01 -8.893726021051406860e-02 5.483064800500869751e-02 1.303688138723373413e-01 1.262655556201934814e-01 -1.906934678554534912e-01 8.436571806669235229e-02 -3.561452031135559082e-02 -1.000933349132537842e-01 -5.274696648120880127e-02 1.541698426008224487e-01 -1.453545540571212769e-01 -1.998252868652343750e-01 1.054529100656509399e-01 4.168851673603057861e-02 2.328548282384872437e-01 -1.424596160650253296e-01 -1.129129379987716675e-01 2.692562155425548553e-02 7.033514976501464844e-02 -1.079120934009552002e-01 1.653443425893783569e-01 2.963817305862903595e-02 -2.332283742725849152e-02 -1.255884170532226562e-01 1.659000664949417114e-02 -5.196281895041465759e-02 1.708351522684097290e-01 -1.196977272629737854e-01 -3.656020388007164001e-02 1.225173994898796082e-01 -1.642768830060958862e-01 2.309361249208450317e-01 2.401758581399917603e-01 -9.910850971937179565e-02 1.562154293060302734e-01 -1.117715910077095032e-01 -8.446549624204635620e-02 -1.051415801048278809e-01 -3.453058376908302307e-02 1.447594016790390015e-01 1.246973276138305664e-01 2.616289071738719940e-02 -2.403660565614700317e-01 1.994570195674896240e-01 -1.296991556882858276e-01 -9.365256875753402710e-02 -1.310361474752426147e-01 1.645306646823883057e-01 1.441905796527862549e-01 -2.606777101755142212e-02 7.231537997722625732e-02 1.515276730060577393e-01 -1.596563160419464111e-01 -1.891984604299068451e-02 -1.036721691489219666e-01 9.701076894998550415e-02 3.238720893859863281e-01 -1.828675270080566406e-01 5.535910278558731079e-02 -2.667907683644443750e-04 -5.314828455448150635e-02 -1.376921981573104858e-01 1.641517281532287598e-01 -4.515161514282226562e-01 9.739155322313308716e-02 -3.255030885338783264e-02 -2.399463802576065063e-01 -1.363236457109451294e-01 1.873405277729034424e-02 1.863778531551361084e-01 -4.594388604164123535e-01 2.461726218461990356e-01 1.790571063756942749e-01 2.171466127038002014e-02 4.488446936011314392e-02 1.917544305324554443e-01 9.125297516584396362e-02 1.060590595006942749e-01 -4.547968134284019470e-02 -5.422729849815368652e-01 -3.432593494653701782e-02 2.751665189862251282e-02 1.563522517681121826e-01 1.694541275501251221e-01 -6.445031613111495972e-02 1.716161221265792847e-01 -1.888358779251575470e-02 -5.870553106069564819e-02 -9.235585480928421021e-02 -2.045003324747085571e-01 9.052596241235733032e-02 -4.867782816290855408e-02 3.808722645044326782e-02 -8.564908802509307861e-02 -6.051293388009071350e-02 -1.349779590964317322e-02
-4.390311837196350098e-01 -1.851118505001068115e-01 7.975729554891586304e-02 -3.256039693951606750e-02 -5.287727341055870056e-02 1.660590022802352905e-01 5.183403845876455307e-03 -2.712437883019447327e-02 -1.696951091289520264e-01 8.318275213241577148e-02 -6.683945655822753906e-02 7.059226185083389282e-02 -2.518850937485694885e-02 -3.495055064558982849e-02 1.148085445165634155e-01 1.247459948062896729e-01 -1.836895346641540527e-01 -1.203577592968940735e-01 6.436557322740554810e-02 1.336808353662490845e-01 -2.022367417812347412e-01 1.519694179296493530e-01 8.592591434717178345e-02 -4.010336473584175110e-03 5.818975716829299927e-02 5.086614936590194702e-02 9.725730121135711670e-02 -1.287249033339321613e-03 1.256980001926422119e-01 -1.335476636886596680e-01 6.111616641283035278e-02 2.367874532938003540e-01 -2.004755139350891113e-01 -2.169455029070377350e-02 1.801866888999938965e-01 3.562309592962265015e-02 -2.102726846933364868e-01 -1.210816651582717896e-01 -1.583331972360610962e-01 6.219743192195892334e-02 -1.429674122482538223e-02 2.018960118293762207e-01 8.389858528971672058e-03 -2.960328459739685059e-01 3.429103642702102661e-02 3.586113452911376953e-02 1.254303306341171265e-01 -1.231962721794843674e-02 1.173335239291191101e-01 -1.290073841810226440e-01 1.124932765960693359e-01 -4.818150401115417480e-02 1.519176363945007324e-01 -2.196240611374378204e-02 -1.007079705595970154e-01 -1.449905037879943848e-01 -1.010210141539573669e-01 -4.820816591382026672e-02 2.147001326084136963e-01 -5.037687346339225769e-02 -7.967153936624526978e-02 1.798021197319030762e-01 5.293078348040580750e-02 2.206102311611175537e-01 3.088987469673156738e-01 1.158187240362167358e-01 2.863126434385776520e-02 -2.439997531473636627e-02 -1.486241817474365234e-01 -2.351414412260055542e-01 3.780516562983393669e-03 5.587697401642799377e-02 1.320603936910629272e-01 -1.620111800730228424e-02 -2.280704081058502197e-01 -1.146379392594099045e-02 -1.232871711254119873e-01 -3.283984726294875145e-03 -1.790771931409835815e-01 -5.400740727782249451e-02 4.810783267021179199e-02 1.811804473400115967e-01 -2.672588080167770386e-02 -4.924142733216285706e-02 -2.054280191659927368e-01 -1.276004463434219360e-01 -1.979972720146179199e-01 -4.846639931201934814e-02 -2.358387559652328491e-01 -1.022322475910186768e-01 1.769397854804992676e-01 1.168235614895820618e-01 1.281016469001770020e-01 1.217769160866737366e-01 9.672792255878448486e-02 -5.336095690727233887e-01 5.241153296083211899e-03 1.104821935296058655e-01 -3.540696948766708374e-02 1.842984557151794434e-01 -2.240203469991683960e-01 7.388306409120559692e-02 -2.244214117527008057e-01 1.816024184226989746e-01 3.499403363093733788e-03 1.458613872528076172e-01 -1.250512897968292236e-01 1.212627366185188293e-01 -4.206584021449089050e-02 -1.151472851634025574e-01 1.680499911308288574e-01 -5.564938187599182129e-01 1.979954540729522705e-02 6.073660030961036682e-02 2.616111040115356445e-01 2.593284845352172852e-01 6.826201826333999634e-02 7.591956108808517456e-02 7.545348722487688065e-03 1.500940769910812378e-01 8.900776505470275879e-02 -1.697882264852523804e-01 -1.333305891603231430e-02 -1.895607262849807739e-02 -4.606679826974868774e-02 1.805105060338973999e-02 5.692464858293533325e-02 1.171806082129478455e-01
-2.250234633684158325e-01 -2.110416144132614136e-01 1.337994933128356934e-01 2.387452870607376099e-01 1.224226690828800201e-02 2.832769043743610382e-02 1.976976692676544189e-01 2.609872259199619293e-02 -5.263223871588706970e-02 2.458001971244812012e-01 -2.210354246199131012e-02 6.380002200603485107e-02 -3.461267799139022827e-02 -7.723341137170791626e-02 -4.543309658765792847e-02 -1.173112615942955017e-01 -2.086518891155719757e-02 -2.441946789622306824e-02 1.477419734001159668e-01 1.022477671504020691e-01 1.326547563076019287e-01 -1.933968439698219299e-02 -2.242865413427352905e-02 3.919758647680282593e-02 2.433567941188812256e-01 9.067376703023910522e-02 -1.433025486767292023e-02 8.575686253607273102e-03 1.721983700990676880e-01 -2.102803885936737061e-01 2.596304118633270264e-01 1.221953406929969788e-01 -9.941606223583221436e-02 -4.075823724269866943e-02 1.128409281373023987e-01 7.933777570724487305e-02 -5.618066713213920593e-02 5.486644804477691650e-03 -1.154957488179206848e-01 6.054893136024475098e-02 -2.375088073313236237e-02 -4.035013541579246521e-02 1.905321143567562103e-02 -2.398692220449447632e-01 5.604917183518409729e-02 8.757531642913818359e-02 3.442114591598510742e-02 -1.109753027558326721e-01 5.596108362078666687e-02 -1.848395615816116333e-01 1.898526027798652649e-02 1.224479153752326965e-01 2.834585011005401611e-01 2.540321275591850281e-02 -1.001670658588409424e-01 -2.057058364152908325e-01 -1.274162381887435913e-01 1.494018435478210449e-01 4.294349625706672668e-02 -6.940465420484542847e-02 -1.832946538925170898e-01 1.375184208154678345e-01 1.613924950361251831e-01 1.563084572553634644e-01 1.095232591032981873e-01 9.822078049182891846e-02 -2.843804359436035156e-01 9.693283587694168091e-03 7.377176731824874878e-02 -2.205375880002975464e-01 2.646804205141961575e-04 -7.955072075128555298e-02 -8.906250447034835815e-02 -3.181507065892219543e-02 -2.607027292251586914e-01 -6.366170942783355713e-02 -6.332717835903167725e-02 3.694354742765426636e-02 -2.384617924690246582e-02 -1.202289313077926636e-01 2.375673353672027588e-01 1.085689291357994080e-01 1.243657544255256653e-01 -7.424763590097427368e-02 -1.531423926353454590e-01 6.817121058702468872e-02 -2.375993132591247559e-01 -2.357551753520965576e-01 7.593697309494018555e-02 1.758687496185302734e-01 -8.867999911308288574e-02 5.438485741615295410e-02 1.015509292483329773e-01 2.371031492948532104e-01 1.808687448501586914e-01 -5.525035858154296875e-01 -1.972973942756652832e-01 2.603860199451446533e-02 3.244014456868171692e-02 2.132973521947860718e-01 -2.091930508613586426e-01 5.455300956964492798e-02 1.236254572868347168e-01 -2.449709363281726837e-02 -6.730353087186813354e-02 -6.157102808356285095e-02 3.972300328314304352e-03 -1.148482784628868103e-01 7.680965214967727661e-02 2.040561847388744354e-02 2.574265599250793457e-01 -5.770835280418395996e-01 -9.249807894229888916e-02 -1.607381552457809448e-01 7.061399985104799271e-03 1.160986497998237610e-01 1.459902077913284302e-01 8.265317976474761963e-02 -1.433439552783966064e-01 1.550254821777343750e-01 -2.295127883553504944e-02 -1.735634505748748779e-01 -1.925697922706604004e-02 -1.224433854222297668e-01 -2.102428972721099854e-01 8.694165199995040894e-02 1.750485748052597046e-01 3.455736488103866577e-02
-9.928131103515625000e-02 1.933246734552085400e-03 1.491798907518386841e-01 2.976503074169158936e-01 1.006097067147493362e-03 -6.404505670070648193e-02 9.476915001869201660e-02 5.472441017627716064e-02 2.891163714230060577e-02 2.880879938602447510e-01 2.947244942188262939e-01 7.922208309173583984e-02 -1.188471540808677673e-01 -6.173388101160526276e-03 1.349584907293319702e-01 -1.495457887649536133e-01 -7.648426294326782227e-02 -1.562794856727123260e-02 1.232129633426666260e-01 -4.240763932466506958e-02 1.814672797918319702e-01 -9.976225346326828003e-02 5.350358039140701294e-02 4.845288395881652832e-02 2.736699953675270081e-02 6.492489576339721680e-02 -1.362443417310714722e-01 9.361623227596282959e-02 7.624340802431106567e-02 -1.113864034414291382e-01 1.200520247220993042e-01 3.911980614066123962e-02 -1.227283850312232971e-01 -1.642620712518692017e-01 1.403411924839019775e-01 4.189744219183921814e-02 3.233504667878150940e-02 3.975643962621688843e-02 -2.790766023099422455e-02 3.061302900314331055e-01 -1.775879412889480591e-01 -1.799229085445404053e-01 5.238051991909742355e-03 -2.102562636137008667e-01 -1.302666515111923218e-01 2.437685430049896240e-02 -4.168365895748138428e-02 -1.272066086530685425e-01 1.025202795863151550e-01 -7.500583678483963013e-02 -8.872725069522857666e-02 6.947171688079833984e-02 1.672417819499969482e-01 -6.014051660895347595e-02 -1.003004610538482666e-01 -2.260678559541702271e-01 3.669130429625511169e-02 1.145163178443908691e-01 1.621206402778625488e-01 -2.755508422851562500e-01 4.473333060741424561e-02 5.280012264847755432e-02 -1.190438866615295410e-01 8.554843254387378693e-03 -2.087443508207798004e-02 -1.036818996071815491e-01 -1.484058448113501072e-03 1.257063150405883789e-01 8.478533476591110229e-02 -1.045692339539527893e-01 2.761774882674217224e-02 -8.072096854448318481e-02 -1.655761450529098511e-01 -6.152618210762739182e-03 -3.985844850540161133e-01 1.699739545583724976e-01 1.189155429601669312e-01 1.712673157453536987e-02 2.294853329658508301e-02 -3.304417058825492859e-02 2.818728983402252197e-01 -8.676304668188095093e-02 1.961865574121475220e-01 -9.255376458168029785e-02 -1.698615252971649170e-01 -2.821492776274681091e-02 4.926247894763946533e-02 -4.225617647171020508e-02 3.160126134753227234e-02 1.980691254138946533e-01 -5.153496861457824707e-01 2.313311584293842316e-02 6.363908946514129639e-02 1.303213685750961304e-01 2.512020468711853027e-01 -4.372445046901702881e-01 -7.927934080362319946e-02 -1.369415819644927979e-01 -2.930630445480346680e-01 1.628304123878479004e-01 6.819510459899902344e-02 1.232686042785644531e-01 -1.241757497191429138e-01 2.531921258196234703e-03 1.161274388432502747e-01 -2.038626968860626221e-01 9.721713513135910034e-02 -1.260520219802856445e-01 1.439429968595504761e-01 1.297971606254577637e-01 2.078177481889724731e-01 -4.408407211303710938e-01 2.804572135210037231e-02 -2.796313762664794922e-01 -1.496621966361999512e-01 -2.218068838119506836e-01 1.700520366430282593e-01 1.091672331094741821e-01 -1.133566796779632568e-01 1.070808805525302887e-02 3.300219029188156128e-02 -1.603035605512559414e-03 4.569113627076148987e-02 -6.489784270524978638e-02 -1.761362999677658081e-01 -1.780970245599746704e-01 1.845161765813827515e-01 -1.317246817052364349e-02
-1.278361380100250244e-01 -8.953510969877243042e-02 1.986277550458908081e-01 1.913185864686965942e-01 -9.639786928892135620e-02 -5.430120043456554413e-03 -5.376876890659332275e-02 -1.243263259530067444e-01 -1.855174601078033447e-01 3.715167194604873657e-02 3.469684720039367676e-01 1.906152367591857910e-01 -9.563253819942474365e-02 1.699170023202896118e-01 2.262945473194122314e-01 2.616385929286479950e-02 -7.236273586750030518e-02 -6.983285397291183472e-02 -6.985897663980722427e-03 2.335892915725708008e-01 -9.526884555816650391e-02 -1.123664155602455139e-01 6.014611572027206421e-02 1.254701912403106689e-01 -1.087456708773970604e-03 1.579507142305374146e-01 -1.650146842002868652e-01 1.226185262203216553e-01 9.350458532571792603e-02 1.914301365613937378e-01 -6.614726781845092773e-02 1.009002923965454102e-01 -1.405803114175796509e-01 -8.653637766838073730e-02 1.745231263339519501e-02 -8.415733277797698975e-02 9.115751832723617554e-02 -1.059417873620986938e-01 2.150552868843078613e-01 1.866587549448013306e-01 -1.297036558389663696e-01 6.099117919802665710e-02 -8.790075033903121948e-02 -2.409664541482925415e-02 -1.459427624940872192e-01 -2.938321977853775024e-02 6.458998471498489380e-02 -1.361357420682907104e-01 1.109538525342941284e-01 -1.368987858295440674e-01 -4.224903881549835205e-02 -1.146170645952224731e-01 -9.957949817180633545e-02 1.735905408859252930e-01 4.159558191895484924e-02 -2.553590945899486542e-02 1.132138594985008240e-01 5.330062285065650940e-02 2.025166153907775879e-01 -2.143315821886062622e-01 1.069072484970092773e-01 6.815087795257568359e-02 -3.394372463226318359e-01 1.533159520477056503e-03 -6.966327782720327377e-03 -7.935682684183120728e-02 1.317684948444366455e-01 1.315585672855377197e-01 -1.023099943995475769e-01 1.160573679953813553e-03 3.832237049937248230e-02 -2.400334775447845459e-01 -1.686876118183135986e-01 1.958831958472728729e-02 -5.167136192321777344e-01 7.070612162351608276e-03 -7.982432842254638672e-02 7.123084366321563721e-02 -2.897319570183753967e-02 2.065779268741607666e-01 2.739102840423583984e-01 -1.203133389353752136e-01 2.394354045391082764e-01 -1.889406144618988037e-02 -1.212150976061820984e-01 -2.427007071673870087e-02 1.526159644126892090e-01 -4.228899488225579262e-04 -1.723513454198837280e-01 1.158361509442329407e-01 -7.255492210388183594e-01 -5.245186015963554382e-02 -8.404039591550827026e-02 4.259258508682250977e-02 1.746293157339096069e-01 -4.267852008342742920e-01 1.887980997562408447e-01 -1.178017854690551758e-01 -2.238077223300933838e-01 1.450360566377639771e-01 6.165464222431182861e-02 2.302890270948410034e-02 1.914989799261093140e-01 2.855775505304336548e-02 2.039631642401218414e-02 1.554505247622728348e-02 -6.362018175423145294e-03 5.675610154867172241e-02 1.309713721275329590e-01 1.072207931429147720e-02 1.233440563082695007e-01 -4.160179495811462402e-01 7.508613169193267822e-02 -3.129915595054626465e-01 -7.453492842614650726e-03 -1.598629653453826904e-01 8.762060105800628662e-02 1.719841510057449341e-01 -1.445381492376327515e-01 -2.073735445737838745e-01 8.494859933853149414e-02 -2.310379175469279289e-03 2.189677804708480835e-01 -5.235846713185310364e-02 -4.920857027173042297e-02 -2.270356267690658569e-01 1.213306635618209839e-01 6.578338146209716797e-02
-2.819433212280273438e-01 1.743151098489761353e-01 1.942940950393676758e-01 2.670168280601501465e-01 -9.968660026788711548e-02 -3.934312984347343445e-02 9.514728933572769165e-02 -5.177048966288566589e-02 -2.181425988674163818e-01 -2.352131903171539307e-01 2.340959459543228149e-01 1.676097661256790161e-01 -9.135967493057250977e-02 2.695875428617000580e-02 1.087088361382484436e-01 -1.342455148696899414e-01 -3.576309978961944580e-02 7.496482878923416138e-02 1.483758091926574707e-01 2.434057146310806274e-01 -1.496991813182830811e-01 2.057941816747188568e-02 -1.470618788152933121e-02 -3.381299227476119995e-02 2.199498116970062256e-01 2.238409668207168579e-01 5.856583267450332642e-02 1.672925204038619995e-01 3.574571311473846436e-01 1.857387274503707886e-01 -2.802959177643060684e-03 -5.995810031890869141e-02 -1.381970494985580444e-01 -5.911276116967201233e-02 -1.923513114452362061e-01 -6.945982575416564941e-02 -9.335099905729293823e-02 -6.106736138463020325e-02 1.856852620840072632e-01 -7.223743200302124023e-02 -1.393790449947118759e-02 1.611962467432022095e-01 5.387468263506889343e-03 4.740611836314201355e-02 6.086293607950210571e-02 -1.207225695252418518e-01 -9.260300546884536743e-03 -2.081469893455505371e-01 4.027326777577400208e-02 -1.153301298618316650e-01 -1.489022821187973022e-01 -3.746663033962249756e-02 -1.234129369258880615e-01 1.303021460771560669e-01 1.570208668708801270e-01 1.483099162578582764e-01 -1.571980416774749756e-01 2.400856837630271912e-02 8.082768321037292480e-02 7.011340558528900146e-02 4.227612167596817017e-02 9.448096901178359985e-02 -1.848009377717971802e-01 7.497821003198623657e-02 1.802626550197601318e-01 -3.722207248210906982e-02 -7.531431037932634354e-03 4.637785628437995911e-02 -1.427071690559387207e-01 -3.566263616085052490e-02 4.554792121052742004e-02 -2.931022047996520996e-01 -1.575675606727600098e-01 -7.524122297763824463e-02 -5.133059620857238770e-01 -5.179847776889801025e-02 -1.917388290166854858e-01 -1.229282021522521973e-01 1.115840673446655273e-01 1.681661158800125122e-01 -6.859488040208816528e-02 -1.151423677802085876e-01 6.615566462278366089e-02 2.302224636077880859e-01 -2.185404449701309204e-01 5.806476622819900513e-02 -2.064056694507598877e-02 1.558117568492889404e-01 -5.087647214531898499e-02 8.410239964723587036e-02 -5.386686325073242188e-01 -1.166391298174858093e-01 6.675536185503005981e-02 -4.623312875628471375e-02 9.252467006444931030e-02 -4.430430233478546143e-01 8.534471690654754639e-02 -4.742043092846870422e-02 -7.398613542318344116e-02 5.236896127462387085e-02 7.259275019168853760e-02 -9.071445465087890625e-02 2.164230123162269592e-02 1.745935678482055664e-01 -1.019067540764808655e-01 1.330059766769409180e-01 -9.252011030912399292e-02 1.321362107992172241e-01 3.710735961794853210e-02 -1.111397743225097656e-01 -4.250800237059593201e-02 -2.827146649360656738e-01 -1.071082726120948792e-01 -1.559190899133682251e-01 2.014849483966827393e-01 -1.320075392723083496e-01 1.561527419835329056e-02 8.004356175661087036e-02 -8.753944188356399536e-02 -9.257363528013229370e-02 -3.706986829638481140e-02 1.579463779926300049e-01 2.045566439628601074e-01 -1.060421019792556763e-01 1.342598795890808105e-01 -1.506911311298608780e-02 1.589096523821353912e-02 -1.979930885136127472e-02
-2.197659909725189209e-01 2.363676577806472778e-01 1.910498589277267456e-01 2.701888084411621094e-01 -2.316642925143241882e-02 -9.802572429180145264e-02 8.817242085933685303e-02 -7.419838011264801025e-02 1.417374331504106522e-02 -5.250551179051399231e-02 -1.306488458067178726e-02 2.255905978381633759e-02 -7.565943896770477295e-02 -1.816516928374767303e-02 -3.830922767519950867e-02 -2.435402870178222656e-01 -1.433983892202377319e-01 -6.037839688360691071e-03 2.073340266942977905e-01 1.546846628189086914e-01 5.922929849475622177e-03 2.536024339497089386e-02 -6.913117319345474243e-02 2.098887600004673004e-02 2.253736704587936401e-01 2.522023618221282959e-01 1.079700738191604614e-01 2.166442275047302246e-01 1.636018007993698120e-01 4.091294109821319580e-02 -6.197104975581169128e-02 6.065593659877777100e-02 -6.706728041172027588e-02 -1.438734233379364014e-01 -1.830131709575653076e-01 -5.826172884553670883e-03 2.113214228302240372e-03 -4.453007876873016357e-02 1.778188049793243408e-01 -1.457674987614154816e-02 -2.060860246419906616e-01 9.803416579961776733e-02 4.345037415623664856e-02 1.099017783999443054e-01 -2.994146011769771576e-02 -5.306269042193889618e-03 1.392905265092849731e-01 -3.290787041187286377e-01 -2.530033700168132782e-03 -7.513570785522460938e-02 -1.157361567020416260e-01 -8.047512918710708618e-02 -4.414870589971542358e-02 -7.862191647291183472e-03 1.110553741455078125e-01 1.819846034049987793e-02 -2.080077230930328369e-01 6.646435707807540894e-02 -3.671211749315261841e-02 4.500372409820556641e-01 -1.145086288452148438e-01 1.571965962648391724e-01 9.140528854914009571e-04 2.177229374647140503e-01 1.504228264093399048e-01 -1.237393589690327644e-03 6.192030012607574463e-02 -1.799588650465011597e-01 -9.360586106777191162e-02 3.187343478202819824e-02 2.054775319993495941e-02 -1.751331239938735962e-01 1.950534060597419739e-02 -2.102386355400085449e-01 -5.009843111038208008e-01 -6.590560823678970337e-02 1.003220602869987488e-01 -4.159469157457351685e-03 4.495571181178092957e-02 1.693243347108364105e-02 -2.007353901863098145e-01 -4.982220754027366638e-02 -2.523596398532390594e-02 2.386990487575531006e-01 -1.723154932260513306e-01 7.723402814008295536e-04 -1.435474157333374023e-01 1.903233230113983154e-01 3.247037231922149658e-01 1.268593408167362213e-02 -1.638530939817428589e-01 -1.189766228199005127e-01 1.579263359308242798e-01 1.211044490337371826e-01 5.791070684790611267e-02 -4.327967762947082520e-01 6.677564978599548340e-02 5.869872123003005981e-02 -1.110911369323730469e-02 -1.472473591566085815e-01 1.871225982904434204e-02 1.007049903273582458e-02 -4.363121986389160156e-01 3.342613577842712402e-02 -1.890328377485275269e-01 1.224461011588573456e-02 9.437496960163116455e-02 -4.728684201836585999e-02 1.535899471491575241e-02 1.294875890016555786e-02 5.499163269996643066e-02 -2.078108042478561401e-01 -1.155189946293830872e-01 1.184093803167343140e-01 3.529909849166870117e-01 -5.094942450523376465e-02 -9.619797579944133759e-03 -3.681831806898117065e-02 -2.316224128007888794e-01 -4.311166703701019287e-02 2.841377072036266327e-02 1.873775273561477661e-01 -2.899544127285480499e-02 -2.231714874505996704e-01 1.398579180240631104e-01 -6.911531090736389160e-02 8.240354806184768677e-02 -1.038119345903396606e-01
-1.360960006713867188e-01 -2.901206538081169128e-02 3.166614472866058350e-02 2.342563718557357788e-01 -1.400116533041000366e-01 -9.838376939296722412e-02 1.914114505052566528e-02 -1.488647758960723877e-01 1.286969184875488281e-01 2.374465465545654297e-01 -4.935688897967338562e-02 1.619807630777359009e-01 -1.173860058188438416e-01 -2.168386131525039673e-01 -4.209091514348983765e-02 -1.836752295494079590e-01 -9.547395259141921997e-02 7.383551448583602905e-02 1.491985768079757690e-01 1.578264832496643066e-01 1.006651520729064941e-01 5.739959422498941422e-03 -7.363851368427276611e-02 -2.731589041650295258e-02 1.866802945733070374e-02 4.418456181883811951e-02 -1.328978389501571655e-01 2.793360054492950439e-01 -1.531399935483932495e-01 5.302797257900238037e-02 9.926766157150268555e-02 2.092964500188827515e-01 2.070137299597263336e-02 -3.112413585186004639e-01 -4.281660914421081543e-02 1.715994812548160553e-02 8.613283187150955200e-02 1.474045664072036743e-01 2.134340107440948486e-01 -3.822198137640953064e-02 -2.011219114065170288e-01 -4.330274835228919983e-02 -5.775105208158493042e-02 -4.178377799689769745e-03 -2.236187309026718140e-01 -1.395275164395570755e-02 1.444498449563980103e-01 -5.077350884675979614e-03 1.313978135585784912e-01 7.848605513572692871e-02 -1.046117674559354782e-02 -2.434059679508209229e-01 1.685377210378646851e-01 -1.167698949575424194e-02 5.596396699547767639e-02 -1.038134619593620300e-01 -5.010691238567233086e-04 -4.816206172108650208e-02 -1.772479270584881306e-03 4.150442481040954590e-01 -2.505700290203094482e-01 2.427285462617874146e-01 -6.625019479542970657e-03 6.445083767175674438e-02 5.775885283946990967e-02 -8.248368650674819946e-02 1.908120214939117432e-01 -1.851348020136356354e-02 -1.148534193634986877e-01 3.483064845204353333e-02 6.122805178165435791e-02 7.182563096284866333e-02 -2.295880764722824097e-02 -2.296210974454879761e-01 -5.531250238418579102e-01 1.701194420456886292e-02 1.991190463304519653e-01 1.734253391623497009e-02 -6.073940917849540710e-02 1.471674628555774689e-02 -2.733991667628288269e-02 -2.064336836338043213e-02 4.607159271836280823e-02 1.156047172844409943e-02 -2.858651336282491684e-03 1.048172637820243835e-01 -1.364245116710662842e-01 2.141729444265365601e-01 2.650907933712005615e-01 -1.413237601518630981e-01 2.765362709760665894e-02 1.961779408156871796e-02 1.743821948766708374e-01 1.434122473001480103e-01 -3.624963760375976562e-02 -4.494559168815612793e-01 -1.771930046379566193e-02 4.296969622373580933e-02 -1.500353962182998657e-01 -1.718150675296783447e-01 -5.069851130247116089e-02 9.282933175563812256e-02 -5.143882632255554199e-01 4.858066514134407043e-02 -2.178998589515686035e-01 -2.851159544661641121e-03 7.476314902305603027e-02 1.548906117677688599e-01 1.522648334503173828e-01 4.446888715028762817e-02 1.459903270006179810e-01 -1.733492314815521240e-01 -1.222849190235137939e-01 1.174822449684143066e-01 2.715613842010498047e-01 -1.336504966020584106e-01 -7.947114109992980957e-02 6.396179646253585815e-02 -2.404877543449401855e-01 -1.138397678732872009e-01 8.431276679039001465e-02 -5.213796719908714294e-02 -1.774258017539978027e-01 5.252329260110855103e-02 -7.880638539791107178e-02 -2.043350413441658020e-02 5.691426619887351990e-02 -1.213936135172843933e-01
-1.015488058328628540e-01 -1.666187196969985962e-01 -1.039522886276245117e-02 2.014974951744079590e-01 -2.017923295497894287e-01 2.252625860273838043e-02 3.896320611238479614e-02 -2.878383100032806396e-01 1.817558109760284424e-01 1.887060105800628662e-01 9.773387014865875244e-02 1.510066539049148560e-01 1.506067514419555664e-01 -2.648569345474243164e-01 -5.084005743265151978e-02 8.188772946596145630e-02 -2.513292990624904633e-02 7.329625636339187622e-02 4.543135687708854675e-02 1.698099672794342041e-01 1.235777735710144043e-01 3.964143618941307068e-02 8.052806556224822998e-02 1.666812449693679810e-01 -3.551954776048660278e-02 -9.698903560638427734e-02 6.407428998500108719e-03 3.739117085933685303e-01 -1.654396802186965942e-01 8.856104686856269836e-03 8.012892305850982666e-02 5.767537280917167664e-02 -8.396960049867630005e-02 -2.749087214469909668e-01 1.017337758094072342e-02 7.865945994853973389e-02 5.339803101378493011e-05 2.866117358207702637e-01 1.213874965906143188e-01 -9.283518046140670776e-02 -1.365685164928436279e-01 -8.659932017326354980e-02 3.756569698452949524e-02 -1.073877587914466858e-01 -3.460274338722229004e-01 -4.940002784132957458e-02 -5.500334501266479492e-02 7.984580844640731812e-02 2.346880286931991577e-01 4.415979608893394470e-02 2.558388374745845795e-02 -4.055930376052856445e-01 1.105633527040481567e-01 2.634160406887531281e-02 -4.727286472916603088e-02 -1.068293675780296326e-02 2.674731612205505371e-02 -1.344670951366424561e-01 4.324456304311752319e-02 1.340176016092300415e-01 -1.401013582944869995e-01 1.405634880065917969e-01 -1.958375871181488037e-01 -1.627264916896820068e-02 -8.161091059446334839e-02 3.345045447349548340e-02 1.748051047325134277e-01 1.361174434423446655e-01 -3.013988398015499115e-02 -2.230232656002044678e-01 2.247396558523178101e-01 1.202244590967893600e-02 -1.717003434896469116e-01 1.010874807834625244e-01 -6.161129474639892578e-01 6.955192983150482178e-02 1.906892061233520508e-01 -8.721126616001129150e-02 1.017824634909629822e-01 8.648070693016052246e-02 2.502583265304565430e-01 1.804787218570709229e-01 7.360486686229705811e-02 -1.027792543172836304e-01 5.661561153829097748e-03 8.276782929897308350e-02 -3.763991594314575195e-02 2.654328942298889160e-01 3.060755785554647446e-03 -8.655614405870437622e-02 2.510041594505310059e-01 -1.844061352312564850e-02 3.743173554539680481e-02 1.266647130250930786e-01 -4.571782797574996948e-02 -4.805962443351745605e-01 -3.597130998969078064e-03 1.249147206544876099e-01 -1.163652092218399048e-01 2.783809043467044830e-02 1.316426228731870651e-02 -5.508657172322273254e-02 -8.244078606367111206e-02 1.105990782380104065e-01 -2.006868124008178711e-01 8.190478384494781494e-02 -3.028417378664016724e-02 2.399567067623138428e-01 -7.006760686635971069e-02 -1.819445043802261353e-01 1.830738037824630737e-02 -2.142086774110794067e-01 -4.342428594827651978e-02 -8.338938653469085693e-02 1.286176890134811401e-01 -3.044332005083560944e-02 -5.080478638410568237e-02 -4.038360901176929474e-03 -4.727923870086669922e-02 -1.546676456928253174e-01 1.643801033496856689e-01 -2.317379266023635864e-01 -1.795069724321365356e-01 1.201757267117500305e-01 -1.929196566343307495e-01 -2.326634079217910767e-01 3.780400753021240234e-02 1.975828222930431366e-02
-1.290770024061203003e-01 1.477425638586282730e-02 1.357542872428894043e-01 2.204964607954025269e-01 -6.059658154845237732e-02 -1.389845274388790131e-03 2.183221429586410522e-01 -1.986511349678039551e-01 1.043499112129211426e-01 -1.760895997285842896e-01 8.528984151780605316e-03 -3.627491369843482971e-02 1.354962736368179321e-01 -3.345606625080108643e-01 -1.608218401670455933e-01 9.273087978363037109e-02 -8.906172960996627808e-02 9.508165717124938965e-02 -1.429505497217178345e-01 -1.215305775403976440e-01 -5.985638871788978577e-02 -2.323449961841106415e-02 1.351229846477508545e-01 2.069168984889984131e-01 7.851297967135906219e-03 3.936351090669631958e-02 2.074769586324691772e-01 4.466765820980072021e-01 4.342128336429595947e-02 2.896066755056381226e-02 1.048016771674156189e-01 3.252029046416282654e-02 -3.288688138127326965e-02 -1.067611873149871826e-01 -1.080006808042526245e-01 1.215947344899177551e-01 1.576609350740909576e-02 1.507009863853454590e-01 -2.788840793073177338e-02 -1.376971602439880371e-02 1.746001467108726501e-02 4.420629236847162247e-03 9.498605877161026001e-02 6.726678460836410522e-03 -2.222347110509872437e-01 -3.541510924696922302e-02 -1.914377063512802124e-01 3.305269405245780945e-02 3.013030588626861572e-01 -9.838847815990447998e-02 -6.226449832320213318e-02 -3.544366657733917236e-01 4.800122231245040894e-02 1.697086840867996216e-01 -9.264817833900451660e-02 -1.442754566669464111e-01 -1.132924109697341919e-01 -9.850308299064636230e-02 2.050377130508422852e-01 -5.154654011130332947e-02 -6.613482534885406494e-02 -6.298118829727172852e-02 -1.092330440878868103e-01 1.355852782726287842e-01 1.141097247600555420e-01 -1.233661174774169922e-01 4.785621166229248047e-02 1.213638409972190857e-01 8.125608414411544800e-02 -1.088662371039390564e-01 1.617818325757980347e-01 -1.715161651372909546e-01 -1.232107207179069519e-01 3.270815014839172363e-01 -5.878129601478576660e-01 9.733475744724273682e-02 1.980503499507904053e-01 -1.795379519462585449e-01 1.334785372018814087e-01 1.115336045622825623e-01 2.838211655616760254e-01 1.382799893617630005e-01 1.621813327074050903e-02 8.232208341360092163e-02 3.017676062881946564e-03 1.449338346719741821e-01 3.262287378311157227e-02 1.114549813792109489e-03 -9.209141880273818970e-02 -7.141356170177459717e-02 3.523677587509155273e-01 1.270605158060789108e-02 -5.460222437977790833e-02 2.348680049180984497e-02 1.629210263490676880e-01 -4.347832500934600830e-01 9.986461699008941650e-02 8.209392428398132324e-02 -5.686760321259498596e-02 -6.170603260397911072e-02 1.395696680992841721e-02 -2.245108783245086670e-01 2.363251447677612305e-01 4.478449374437332153e-02 -1.269739568233489990e-01 -5.378107354044914246e-02 -2.450258582830429077e-01 1.931343674659729004e-01 -4.351222515106201172e-02 -1.708846241235733032e-01 7.170546054840087891e-02 -2.705167233943939209e-01 1.218369305133819580e-01 -1.310973614454269409e-01 -6.864976137876510620e-02 7.005341351032257080e-02 -7.312587648630142212e-02 -1.151789054274559021e-01 -8.667965978384017944e-02 5.465793982148170471e-02 1.777434907853603363e-02 -2.138293087482452393e-01 -6.534598767757415771e-02 1.041072309017181396e-01 -1.441815793514251709e-01 -1.523662209510803223e-01 3.230954706668853760e-02 5.738760158419609070e-02
-6.444090604782104492e-02 3.193294256925582886e-02 2.282276153564453125e-01 1.105097532272338867e-01 2.359420806169509888e-01 3.314236178994178772e-02 1.201703548431396484e-01 -7.618363201618194580e-02 -4.157528746873140335e-03 -8.353444933891296387e-02 -2.016919106245040894e-01 -3.312417119741439819e-02 -4.333588853478431702e-02 -1.259074211120605469e-01 -1.252082586288452148e-01 -5.707387998700141907e-02 -2.934628352522850037e-02 1.034661158919334412e-01 -1.856440007686614990e-01 -1.995683163404464722e-01 -1.745899766683578491e-01 -5.643662065267562866e-02 1.653693318367004395e-01 2.970294095575809479e-02 -1.570149660110473633e-01 -2.036382630467414856e-02 2.048145383596420288e-01 4.227816760540008545e-01 1.894904673099517822e-01 1.106763333082199097e-01 -7.963477075099945068e-02 1.152703538537025452e-01 -5.552559718489646912e-02 -1.425599902868270874e-01 -3.491478413343429565e-02 1.024004444479942322e-01 3.942343220114707947e-02 -2.908936887979507446e-02 1.567296236753463745e-01 1.076263710856437683e-01 -1.168595328927040100e-01 1.788338422775268555e-01 9.346333332359790802e-03 9.523727744817733765e-02 -7.503738626837730408e-03 1.135377734899520874e-01 -1.781373023986816406e-01 -1.205968856811523438e-01 3.182920217514038086e-01 -1.716847270727157593e-01 -2.315424084663391113e-01 -1.715382933616638184e-01 -5.734295397996902466e-02 1.881948262453079224e-01 4.742209613323211670e-02 -2.560777068138122559e-01 -3.695129454135894775e-01 -9.910729713737964630e-03 1.538989245891571045e-01 -2.021290063858032227e-01 -1.037996336817741394e-01 -3.572463989257812500e-02 6.185720860958099365e-02 2.118294388055801392e-01 7.880619168281555176e-02 -1.538005769252777100e-01 -4.971476271748542786e-02 8.588197827339172363e-02 1.263933777809143066e-01 7.800536602735519409e-02 -6.395943462848663330e-02 -4.779328033328056335e-02 -2.016134373843669891e-02 3.613131046295166016e-01 -5.699399709701538086e-01 1.794031858444213867e-01 1.669669598340988159e-01 -2.226187735795974731e-01 7.642842363566160202e-03 2.095500826835632324e-01 3.011091612279415131e-02 -3.412505984306335449e-02 -1.670857518911361694e-01 7.390204071998596191e-02 -1.131376624107360840e-01 1.426970511674880981e-01 -3.145987633615732193e-03 -2.489939704537391663e-02 1.881848722696304321e-01 1.584565937519073486e-01 1.853864639997482300e-01 4.530664067715406418e-03 -9.856153279542922974e-02 5.371798947453498840e-02 1.031504124402999878e-01 -3.967173993587493896e-01 8.008732646703720093e-02 1.348680257797241211e-01 -3.619353100657463074e-02 -9.748270362615585327e-02 1.753221750259399414e-01 -1.401575952768325806e-01 1.334147006273269653e-01 1.172028705477714539e-01 -8.904610574245452881e-02 -1.941059529781341553e-01 -9.838811121881008148e-03 1.254407167434692383e-01 -4.642895236611366272e-02 -6.725580990314483643e-02 1.552437245845794678e-01 -2.992080450057983398e-01 2.904371917247772217e-02 -3.864915575832128525e-03 -2.493588477373123169e-01 -5.657048430293798447e-03 1.153891831636428833e-01 -6.800550967454910278e-02 -8.332785964012145996e-02 4.105674475431442261e-02 -2.044252678751945496e-02 -7.549671828746795654e-02 -1.303367763757705688e-01 -5.966444313526153564e-02 -4.461336135864257812e-02 9.909328073263168335e-02 4.249353706836700439e-02 9.430991858243942261e-02
4.579184949398040771e-02 3.982205409556627274e-03 1.451384127140045166e-01 1.040107533335685730e-01 2.742278575897216797e-01 -2.560196071863174438e-02 6.368035078048706055e-02 -5.595608800649642944e-02 3.746261075139045715e-02 1.563623845577239990e-01 -1.483126580715179443e-01 1.272302418947219849e-01 -1.011240184307098389e-01 1.208412740379571915e-02 -1.385501772165298462e-01 -1.100637987256050110e-01 6.427987664937973022e-02 2.203151434659957886e-01 -2.279042750597000122e-01 -1.079293340444564819e-01 -2.907821238040924072e-01 -1.113213896751403809e-01 -4.396299272775650024e-02 -1.449445188045501709e-01 -1.686856150627136230e-01 1.086464151740074158e-01 1.262392848730087280e-01 1.010477244853973389e-01 -1.304812133312225342e-01 1.954608112573623657e-01 -7.286246865987777710e-02 1.503756940364837646e-01 -6.425047665834426880e-02 -2.670422494411468506e-01 2.209588438272476196e-01 -2.440856769680976868e-02 1.224528551101684570e-01 -3.208668529987335205e-02 2.831151485443115234e-01 -1.169714778661727905e-01 -3.136055767536163330e-01 2.835064530372619629e-01 4.806033894419670105e-02 1.693243160843849182e-02 1.387203782796859741e-01 1.290370076894760132e-01 -6.464423239231109619e-02 -1.502844542264938354e-01 2.415326833724975586e-01 -1.508632898330688477e-01 -2.332543730735778809e-01 9.547059237957000732e-02 1.166926175355911255e-01 1.813167333602905273e-01 -2.323286794126033783e-02 -2.745981216430664062e-01 -3.206744790077209473e-01 -1.519092917442321777e-02 1.353011280298233032e-01 -1.448690593242645264e-01 -8.900266885757446289e-02 1.180239319801330566e-01 7.314899563789367676e-02 3.931363672018051147e-02 -2.961809933185577393e-02 -9.621650725603103638e-02 7.139818370342254639e-02 4.894067719578742981e-02 -1.080996915698051453e-02 1.398949474096298218e-01 -4.120809957385063171e-02 7.233335822820663452e-02 -7.627576589584350586e-02 1.756839752197265625e-01 -6.003246307373046875e-01 9.368932992219924927e-02 7.968264073133468628e-02 -1.288265734910964966e-01 -2.643948495388031006e-01 1.747981309890747070e-01 -1.448562717996537685e-03 -6.624146550893783569e-02 -3.352528810501098633e-02 -1.002416163682937622e-01 -9.753329306840896606e-02 8.396214991807937622e-02 -1.157511994242668152e-01 1.222384646534919739e-01 2.223055213689804077e-01 2.372744679450988770e-01 -2.811192572116851807e-01 -1.352078169584274292e-01 -1.519897729158401489e-01 1.016898304224014282e-01 -1.236963644623756409e-01 -4.997872114181518555e-01 7.751498371362686157e-02 7.661327719688415527e-02 9.844535589218139648e-02 -2.750629559159278870e-02 2.750461101531982422e-01 4.537219647318124771e-03 -1.206057593226432800e-01 1.247960105538368225e-01 -8.276579529047012329e-02 -1.393390744924545288e-01 7.271499373018741608e-03 3.902161493897438049e-02 -1.750769168138504028e-01 3.288356587290763855e-02 2.555002830922603607e-02 -4.063917100429534912e-01 2.088324725627899170e-02 9.621459245681762695e-02 -1.138776913285255432e-01 3.015608340501785278e-02 1.513002365827560425e-01 1.651590615510940552e-01 4.541890695691108704e-02 -6.215509399771690369e-02 -3.104007057845592499e-02 5.548444390296936035e-02 -8.599996566772460938e-02 -4.165276139974594116e-02 -1.220261752605438232e-01 2.597127556800842285e-01 7.604011334478855133e-03 2.477733045816421509e-02
-7.178006321191787720e-02 2.836169674992561340e-03 1.701740548014640808e-02 1.397836059331893921e-01 6.963190436363220215e-02 -7.886493206024169922e-02 2.500519454479217529e-01 -2.082129269838333130e-01 -2.527472563087940216e-02 2.100881040096282959e-01 -4.196799173951148987e-02 7.238698005676269531e-02 4.695571213960647583e-02 5.266890511848032475e-04 -1.894314736127853394e-01 4.212609305977821350e-02 7.755884528160095215e-02 2.125615030527114868e-01 3.953952342271804810e-02 -5.757922679185867310e-02 -2.936036884784698486e-01 3.356871753931045532e-02 -1.113294064998626709e-01 -9.436433762311935425e-02 -1.124628931283950806e-01 2.789174020290374756e-01 -1.812044344842433929e-02 -7.324413210153579712e-02 -2.341799736022949219e-01 1.517238020896911621e-01 -2.228362113237380981e-02 1.252361536026000977e-01 1.344386115670204163e-02 -3.572901189327239990e-01 4.541296362876892090e-01 -3.108211793005466461e-02 9.248221665620803833e-02 -1.125371009111404419e-01 2.143048942089080811e-01 -3.071218132972717285e-01 -1.091444790363311768e-01 2.145425677299499512e-01 1.019508019089698792e-01 -4.182181879878044128e-02 2.379461526870727539e-01 1.005751937627792358e-01 7.574337720870971680e-02 -7.681063842028379440e-03 9.486900269985198975e-02 -2.266310900449752808e-01 -1.960137337446212769e-01 9.567199647426605225e-02 1.357062309980392456e-01 6.919725984334945679e-02 6.961857527494430542e-02 -1.836059093475341797e-01 1.106461044400930405e-02 -1.242195907980203629e-02 7.646376639604568481e-02 7.968438416719436646e-02 8.256144076585769653e-02 5.344104021787643433e-02 -1.267161965370178223e-01 -4.533115029335021973e-02 -4.936151206493377686e-02 -1.420802026987075806e-01 1.723079234361648560e-01 1.201517432928085327e-01 1.447376906871795654e-01 -1.242695376276969910e-01 -1.358376815915107727e-02 -2.046680264174938202e-02 -1.021274179220199585e-01 1.033105403184890747e-01 -5.259717106819152832e-01 -8.658935874700546265e-02 7.541144639253616333e-02 -9.371933341026306152e-02 -3.597961366176605225e-01 8.072505891323089600e-02 1.276206821203231812e-01 5.558345466852188110e-02 1.620466411113739014e-01 -1.770397275686264038e-01 1.670626550912857056e-02 4.502880573272705078e-02 1.136393286287784576e-02 1.186260282993316650e-01 1.647666096687316895e-02 1.201873272657394409e-01 -7.568323016166687012e-01 -2.424942255020141602e-01 -3.271153569221496582e-02 1.236359775066375732e-01 -1.009802296757698059e-01 -5.300793647766113281e-01 -1.863055676221847534e-02 -2.625711821019649506e-02 2.083756476640701294e-01 1.058723032474517822e-02 1.960662305355072021e-01 2.176184393465518951e-02 -2.144591361284255981e-01 1.755851209163665771e-01 1.367546468973159790e-01 7.728222012519836426e-02 4.852188751101493835e-02 2.716641128063201904e-02 -1.973500251770019531e-01 -1.243924424052238464e-01 -7.255610078573226929e-02 -3.082453608512878418e-01 -2.885244227945804596e-02 1.255054920911788940e-01 8.032166212797164917e-02 -8.663567900657653809e-02 -1.407182514667510986e-01 1.653090864419937134e-01 7.991673052310943604e-02 -1.767887622117996216e-01 6.487178802490234375e-02 5.999150220304727554e-03 -2.005392313003540039e-01 -1.869172155857086182e-01 -2.192835360765457153e-01 1.644361466169357300e-01 -4.929555207490921021e-02 -1.756132543087005615e-01
-2.410227507352828979e-01 3.178102523088455200e-02 8.180855214595794678e-02 1.514620780944824219e-01 4.668212682008743286e-02 1.398795098066329956e-01 3.352285623550415039e-01 -2.381806820631027222e-01 1.400738656520843506e-01 4.185509309172630310e-02 1.350783258676528931e-01 -1.063799187541007996e-01 1.490273177623748779e-01 -2.510050237178802490e-01 -2.182049751281738281e-01 1.389551162719726562e-01 1.734909564256668091e-01 2.242324352264404297e-01 9.163115173578262329e-02 -1.352436840534210205e-01 -2.112879753112792969e-01 6.665541231632232666e-02 1.174343451857566833e-01 -6.368769705295562744e-02 -1.057154238224029541e-01 2.288479954004287720e-01 -7.783988118171691895e-02 -2.409271523356437683e-02 -5.581212788820266724e-02 6.092092022299766541e-02 -7.773106452077627182e-03 3.927680477499961853e-02 -1.786212027072906494e-01 -4.007599055767059326e-01 3.062753975391387939e-01 -9.335118532180786133e-02 3.835535421967506409e-02 -5.092461034655570984e-02 4.772887099534273148e-03 -2.774190306663513184e-01 1.279245167970657349e-01 -9.582871198654174805e-02 2.272775210440158844e-02 7.283075153827667236e-02 2.063576877117156982e-01 2.773382700979709625e-02 3.670160099864006042e-02 -5.189794674515724182e-02 4.656815901398658752e-02 -1.159368082880973816e-02 6.785672903060913086e-02 8.438514918088912964e-02 3.682940080761909485e-02 -1.023841127753257751e-01 -4.452858865261077881e-02 -2.667532116174697876e-02 3.052033483982086182e-02 3.148307651281356812e-02 9.981119632720947266e-02 2.140755057334899902e-01 1.016725897789001465e-01 1.192006394267082214e-01 -2.429790347814559937e-01 9.158153086900711060e-02 -1.816830411553382874e-02 -1.258528679609298706e-01 8.322666585445404053e-02 1.127818003296852112e-01 2.358364909887313843e-01 -2.164206057786941528e-01 5.382168292999267578e-02 -5.400310456752777100e-02 -4.470976069569587708e-02 -1.921291090548038483e-02 -3.782517910003662109e-01 -1.277657002210617065e-01 2.191809006035327911e-03 6.730473786592483521e-02 -1.971532553434371948e-01 1.810255050659179688e-01 2.345834970474243164e-01 9.292846918106079102e-02 1.185650303959846497e-01 -1.405583322048187256e-01 -1.370923519134521484e-01 1.081247106194496155e-01 4.597355052828788757e-02 1.061956658959388733e-01 2.314720116555690765e-02 -7.680355757474899292e-02 -9.248580336570739746e-01 -7.361656427383422852e-02 1.794843971729278564e-01 2.467985749244689941e-01 -1.655735448002815247e-02 -4.236561357975006104e-01 -7.596300542354583740e-02 -1.610199660062789917e-01 2.549772523343563080e-02 9.145295619964599609e-02 1.588664054870605469e-01 4.843939468264579773e-02 -3.587836921215057373e-01 -2.749894559383392334e-02 1.996499150991439819e-01 6.249744072556495667e-02 -1.306558549404144287e-01 7.157637178897857666e-02 -1.943300515413284302e-01 -1.161750406026840210e-01 -9.675275534391403198e-02 -1.661831438541412354e-01 8.235643804073333740e-02 7.239457964897155762e-02 1.739115864038467407e-01 -1.857627332210540771e-01 -2.243356853723526001e-01 -5.149185657501220703e-02 7.426067255437374115e-03 -5.419285222887992859e-02 -9.846266359090805054e-02 -9.479154646396636963e-02 -1.086198240518569946e-01 -1.415237635374069214e-01 -1.399038285017013550e-01 -3.283194825053215027e-02 -5.331192165613174438e-02 -2.706533074378967285e-01
-2.116497904062271118e-01 -1.097053959965705872e-01 2.598128616809844971e-01 5.916291475296020508e-02 1.353950798511505127e-01 2.371055185794830322e-01 2.008954882621765137e-01 -2.135809957981109619e-01 2.814263403415679932e-01 1.087703034281730652e-01 1.039514914155006409e-01 4.466832429170608521e-02 7.004674524068832397e-02 -1.652655601501464844e-01 -2.924283146858215332e-01 1.029250100255012512e-01 1.129581555724143982e-01 2.676843702793121338e-01 1.804957538843154907e-02 -1.822348535060882568e-01 -7.996585220098495483e-02 1.076315417885780334e-01 3.743394017219543457e-01 2.619002014398574829e-02 -1.780586093664169312e-01 5.494743585586547852e-02 -4.348314553499221802e-02 1.826441287994384766e-01 2.045349627733230591e-01 4.178277775645256042e-02 5.564161762595176697e-02 1.929935365915298462e-01 -2.612746655941009521e-01 -3.640981912612915039e-01 -1.321783512830734253e-01 -1.605856120586395264e-01 -4.835414141416549683e-02 -1.783853173255920410e-01 -7.721828669309616089e-02 -3.463443741202354431e-02 1.697527170181274414e-01 -1.346485465764999390e-01 -2.618750631809234619e-01 1.397372782230377197e-01 1.247661188244819641e-01 1.165147200226783752e-01 1.752199679613113403e-01 -1.678999364376068115e-01 -7.160335034132003784e-02 2.276302129030227661e-01 7.670669257640838623e-02 -1.609142869710922241e-01 8.097019046545028687e-03 -1.535703688859939575e-01 -1.085855625569820404e-02 4.757367447018623352e-02 2.043489180505275726e-02 2.319945394992828369e-02 -6.744025740772485733e-03 1.751616150140762329e-01 5.238028988242149353e-02 6.485033780336380005e-02 -2.295434921979904175e-01 1.724125295877456665e-01 -6.533671915531158447e-02 -6.238622218370437622e-02 -7.622198760509490967e-02 3.912413958460092545e-03 7.194574922323226929e-02 -1.475342065095901489e-01 8.032380044460296631e-02 -8.715085685253143311e-02 1.322033107280731201e-01 -1.495086238719522953e-03 -3.722616434097290039e-01 -7.864850014448165894e-02 -1.966056041419506073e-02 7.814063876867294312e-02 -8.107855916023254395e-03 3.365297913551330566e-01 2.077024430036544800e-01 3.822724521160125732e-02 -1.821383088827133179e-01 2.034226059913635254e-02 -1.876824200153350830e-01 1.308104246854782104e-01 1.375689506530761719e-01 2.435536310076713562e-02 1.892162859439849854e-01 -1.241730898618698120e-01 -6.832241415977478027e-01 9.510743431746959686e-03 3.829138576984405518e-01 1.305708587169647217e-01 -9.683656692504882812e-02 -3.308838903903961182e-01 -1.411958634853363037e-01 -1.620975434780120850e-01 -3.010266721248626709e-01 7.953503169119358063e-03 1.320959925651550293e-01 8.451373875141143799e-02 -2.472688555717468262e-01 -1.605332940816879272e-01 -2.352233603596687317e-02 -1.192294713109731674e-02 -1.718835979700088501e-01 -6.089662760496139526e-02 -2.098421007394790649e-01 -4.460458829998970032e-02 -1.640331372618675232e-02 -1.636717468500137329e-01 2.309568226337432861e-01 -5.241459608078002930e-02 -3.603586554527282715e-02 -1.568341553211212158e-01 -1.180659085512161255e-01 -6.757435947656631470e-02 -1.673539541661739349e-02 1.455849111080169678e-01 3.220396488904953003e-02 -6.727160513401031494e-02 -5.720662325620651245e-02 -9.664257615804672241e-02 -2.192083895206451416e-01 -4.842935875058174133e-02 2.258765324950218201e-02 -2.815025113523006439e-02
-2.379089146852493286e-01 -1.843665391206741333e-01 3.009342253208160400e-01 -8.292094618082046509e-02 1.828913092613220215e-01 7.938311994075775146e-02 -1.375614572316408157e-02 -1.209430247545242310e-01 3.747059702873229980e-01 1.747820824384689331e-01 -1.195060927420854568e-02 1.253361701965332031e-01 7.377424836158752441e-02 1.454814821481704712e-01 -3.571605384349822998e-01 -2.974314242601394653e-02 4.941141232848167419e-02 2.232116013765335083e-01 -7.484451681375503540e-02 -7.007452845573425293e-02 -7.685878872871398926e-02 -3.077550791203975677e-02 3.216480910778045654e-01 8.737929165363311768e-02 -7.208146154880523682e-02 5.055099725723266602e-03 4.103272408246994019e-02 1.895446330308914185e-01 1.096950918436050415e-01 2.283354103565216064e-01 -2.053851075470447540e-02 3.801258504390716553e-01 -1.793339252471923828e-01 -3.465120494365692139e-01 -2.280772924423217773e-01 -1.848432868719100952e-01 3.586530685424804688e-02 -1.414854526519775391e-01 4.596880078315734863e-02 -9.850666858255863190e-03 2.064365297555923462e-01 -7.338744401931762695e-02 -4.257244467735290527e-01 8.025999367237091064e-02 -2.486521936953067780e-02 -5.647183582186698914e-02 1.708127707242965698e-01 -1.429653912782669067e-01 -2.777309343218803406e-02 3.522825241088867188e-01 -6.907267123460769653e-02 -2.329286783933639526e-01 6.023198738694190979e-02 -7.245607674121856689e-02 -5.956928431987762451e-02 8.574511110782623291e-02 -5.187854915857315063e-02 2.843797393143177032e-02 -3.903388604521751404e-02 -1.154855638742446899e-01 -7.843975722789764404e-02 6.918497383594512939e-02 -7.342343777418136597e-02 1.377637237310409546e-01 -8.591438084840774536e-02 -9.992770850658416748e-03 1.915067993104457855e-02 -1.471105962991714478e-01 3.211534768342971802e-02 -6.807879358530044556e-02 2.290536416694521904e-03 5.644400417804718018e-02 2.608533389866352081e-02 -8.399841375648975372e-03 -4.144515693187713623e-01 4.291381314396858215e-02 1.147440373897552490e-01 1.283784769475460052e-02 1.010769307613372803e-01 2.842850387096405029e-01 6.749785970896482468e-03 1.429392248392105103e-01 -1.539695858955383301e-01 1.641825586557388306e-01 -1.866470128297805786e-01 1.420352160930633545e-01 7.604490220546722412e-02 -7.739952951669692993e-02 1.151037067174911499e-01 -2.565804636105895042e-03 -9.277600049972534180e-02 -1.343544721603393555e-01 3.721942901611328125e-01 4.139322042465209961e-02 -1.479295492172241211e-01 -3.524358570575714111e-01 -4.615234211087226868e-02 -2.630995027720928192e-02 -2.700720727443695068e-01 -9.895455837249755859e-02 -5.459625273942947388e-02 -8.487906306982040405e-02 2.427761852741241455e-01 -1.240717321634292603e-01 3.262507915496826172e-02 -8.723112195730209351e-02 -6.391566246747970581e-02 1.995312422513961792e-02 -3.687727078795433044e-02 4.428245127201080322e-02 8.567832410335540771e-02 -3.267081677913665771e-01 2.947498261928558350e-01 -1.483571599237620831e-03 -4.915434867143630981e-02 -1.404327340424060822e-02 -2.659715339541435242e-02 6.977353245019912720e-02 -1.934364438056945801e-01 1.051952168345451355e-01 -1.005490645766258240e-01 -3.455751808360219002e-03 1.691860854625701904e-01 -1.721732467412948608e-01 -3.322452902793884277e-01 1.948546059429645538e-02 6.326185166835784912e-02 -5.764918029308319092e-02
-2.405710220336914062e-01 -5.298956111073493958e-02 1.741548627614974976e-01 -1.550910323858261108e-01 2.662878930568695068e-01 -2.333927201107144356e-03 -2.167111076414585114e-02 -5.767460539937019348e-02 3.381666243076324463e-01 1.231885030865669250e-01 -1.161658838391304016e-01 1.463542729616165161e-01 1.489353179931640625e-01 2.694325447082519531e-01 -2.887648046016693115e-01 -7.595883309841156006e-02 -2.156905084848403931e-02 2.792966365814208984e-01 -1.916290447115898132e-02 -1.386442333459854126e-01 -1.098712161183357239e-01 -5.822617188096046448e-02 -9.763582795858383179e-02 8.456730842590332031e-02 -1.349528040736913681e-02 4.161085560917854309e-02 3.599071875214576721e-02 -1.737554743885993958e-02 2.509960159659385681e-02 2.629273831844329834e-01 -9.500026702880859375e-02 2.210829854011535645e-01 -8.205026388168334961e-02 -2.482569664716720581e-01 -8.918705582618713379e-02 -6.963463127613067627e-02 -9.281944949179887772e-04 1.816225945949554443e-01 2.568980120122432709e-02 3.829179331660270691e-02 1.402984857559204102e-01 -3.001705370843410492e-02 -3.474450111389160156e-01 7.341770827770233154e-02 -2.431947179138660431e-02 1.607834128662943840e-03 9.049075841903686523e-02 -5.911039188504219055e-03 -1.909416913986206055e-02 2.004199028015136719e-01 -3.023151159286499023e-01 -2.370220720767974854e-01 -5.385384336113929749e-02 -1.465829089283943176e-02 -1.943764239549636841e-01 -2.316102385520935059e-02 -1.212668791413307190e-01 -4.884973634034395218e-03 1.267226040363311768e-01 -3.261428773403167725e-01 1.391277369111776352e-02 2.042882144451141357e-01 -1.274329237639904022e-02 4.327027872204780579e-02 -4.694049432873725891e-02 1.178350858390331268e-02 1.589923948049545288e-01 -8.358314633369445801e-02 1.618928648531436920e-02 9.241168200969696045e-02 8.825992047786712646e-02 5.779655650258064270e-03 -4.911687225103378296e-02 -5.508780479431152344e-02 -3.718923926353454590e-01 -1.729863509535789490e-02 7.529136538505554199e-02 -1.729403734207153320e-01 -1.351793110370635986e-01 1.013684794306755066e-01 -2.287914417684078217e-02 2.429196685552597046e-01 -6.906280666589736938e-02 6.129947304725646973e-02 4.446322470903396606e-02 -5.864532664418220520e-02 -2.136339992284774780e-02 1.789652742445468903e-02 5.093527212738990784e-02 -2.319279313087463379e-02 3.697655200958251953e-01 -4.263831675052642822e-01 3.564527630805969238e-01 -4.094826057553291321e-02 1.475218590348958969e-02 -3.813653588294982910e-01 -4.865586385130882263e-02 6.457642465829849243e-02 -1.098458003252744675e-02 -1.715803705155849457e-02 -6.225239858031272888e-02 -1.242508664727210999e-01 4.371190965175628662e-01 1.740548014640808105e-01 -2.580856904387474060e-03 -5.178500711917877197e-02 -1.564842462539672852e-02 1.175731122493743896e-01 1.438927501440048218e-01 -8.043117076158523560e-02 1.177028790116310120e-01 -3.681673705577850342e-01 1.312440186738967896e-01 -3.619516268372535706e-02 -3.426660597324371338e-02 1.437170505523681641e-01 2.800388075411319733e-02 5.491371452808380127e-02 -1.976291090250015259e-01 -1.215317845344543457e-02 3.319416195154190063e-03 1.481564044952392578e-01 1.236142814159393311e-01 -2.103938013315200806e-01 -2.545489370822906494e-01 -5.303756520152091980e-02 -3.387270122766494751e-02 -1.540003418922424316e-01
-2.960997223854064941e-01 8.801376819610595703e-02 -3.364979475736618042e-02 -1.046769171953201294e-01 1.376758217811584473e-01 8.366451598703861237e-03 4.320899024605751038e-02 2.725315839052200317e-02 1.995388269424438477e-01 1.479693353176116943e-01 -2.636089920997619629e-02 1.867467015981674194e-01 2.309487611055374146e-01 2.966258674860000610e-03 -1.566870808601379395e-01 -1.371596008539199829e-01 -8.672361262142658234e-03 2.018908113241195679e-01 1.481629256159067154e-02 -2.506720125675201416e-01 -9.157658368349075317e-02 -6.299624592065811157e-02 -2.098496407270431519e-01 -3.894186019897460938e-02 -1.693337261676788330e-01 5.474126711487770081e-02 -1.669591963291168213e-01 -7.237439602613449097e-02 4.147547855973243713e-02 3.201190829277038574e-01 -3.215991333127021790e-02 -1.444686353206634521e-01 6.088777910917997360e-03 -1.962589919567108154e-01 3.533236682415008545e-02 -6.122556049376726151e-03 5.217961501330137253e-03 2.507492303848266602e-01 1.400886774063110352e-01 1.512514054775238037e-02 4.104128107428550720e-02 2.877090359106659889e-03 -4.626786336302757263e-03 -1.746032387018203735e-02 -2.360765589401125908e-03 1.261565536260604858e-01 -2.550910413265228271e-02 1.012894883751869202e-01 1.028844416141510010e-01 -1.776255480945110321e-02 -4.849241673946380615e-01 -8.498395979404449463e-02 -7.767896354198455811e-02 1.435839384794235229e-01 -2.185935974121093750e-01 1.600037328898906708e-02 3.522262722253799438e-02 -5.456360056996345520e-02 1.608366519212722778e-02 -3.532098531723022461e-01 8.936140686273574829e-02 3.090068697929382324e-01 -7.147518545389175415e-02 1.168495863676071167e-01 1.153222993016242981e-01 -3.487719595432281494e-02 6.228406354784965515e-02 -1.077086478471755981e-01 3.880636394023895264e-02 8.667608350515365601e-02 9.231834113597869873e-02 -7.067155092954635620e-02 -5.512859299778938293e-02 -1.007690504193305969e-01 -3.670411705970764160e-01 -1.831405907869338989e-01 -1.953041553497314453e-02 -2.072788923978805542e-01 -2.647451460361480713e-01 5.162538588047027588e-02 -3.841282334178686142e-03 1.585114896297454834e-01 2.639184892177581787e-02 7.715971767902374268e-02 5.820441991090774536e-03 2.406824380159378052e-02 1.769367307424545288e-01 3.155311197042465210e-02 -6.445298343896865845e-02 8.190730586647987366e-03 4.894724488258361816e-01 -4.248745739459991455e-01 1.147810518741607666e-01 2.026217803359031677e-02 -1.770574599504470825e-02 -3.323555588722229004e-01 -2.259023673832416534e-02 1.773366928100585938e-01 2.547607570886611938e-02 1.889290064573287964e-01 -9.784137457609176636e-02 -1.546769589185714722e-01 -3.404091298580169678e-02 3.148734569549560547e-01 -6.197585538029670715e-02 -8.469294756650924683e-02 7.967536896467208862e-02 2.427469491958618164e-01 6.011440604925155640e-02 -2.871468067169189453e-01 1.069016084074974060e-01 -1.278533488512039185e-01 1.761506646871566772e-01 -4.976411350071430206e-03 -7.485862821340560913e-02 2.388212680816650391e-01 -2.960856258869171143e-02 1.092476397752761841e-01 -3.713267669081687927e-02 -9.288404881954193115e-02 -8.726719021797180176e-02 1.288268715143203735e-01 -3.316384041681885719e-03 -2.413267791271209717e-01 -8.167093247175216675e-02 -7.032480090856552124e-03 -1.422345452010631561e-02 -2.679961919784545898e-01
-2.514594495296478271e-01 -1.917450316250324249e-02 8.960327133536338806e-03 -9.576535969972610474e-02 -4.641587659716606140e-02 4.073193296790122986e-02 2.580325305461883545e-01 1.771509796380996704e-01 1.344714127480983734e-02 7.120881974697113037e-02 1.218250580132007599e-02 -7.189012318849563599e-02 2.421660572290420532e-01 -1.109501793980598450e-01 -1.404219716787338257e-01 3.004944697022438049e-02 9.310914576053619385e-02 2.065677642822265625e-01 5.859156325459480286e-02 -2.472556829452514648e-01 -1.540549099445343018e-01 -4.164892435073852539e-02 -1.716605722904205322e-01 -3.177912533283233643e-02 -1.782978177070617676e-01 1.243032217025756836e-01 -5.435727909207344055e-02 -1.204054728150367737e-01 1.124586164951324463e-01 1.783884465694427490e-01 -5.299612134695053101e-02 -1.588535495102405548e-02 9.456108510494232178e-02 -2.198032587766647339e-01 4.620150662958621979e-03 -6.123284995555877686e-02 -8.092896640300750732e-02 8.860994875431060791e-02 6.519839912652969360e-02 -8.985316380858421326e-03 -1.514393836259841919e-01 -1.625896245241165161e-02 9.252491593360900879e-02 -1.875712871551513672e-01 -8.373446762561798096e-02 2.504346072673797607e-01 1.248168200254440308e-02 1.010136157274246216e-01 7.165940850973129272e-02 -1.177094727754592896e-01 -3.189394176006317139e-01 4.279623180627822876e-02 -1.781999506056308746e-02 1.970756985247135162e-02 -8.594980835914611816e-02 -1.268795430660247803e-01 -1.361679378896951675e-02 -8.381518721580505371e-02 1.929734088480472565e-02 -1.755242645740509033e-01 1.029112562537193298e-01 3.163288831710815430e-01 -2.641644142568111420e-02 2.491411752998828888e-02 8.090364933013916016e-02 -3.951846063137054443e-02 -4.433998838067054749e-02 -7.549150288105010986e-02 3.104838430881500244e-01 5.802126973867416382e-02 7.661349326372146606e-02 -2.142642736434936523e-01 3.417346999049186707e-02 -8.778315037488937378e-02 -3.751752376556396484e-01 -4.639775305986404419e-02 2.215830795466899872e-02 -1.116375923156738281e-01 -1.873815208673477173e-01 1.793515384197235107e-01 9.923861175775527954e-02 1.597449928522109985e-01 2.817765474319458008e-01 -4.582883790135383606e-02 -8.337640762329101562e-02 4.965838044881820679e-02 2.173568159341812134e-01 -9.153206646442413330e-02 -1.720636151731014252e-02 6.521456688642501831e-02 4.309069216251373291e-01 -1.512408554553985596e-01 1.000688448548316956e-01 -1.416127104312181473e-02 -1.339176595211029053e-01 -1.816700100898742676e-01 -3.939788416028022766e-02 1.803877800703048706e-01 -1.706261336803436279e-01 1.464809030294418335e-01 5.485956370830535889e-02 -1.652480363845825195e-01 -8.634225130081176758e-01 3.521725535392761230e-01 -2.121715545654296875e-01 -4.550069943070411682e-02 6.323324888944625854e-02 2.406190633773803711e-01 -4.524038173258304596e-03 -3.840306699275970459e-01 1.969559639692306519e-01 -1.613772846758365631e-02 1.296853870153427124e-01 -5.190502479672431946e-02 -4.428992420434951782e-02 -4.846316762268543243e-03 5.489506945013999939e-02 -9.464608132839202881e-02 1.888378560543060303e-01 -2.024473696947097778e-01 -7.692772150039672852e-02 1.253235191106796265e-01 4.263621754944324493e-03 -1.326129883527755737e-01 3.114917315542697906e-02 -1.719530969858169556e-01 -1.894853450357913971e-02 -1.949755549430847168e-01
-1.803632080554962158e-01 -1.577654331922531128e-01 -1.068830639123916626e-01 -3.995624929666519165e-02 3.492342680692672729e-02 1.852544844150543213e-01 3.342323601245880127e-01 1.795446723699569702e-01 1.581149920821189880e-02 -9.762092493474483490e-03 -2.318024821579456329e-02 -9.590826183557510376e-02 7.691602408885955811e-02 -1.860915124416351318e-01 -1.302806288003921509e-01 1.586605310440063477e-01 7.981488853693008423e-02 1.380785107612609863e-01 -5.910235643386840820e-02 -4.430043324828147888e-02 -5.329208448529243469e-02 -4.292529076337814331e-02 5.229199305176734924e-02 -6.151660904288291931e-02 -7.886061072349548340e-02 4.945548251271247864e-02 8.006207644939422607e-03 2.478588558733463287e-02 1.106642782688140869e-01 2.558882534503936768e-01 -2.163529954850673676e-02 2.263405472040176392e-01 3.959423676133155823e-02 -2.652932703495025635e-01 -1.346168220043182373e-01 -1.456434428691864014e-01 -1.560241281986236572e-01 -8.956555277109146118e-02 -2.969415392726659775e-03 -3.493347438052296638e-03 -1.395159065723419189e-01 -3.682901337742805481e-02 1.052168905735015869e-01 -1.632539927959442139e-01 1.163914985954761505e-02 1.963285952806472778e-01 1.977521032094955444e-01 -1.358079016208648682e-01 4.340248554944992065e-02 -1.462550908327102661e-01 -2.619441831484436989e-03 3.050366044044494629e-02 1.272300481796264648e-01 -6.156221032142639160e-03 9.092313051223754883e-02 -1.303572952747344971e-01 -5.589338950812816620e-03 -2.264607883989810944e-02 -2.009121030569076538e-01 -1.177943870425224304e-01 -8.885417133569717407e-02 1.077634617686271667e-01 1.601948738098144531e-01 -5.231467261910438538e-02 -3.548419475555419922e-02 1.361915096640586853e-02 -9.327920526266098022e-02 -3.518674150109291077e-02 2.548508346080780029e-01 4.180995002388954163e-02 -7.196276634931564331e-02 -3.183190226554870605e-01 1.619844585657119751e-01 -7.077693939208984375e-02 -4.468051493167877197e-01 -6.118630990386009216e-02 9.406010061502456665e-02 1.623391509056091309e-01 -2.464419901371002197e-01 2.596634328365325928e-01 3.423652648925781250e-01 1.151035875082015991e-01 2.046817839145660400e-01 2.979896962642669678e-02 -2.205597311258316040e-01 8.725784718990325928e-02 2.394950389862060547e-01 -8.258406817913055420e-02 -7.561734318733215332e-02 1.280390322208404541e-01 1.853253543376922607e-01 2.248934283852577209e-02 9.579638391733169556e-02 1.159163266420364380e-01 -1.781609654426574707e-01 -1.398923546075820923e-01 -6.928491406142711639e-03 1.113782003521919250e-01 -1.882003098726272583e-01 1.318584103137254715e-02 5.048447754234075546e-03 -9.204524755477905273e-02 -9.689075350761413574e-01 4.506427347660064697e-01 -2.168139368295669556e-01 -1.297780126333236694e-01 -8.353285491466522217e-02 1.511295288801193237e-01 -8.639123290777206421e-02 -1.748009026050567627e-01 1.253557205200195312e-01 -7.530735433101654053e-02 2.036658078432083130e-01 -3.246042132377624512e-02 -7.831164449453353882e-02 -3.260017335414886475e-01 -3.040255419909954071e-02 -7.896842807531356812e-02 2.242057323455810547e-01 -1.876315772533416748e-01 4.525334760546684265e-02 -1.077785119414329529e-01 -1.611594110727310181e-02 1.007113512605428696e-02 1.557469666004180908e-01 -1.801340878009796143e-01 -3.970196121372282505e-04 -1.678575575351715088e-01
-1.521005183458328247e-01 -2.898796498775482178e-01 -3.100266121327877045e-02 8.785670995712280273e-02 1.086055394262075424e-02 1.821781694889068604e-01 2.433576732873916626e-01 5.030791088938713074e-02 2.185240238904953003e-01 -2.405276987701654434e-03 -9.804696589708328247e-02 -7.811912894248962402e-02 7.920049875974655151e-02 -1.067494601011276245e-01 -2.495649904012680054e-01 4.360809177160263062e-02 9.340009838342666626e-02 1.810252666473388672e-01 -1.116958186030387878e-01 3.239404410123825073e-02 1.230064556002616882e-01 1.212957426905632019e-01 9.051446616649627686e-02 -7.654327154159545898e-02 -3.837481886148452759e-02 6.675624102354049683e-02 7.778347283601760864e-02 4.137118533253669739e-02 -4.852482303977012634e-02 1.889626681804656982e-01 -8.979272097349166870e-02 3.198336362838745117e-01 -1.011231988668441772e-01 -1.383083760738372803e-01 -2.222285270690917969e-01 -2.544940635561943054e-02 -1.628920882940292358e-01 -1.877150684595108032e-01 -4.702842235565185547e-02 1.044128313660621643e-01 -3.206299617886543274e-02 4.111074283719062805e-02 5.880748387426137924e-03 -2.055426239967346191e-01 7.450354099273681641e-02 3.594736754894256592e-02 1.519161164760589600e-01 -1.867871582508087158e-01 -3.676935285329818726e-02 -2.280741333961486816e-01 1.587380170822143555e-01 -2.019831724464893341e-02 8.563306927680969238e-02 -1.443954110145568848e-01 8.084664493799209595e-02 -6.979946792125701904e-02 1.273956708610057831e-02 5.259159952402114868e-02 -1.811080574989318848e-01 2.698017098009586334e-02 -4.914551973342895508e-02 -7.214748766273260117e-04 2.041898965835571289e-01 -5.886789783835411072e-02 1.331773400306701660e-01 5.374602973461151123e-03 -5.890931934118270874e-03 5.329542607069015503e-02 2.240494489669799805e-01 -2.638597786426544189e-02 -8.742237836122512817e-02 -2.308531254529953003e-01 2.009513676166534424e-01 -3.500134497880935669e-02 -4.674718677997589111e-01 7.963619381189346313e-02 -3.155292943120002747e-02 1.317472457885742188e-01 -2.517041563987731934e-01 1.644211560487747192e-01 3.027289211750030518e-01 -1.136334463953971863e-01 8.282394707202911377e-02 8.383881300687789917e-03 -2.940113246440887451e-01 1.871234625577926636e-01 1.557529121637344360e-01 -1.595560461282730103e-01 -2.859282493591308594e-02 1.403350681066513062e-01 -1.868871003389358521e-01 -1.859681308269500732e-01 2.503983676433563232e-01 7.069972902536392212e-02 -6.151043623685836792e-02 -2.541320323944091797e-01 2.941614389419555664e-02 6.075523048639297485e-02 -4.803628847002983093e-02 -7.237736880779266357e-02 1.000282838940620422e-01 2.753405086696147919e-02 -1.734389960765838623e-01 4.352196156978607178e-01 -1.086837127804756165e-01 -1.450108140707015991e-01 -8.612215518951416016e-02 8.042217791080474854e-02 -1.043205112218856812e-01 1.561760604381561279e-01 7.499246299266815186e-02 -1.555375903844833374e-01 3.032194077968597412e-01 -4.365651309490203857e-02 -2.424413524568080902e-02 -3.085429072380065918e-01 -3.547051921486854553e-02 -1.048118919134140015e-01 -2.489306218922138214e-02 -1.385974884033203125e-01 -6.945467740297317505e-02 -1.247630044817924500e-01 -9.160549938678741455e-02 1.605107486248016357e-01 1.057516783475875854e-01 -1.304881423711776733e-01 -1.179073378443717957e-01 -2.256303131580352783e-01
