6.335176527500152588e-02 1.432524528354406357e-02 3.717114776372909546e-02 -6.502336822450160980e-03 -6.788598839193582535e-03 -1.591035909950733185e-02 2.854276821017265320e-02 4.974576458334922791e-02 -8.092600107192993164e-02 3.875667927786707878e-03 -1.834335550665855408e-02 7.930628955364227295e-02 -4.244055890012532473e-04 -2.889924449846148491e-03 3.114631399512290955e-03 1.034185215830802917e-01 4.394340887665748596e-02 3.900628909468650818e-02 -2.284974604845046997e-02 -3.667152300477027893e-02 -5.142436921596527100e-02 -8.242009580135345459e-02 4.559268429875373840e-02 1.360357739031314850e-02 -3.432610258460044861e-02 -5.770484730601310730e-02 -6.438111513853073120e-02 1.810598559677600861e-02 5.242111161351203918e-02 -1.051936000585556030e-01 -3.900156170129776001e-02 -5.019178614020347595e-03 5.924796685576438904e-02 -1.236677840352058411e-01 4.242277704179286957e-03 -1.513139437884092331e-02 2.455252688378095627e-03 -3.408982232213020325e-02 -4.646455496549606323e-02 -1.298313289880752563e-01 7.163476198911666870e-02 1.292963027954101562e-01 -2.947313897311687469e-02 -7.195138186216354370e-02 2.127126604318618774e-02 6.033091619610786438e-02 3.228724002838134766e-02 6.776095926761627197e-02 9.449463337659835815e-03 1.092472523450851440e-01 -5.629735998809337616e-03 2.712716720998287201e-02 -5.624801386147737503e-03 -7.098019868135452271e-02 -4.785449057817459106e-02 2.894236706197261810e-02 1.175687834620475769e-01 8.621779829263687134e-02 -2.652052603662014008e-02 -1.528033870272338390e-03 1.057400926947593689e-01 1.581013500690460205e-01 -1.164068002253770828e-02 -9.192101657390594482e-02 -4.492498561739921570e-02 6.465763598680496216e-02 -3.914245590567588806e-02 -6.176294013857841492e-02 -6.733395904302597046e-02 -5.739965662360191345e-02 1.387229189276695251e-02 1.198992133140563965e-02 -3.466833010315895081e-02 1.705034226179122925e-01 -2.963231317698955536e-02 -1.252829935401678085e-02 3.665645793080329895e-02 -1.086560711264610291e-01 -4.426397383213043213e-02 7.356108725070953369e-02 8.121725916862487793e-02 -7.463743537664413452e-02 3.372815623879432678e-02 1.618262194097042084e-02 -8.276444859802722931e-03 -9.023348242044448853e-02 9.385271696373820305e-04 3.213111311197280884e-02 -1.089838966727256775e-01 -5.524535477161407471e-02 -6.283684819936752319e-02 -6.259940564632415771e-02 5.453808233141899109e-02 -2.967970632016658783e-02 -7.575871050357818604e-02 -9.013712406158447266e-02 4.571607708930969238e-02 7.632618397474288940e-02 5.413845926523208618e-02 4.409283027052879333e-02 -2.919480018317699432e-02 -3.150477632880210876e-02 -3.064411319792270660e-02 2.572385407984256744e-02 3.186901332810521126e-03 -2.597120963037014008e-02 1.675143837928771973e-02 -2.745377644896507263e-02 -6.812498718500137329e-02 -3.611060231924057007e-02 1.177232638001441956e-01 -3.109865076839923859e-02 -6.794752925634384155e-02 -2.825157716870307922e-02 8.896270394325256348e-02 3.032118268311023712e-02 5.893550347536802292e-03 -6.979005783796310425e-02 -1.249325945973396301e-01 -5.138503387570381165e-03 2.626111358404159546e-02 -1.416809827787801623e-04 -9.322877228260040283e-02 5.885313451290130615e-02 -1.218561921268701553e-02 -9.587593376636505127e-03 9.667806327342987061e-02 2.179703442379832268e-03
4.539445415139198303e-02 -1.971152611076831818e-02 -1.200677007436752319e-01 -6.511191837489604950e-03 9.010630892589688301e-04 -8.869746327400207520e-02 2.299468964338302612e-02 -8.648530393838882446e-02 1.315954774618148804e-01 6.803266704082489014e-02 -4.070279654115438461e-03 -1.077111717313528061e-02 2.488283365964889526e-01 6.081674620509147644e-02 6.999128311872482300e-02 -4.146824404597282410e-02 -4.211556166410446167e-02 9.919182211160659790e-02 2.183342166244983673e-02 -4.154520854353904724e-02 9.345249831676483154e-02 8.107770979404449463e-02 -3.448482602834701538e-02 -1.712213456630706787e-01 -8.455619215965270996e-02 -5.764848738908767700e-02 6.710604578256607056e-02 1.755702868103981018e-02 3.481683880090713501e-02 5.591398570686578751e-03 5.347038432955741882e-02 8.124697208404541016e-02 1.300005763769149780e-01 -1.730531081557273865e-02 1.146198734641075134e-01 2.015533391386270523e-03 1.693291962146759033e-01 1.867845803499221802e-01 -1.005031764507293701e-01 1.280670706182718277e-02 1.213221903890371323e-02 1.361505538225173950e-01 2.938509918749332428e-02 -2.939656376838684082e-02 -1.541812121868133545e-01 -4.285784438252449036e-02 4.115880280733108521e-02 -1.132723391056060791e-01 -1.007576938718557358e-02 8.401326835155487061e-02 8.040736615657806396e-02 1.044899001717567444e-01 -2.500292845070362091e-02 5.960007756948471069e-02 -6.549631059169769287e-02 2.744167670607566833e-02 9.157402813434600830e-02 8.703846484422683716e-03 -1.265464425086975098e-01 -5.102822929620742798e-02 -3.712660074234008789e-02 1.767968945205211639e-02 -5.045467987656593323e-02 9.354369714856147766e-03 8.453541994094848633e-02 1.261008810251951218e-02 -5.930128693580627441e-02 1.780276596546173096e-01 6.221419572830200195e-02 1.219441518187522888e-01 -1.992524974048137665e-02 -4.142544232308864594e-03 7.819474674761295319e-03 -7.412903755903244019e-02 8.464846760034561157e-02 -3.647649288177490234e-02 8.161485940217971802e-02 5.594054982066154480e-02 8.048379793763160706e-03 2.085539745166897774e-03 -1.317061334848403931e-01 -6.380832940340042114e-02 1.347662657499313354e-01 -1.642237789928913116e-02 7.405940443277359009e-02 9.211885929107666016e-02 -2.476300671696662903e-02 -2.813791334629058838e-01 -7.389806210994720459e-02 -5.811340734362602234e-02 7.473793625831604004e-02 -4.668038338422775269e-02 1.666387468576431274e-01 -9.387406706809997559e-02 3.288179263472557068e-02 1.091317925602197647e-02 5.638118088245391846e-02 -5.055279284715652466e-02 -7.294963300228118896e-02 -5.404232069849967957e-02 5.727783963084220886e-02 -6.483218818902969360e-02 -1.082451567053794861e-01 -1.909675598144531250e-01 2.326398342847824097e-02 8.719529956579208374e-02 -3.451202809810638428e-02 -1.353749334812164307e-01 -3.108839038759469986e-03 -7.714389264583587646e-02 6.130019668489694595e-03 -1.461386028677225113e-02 -6.770037114620208740e-02 1.921415776014328003e-01 -7.353193312883377075e-02 -1.012520194053649902e-01 -6.276618689298629761e-02 8.043617755174636841e-02 9.363975375890731812e-02 1.417501121759414673e-01 -8.506679907441139221e-03 -1.159301027655601501e-01 4.119437560439109802e-02 -1.513021737337112427e-01 6.808172166347503662e-02 -7.889568060636520386e-02 -7.721138000488281250e-02 1.230981275439262390e-01
4.484070464968681335e-02 7.998778671026229858e-02 2.263929322361946106e-02 1.179272402077913284e-02 7.392039149999618530e-02 -7.705703377723693848e-02 -5.422537401318550110e-02 -8.825465291738510132e-02 2.470397204160690308e-02 -2.917332202196121216e-02 -3.327360376715660095e-02 -2.120769917964935303e-01 6.254121661186218262e-02 -2.659113146364688873e-02 -2.771279811859130859e-01 -5.366603657603263855e-02 3.573448956012725830e-02 1.206188229843974113e-03 1.513060368597507477e-02 -5.893735215067863464e-02 -1.453324873000383377e-02 4.101033508777618408e-02 2.719543874263763428e-02 6.039109453558921814e-02 -1.859097369015216827e-02 9.192777797579765320e-03 -4.553939774632453918e-02 7.154881954193115234e-02 9.851667284965515137e-02 -4.051074385643005371e-03 -9.670503437519073486e-02 7.143457978963851929e-02 2.481282129883766174e-02 2.108332887291908264e-02 7.859322242438793182e-03 -2.108317762613296509e-01 6.616943329572677612e-02 8.248429745435714722e-03 -3.424747660756111145e-02 -1.733544170856475830e-01 1.664660871028900146e-01 -3.501512575894594193e-03 -7.362795993685722351e-03 -3.838915750384330750e-02 -1.231208592653274536e-01 -8.085364103317260742e-02 1.823424175381660461e-02 2.785102836787700653e-02 4.187268204987049103e-03 -1.873076260089874268e-01 3.655853122472763062e-02 1.414896696805953979e-01 4.456418007612228394e-02 2.281425595283508301e-01 -7.340119779109954834e-02 -2.743519144132733345e-03 2.142260968685150146e-01 -2.203532494604587555e-02 2.530630677938461304e-02 -3.681517671793699265e-03 -3.441941365599632263e-02 1.062206253409385681e-01 3.747332841157913208e-03 -4.055993258953094482e-02 2.530300319194793701e-01 9.927268326282501221e-02 1.220778450369834900e-01 -5.378319695591926575e-02 8.610301464796066284e-02 -9.328138083219528198e-03 -1.669106483459472656e-01 -1.129072532057762146e-01 1.854444295167922974e-01 -1.668938994407653809e-01 -1.027592942118644714e-01 2.390319705009460449e-01 1.498716622591018677e-01 4.187041427940130234e-03 -1.449266523122787476e-01 -2.100411057472229004e-02 -2.997207827866077423e-02 8.379521220922470093e-02 9.107896685600280762e-02 2.393941767513751984e-02 1.231050938367843628e-01 -8.580625057220458984e-02 6.311671435832977295e-02 -1.123888641595840454e-01 4.777706786990165710e-02 1.278807073831558228e-01 9.989974647760391235e-02 -6.440954655408859253e-02 5.608735140413045883e-03 -5.146745964884757996e-02 4.776873439550399780e-02 -5.332908034324645996e-02 1.494164913892745972e-01 -3.452669829130172729e-03 1.280413866043090820e-01 2.833496592938899994e-02 -7.331979274749755859e-02 2.762107411399483681e-03 -2.241190057247877121e-03 1.760478019714355469e-01 -1.927314996719360352e-01 -1.038305610418319702e-01 3.981797769665718079e-02 -1.900971122086048126e-02 1.620921790599822998e-01 6.659230589866638184e-02 -7.403365522623062134e-02 -3.209474682807922363e-02 1.052728444337844849e-01 -1.171016693115234375e-02 1.654910445213317871e-01 -7.161650806665420532e-02 3.602449595928192139e-02 -1.767651736736297607e-02 1.487839315086603165e-02 -4.179883375763893127e-02 -4.679235816001892090e-02 -1.124008595943450928e-01 1.527958363294601440e-02 -6.975284963846206665e-02 -1.402396261692047119e-01 8.441495895385742188e-02 1.357429474592208862e-01 -3.514328273013234138e-03
3.104981593787670135e-02 -7.718037068843841553e-02 1.288570761680603027e-01 -1.419904641807079315e-02 -4.244995117187500000e-02 1.092919409275054932e-01 -1.142116114497184753e-01 -8.297054469585418701e-02 -2.618798520416021347e-03 9.612941741943359375e-02 9.326759725809097290e-03 7.448882609605789185e-02 9.115391224622726440e-02 -1.301520764827728271e-01 -8.070368319749832153e-02 9.395020455121994019e-02 3.897408768534660339e-02 6.274428963661193848e-02 1.839835941791534424e-01 1.706277877092361450e-01 8.330399543046951294e-02 8.751714602112770081e-03 -1.017717495560646057e-01 1.811055839061737061e-01 -4.885199666023254395e-02 3.431646823883056641e-01 -1.317433267831802368e-02 -9.625823237001895905e-03 5.336959287524223328e-02 3.715315461158752441e-02 -2.099789381027221680e-01 2.106150425970554352e-02 1.423662751913070679e-01 -1.940484903752803802e-02 3.048013895750045776e-03 -1.935653984546661377e-01 -1.603973507881164551e-01 4.451944306492805481e-02 1.739233918488025665e-02 9.327926486730575562e-02 -1.610120199620723724e-02 1.262768357992172241e-02 2.400197274982929230e-02 -9.035347029566764832e-03 -1.348267644643783569e-01 -2.913669496774673462e-02 -9.843262284994125366e-02 1.168684288859367371e-01 3.620215132832527161e-02 2.701762504875659943e-02 1.004350557923316956e-01 -7.904755324125289917e-02 1.666563749313354492e-01 -1.402423232793807983e-01 1.149699091911315918e-01 9.686358273029327393e-02 -5.354867503046989441e-02 -3.463201597332954407e-02 1.467482894659042358e-01 -9.614383429288864136e-02 -4.285467322915792465e-03 -1.069046109914779663e-01 3.528944775462150574e-02 1.206818129867315292e-02 -1.710211634635925293e-01 -2.051112987101078033e-02 -1.266475860029459000e-02 1.160754933953285217e-01 -1.960004493594169617e-02 9.020806103944778442e-02 -2.196053862571716309e-01 -4.571271687746047974e-02 -8.116731420159339905e-03 1.572930961847305298e-01 -6.907799094915390015e-02 1.602891646325588226e-02 8.872276544570922852e-02 1.164450943470001221e-01 1.581756323575973511e-01 -1.671024225652217865e-02 -1.200329214334487915e-01 -7.584824413061141968e-02 -3.636131808161735535e-02 6.448059529066085815e-02 -3.271813318133354187e-02 -8.000141382217407227e-02 -3.946819528937339783e-02 1.679543256759643555e-01 3.584542870521545410e-02 -5.256588011980056763e-02 1.870641112327575684e-02 1.813567429780960083e-02 4.137048870325088501e-02 2.939764857292175293e-01 5.303307250142097473e-02 5.492731183767318726e-02 -1.940866708755493164e-01 9.434181265532970428e-03 -1.961981356143951416e-01 -1.597674563527107239e-02 -2.101833932101726532e-02 7.625101506710052490e-02 -9.844035841524600983e-03 1.737536303699016571e-02 -4.259373247623443604e-02 -1.075202673673629761e-01 -4.294309765100479126e-02 1.492188274860382080e-01 4.273731261491775513e-02 2.092966623604297638e-02 8.380774408578872681e-02 4.810793325304985046e-02 -1.041194647550582886e-01 4.584419354796409607e-02 1.841435581445693970e-02 3.636336699128150940e-02 -5.535042658448219299e-02 6.999131292104721069e-02 1.322562061250209808e-02 4.319725849200040102e-04 5.695479735732078552e-02 6.309851072728633881e-03 -6.034431047737598419e-03 1.411674022674560547e-01 -5.682932958006858826e-02 8.374298922717571259e-03 -6.626421958208084106e-02 5.334905814379453659e-03
1.847729459404945374e-02 -4.433653131127357483e-02 1.818880066275596619e-02 -8.277550339698791504e-02 -3.362687071785330772e-03 5.107208341360092163e-02 -1.060986518859863281e-01 1.095286477357149124e-02 8.882322348654270172e-03 1.897111535072326660e-02 1.509753912687301636e-01 6.434195488691329956e-02 3.539473749697208405e-03 -1.223713606595993042e-01 -5.609995871782302856e-02 1.915394663810729980e-01 4.114282876253128052e-02 3.547137230634689331e-02 -1.829737126827239990e-01 -1.872431114315986633e-02 -1.211709007620811462e-01 -5.098905041813850403e-02 1.199303641915321350e-01 -6.717338413000106812e-02 -2.192954532802104950e-02 -7.271164655685424805e-02 -4.893512651324272156e-02 -6.323077250272035599e-03 5.281492322683334351e-02 -4.530836641788482666e-02 -1.909138113260269165e-01 9.223584085702896118e-03 8.336578309535980225e-02 -2.951020561158657074e-02 1.835108101367950439e-01 -1.774037480354309082e-01 -4.205540195107460022e-02 2.694588154554367065e-02 5.404875427484512329e-02 1.059961393475532532e-01 -1.057860478758811951e-01 -1.639763079583644867e-02 -1.083264686167240143e-02 -2.297855354845523834e-02 1.374081894755363464e-02 6.572809536010026932e-03 -8.977706730365753174e-02 -9.006378799676895142e-02 5.628315359354019165e-02 -5.959134921431541443e-02 -6.601455807685852051e-02 -3.856210783123970032e-02 -7.422195374965667725e-02 -9.919503703713417053e-03 -2.398764342069625854e-02 1.666423529386520386e-01 9.821141511201858521e-02 2.851513586938381195e-02 1.752359867095947266e-01 1.085075899027287960e-03 -8.416786044836044312e-02 9.889534115791320801e-02 1.304698735475540161e-01 4.576847702264785767e-02 2.646530978381633759e-02 7.804816961288452148e-02 2.273460328578948975e-01 -4.103833436965942383e-02 -3.179892525076866150e-02 -2.162544243037700653e-02 1.550332009792327881e-01 -1.877458021044731140e-02 -8.797227591276168823e-02 -2.140164375305175781e-02 8.077323436737060547e-02 5.719294026494026184e-02 -1.542269289493560791e-01 -6.098301336169242859e-02 -3.702837228775024414e-02 1.520571671426296234e-02 1.058743968605995178e-01 -2.824682891368865967e-01 3.226932138204574585e-02 -4.454268515110015869e-02 -1.096525322645902634e-02 -1.632303372025489807e-02 -4.804424941539764404e-02 -6.582593172788619995e-02 -1.672706007957458496e-01 -1.008074060082435608e-01 2.422607690095901489e-01 9.064713120460510254e-02 6.306153535842895508e-02 5.917060747742652893e-02 1.333117485046386719e-02 7.479007542133331299e-02 -5.686760321259498596e-02 -7.656746357679367065e-02 3.734090132638812065e-04 -1.216262206435203552e-01 1.091317757964134216e-01 -4.817750770598649979e-03 4.718650877475738525e-02 -5.928227305412292480e-02 2.546607516705989838e-02 -7.445015758275985718e-02 5.130799114704132080e-02 9.932961314916610718e-03 7.145580649375915527e-02 -1.036797389388084412e-01 1.727626174688339233e-01 1.595521569252014160e-01 6.248174235224723816e-02 9.893103688955307007e-02 9.335616230964660645e-02 4.870205651968717575e-03 -1.643889583647251129e-03 1.002851650118827820e-01 -2.978265099227428436e-02 -9.952595829963684082e-02 5.019721016287803650e-02 -1.068555414676666260e-01 -7.292608916759490967e-02 -4.021269455552101135e-02 -1.203204877674579620e-02 4.919158760458230972e-03 -3.227959154173731804e-03 -4.828581959009170532e-02
1.354185026139020920e-02 4.292361065745353699e-02 1.537281367927789688e-02 -1.717675477266311646e-01 -3.722212091088294983e-02 2.195623889565467834e-02 1.076850816607475281e-01 -5.371241644024848938e-02 1.499582082033157349e-02 -1.378707680851221085e-02 3.036387823522090912e-02 7.323227822780609131e-02 1.682272702455520630e-01 2.074956335127353668e-02 -1.059557218104600906e-02 1.489596515893936157e-01 -1.558648236095905304e-02 1.140887737274169922e-01 2.402915619313716888e-02 1.447728089988231659e-02 -1.591721475124359131e-01 1.154142469167709351e-01 3.446907922625541687e-02 2.911216020584106445e-02 -2.293525822460651398e-02 -3.020120225846767426e-02 -8.723664283752441406e-02 -8.150072395801544189e-02 1.024070158600807190e-01 -8.419755101203918457e-02 -1.308310031890869141e-01 -5.313579365611076355e-02 1.089799180626869202e-01 -1.321584824472665787e-02 -1.558408588171005249e-01 4.483756050467491150e-02 -9.593444317579269409e-02 -1.127822697162628174e-01 -1.131509095430374146e-01 -1.382253877818584442e-02 -6.519809365272521973e-02 8.331966400146484375e-02 -3.562999144196510315e-02 5.266280099749565125e-02 -2.182152420282363892e-01 -2.256038226187229156e-02 -1.869913786649703979e-01 -1.626465767621994019e-01 1.096388995647430420e-01 1.940912455320358276e-01 -1.315513532608747482e-02 -8.185798674821853638e-02 -3.496369812637567520e-03 2.696337737143039703e-02 -1.923322379589080811e-01 7.511491421610116959e-03 1.197181120514869690e-01 1.250283122062683105e-01 -4.719979129731655121e-03 -7.920740172266960144e-03 -3.510742262005805969e-02 -2.375956028699874878e-01 -1.713333129882812500e-01 9.402570128440856934e-02 -6.177326664328575134e-02 3.502434585243463516e-03 1.163832098245620728e-01 6.615779548883438110e-02 1.280020456761121750e-02 1.292017847299575806e-01 -1.253615766763687134e-01 -2.088630013167858124e-02 1.178067177534103394e-01 1.184998452663421631e-01 8.684353530406951904e-02 -6.814033538103103638e-02 -8.476603031158447266e-02 1.394181512296199799e-02 -2.147959172725677490e-02 3.196759149432182312e-02 1.218027025461196899e-01 9.977675974369049072e-02 -9.171585552394390106e-03 -5.471587646752595901e-03 2.050080895423889160e-01 -4.935163259506225586e-02 -1.287942379713058472e-01 1.951639950275421143e-01 3.038741648197174072e-02 7.573831826448440552e-02 -6.565649807453155518e-02 -4.118817299604415894e-02 -4.124416410923004150e-02 2.517589330673217773e-01 -1.302748220041394234e-03 7.532926648855209351e-02 -3.488027304410934448e-02 -4.809927567839622498e-02 1.935008615255355835e-01 -8.317696303129196167e-02 -1.172669455409049988e-01 6.516439467668533325e-02 8.930681645870208740e-02 3.604624867439270020e-01 -7.446992397308349609e-02 -2.202629577368497849e-03 1.805385015904903412e-02 2.010475397109985352e-01 -3.795950114727020264e-02 -1.927694231271743774e-01 1.157160550355911255e-01 -6.122360005974769592e-02 3.258828818798065186e-02 7.454338669776916504e-02 -2.593262679874897003e-02 -4.766907542943954468e-02 5.949424952268600464e-02 -6.460066139698028564e-02 -4.191340878605842590e-02 -2.533274516463279724e-02 2.640964835882186890e-02 1.223574578762054443e-02 -4.836004972457885742e-02 -6.579847540706396103e-04 -5.841544643044471741e-02 1.346964091062545776e-01 -5.425986647605895996e-02 3.316988795995712280e-02
5.528265610337257385e-02 -2.712955325841903687e-02 1.408097986131906509e-02 -6.193808838725090027e-02 2.747319638729095459e-02 -4.200824722647666931e-02 9.322956949472427368e-02 -1.387360226362943649e-02 1.243367418646812439e-02 -4.691737517714500427e-02 -1.190665178000926971e-03 -4.503493010997772217e-02 6.881966441869735718e-02 -1.867795586585998535e-01 1.073743551969528198e-01 1.722687333822250366e-01 -7.736729085445404053e-02 -4.855491816997528076e-01 -1.344312429428100586e-01 -1.814240776002407074e-02 8.485754579305648804e-02 5.700620636343955994e-02 -1.084891855716705322e-01 1.287390887737274170e-01 4.207057878375053406e-03 -1.545017361640930176e-01 9.804870188236236572e-02 -6.996333599090576172e-02 7.601414620876312256e-02 -5.014874041080474854e-02 -2.193273417651653290e-02 -6.425896193832159042e-03 -8.312606066465377808e-02 4.174300283193588257e-02 4.918020218610763550e-02 3.744223853573203087e-03 5.309030413627624512e-02 -1.736081242561340332e-01 -5.144142080098390579e-03 -7.028518617153167725e-02 1.647491753101348877e-01 -3.593032956123352051e-01 7.464213669300079346e-02 1.201500836759805679e-02 -1.383743733167648315e-01 -7.285625487565994263e-02 1.019412055611610413e-01 6.077060475945472717e-02 1.154237538576126099e-01 7.893579453229904175e-02 7.073417305946350098e-02 -1.554552614688873291e-01 -4.684349000453948975e-01 5.756687745451927185e-02 -1.955753006041049957e-02 3.617908060550689697e-02 -7.460987567901611328e-02 5.141107365489006042e-02 2.426154538989067078e-02 -3.903426975011825562e-02 -6.908626854419708252e-02 -2.017098367214202881e-01 -1.154353171586990356e-01 -2.546517178416252136e-02 -8.266156166791915894e-02 8.179643750190734863e-02 -1.305665727704763412e-02 1.871141195297241211e-01 2.774975635111331940e-02 -7.960274070501327515e-02 1.423182189464569092e-01 -1.180837526917457581e-01 1.244045794010162354e-02 2.222614362835884094e-02 -1.552594900131225586e-01 -1.165411993861198425e-01 6.207462772727012634e-02 9.646236896514892578e-02 -5.252803117036819458e-02 -2.186300419270992279e-02 -1.568620055913925171e-01 1.266935169696807861e-01 -1.653398270718753338e-03 -1.237149387598037720e-01 2.532845921814441681e-02 1.450044568628072739e-02 -8.574683219194412231e-02 -5.115111917257308960e-02 -1.027316376566886902e-01 6.605989485979080200e-02 -3.114043474197387695e-01 1.786423288285732269e-02 8.772948756814002991e-03 2.781984508037567139e-01 -6.339362263679504395e-02 -4.154359176754951477e-02 -1.013553738594055176e-01 1.276320666074752808e-01 3.496290370821952820e-02 -6.849656254053115845e-02 -7.942608743906021118e-02 9.458690136671066284e-02 -2.025687247514724731e-01 -1.829961538314819336e-01 6.696847826242446899e-02 8.555281907320022583e-02 -5.279222503304481506e-02 1.526164859533309937e-01 1.586615480482578278e-02 -9.907857328653335571e-02 1.154719367623329163e-01 1.527727544307708740e-01 -1.421841233968734741e-01 -4.777208343148231506e-02 3.212130069732666016e-02 -1.605852693319320679e-01 -6.036951392889022827e-02 -3.969048615545034409e-03 3.258331492543220520e-02 1.496796403080224991e-02 7.402000576257705688e-02 1.488820463418960571e-01 5.513668805360794067e-02 -2.396008521318435669e-01 1.441009063273668289e-02 -8.946208655834197998e-02 -1.026652455329895020e-01 -8.273372799158096313e-02
1.159004867076873779e-02 9.397911280393600464e-02 1.511728018522262573e-01 1.175143346190452576e-01 -3.072697902098298073e-03 2.324622273445129395e-01 -2.579560875892639160e-02 -9.968930482864379883e-02 1.229354739189147949e-01 4.690086469054222107e-02 8.975218981504440308e-02 4.939156025648117065e-02 -2.814525552093982697e-02 4.198072105646133423e-02 -7.377510517835617065e-02 -2.383323013782501221e-02 -8.508841693401336670e-02 8.351577818393707275e-02 2.226782590150833130e-02 1.002988591790199280e-01 -5.170596297830343246e-03 -8.521280251443386078e-03 3.007202036678791046e-02 1.630668789148330688e-01 -2.127515897154808044e-02 -6.388781219720840454e-02 -4.690317437052726746e-02 2.678150497376918793e-02 1.774524571374058723e-03 7.556522637605667114e-02 -1.138575002551078796e-01 6.974499672651290894e-02 6.423544883728027344e-02 -6.534690409898757935e-02 -1.427075862884521484e-01 -2.864891290664672852e-01 3.282149508595466614e-02 -1.006045565009117126e-01 -1.489966511726379395e-01 1.649370044469833374e-01 -4.817670211195945740e-02 -8.525880053639411926e-03 -1.285605877637863159e-01 -5.854269955307245255e-03 8.628620207309722900e-02 1.201078519225120544e-01 -1.108989566564559937e-01 1.828211992979049683e-01 -3.157556802034378052e-02 9.407650679349899292e-02 1.222103163599967957e-01 -9.091220796108245850e-02 1.444593369960784912e-01 1.161615848541259766e-01 8.969559520483016968e-02 1.867720633745193481e-01 -4.263359680771827698e-02 9.772384166717529297e-02 1.124850586056709290e-01 1.067388653755187988e-01 6.431204080581665039e-02 -2.092310413718223572e-02 1.256620138883590698e-01 2.748759463429450989e-02 -1.589956879615783691e-01 1.242105886340141296e-01 5.572595447301864624e-02 -2.348899394273757935e-01 1.694131642580032349e-02 -2.663898840546607971e-02 -1.169408351415768266e-04 -3.573631867766380310e-02 8.745022863149642944e-02 8.819774538278579712e-02 -1.392774004489183426e-02 1.589831709861755371e-01 -2.758533135056495667e-02 -2.048455365002155304e-02 6.786115001887083054e-03 -9.641283005475997925e-02 -3.078620880842208862e-02 -6.619036942720413208e-02 7.362200319766998291e-02 7.522830856032669544e-04 -2.633946016430854797e-02 -1.250775009393692017e-01 -4.330404568463563919e-03 2.697286009788513184e-02 -1.489168703556060791e-01 2.785196714103221893e-02 -5.345446988940238953e-02 -1.440991312265396118e-01 8.756133168935775757e-02 -3.560988977551460266e-02 7.702951878309249878e-02 3.798305988311767578e-02 -6.885102391242980957e-02 4.958982765674591064e-02 6.613355129957199097e-02 3.476589918136596680e-02 6.107198446989059448e-02 5.479257181286811829e-02 8.120383322238922119e-02 2.633133344352245331e-02 3.911537583917379379e-03 -6.437174230813980103e-02 -2.852002345025539398e-02 -3.085073083639144897e-03 -4.975835978984832764e-02 1.447020471096038818e-01 3.507528454065322876e-02 7.280639559030532837e-02 2.584113366901874542e-02 -1.859216392040252686e-01 -1.255971193313598633e-01 -1.931733042001724243e-01 1.518707908689975739e-02 2.157511562108993530e-01 -3.028158284723758698e-02 7.291743159294128418e-02 7.036508619785308838e-02 -5.702295899391174316e-02 9.844355285167694092e-03 -3.448786959052085876e-02 -1.122001707553863525e-01 -1.028309613466262817e-01 9.444672614336013794e-02 1.003282740712165833e-01
-1.221756339073181152e-01 1.880280673503875732e-01 1.638379245996475220e-01 -1.159858703613281250e-02 8.478122204542160034e-02 7.789312303066253662e-02 -1.268306002020835876e-02 -5.728876590728759766e-02 -5.107330530881881714e-02 -7.017552852630615234e-02 3.180307149887084961e-01 -7.411953806877136230e-02 -3.680364415049552917e-02 -4.452724382281303406e-02 1.080705076456069946e-01 2.442522719502449036e-02 -2.576463483273983002e-02 -1.149448845535516739e-02 5.403609946370124817e-02 5.595600232481956482e-02 1.129899919033050537e-01 -3.056601434946060181e-02 -1.017446909099817276e-02 5.583554133772850037e-02 3.433777391910552979e-02 -4.829772561788558960e-02 1.345527619123458862e-01 7.277049124240875244e-02 -8.210468292236328125e-02 8.194349706172943115e-03 -1.093316152691841125e-01 -2.691722474992275238e-02 1.719499565660953522e-02 -8.475375361740589142e-03 -9.441599249839782715e-02 -7.146145403385162354e-02 -5.972299352288246155e-02 1.988756284117698669e-02 -5.351490899920463562e-02 7.823388278484344482e-02 7.759857922792434692e-02 -3.957185149192810059e-02 -6.770033389329910278e-02 -1.939333528280258179e-01 -1.521132327616214752e-02 1.204540953040122986e-02 -6.204345077276229858e-02 9.701061993837356567e-03 -1.890416815876960754e-02 6.190915778279304504e-02 2.723325602710247040e-02 -1.359410583972930908e-01 -1.307283900678157806e-02 1.905010789632797241e-01 6.102051585912704468e-02 8.507833629846572876e-02 -1.054810881614685059e-01 5.783684179186820984e-02 1.166059374809265137e-01 -4.999161139130592346e-02 9.238951653242111206e-02 2.043737620115280151e-01 1.236215904355049133e-01 -3.166750073432922363e-02 -1.605374962091445923e-01 7.869212329387664795e-02 7.661290466785430908e-02 -1.274249553680419922e-01 -2.507077902555465698e-02 8.811639249324798584e-02 3.147339075803756714e-02 -3.117159567773342133e-02 -6.019812449812889099e-02 1.527198553085327148e-01 3.697020187973976135e-02 4.246569797396659851e-02 -2.652829326689243317e-02 1.426429487764835358e-02 -4.092300310730934143e-02 1.637889188714325428e-03 -3.938950970768928528e-02 9.440962225198745728e-02 2.845273539423942566e-02 -4.602380096912384033e-02 -1.139596477150917053e-02 -1.667669042944908142e-02 1.644208133220672607e-01 1.206308379769325256e-01 7.186882197856903076e-02 4.457391798496246338e-02 -2.845985069870948792e-02 8.067631861194968224e-04 4.635496437549591064e-02 2.499950584024190903e-03 -4.915446788072586060e-02 -6.277725100517272949e-02 3.293420001864433289e-02 -1.632017642259597778e-02 6.340736895799636841e-02 1.277531385421752930e-01 7.470056414604187012e-02 1.514468491077423096e-01 -5.942981690168380737e-02 8.993347734212875366e-02 6.062572449445724487e-02 2.253362163901329041e-02 -2.455003559589385986e-02 8.230198919773101807e-02 1.057396605610847473e-01 1.211977824568748474e-01 -6.127430126070976257e-02 -3.747744113206863403e-02 9.612245857715606689e-02 -3.700928017497062683e-02 -7.509902119636535645e-02 -4.556791484355926514e-02 1.233121473342180252e-02 1.073318440467119217e-02 1.946986652910709381e-02 7.905546575784683228e-02 8.919755928218364716e-03 -6.209482625126838684e-02 5.472477152943611145e-02 2.360736485570669174e-03 -1.321044415235519409e-01 1.730750687420368195e-02 -1.479858607053756714e-01 9.262542240321636200e-03
-7.353073358535766602e-02 -1.662667095661163330e-02 5.314793065190315247e-02 -8.270922116935253143e-03 -2.471582219004631042e-02 2.586452662944793701e-01 -7.699377834796905518e-02 -2.079411409795284271e-02 6.531443446874618530e-02 1.298297010362148285e-02 -2.079734206199645996e-01 -7.030200958251953125e-02 1.191068142652511597e-01 7.142873853445053101e-02 5.659588798880577087e-02 -5.694620013236999512e-01 1.221095919609069824e-01 4.052949249744415283e-01 -1.753910910338163376e-03 -6.281648576259613037e-02 1.699683517217636108e-01 -1.382299233227968216e-02 3.977935016155242920e-01 3.146791756153106689e-01 4.781072027981281281e-03 -3.488264605402946472e-02 4.866111651062965393e-02 -1.428158432245254517e-01 1.216430440545082092e-01 -6.017315760254859924e-02 -2.503959536552429199e-01 -2.825280837714672089e-02 -1.498802602291107178e-01 -1.669529266655445099e-02 -1.652116924524307251e-01 -1.985128968954086304e-01 2.450710982084274292e-01 -1.677495092153549194e-01 -7.886187732219696045e-02 -2.469261288642883301e-01 -1.746571995317935944e-02 -1.545182764530181885e-01 -4.788702353835105896e-02 -8.601699024438858032e-02 -1.212758496403694153e-01 -9.403736889362335205e-02 -1.339136809110641479e-01 4.675864875316619873e-01 -5.231297016143798828e-02 -3.949637711048126221e-01 -8.661717921495437622e-02 7.413599640130996704e-02 2.978048920631408691e-01 -8.197469264268875122e-02 2.526666224002838135e-02 -1.108901668339967728e-02 1.698848009109497070e-01 6.187467649579048157e-02 1.077154576778411865e-01 5.702738836407661438e-02 1.367644071578979492e-01 3.043797314167022705e-01 -1.864694952964782715e-01 -8.050355315208435059e-02 -1.826701760292053223e-01 8.107083290815353394e-02 2.020100317895412445e-02 -2.809315361082553864e-02 6.946200877428054810e-02 -1.238441839814186096e-01 6.103456020355224609e-02 -1.768186986446380615e-01 4.877910763025283813e-02 1.297879964113235474e-01 7.837297022342681885e-02 3.327973559498786926e-02 -1.392058581113815308e-01 -3.101247549057006836e-02 1.314178258180618286e-01 -1.191797703504562378e-01 -5.207551121711730957e-01 -1.697220951318740845e-01 6.305257976055145264e-02 -9.096300601959228516e-02 -4.112755879759788513e-03 5.871403962373733521e-02 -9.578591212630271912e-03 -2.204246073961257935e-01 -8.628895878791809082e-02 -2.958345785737037659e-02 -1.024490371346473694e-01 8.161360770463943481e-02 4.956156760454177856e-02 -2.744402289390563965e-01 1.593683846294879913e-02 5.731280893087387085e-02 -2.185975760221481323e-01 -8.305419236421585083e-02 1.481478363275527954e-01 2.401321530342102051e-01 -1.266086548566818237e-01 4.179925099015235901e-02 -5.346461385488510132e-02 1.110012158751487732e-01 -8.812350779771804810e-02 -2.364282608032226562e-01 4.587418213486671448e-02 -1.288527548313140869e-01 4.091024100780487061e-01 6.219298392534255981e-02 1.635562032461166382e-01 8.804070204496383667e-02 2.463071793317794800e-01 2.530756592750549316e-01 8.610074222087860107e-02 -1.515447646379470825e-01 -6.210839375853538513e-02 -9.033158421516418457e-02 2.223356813192367554e-01 -3.421421349048614502e-02 4.413961246609687805e-02 -8.570454269647598267e-02 1.970232129096984863e-01 -3.479573726654052734e-01 -1.037040948867797852e-01 1.112922094762325287e-02 -1.936217844486236572e-01 2.387213334441184998e-02
3.660119324922561646e-02 -6.658655405044555664e-02 9.390904754400253296e-02 -1.218816414475440979e-01 9.852127730846405029e-02 7.579386979341506958e-02 1.126201376318931580e-01 -8.213192224502563477e-02 1.381905674934387207e-01 -5.707107484340667725e-02 6.464572995901107788e-02 1.100718975067138672e-01 -3.965527936816215515e-02 1.833566129207611084e-01 4.488335922360420227e-02 -1.494773626327514648e-01 3.344507515430450439e-02 5.881522968411445618e-02 -2.841238118708133698e-02 -1.673771068453788757e-02 -6.592329591512680054e-02 2.441584616899490356e-01 1.425456404685974121e-01 -1.489614322781562805e-02 -3.149661421775817871e-02 2.707378268241882324e-01 -1.472766399383544922e-01 2.465368434786796570e-02 -7.587512582540512085e-02 -2.345258742570877075e-02 2.384409904479980469e-01 -1.429059207439422607e-01 -1.000849679112434387e-01 3.467525821179151535e-03 -5.448787286877632141e-02 6.577274948358535767e-02 7.831165194511413574e-02 1.869461126625537872e-02 5.782427266240119934e-02 -5.032201483845710754e-02 1.774644106626510620e-01 -2.998826839029788971e-02 8.415289968252182007e-02 -8.364668488502502441e-02 1.114422082901000977e-01 1.209421753883361816e-01 -7.311698049306869507e-02 -7.031925767660140991e-02 1.339081302285194397e-02 8.068300038576126099e-02 1.010450273752212524e-01 4.986913502216339111e-02 -6.218956410884857178e-02 -1.527124047279357910e-01 -1.241052895784378052e-01 4.127526283264160156e-02 3.991140723228454590e-01 5.947908386588096619e-02 1.249456964433193207e-02 3.370733931660652161e-03 -6.768033653497695923e-02 4.951336979866027832e-02 -2.991897985339164734e-02 -4.130250588059425354e-02 1.612070053815841675e-01 2.876938087865710258e-03 9.952428936958312988e-02 1.380570232868194580e-02 1.002351045608520508e-01 -1.357668638229370117e-02 7.845231331884860992e-03 6.197632756084203720e-03 -1.682630479335784912e-01 -2.081139385700225830e-01 1.247953064739704132e-02 -1.309179514646530151e-01 -1.027964800596237183e-02 -9.157462976872920990e-03 2.754310369491577148e-01 8.383757434785366058e-03 1.833883523941040039e-01 -1.855807602405548096e-01 1.431675255298614502e-01 -7.975199073553085327e-02 9.096249938011169434e-02 -1.279216259717941284e-01 -9.557090699672698975e-02 -1.212923526763916016e-01 -6.720228493213653564e-02 -1.727824211120605469e-01 -1.562444865703582764e-01 2.248653210699558258e-02 5.105063691735267639e-02 1.288368254899978638e-01 2.690496854484081268e-02 9.077093750238418579e-02 -1.357402503490447998e-01 2.327082455158233643e-01 1.546596884727478027e-01 -6.542795896530151367e-02 -5.360199883580207825e-02 -4.377655684947967529e-03 2.492062561213970184e-02 1.074967235326766968e-01 -4.074255749583244324e-02 2.922163009643554688e-01 8.781302720308303833e-02 -8.369948714971542358e-02 1.289186347275972366e-02 -6.353738903999328613e-02 1.643706671893596649e-02 4.337433725595474243e-03 9.971176087856292725e-02 -9.397099167108535767e-02 5.858786404132843018e-02 4.008506610989570618e-02 9.686985611915588379e-02 1.276690699160099030e-02 1.681841164827346802e-01 1.654440164566040039e-01 1.309831291437149048e-01 1.568400487303733826e-02 1.350581087172031403e-02 6.615700572729110718e-02 1.343738660216331482e-02 7.758574187755584717e-02 8.813249319791793823e-02 1.679046601057052612e-01
2.300386689603328705e-02 -1.023063287138938904e-01 6.555358320474624634e-02 -5.745677947998046875e-01 3.614649549126625061e-02 1.003857553005218506e-01 8.519475907087326050e-02 5.417897179722785950e-02 1.676637679338455200e-01 -4.933449625968933105e-02 -7.186173647642135620e-02 5.442090332508087158e-02 -1.001880988478660583e-01 -3.788310587406158447e-01 3.551495820283889771e-02 1.471900939941406250e-01 6.120662018656730652e-02 8.106880704872310162e-04 1.046859174966812134e-01 4.182635992765426636e-02 -5.642489716410636902e-02 1.069998219609260559e-01 -4.335692524909973145e-01 1.559727191925048828e-01 3.044560365378856659e-02 3.717420995235443115e-01 6.655571609735488892e-02 -6.144334375858306885e-02 1.484152078628540039e-01 1.313176564872264862e-02 -2.207675203680992126e-02 3.535884991288185120e-02 5.874894559383392334e-02 -9.573720395565032959e-02 1.510750353336334229e-01 2.478249818086624146e-01 -1.037803292274475098e-01 -1.231614649295806885e-01 -1.992606744170188904e-02 2.971131503582000732e-01 2.153999060392379761e-01 -4.329023137688636780e-02 5.089362710714340210e-02 8.796584606170654297e-02 2.089544432237744331e-03 6.241920590400695801e-02 -2.024366110563278198e-01 3.155844509601593018e-01 3.016576170921325684e-01 1.379058361053466797e-01 4.842243492603302002e-01 -1.446497887372970581e-01 1.452332711778581142e-03 -2.908606827259063721e-01 2.765246629714965820e-01 7.469868659973144531e-02 -3.259897530078887939e-01 2.281340304762125015e-03 -2.854931056499481201e-01 -2.934431657195091248e-02 -1.049777790904045105e-01 -9.583305567502975464e-03 1.412437204271554947e-02 -1.896893605589866638e-02 4.887767881155014038e-02 7.034478336572647095e-02 4.517937451601028442e-02 9.889068454504013062e-02 -4.060795903205871582e-02 5.648690089583396912e-02 8.636277318000793457e-01 2.188963294029235840e-01 4.580966010689735413e-02 3.002161085605621338e-01 -1.229350268840789795e-01 -3.255205154418945312e-01 -5.235446617007255554e-02 2.740935981273651123e-02 -1.461340487003326416e-01 4.879536107182502747e-02 1.636483967304229736e-01 1.620291024446487427e-01 -9.451518766582012177e-03 -2.261533886194229126e-01 1.122556254267692566e-01 8.753324300050735474e-02 -2.179488390684127808e-01 2.308508455753326416e-01 -1.881018131971359253e-01 7.103480398654937744e-02 -3.364120125770568848e-01 3.936339169740676880e-02 -1.915964297950267792e-02 4.697155654430389404e-01 -4.603011533617973328e-02 2.007903531193733215e-02 -8.081129193305969238e-02 1.660578101873397827e-01 -2.580306828022003174e-01 -1.923722475767135620e-01 2.517499625682830811e-01 -9.871411323547363281e-02 4.728348180651664734e-02 -3.370092511177062988e-01 -1.126120388507843018e-01 2.663585245609283447e-01 2.113220095634460449e-02 1.276230961084365845e-01 1.334982924163341522e-03 -3.437036275863647461e-01 1.751418560743331909e-01 -4.728786647319793701e-02 -6.497929245233535767e-02 3.807801008224487305e-02 2.982680685818195343e-02 -8.061789721250534058e-02 4.034377261996269226e-02 8.306910842657089233e-02 -2.012483626604080200e-01 7.656554877758026123e-02 -7.299297489225864410e-03 2.141872048377990723e-01 -1.156414672732353210e-01 -1.412303000688552856e-01 1.130935251712799072e-01 -1.386612653732299805e-01 2.099299244582653046e-02 -1.810058802366256714e-01
-8.970337361097335815e-02 -3.958358988165855408e-02 1.315035969018936157e-01 -4.263337177690118551e-04 2.213330566883087158e-02 -4.661464318633079529e-02 -1.180615872144699097e-01 3.053441457450389862e-02 1.679907739162445068e-01 4.732438921928405762e-02 -3.541788458824157715e-02 -1.222833916544914246e-01 1.521023362874984741e-01 3.651662170886993408e-01 -2.431080676615238190e-02 -1.945783346891403198e-01 -6.307792663574218750e-02 2.018073946237564087e-02 -5.215421915054321289e-01 -1.178463101387023926e-01 -6.994179487228393555e-01 1.231947448104619980e-02 -2.834770679473876953e-01 -1.423294246196746826e-01 -3.747798129916191101e-02 6.665039807558059692e-02 1.933295466005802155e-02 -9.901714324951171875e-02 1.164774224162101746e-02 1.179448142647743225e-01 -2.038147002458572388e-01 -6.950265914201736450e-02 -3.652686625719070435e-02 2.814544131979346275e-03 -2.443529069423675537e-01 1.112412512302398682e-01 3.557311892509460449e-01 1.759976297616958618e-01 1.141960546374320984e-01 3.929652869701385498e-01 9.277001768350601196e-02 -9.706722199916839600e-02 -2.835998535156250000e-01 8.936854451894760132e-02 -3.903292492032051086e-02 5.232567787170410156e-01 -1.228913888335227966e-01 4.607331156730651855e-01 1.338988840579986572e-01 -1.642629653215408325e-01 -1.082804948091506958e-01 1.692209765315055847e-02 3.495813906192779541e-02 1.756237149238586426e-01 1.937422603368759155e-01 1.533095724880695343e-02 7.601615786552429199e-02 5.838026851415634155e-02 2.483630478382110596e-01 -2.517463266849517822e-02 1.411676406860351562e-01 -6.713945418596267700e-02 -1.551836133003234863e-01 -4.601417481899261475e-02 2.899719476699829102e-01 5.916619673371315002e-02 3.210975229740142822e-01 -8.819028735160827637e-02 5.288701504468917847e-02 4.255852103233337402e-02 8.424122631549835205e-02 2.592572383582592010e-02 -8.334526419639587402e-02 4.039402678608894348e-02 -1.315726935863494873e-01 4.312149807810783386e-02 -1.179328262805938721e-01 2.671052142977714539e-02 -2.458406537771224976e-01 -3.422921989113092422e-03 -1.167381368577480316e-02 2.775427326560020447e-02 -2.679380215704441071e-02 -1.346706300973892212e-01 5.374404191970825195e-01 2.162745893001556396e-01 7.277660071849822998e-02 5.090007185935974121e-02 -3.463150560855865479e-01 1.193947251886129379e-02 4.486194252967834473e-01 -5.245121195912361145e-02 -7.999842055141925812e-03 2.724896669387817383e-01 9.802004694938659668e-02 -7.306516915559768677e-02 7.385878264904022217e-02 9.398645907640457153e-02 3.978305310010910034e-02 1.839702576398849487e-01 1.304529756307601929e-01 2.407528273761272430e-02 1.931400001049041748e-01 9.957994520664215088e-02 -1.511135399341583252e-01 -8.068594150245189667e-03 -7.530853897333145142e-02 -2.434927672147750854e-01 2.261884212493896484e-01 9.030112624168395996e-02 2.818573117256164551e-01 -2.364740893244743347e-02 8.126434683799743652e-02 -1.342969834804534912e-01 2.513611912727355957e-01 2.959738299250602722e-02 1.082981750369071960e-01 1.710857897996902466e-01 -3.949978947639465332e-01 9.202522039413452148e-02 3.092388994991779327e-02 -1.480668932199478149e-01 3.631604835391044617e-02 5.917376652359962463e-02 6.631771568208932877e-03 -1.179333254694938660e-01 -2.821090072393417358e-02 1.007765904068946838e-02
1.514539308845996857e-02 -4.654748365283012390e-02 2.681491374969482422e-01 -1.894784718751907349e-02 -3.961741924285888672e-02 1.246397346258163452e-01 -1.453425437211990356e-01 -7.672774791717529297e-02 -9.052158147096633911e-02 8.139324188232421875e-02 1.822531074285507202e-01 3.791869804263114929e-02 -2.324190177023410797e-02 -1.582130193710327148e-01 9.852558141574263573e-04 1.161110699176788330e-01 -5.883486568927764893e-02 -2.607802161946892738e-03 6.731011718511581421e-02 1.016241684556007385e-01 2.478611189872026443e-03 -8.865080773830413818e-02 1.853319257497787476e-02 2.141756713390350342e-01 -3.455940261483192444e-02 1.207024902105331421e-01 -6.345858424901962280e-02 1.812058500945568085e-02 -6.265775859355926514e-02 1.316750347614288330e-01 -1.188516393303871155e-01 1.238783821463584900e-01 2.855434715747833252e-01 2.099047973752021790e-02 1.137901917099952698e-01 -2.077573835849761963e-01 -9.656772017478942871e-02 -7.345875352621078491e-02 4.912261664867401123e-02 -8.353035897016525269e-02 -5.302673950791358948e-02 -2.481073699891567230e-02 1.278361491858959198e-02 3.465449437499046326e-02 1.721448451280593872e-01 -6.102224066853523254e-02 7.752098888158798218e-02 -7.335302978754043579e-02 1.796805411577224731e-01 2.045169658958911896e-02 1.229881569743156433e-01 -4.197652265429496765e-02 2.334387786686420441e-02 -9.533653408288955688e-02 -2.875021658837795258e-02 1.189989149570465088e-01 1.101918518543243408e-02 -6.864321231842041016e-02 1.183129772543907166e-01 -9.473180025815963745e-02 7.184413075447082520e-02 1.776132285594940186e-01 -1.385831553488969803e-02 5.326472222805023193e-02 9.159271419048309326e-02 -1.192179974168539047e-02 4.811093583703041077e-02 -7.137369364500045776e-02 -3.433817997574806213e-02 -3.068894706666469574e-02 -4.572115093469619751e-02 1.144049614667892456e-01 5.391777027398347855e-03 6.907002627849578857e-02 1.506708748638629913e-02 6.078167632222175598e-02 1.658736169338226318e-01 -7.132560014724731445e-02 9.609549492597579956e-02 1.314518228173255920e-02 9.639589488506317139e-02 -1.002622917294502258e-01 8.815772831439971924e-02 1.133249420672655106e-02 -2.434219233691692352e-02 -1.239773929119110107e-01 1.637796871364116669e-02 1.131188645958900452e-01 1.747078895568847656e-01 4.283996671438217163e-02 -9.766564518213272095e-02 -5.703848972916603088e-02 1.832201331853866577e-02 1.842198967933654785e-01 1.323985494673252106e-02 5.764991790056228638e-02 1.073000486940145493e-02 -1.754690855741500854e-01 -5.720628052949905396e-02 -4.351594671607017517e-02 6.279422342777252197e-02 1.199262589216232300e-01 1.073045190423727036e-02 6.322786211967468262e-02 5.000159144401550293e-03 -1.480409502983093262e-01 -2.978948131203651428e-02 1.002352014183998108e-01 -1.400376409292221069e-01 -1.878898888826370239e-01 9.852288663387298584e-02 1.138336583971977234e-01 -2.213376574218273163e-02 5.514210090041160583e-02 2.910130321979522705e-01 -1.227721273899078369e-01 3.310507535934448242e-02 9.343009442090988159e-02 1.347879171371459961e-01 2.028224021196365356e-01 -3.113899938762187958e-02 -8.082416653633117676e-02 -8.188379928469657898e-03 1.706750839948654175e-01 -1.931854337453842163e-01 1.049588769674301147e-01 1.880202293395996094e-01 -6.858421117067337036e-02
-9.026761353015899658e-02 -1.024431437253952026e-01 -5.701082572340965271e-02 -1.078955680131912231e-01 -3.180664032697677612e-02 -5.299421772360801697e-02 -1.116562858223915100e-01 -2.025562711060047150e-02 -3.432062268257141113e-02 3.122407756745815277e-02 1.873131096363067627e-01 1.458449475467205048e-02 8.977242559194564819e-02 -4.761622287333011627e-03 1.087155491113662720e-01 -8.940178900957107544e-02 -3.336255252361297607e-02 2.360853925347328186e-02 -8.268109709024429321e-02 5.557089298963546753e-02 -6.930148601531982422e-02 2.346643507480621338e-01 -2.788226008415222168e-01 6.313651055097579956e-02 -2.195466309785842896e-02 2.063684016466140747e-01 -2.223266847431659698e-02 -1.339468359947204590e-01 3.004077076911926270e-02 -2.927148714661598206e-02 5.242342501878738403e-02 2.266002260148525238e-02 -4.085223004221916199e-02 1.635164320468902588e-01 -1.126321405172348022e-02 -1.703505218029022217e-01 -1.676275134086608887e-01 6.077488884329795837e-02 6.987839937210083008e-02 3.446269035339355469e-02 -6.861203908920288086e-02 9.016440063714981079e-02 -4.599191620945930481e-02 -2.070057950913906097e-02 1.723527535796165466e-02 1.667024791240692139e-01 -2.193943411111831665e-02 1.353743225336074829e-01 8.647187799215316772e-02 -5.603580549359321594e-02 1.228729784488677979e-01 -2.239570617675781250e-01 2.043732404708862305e-01 -1.870712637901306152e-01 -3.883333876729011536e-02 5.354685336351394653e-02 1.401232779026031494e-01 1.416976451873779297e-01 -6.737717241048812866e-02 -5.892674252390861511e-02 -1.015616357326507568e-01 3.836777061223983765e-02 8.161931484937667847e-02 -3.110435791313648224e-02 1.047466043382883072e-02 1.175967007875442505e-01 -6.780959665775299072e-02 2.173803299665451050e-01 -1.281386315822601318e-01 7.280621677637100220e-02 2.188244014978408813e-01 2.010830938816070557e-01 -5.499279499053955078e-02 -2.557964064180850983e-02 8.817642927169799805e-02 5.231856182217597961e-02 -9.969627857208251953e-02 6.530456244945526123e-02 -2.216818332672119141e-01 2.140255272388458252e-02 9.865037351846694946e-02 -5.995134636759757996e-02 -1.686111986637115479e-01 1.520045697689056396e-01 7.922862470149993896e-02 -1.583887487649917603e-01 6.947661284357309341e-03 1.119591519236564636e-01 9.978242963552474976e-02 1.633690893650054932e-01 1.263923496007919312e-01 -1.049741581082344055e-01 8.476969785988330841e-03 4.612528160214424133e-02 -8.257046341896057129e-02 -7.480414956808090210e-02 -1.210915744304656982e-01 -1.265709251165390015e-01 7.304768264293670654e-02 6.316963583230972290e-03 -1.918365359306335449e-01 -1.219644993543624878e-01 3.136233985424041748e-01 3.638668730854988098e-02 -1.352770160883665085e-02 -2.453729882836341858e-02 -1.124282479286193848e-01 1.528786718845367432e-01 1.853758841753005981e-01 -1.626953855156898499e-02 6.463396549224853516e-02 -3.186227381229400635e-02 8.966239541769027710e-02 1.682480983436107635e-02 4.638948664069175720e-02 2.240817062556743622e-02 1.589717864990234375e-01 1.025013104081153870e-01 -4.844811558723449707e-02 8.731602877378463745e-02 5.078935250639915466e-02 -5.517008714377880096e-03 2.994805574417114258e-02 1.786706745624542236e-01 -3.852357342839241028e-02 -9.146685153245925903e-02 -4.330608621239662170e-02 -2.660792320966720581e-02
4.853101074695587158e-02 -1.395138055086135864e-01 -1.300301868468523026e-02 7.794529944658279419e-02 1.026666834950447083e-01 -4.955017566680908203e-02 3.676725551486015320e-02 -7.477254420518875122e-02 1.020910311490297318e-02 4.544293880462646484e-02 -3.395851328969001770e-02 -4.304569214582443237e-02 -5.897823721170425415e-02 2.821260988712310791e-01 -1.196524426341056824e-01 3.361641615629196167e-02 -7.172922044992446899e-02 2.792401425540447235e-02 1.913899481296539307e-01 -4.100402817130088806e-02 8.238009177148342133e-03 1.639133691787719727e-01 -1.467947103083133698e-02 7.894041389226913452e-02 5.406537279486656189e-02 -5.992871709167957306e-03 6.785237789154052734e-02 -2.771302312612533569e-02 -5.490265786647796631e-02 -4.769106209278106689e-02 -1.021695416420698166e-02 -8.117897436022758484e-03 4.040681943297386169e-02 -4.605745151638984680e-02 -9.789605438709259033e-02 -2.629397809505462646e-01 -9.658946096897125244e-02 3.416373133659362793e-01 -1.392344385385513306e-01 3.740556836128234863e-01 -8.107326179742813110e-02 1.338056325912475586e-01 9.348598867654800415e-02 -9.218067675828933716e-02 -1.024172455072402954e-01 -3.644156455993652344e-02 1.112626641988754272e-01 1.677801758050918579e-01 -4.151171073317527771e-02 1.296442467719316483e-02 -2.479931861162185669e-01 2.139262296259403229e-02 1.354484558105468750e-01 -3.681195378303527832e-01 -9.648483246564865112e-02 -2.880246341228485107e-01 -1.400285512208938599e-01 1.029663160443305969e-01 1.714859157800674438e-02 1.082748770713806152e-01 6.427096575498580933e-02 5.062976479530334473e-01 -8.259461820125579834e-02 -9.039595723152160645e-02 -8.772520720958709717e-02 3.623868525028228760e-02 3.844625353813171387e-01 -1.300764232873916626e-01 -6.923210620880126953e-02 1.892025582492351532e-02 -1.549358814954757690e-01 -4.141801297664642334e-01 -7.054224610328674316e-03 1.846839860081672668e-02 -1.186243370175361633e-01 7.860444486141204834e-02 3.044700436294078827e-02 8.014327287673950195e-02 -3.910218551754951477e-02 7.164984941482543945e-02 -4.251848533749580383e-02 2.936174869537353516e-01 4.856743663549423218e-02 -1.654266864061355591e-01 1.465664505958557129e-01 -2.995915710926055908e-01 -6.991585716605186462e-03 -1.154467537999153137e-01 -4.433894529938697815e-02 3.971929103136062622e-02 2.399080246686935425e-01 -2.439300268888473511e-01 -1.300315856933593750e-01 2.197787165641784668e-02 1.684929803013801575e-02 -3.466819180175662041e-03 1.073361281305551529e-02 -1.846490241587162018e-02 -6.220405921339988708e-02 6.672434043139219284e-03 -9.308915585279464722e-02 7.312396913766860962e-02 1.285705119371414185e-01 1.777111887931823730e-01 2.733921073377132416e-02 3.324725031852722168e-01 -1.477710455656051636e-01 6.035196781158447266e-02 2.695460990071296692e-02 -3.492002934217453003e-02 5.388087406754493713e-02 8.883226662874221802e-02 -1.136114150285720825e-01 -5.783132463693618774e-02 1.152423471212387085e-01 -7.819224894046783447e-02 7.693167030811309814e-02 -2.050291597843170166e-01 -1.271478533744812012e-01 8.001293241977691650e-02 -1.923231780529022217e-02 -9.459008462727069855e-03 -1.322166323661804199e-01 9.519939124584197998e-02 -2.481948882341384888e-01 -5.869612842798233032e-02 1.389201730489730835e-01 -8.705443143844604492e-02
-7.565348595380783081e-02 7.638018578290939331e-02 5.087326280772686005e-03 3.022790327668190002e-02 1.630364358425140381e-02 4.982089698314666748e-01 -8.086626976728439331e-02 7.910306751728057861e-02 3.853467351291328669e-04 5.588218197226524353e-02 5.599983036518096924e-02 3.671498969197273254e-02 -4.504683613777160645e-02 1.165705323219299316e-01 7.303885370492935181e-02 1.333246231079101562e-01 7.487171888351440430e-02 2.547113411128520966e-02 -3.531933203339576721e-02 1.538108289241790771e-02 -9.545217454433441162e-02 2.059235051274299622e-02 8.551596105098724365e-02 -1.223249509930610657e-01 -4.441144317388534546e-02 4.097662493586540222e-02 6.814020127058029175e-02 -6.066949293017387390e-02 -1.227131187915802002e-01 1.348854899406433105e-01 -2.968814596533775330e-02 -5.855567753314971924e-03 -2.396438270807266235e-01 -1.128066927194595337e-01 -3.780806064605712891e-02 5.103769153356552124e-02 -4.606462642550468445e-02 8.466584980487823486e-02 4.155741930007934570e-01 -3.956980258226394653e-02 5.244337767362594604e-02 4.405152425169944763e-02 -6.563936173915863037e-02 1.874640397727489471e-02 1.014395803213119507e-01 -1.347256600856781006e-01 7.160329725593328476e-03 1.010580584406852722e-01 -1.987056732177734375e-01 7.071101665496826172e-02 8.216229826211929321e-02 -7.371863722801208496e-02 1.085089743137359619e-01 -5.229103192687034607e-02 -6.857277452945709229e-02 -1.795441359281539917e-01 4.243761301040649414e-02 -3.425298631191253662e-02 3.453988581895828247e-03 4.321407154202461243e-02 9.492426365613937378e-02 9.821780957281589508e-03 -1.608793437480926514e-01 -1.320492941886186600e-02 -9.024684131145477295e-02 -2.896695211529731750e-02 1.610812917351722717e-02 2.076633833348751068e-02 2.646728651598095894e-03 -7.535859942436218262e-02 6.242228671908378601e-02 2.629411965608596802e-02 -2.438465058803558350e-01 -2.190058119595050812e-02 -8.756718784570693970e-02 -1.068419516086578369e-01 1.680956184864044189e-01 1.063824519515037537e-01 -7.116194814443588257e-02 -6.041726469993591309e-02 -7.331986725330352783e-02 1.129983738064765930e-01 1.611059010028839111e-01 -1.131595298647880554e-01 -1.562321484088897705e-01 -7.172848284244537354e-02 4.434962570667266846e-02 4.333799332380294800e-02 -2.089998871088027954e-01 -2.459157630801200867e-02 -1.427015569061040878e-02 -4.319320619106292725e-02 -3.398654237389564514e-02 -4.654081165790557861e-02 6.424129009246826172e-02 -6.284574419260025024e-02 5.212812870740890503e-02 7.791245728731155396e-02 1.776652783155441284e-02 1.571675837039947510e-01 -2.807489223778247833e-02 -2.728866338729858398e-01 6.486067175865173340e-02 -7.488691806793212891e-02 -1.281794756650924683e-01 1.907524764537811279e-01 5.682677030563354492e-02 5.053257569670677185e-02 -1.340923309326171875e-01 -3.440272808074951172e-02 -1.157874315977096558e-01 -3.874665126204490662e-02 5.050577968358993530e-02 -5.579427629709243774e-02 -1.872226968407630920e-02 -2.256598696112632751e-02 -1.138191223144531250e-01 5.804002750664949417e-03 -1.410366892814636230e-01 4.220985341817140579e-03 4.493055865168571472e-02 3.824294358491897583e-02 -1.585303694009780884e-01 -2.113064937293529510e-02 6.422839313745498657e-02 1.051385402679443359e-01 9.237261861562728882e-02 5.874734744429588318e-02
-7.509960234165191650e-02 -1.819653809070587158e-02 3.257999569177627563e-02 1.939115673303604126e-01 1.486750990152359009e-01 1.112390533089637756e-01 -3.380663320422172546e-02 5.132951959967613220e-02 -1.884526573121547699e-02 -7.496797293424606323e-02 -1.421329677104949951e-01 4.058094322681427002e-02 -1.409457717090845108e-02 1.405564397573471069e-01 1.673239171504974365e-01 3.623369336128234863e-02 1.119962260127067566e-01 -7.249495387077331543e-02 -6.370931863784790039e-02 8.794549107551574707e-02 -2.249583788216114044e-02 -1.158417835831642151e-01 2.865401841700077057e-02 -2.228358015418052673e-02 1.440097228623926640e-03 7.911390811204910278e-02 5.588491261005401611e-02 -9.218291193246841431e-02 -9.290787577629089355e-02 1.067122817039489746e-02 1.518692728132009506e-02 3.439440950751304626e-02 7.798653841018676758e-02 -2.833687700331211090e-03 6.020063906908035278e-02 2.580031752586364746e-01 8.900759741663932800e-03 -9.000229835510253906e-02 6.398952752351760864e-02 -4.012908786535263062e-02 -2.365208603441715240e-02 -3.212419524788856506e-02 -1.497367024421691895e-01 -6.136955320835113525e-02 8.555407822132110596e-02 -3.978451341390609741e-02 -2.245279960334300995e-02 1.913864463567733765e-01 -3.247511386871337891e-01 5.526701733469963074e-02 -1.501285880804061890e-01 4.174860194325447083e-02 7.048989087343215942e-02 2.086804248392581940e-02 -3.613448888063430786e-02 -9.890998154878616333e-02 -3.539248928427696228e-02 -5.443270877003669739e-02 2.203318923711776733e-01 -8.058250695466995239e-02 -1.268344074487686157e-01 9.415395557880401611e-02 -1.595620810985565186e-01 -2.371104247868061066e-02 5.682482197880744934e-02 1.097316071391105652e-01 2.913024127483367920e-01 -1.583779752254486084e-01 1.183907035738229752e-02 -4.694049432873725891e-02 -1.507872790098190308e-01 -2.007222771644592285e-01 -2.086656093597412109e-01 -9.946816600859165192e-03 8.173498511314392090e-02 -1.039011552929878235e-01 4.877800121903419495e-02 1.775062978267669678e-01 1.061108112335205078e-01 -1.453975774347782135e-02 -1.085169464349746704e-01 5.858575552701950073e-02 2.760297991335391998e-02 -6.789357960224151611e-02 3.650291636586189270e-02 -2.029235288500785828e-02 1.122189238667488098e-01 -7.735419273376464844e-02 1.883523166179656982e-02 1.966071687638759613e-02 -1.920312084257602692e-02 -1.414683759212493896e-01 4.985334351658821106e-02 6.499885767698287964e-02 -4.028166085481643677e-02 4.286904633045196533e-02 9.931003302335739136e-02 -7.665725797414779663e-02 6.174712628126144409e-02 1.978026703000068665e-03 9.569011628627777100e-02 4.413926973938941956e-02 -9.965322911739349365e-02 -3.071858733892440796e-02 -4.373046569526195526e-03 2.499993890523910522e-01 -5.380649119615554810e-03 7.599484175443649292e-02 2.868109345436096191e-01 -2.295754849910736084e-02 2.820047922432422638e-02 -1.108771469444036484e-02 1.288513280451297760e-02 -4.116946831345558167e-02 1.016241908073425293e-01 1.603595763444900513e-01 -2.729706931859254837e-03 8.418000303208827972e-03 -6.857988983392715454e-02 -2.974842675030231476e-02 1.149126235395669937e-02 1.167348399758338928e-01 -1.508430391550064087e-02 1.295952200889587402e-01 3.489818423986434937e-02 -6.808543950319290161e-02 8.968956768512725830e-02 -6.511510908603668213e-02
-7.755651324987411499e-02 -1.232824549078941345e-01 3.233560919761657715e-01 1.793782785534858704e-02 6.520131230354309082e-02 9.282454848289489746e-02 4.291692748665809631e-02 8.291497081518173218e-02 3.055773377418518066e-01 -9.286300092935562134e-02 5.824155732989311218e-02 -7.577776163816452026e-02 5.458554625511169434e-02 -2.100533060729503632e-02 -1.209716685116291046e-02 -8.649984002113342285e-02 -1.216416247189044952e-02 -6.746610999107360840e-02 -1.962928771972656250e-01 -6.619014590978622437e-02 3.192560374736785889e-01 9.018781781196594238e-02 -9.410700201988220215e-02 -4.010017514228820801e-01 -7.485931273549795151e-03 8.761058747768402100e-02 8.654721081256866455e-02 -1.536625344306230545e-02 1.857011169195175171e-01 1.192269697785377502e-01 3.438110053539276123e-01 2.673538401722908020e-02 -8.164100348949432373e-02 -7.962676137685775757e-02 1.136914566159248352e-01 1.090967133641242981e-01 6.201992556452751160e-02 8.032444864511489868e-02 -1.327970065176486969e-03 -2.810559980571269989e-02 6.155812740325927734e-01 -4.059534147381782532e-02 -1.451648473739624023e-01 -8.586046099662780762e-02 7.199366390705108643e-02 5.731475353240966797e-01 7.071536779403686523e-02 -9.802670031785964966e-02 5.201102793216705322e-02 2.015152275562286377e-01 6.872335821390151978e-02 1.852429062128067017e-01 -7.085536420345306396e-02 -7.855916023254394531e-02 -1.950000673532485962e-01 -1.933499723672866821e-01 -6.668363511562347412e-02 -5.434165522456169128e-02 -1.165631785988807678e-01 7.913698256015777588e-02 1.047461032867431641e-01 8.779241889715194702e-02 -1.047360803931951523e-02 -6.026661396026611328e-02 -7.582069933414459229e-02 -2.022156864404678345e-02 -4.128552973270416260e-01 6.693685054779052734e-02 -1.647987514734268188e-01 5.940616130828857422e-02 6.929787807166576385e-03 -2.302947081625461578e-02 6.015101447701454163e-02 -8.450816571712493896e-02 5.737199187278747559e-01 2.314611971378326416e-01 -2.037801891565322876e-01 2.235193997621536255e-01 -3.642829135060310364e-03 2.558994591236114502e-01 -2.179101295769214630e-02 9.624430537223815918e-02 1.493736356496810913e-01 -1.091716811060905457e-01 2.918541133403778076e-01 5.521973967552185059e-02 -1.277669370174407959e-01 -1.231173425912857056e-01 4.063694737851619720e-03 9.552696347236633301e-02 -1.246656849980354309e-02 -1.015776768326759338e-01 -6.441898643970489502e-02 4.443794116377830505e-02 6.276070326566696167e-02 -1.769866049289703369e-01 2.349726669490337372e-02 -1.091618314385414124e-01 -9.530448168516159058e-02 -4.044801741838455200e-02 1.209035143256187439e-02 9.989494830369949341e-02 1.424344927072525024e-01 -2.433099597692489624e-01 -9.447147697210311890e-02 -4.156993627548217773e-01 -2.969632148742675781e-01 -1.033886075019836426e-01 3.408351913094520569e-02 7.242483645677566528e-02 5.883287265896797180e-02 -2.322757430374622345e-02 -1.089932173490524292e-01 -4.105167090892791748e-02 1.080783680081367493e-01 -7.724563125520944595e-03 -1.501618325710296631e-02 3.957245945930480957e-01 4.288661777973175049e-01 6.206429600715637207e-01 -3.026503138244152069e-02 1.816438697278499603e-02 -1.613188348710536957e-02 5.012214183807373047e-03 -1.643765121698379517e-01 -1.602848619222640991e-01 3.797716647386550903e-02 1.590908765792846680e-01
6.581199914216995239e-02 5.481734871864318848e-02 -8.465545624494552612e-02 -2.991963028907775879e-01 -1.241067424416542053e-02 -1.737574040889739990e-01 -4.409942775964736938e-02 3.589032590389251709e-02 5.131830694153904915e-04 2.948098070919513702e-02 -2.518162503838539124e-02 -3.967366740107536316e-02 4.482639953494071960e-02 -1.035671606659889221e-01 -1.116201467812061310e-02 1.436236351728439331e-01 7.435238920152187347e-03 -2.896696031093597412e-01 -8.501880615949630737e-02 -4.451519623398780823e-02 -9.648847579956054688e-02 7.274174690246582031e-02 -4.191782474517822266e-01 1.199408695101737976e-01 -6.918693333864212036e-02 5.443066358566284180e-01 1.027661841362714767e-02 8.507127314805984497e-02 -3.586862701922655106e-03 7.871481031179428101e-02 1.162652298808097839e-01 6.598852574825286865e-02 -7.354731112718582153e-02 2.610429003834724426e-02 1.826990693807601929e-01 -2.462948113679885864e-01 -2.234072089195251465e-01 -2.795537710189819336e-01 -1.058871857821941376e-02 2.551852762699127197e-01 -4.511610418558120728e-02 1.830583363771438599e-01 4.935389384627342224e-02 5.225567892193794250e-02 -2.186841517686843872e-01 1.722298376262187958e-02 1.371844559907913208e-01 -1.021339818835258484e-01 4.962336644530296326e-02 1.656512171030044556e-01 5.371314883232116699e-01 -1.238080412149429321e-01 4.579164385795593262e-01 2.486242800951004028e-01 -4.243625700473785400e-02 -1.547579467296600342e-01 -4.248476028442382812e-02 -8.856371790170669556e-02 5.704749003052711487e-02 -1.634485460817813873e-02 -9.394042193889617920e-02 -4.374925196170806885e-01 3.491910174489021301e-02 3.883331269025802612e-02 1.473965793848037720e-01 -4.771778732538223267e-02 -7.277243584394454956e-02 1.510332711040973663e-02 -9.678326547145843506e-02 -1.065029352903366089e-01 2.232821583747863770e-01 2.301066070795059204e-01 4.709343984723091125e-02 -5.575580894947052002e-02 1.814747303724288940e-01 9.348432533442974091e-03 1.051627099514007568e-01 3.461686670780181885e-01 -2.342223003506660461e-02 -5.114717409014701843e-03 -6.291484087705612183e-02 -2.175418138504028320e-01 2.228907868266105652e-02 -4.069266840815544128e-02 9.222565591335296631e-02 -8.654902875423431396e-02 1.156693026423454285e-01 2.210448533296585083e-01 -1.722078025341033936e-01 3.884900361299514771e-02 3.738657832145690918e-01 -7.658790051937103271e-02 3.693936159834265709e-03 4.833192750811576843e-02 -2.896722406148910522e-02 4.437870159745216370e-02 8.523460477590560913e-03 -1.653172820806503296e-02 -3.179046809673309326e-01 -4.374037384986877441e-01 -5.186880230903625488e-01 -1.708854138851165771e-01 4.082950297743082047e-03 -3.821724057197570801e-01 -9.676281362771987915e-02 1.557345837354660034e-01 -3.263498842716217041e-02 -1.529143005609512329e-01 2.055168747901916504e-01 3.904831409454345703e-02 -4.576953351497650146e-01 1.857733726501464844e-01 2.471010200679302216e-02 2.473483979701995850e-02 3.512326627969741821e-03 -1.272628456354141235e-02 -3.887055069208145142e-02 1.120185106992721558e-01 -1.005984172224998474e-01 -5.721892416477203369e-02 -3.152810409665107727e-02 2.144667059183120728e-01 6.633549463003873825e-03 -8.219491690397262573e-02 -2.874908596277236938e-02 -1.763497740030288696e-01 4.522235393524169922e-01 -2.255890071392059326e-01
-5.504679307341575623e-02 4.803981259465217590e-02 4.856690391898155212e-02 3.111088182777166367e-03 -3.922798484563827515e-02 -6.801704317331314087e-02 2.832857705652713776e-02 8.695301949046552181e-04 -1.655050665140151978e-01 6.647614063695073128e-04 -7.693473994731903076e-02 -3.986947238445281982e-02 1.390375476330518723e-02 -3.835774213075637817e-02 -1.298524737358093262e-01 -7.033779472112655640e-02 6.377349607646465302e-03 7.515817135572433472e-02 -5.550257489085197449e-02 -5.191126838326454163e-02 1.574570387601852417e-01 -8.160902559757232666e-02 -1.353037450462579727e-02 1.395947858691215515e-02 8.258873596787452698e-03 -1.578277796506881714e-01 8.791793137788772583e-02 1.963215135037899017e-02 1.503178179264068604e-01 2.918350137770175934e-02 1.567001640796661377e-02 2.562604658305644989e-02 -2.243451029062271118e-02 8.847381919622421265e-02 -8.768686652183532715e-02 -1.485693007707595825e-01 5.458208546042442322e-02 1.091328356415033340e-02 -7.925768196582794189e-02 -1.209040135145187378e-01 1.023081541061401367e-01 1.102958619594573975e-01 -5.964011885225772858e-03 -6.238499283790588379e-02 -2.016208134591579437e-02 -3.539357334375381470e-02 2.713273093104362488e-02 1.666730269789695740e-02 2.261272445321083069e-02 2.353987097740173340e-02 -1.028098464012145996e-01 4.276431351900100708e-02 -3.076571784913539886e-02 1.799922436475753784e-02 -7.622056454420089722e-02 8.495806157588958740e-02 6.075245141983032227e-02 -1.942244917154312134e-02 -5.928288400173187256e-02 -2.167716249823570251e-02 -2.452126145362854004e-02 2.690009400248527527e-02 -8.441838622093200684e-02 2.114559290930628777e-03 -2.659711521118879318e-03 3.402870893478393555e-02 2.666714834049344063e-03 1.913587898015975952e-01 -2.516914904117584229e-02 -1.078208722174167633e-02 5.994472280144691467e-02 -1.270544994622468948e-02 5.782322026789188385e-03 2.852306887507438660e-02 1.254216134548187256e-01 2.131906002759933472e-01 -8.914625644683837891e-02 2.253589928150177002e-01 -1.240938007831573486e-01 -5.881705507636070251e-02 -1.855066865682601929e-01 -4.612848535180091858e-02 -4.377842321991920471e-02 -4.458525683730840683e-03 3.364021703600883484e-02 1.345466673374176025e-01 -3.311206400394439697e-02 -1.417474299669265747e-01 -1.429797559976577759e-01 1.254898458719253540e-01 8.700019866228103638e-02 8.868028223514556885e-02 -1.514251157641410828e-02 -1.243672706186771393e-02 6.262136250734329224e-02 1.068602725863456726e-01 -2.887375839054584503e-02 -1.397323459386825562e-01 1.049700677394866943e-01 -1.495875120162963867e-01 1.684261709451675415e-01 2.214470133185386658e-02 -3.471273556351661682e-02 -5.224682763218879700e-02 -1.302870959043502808e-01 6.476669758558273315e-02 -6.161558441817760468e-03 -5.406306684017181396e-02 -8.990876376628875732e-02 1.382199861109256744e-02 -5.712153017520904541e-02 -6.470900774002075195e-02 3.509885817766189575e-02 9.106636047363281250e-02 -1.383744329214096069e-01 -4.806376248598098755e-02 -1.079876720905303955e-02 6.995017081499099731e-02 8.319955319166183472e-02 2.844507247209548950e-02 -4.833571612834930420e-02 -7.003845274448394775e-02 -6.955010443925857544e-02 -1.503748595714569092e-01 3.428648412227630615e-02 3.724459186196327209e-02 1.071960777044296265e-01 9.517917782068252563e-02
6.180913373827934265e-02 1.604451388120651245e-01 1.970177516341209412e-02 1.117752343416213989e-01 5.389982461929321289e-02 -2.776000183075666428e-03 -1.322506815195083618e-01 1.643880642950534821e-02 -1.543789654970169067e-01 -6.389279663562774658e-02 3.782917931675910950e-02 1.167093738913536072e-01 1.668057218194007874e-02 -1.021092236042022705e-01 1.524976920336484909e-02 -3.860000148415565491e-02 5.149419978260993958e-02 3.994414210319519043e-02 1.054103951901197433e-02 -1.187540516257286072e-01 3.079854883253574371e-03 -1.037699133157730103e-01 -1.004499867558479309e-01 4.560385644435882568e-02 -3.084116429090499878e-02 5.764048546552658081e-02 -3.699994459748268127e-02 4.690913949161767960e-03 -1.251665502786636353e-01 -1.018505915999412537e-01 1.946629397571086884e-02 3.323653712868690491e-03 1.390165276825428009e-02 4.274187609553337097e-02 5.821067467331886292e-02 1.306054592132568359e-01 2.731422707438468933e-02 1.165985688567161560e-01 -1.240454427897930145e-02 4.818573221564292908e-02 1.450027376413345337e-01 9.134864062070846558e-02 -9.760530665516853333e-03 6.830958276987075806e-02 -3.611886128783226013e-02 -8.550331927835941315e-03 1.893671788275241852e-02 8.053829520940780640e-02 -5.124502629041671753e-02 4.608383774757385254e-02 2.966703847050666809e-02 -5.610915273427963257e-02 7.953456789255142212e-02 -2.688673697412014008e-02 9.689912199974060059e-03 -1.303920596837997437e-01 1.117794290184974670e-01 4.339088872075080872e-02 3.431710973381996155e-02 1.008465811610221863e-01 -1.699500530958175659e-01 1.126452814787626266e-02 7.101967930793762207e-02 -1.974940747022628784e-01 -4.843365866690874100e-03 6.463079154491424561e-02 -3.581648692488670349e-02 9.826140850782394409e-02 -2.305907011032104492e-02 1.341425627470016479e-01 -8.545974642038345337e-02 -6.418012827634811401e-02 6.861033290624618530e-02 -4.335780069231987000e-02 2.244317531585693359e-02 -1.892779767513275146e-01 1.627513468265533447e-01 4.596001468598842621e-03 -7.138174772262573242e-02 1.614506095647811890e-01 -2.406835928559303284e-02 4.563502501696348190e-03 7.117953151464462280e-02 7.684602588415145874e-02 5.380356218665838242e-03 1.011138930916786194e-01 -3.548195958137512207e-02 -4.092055559158325195e-02 3.041458148800302297e-05 -5.157099291682243347e-02 -8.788298815488815308e-02 6.833682209253311157e-02 7.037030160427093506e-02 -1.061848402023315430e-01 -3.241884708404541016e-02 -5.582211539149284363e-02 4.619090631604194641e-02 -4.868167266249656677e-02 1.066788360476493835e-01 4.412918165326118469e-02 4.398067295551300049e-02 -1.454948633909225464e-01 9.565629879944026470e-04 -8.152010291814804077e-02 8.079407364130020142e-02 -3.977579250931739807e-02 1.213083788752555847e-01 3.348331898450851440e-02 4.553348198533058167e-02 -2.145653776824474335e-02 1.130784675478935242e-01 -8.649115264415740967e-02 -1.591918244957923889e-02 5.591613799333572388e-02 -5.474830046296119690e-02 -3.559864312410354614e-02 2.808998338878154755e-02 -1.741314539685845375e-03 8.846438676118850708e-02 -2.289582975208759308e-02 5.876894667744636536e-02 1.251120492815971375e-02 -1.120318174362182617e-01 1.112940814346075058e-02 -8.936557173728942871e-02 9.404827654361724854e-02 -4.283902049064636230e-02 5.122260004281997681e-02
2.003071643412113190e-02 8.384480327367782593e-02 -3.732902184128761292e-02 -5.338001251220703125e-02 -2.908857911825180054e-02 -1.916901916265487671e-01 7.371646910905838013e-02 -8.683441579341888428e-02 5.741714686155319214e-02 6.874933093786239624e-02 3.670471906661987305e-02 -2.178314328193664551e-02 1.231521517038345337e-01 -2.104345113039016724e-01 1.702957898378372192e-01 1.368128210306167603e-01 -1.282032281160354614e-01 -7.997733540832996368e-03 -8.427143096923828125e-02 5.351712182164192200e-02 -1.991849765181541443e-02 -2.282339483499526978e-01 -2.259910106658935547e-01 -1.210750117897987366e-01 -3.622596338391304016e-02 -1.694651395082473755e-01 6.120183691382408142e-02 1.161038409918546677e-02 1.510362047702074051e-02 -2.783265896141529083e-02 -6.367348879575729370e-02 -3.256774321198463440e-02 2.140197157859802246e-02 -7.568026334047317505e-02 4.054802411701530218e-04 8.059266954660415649e-02 7.120659947395324707e-02 -4.096505343914031982e-01 -2.256836555898189545e-02 6.631797552108764648e-02 1.085785031318664551e-02 -1.110064703971147537e-02 6.465613842010498047e-02 4.238989576697349548e-02 4.616814851760864258e-02 -1.701440662145614624e-01 -5.463202297687530518e-02 -2.912733517587184906e-02 6.332673598080873489e-03 -2.656915485858917236e-01 -2.810611575841903687e-02 1.065906137228012085e-01 -7.964200526475906372e-02 3.214364945888519287e-01 9.078581817448139191e-03 1.965374872088432312e-02 -1.471945941448211670e-01 -4.685032740235328674e-02 -2.606697678565979004e-01 -1.644272804260253906e-01 -9.393778443336486816e-02 -1.244940757751464844e-01 -2.829017490148544312e-02 9.372547268867492676e-02 -1.293795853853225708e-01 7.716832216829061508e-03 1.168061643838882446e-01 1.182207986712455750e-01 2.826146036386489868e-02 -2.885792963206768036e-02 4.426618814468383789e-01 -7.466763257980346680e-02 1.785559654235839844e-01 1.555593460798263550e-01 -8.029020577669143677e-02 -2.610563933849334717e-01 -3.038472309708595276e-02 6.924071907997131348e-02 -1.747826784849166870e-01 -1.741179972887039185e-01 -1.066178549081087112e-03 1.092777028679847717e-01 4.921012092381715775e-03 2.752814888954162598e-01 -2.565447688102722168e-01 1.031830674037337303e-03 2.165680937469005585e-02 -3.376648426055908203e-01 -1.222098097205162048e-01 1.256922334432601929e-01 -2.828527987003326416e-01 3.603860735893249512e-02 4.470090568065643311e-02 7.791666686534881592e-02 7.059593498706817627e-02 7.915790379047393799e-02 -3.566833212971687317e-02 1.535805501043796539e-02 1.593056917190551758e-01 3.972403705120086670e-03 1.296205222606658936e-01 8.684988133609294891e-03 -2.664923854172229767e-02 -1.326263248920440674e-01 1.134171616286039352e-02 -5.220860987901687622e-02 2.269768528640270233e-02 1.189311966300010681e-01 -1.129200458526611328e-01 -6.733994930982589722e-02 1.327048093080520630e-01 -1.401431709527969360e-01 7.249279320240020752e-02 6.116470694541931152e-02 5.333461984992027283e-02 -1.555548012256622314e-01 5.019393563270568848e-02 -5.609757266938686371e-03 1.339459419250488281e-01 1.316496282815933228e-01 6.196570396423339844e-02 1.913303583860397339e-01 -9.765952825546264648e-02 -2.683180868625640869e-01 -2.616018801927566528e-02 -6.538109481334686279e-02 1.957017229869961739e-03 -2.643764577805995941e-02
3.222828730940818787e-03 3.495928645133972168e-02 -9.550572931766510010e-02 1.663847710005939007e-03 4.395202919840812683e-02 1.040895581245422363e-01 -1.589389294385910034e-01 4.345495253801345825e-02 -8.824779838323593140e-02 -9.001653641462326050e-02 6.484168022871017456e-02 1.125538349151611328e-01 -1.042478755116462708e-01 -7.236670237034559250e-03 1.016399040818214417e-01 -1.411821097135543823e-01 2.222191393375396729e-01 -7.062395662069320679e-02 4.400669597089290619e-03 2.943530865013599396e-02 5.599470809102058411e-02 2.243283838033676147e-01 -1.618187315762042999e-02 -1.006105616688728333e-01 4.220092296600341797e-02 -1.907772272825241089e-01 -2.275728136301040649e-01 -3.575849160552024841e-02 1.538934279233217239e-02 -8.071143180131912231e-02 5.192563682794570923e-02 1.635280251502990723e-02 4.457673430442810059e-02 -8.153019589371979237e-04 8.777330070734024048e-02 -9.327569603919982910e-02 2.336344420909881592e-01 3.203057348728179932e-01 -3.728668764233589172e-02 -3.861571550369262695e-01 4.324014857411384583e-02 -5.256310477852821350e-02 -3.413679823279380798e-02 1.419284194707870483e-01 -1.486768946051597595e-02 1.684988886117935181e-01 2.597754821181297302e-02 3.233893811702728271e-01 -1.580182164907455444e-01 -1.885785758495330811e-01 -1.088965237140655518e-01 -1.178461909294128418e-01 6.747790426015853882e-02 -3.486260473728179932e-01 -4.551683738827705383e-02 -1.940732896327972412e-01 6.162287294864654541e-02 3.757682070136070251e-02 -1.504160165786743164e-01 2.027706950902938843e-01 9.303308278322219849e-02 4.745246171951293945e-01 -7.404398918151855469e-02 -3.286413252353668213e-01 -1.380823105573654175e-01 -4.173892084509134293e-03 2.996331267058849335e-02 3.199122473597526550e-02 4.793950915336608887e-02 -4.520592838525772095e-02 -6.253145635128021240e-02 -1.573360562324523926e-01 -1.170421168208122253e-01 2.878808602690696716e-02 1.076580956578254700e-01 2.367551624774932861e-02 3.770509362220764160e-02 6.933098286390304565e-02 2.395373731851577759e-01 1.352397166192531586e-02 -1.481635421514511108e-01 -9.901949018239974976e-02 1.513791382312774658e-01 -4.040128551423549652e-03 7.578184455633163452e-02 -1.377981901168823242e-01 1.426110789179801941e-02 4.826657846570014954e-02 -5.127397552132606506e-02 7.524044066667556763e-02 3.789946064352989197e-02 -1.009286418557167053e-01 1.622709073126316071e-02 -1.835862249135971069e-01 -3.542210208252072334e-03 -4.502870514988899231e-02 -2.149819433689117432e-01 5.474244430661201477e-02 5.424779057502746582e-01 -8.759762346744537354e-02 2.380329743027687073e-02 8.287870883941650391e-02 7.844504714012145996e-02 2.450140416622161865e-01 -9.620331972837448120e-02 1.876370608806610107e-01 -5.641737952828407288e-02 -4.118788987398147583e-02 -1.961190812289714813e-02 -2.057021483778953552e-02 -1.611329317092895508e-01 4.391316697001457214e-02 7.446017861366271973e-02 1.429986208677291870e-01 -1.295005232095718384e-01 1.064302921295166016e-01 1.418110281229019165e-01 1.212696135044097900e-01 2.669799514114856720e-02 5.879836902022361755e-02 6.861486285924911499e-02 -1.145560517907142639e-01 -1.569683104753494263e-01 1.802989393472671509e-01 -5.729320459067821503e-03 -5.224008113145828247e-02 -2.054194360971450806e-01 -2.072884738445281982e-01
9.264545142650604248e-02 3.462341800332069397e-02 8.273858577013015747e-02 -1.866123676300048828e-01 2.292006742209196091e-03 1.162367314100265503e-01 -1.076601594686508179e-01 1.983154378831386566e-02 -2.891314961016178131e-02 7.393054198473691940e-03 -3.432242199778556824e-02 -1.660573482513427734e-02 -1.001377031207084656e-02 -6.187434121966362000e-02 -1.128301396965980530e-02 -3.514705970883369446e-02 -3.017631825059652328e-03 -6.475686281919479370e-02 4.954154491424560547e-01 -7.691225409507751465e-02 1.158576831221580505e-01 1.134801208972930908e-01 2.206687815487384796e-02 2.637033462524414062e-01 -1.271582115441560745e-02 5.902223289012908936e-02 5.053078755736351013e-02 4.364035651087760925e-02 2.591330185532569885e-02 4.887925833463668823e-02 -1.409646123647689819e-01 1.018752455711364746e-01 6.627028435468673706e-02 -3.692334517836570740e-02 3.160275518894195557e-03 -1.148536894470453262e-02 -1.560907214879989624e-01 8.223438262939453125e-02 -2.804789505898952484e-02 6.356507539749145508e-02 1.132527459412813187e-02 -2.308645546436309814e-01 1.078117787837982178e-01 -5.949741974472999573e-02 3.597334399819374084e-02 -8.992682397365570068e-02 1.045281141996383667e-01 -1.106379330158233643e-01 1.352390795946121216e-01 1.782970428466796875e-01 -2.287870645523071289e-02 4.271610174328088760e-03 1.457136124372482300e-01 -3.586865365505218506e-01 1.579374261200428009e-02 -4.593037441372871399e-02 -7.359735667705535889e-02 9.192454162985086441e-04 -8.821085840463638306e-02 -6.088199093937873840e-02 5.557803064584732056e-02 2.864085435867309570e-01 2.382747270166873932e-02 -6.705284118652343750e-02 8.691078424453735352e-02 -8.951720595359802246e-02 1.331804413348436356e-02 -7.800566405057907104e-02 1.420833449810743332e-02 -6.594809144735336304e-02 -4.567556083202362061e-02 1.649946868419647217e-01 -5.310794338583946228e-03 -6.935228407382965088e-02 -1.201531812548637390e-01 -6.651485338807106018e-03 -1.752411201596260071e-02 -2.099028378725051880e-01 1.378195919096469879e-02 1.410223990678787231e-01 -9.326137602329254150e-02 -9.856806695461273193e-02 -5.543423444032669067e-02 -7.344015687704086304e-02 -1.624577194452285767e-01 -1.768526881933212280e-01 6.302504986524581909e-02 1.092927455902099609e-01 2.697340250015258789e-01 3.087064065039157867e-02 7.406238000839948654e-03 4.289631545543670654e-02 -1.108593493700027466e-01 -1.874714531004428864e-02 -1.183293461799621582e-01 -1.415487378835678101e-01 9.911186248064041138e-02 -1.034783720970153809e-01 -3.308589756488800049e-01 -6.972243636846542358e-02 -1.441523730754852295e-01 5.347935482859611511e-03 -1.620407998561859131e-01 -7.941286265850067139e-02 -1.462625563144683838e-01 3.520089015364646912e-02 -1.282648532651364803e-03 -3.345342352986335754e-02 -1.937039569020271301e-02 -1.196856424212455750e-02 5.969937890768051147e-02 -3.450135514140129089e-02 5.804928392171859741e-02 -2.765670232474803925e-02 2.074051797389984131e-01 5.435615032911300659e-02 4.180050268769264221e-02 -4.199019819498062134e-02 1.551521867513656616e-01 4.292555898427963257e-02 3.163126111030578613e-02 1.319835986942052841e-02 -2.299837768077850342e-02 7.048751413822174072e-02 -5.446467921137809753e-02 -2.100272476673126221e-02 -1.128711551427841187e-01 -2.042468935251235962e-01
5.772555619478225708e-02 4.487270116806030273e-02 5.124624073505401611e-02 -5.372053757309913635e-02 8.909343183040618896e-02 -2.527717947959899902e-01 4.246881604194641113e-02 -6.165825761854648590e-03 -3.237536922097206116e-02 -7.485263049602508545e-02 -9.624496102333068848e-02 -8.475504815578460693e-02 -1.382138230837881565e-03 -3.478876873850822449e-02 -1.338033825159072876e-01 -3.769787028431892395e-02 1.075838953256607056e-01 1.136493775993585587e-02 -4.195948317646980286e-02 2.236171066761016846e-02 -3.377734497189521790e-02 1.163527816534042358e-01 1.299183964729309082e-01 2.098284810781478882e-01 3.434530273079872131e-02 6.577798724174499512e-02 -1.212825551629066467e-01 -6.968384981155395508e-02 6.374163925647735596e-02 5.137031525373458862e-02 -8.341922610998153687e-02 4.547201097011566162e-03 -1.550938468426465988e-02 -1.712220311164855957e-01 9.615567326545715332e-02 -7.827666401863098145e-02 -1.175940223038196564e-02 6.514618173241615295e-03 -2.206262648105621338e-01 -1.150604039430618286e-01 2.556539475917816162e-01 1.110931038856506348e-01 -4.816388711333274841e-02 -1.136710345745086670e-01 1.488605886697769165e-01 1.145280376076698303e-01 5.347650870680809021e-02 2.865066938102245331e-02 7.861750572919845581e-02 -1.480191498994827271e-01 -6.024506688117980957e-02 1.184111833572387695e-01 9.842814505100250244e-02 9.021711349487304688e-02 -2.337291464209556580e-02 -2.696359343826770782e-02 1.447455286979675293e-01 -9.667462855577468872e-02 9.388612955808639526e-02 -1.848020106554031372e-01 1.077343150973320007e-01 8.160356432199478149e-03 6.891179084777832031e-02 -1.138767972588539124e-01 1.020024716854095459e-01 -4.824346676468849182e-02 -1.767972260713577271e-01 6.269183009862899780e-02 -7.680861651897430420e-02 -6.241530552506446838e-02 5.346499383449554443e-02 -6.160988472402095795e-03 -7.189550250768661499e-02 7.503861561417579651e-03 5.956202372908592224e-02 -1.293765604496002197e-01 -1.149436980485916138e-01 8.663544431328773499e-04 -9.766574017703533173e-03 -2.194039896130561829e-02 -6.591194123029708862e-02 7.159791886806488037e-02 2.746898680925369263e-02 3.304234519600868225e-02 1.050908342003822327e-01 1.671740114688873291e-01 -3.873445466160774231e-02 1.716621592640876770e-02 8.468096703290939331e-02 4.477435350418090820e-02 -2.016352266073226929e-01 6.393671780824661255e-02 -1.693696677684783936e-01 -3.301711007952690125e-02 6.749080866575241089e-02 -3.027005307376384735e-02 1.834695972502231598e-02 -3.909110277891159058e-02 -2.089415639638900757e-01 -1.808632165193557739e-01 -8.271425962448120117e-03 -1.146843563765287399e-02 -1.290188878774642944e-01 -9.572844207286834717e-02 -1.826275885105133057e-02 -6.347383372485637665e-03 1.309405118227005005e-01 1.990990340709686279e-02 2.465576976537704468e-01 -1.167929992079734802e-01 8.103740960359573364e-02 2.509342506527900696e-02 1.761355847120285034e-01 -1.048828437924385071e-01 1.070401072502136230e-01 2.353985309600830078e-01 -8.383158594369888306e-02 -5.888940021395683289e-02 2.770814113318920135e-02 1.056693401187658310e-02 -5.110917612910270691e-02 -1.543706059455871582e-01 1.267992518842220306e-02 -1.029584258794784546e-01 -1.888508200645446777e-01 -1.027888208627700806e-01 -2.843986451625823975e-02 5.600891634821891785e-02
-3.631044551730155945e-02 -3.989121317863464355e-02 -2.500590868294239044e-02 -1.039441302418708801e-01 3.419756889343261719e-02 4.585721343755722046e-02 4.635374993085861206e-03 -8.308139629662036896e-03 2.046897821128368378e-02 -5.491374805569648743e-02 -4.179317131638526917e-02 -2.687524072825908661e-02 5.180589109659194946e-02 -2.426243573427200317e-02 3.921961411833763123e-02 -5.745329707860946655e-02 -6.516426801681518555e-02 -7.958012819290161133e-02 -1.874399557709693909e-02 3.962543234229087830e-02 5.374582111835479736e-02 6.804287433624267578e-02 1.358589995652437210e-02 -8.244255185127258301e-02 5.474435538053512573e-02 -2.561918459832668304e-02 1.281412094831466675e-01 -4.935119673609733582e-02 1.028893813490867615e-01 -1.835493184626102448e-02 -8.271817117929458618e-02 -4.995670914649963379e-02 2.642799541354179382e-02 -2.611247450113296509e-02 2.399394661188125610e-02 6.539118289947509766e-02 -2.154729142785072327e-02 1.087210625410079956e-01 1.663994975388050079e-02 2.676422521471977234e-02 -2.519751340150833130e-02 9.021081030368804932e-02 7.446207106113433838e-02 5.125633627176284790e-02 -9.563420712947845459e-02 1.224734541028738022e-02 1.395736634731292725e-01 -8.904082700610160828e-03 -2.443597093224525452e-02 -4.706654697656631470e-02 4.497526586055755615e-02 -7.726031821221113205e-03 -4.883046448230743408e-02 5.432689189910888672e-02 -2.927356958389282227e-02 -8.314793929457664490e-03 -6.763627380132675171e-02 1.509081423282623291e-01 6.446465104818344116e-02 -8.712635934352874756e-02 -9.980233758687973022e-02 3.590189293026924133e-02 -7.176205515861511230e-02 -3.702253475785255432e-02 -3.892394900321960449e-02 1.135433316230773926e-01 -1.270931512117385864e-01 -5.512455850839614868e-02 -4.645981639623641968e-02 5.651541519910097122e-03 -1.811357587575912476e-02 -3.199921548366546631e-02 -1.173630356788635254e-02 4.834473133087158203e-02 -4.259845986962318420e-02 8.766414970159530640e-02 -6.353813409805297852e-02 2.252038419246673584e-01 -1.618555486202239990e-01 -1.199585199356079102e-01 -5.278613418340682983e-02 9.571285545825958252e-02 -4.935042560100555420e-02 -1.198487821966409683e-02 5.737898498773574829e-02 2.886342406272888184e-01 1.002582833170890808e-01 1.299589574337005615e-01 -1.126570403575897217e-01 2.260943315923213959e-02 -1.250144559890031815e-02 1.254078149795532227e-01 -1.212690491229295731e-02 -6.660032272338867188e-02 4.451961256563663483e-03 7.217404246330261230e-02 -9.729184210300445557e-02 3.139192610979080200e-02 -1.623851805925369263e-01 -4.549031332135200500e-02 -9.069114923477172852e-02 7.070800662040710449e-02 -7.576266676187515259e-02 1.699547618627548218e-01 -4.514737799763679504e-02 3.137259557843208313e-02 -5.420955643057823181e-02 3.524131476879119873e-01 -1.100366711616516113e-01 -3.795169293880462646e-02 -3.705605119466781616e-02 1.174992173910140991e-01 -1.297617107629776001e-01 4.275022819638252258e-02 1.413897871971130371e-01 1.849053427577018738e-02 -2.383613027632236481e-02 -1.373149603605270386e-01 1.016781106591224670e-01 -9.296013414859771729e-02 1.002345979213714600e-01 -1.511954981833696365e-02 5.309991538524627686e-03 -2.073466181755065918e-01 -2.371892519295215607e-02 1.414234191179275513e-02 -1.420819014310836792e-02 -1.001221537590026855e-01
-1.214183568954467773e-01 -5.916838720440864563e-02 -6.949974689632654190e-03 -6.594934314489364624e-02 4.847062006592750549e-02 -8.158563822507858276e-02 9.813989698886871338e-02 8.268735371530056000e-03 -1.438995301723480225e-01 1.984784193336963654e-02 4.976738244295120239e-02 9.742970764636993408e-02 -3.281658142805099487e-02 -7.450567930936813354e-02 1.883792579174041748e-01 -4.615676030516624451e-02 -9.255298227071762085e-02 4.394100978970527649e-02 -2.515663802623748779e-01 -4.169529676437377930e-02 1.368199139833450317e-01 -2.191823720932006836e-01 -1.429790258407592773e-02 1.602596603333950043e-02 3.918838500976562500e-02 -1.595729142427444458e-01 1.529251635074615479e-01 -6.618582457304000854e-02 -1.489876117557287216e-02 2.234455943107604980e-02 -1.268918365240097046e-01 4.244794696569442749e-02 4.266564175486564636e-02 1.510639637708663940e-01 -9.362662211060523987e-03 -1.107770726084709167e-01 -8.216748945415019989e-03 6.351695954799652100e-02 5.759615451097488403e-02 -5.011230707168579102e-02 -5.043170973658561707e-02 -5.917241796851158142e-04 3.933014720678329468e-02 5.332727730274200439e-02 -2.257169410586357117e-02 -7.005393505096435547e-02 1.680793911218643188e-01 -2.757916785776615143e-02 -5.748299136757850647e-02 -1.005277708172798157e-01 -2.337986975908279419e-01 2.278819493949413300e-02 -1.004398018121719360e-01 -8.928278088569641113e-02 1.552427746355533600e-02 3.483882173895835876e-02 6.182827427983283997e-02 -3.221112117171287537e-02 1.159772649407386780e-02 -2.366729266941547394e-02 -2.952464669942855835e-02 -5.753458663821220398e-02 -9.850573539733886719e-02 -6.842083530500531197e-04 2.434515766799449921e-02 3.814504295587539673e-02 1.071344614028930664e-01 -1.495772600173950195e-02 4.892284981906414032e-03 -1.091602971428073943e-04 9.177775681018829346e-02 7.940620998851954937e-04 -1.464173104614019394e-02 8.773995935916900635e-02 -1.138978824019432068e-01 3.891914710402488708e-02 7.572043687105178833e-03 3.751627728343009949e-02 2.688409388065338135e-01 -3.432741016149520874e-02 -2.779416367411613464e-02 -9.371597319841384888e-02 -5.818302556872367859e-02 -1.259186565876007080e-01 -6.311792135238647461e-02 -5.385595187544822693e-02 1.162093430757522583e-01 -5.255153030157089233e-02 4.373901709914207458e-02 3.226282447576522827e-02 7.230196148157119751e-02 1.408019103109836578e-02 4.152823612093925476e-02 1.221149694174528122e-02 -4.045671969652175903e-02 1.001708209514617920e-01 -6.039788201451301575e-02 -1.353222224861383438e-02 3.091121017932891846e-01 -4.108421131968498230e-02 -1.089758127927780151e-01 -3.912496566772460938e-02 2.371105365455150604e-02 -4.199632443487644196e-03 -6.076179072260856628e-02 -7.672888040542602539e-02 3.945262357592582703e-02 -1.608905047178268433e-01 1.670393645763397217e-01 -6.584287434816360474e-02 -1.580423675477504730e-02 -9.908268600702285767e-02 -3.648843988776206970e-02 4.077086970210075378e-02 1.194842308759689331e-01 -1.925335451960563660e-02 3.663405030965805054e-02 -1.514402031898498535e-01 2.859693951904773712e-02 1.496163904666900635e-01 -7.138891518115997314e-02 3.443781286478042603e-03 1.354478020220994949e-02 1.471885144710540771e-01 -9.203404933214187622e-02 -3.818581625819206238e-02 -3.756072605028748512e-03 1.510164439678192139e-01
-6.831210851669311523e-02 -1.348236501216888428e-01 9.768228977918624878e-02 -8.636923506855964661e-03 1.093012765049934387e-01 -1.358069032430648804e-01 3.166380897164344788e-02 -1.272248774766921997e-01 -1.381376534700393677e-01 6.256311386823654175e-02 4.197702407836914062e-01 -9.488818049430847168e-02 -2.401828579604625702e-02 -8.438961580395698547e-03 -8.809059858322143555e-02 -1.414248049259185791e-01 1.221259161829948425e-01 6.775713711977005005e-02 -8.545760065317153931e-03 7.075080275535583496e-02 -1.848358288407325745e-02 6.583237648010253906e-02 -5.752002354711294174e-03 -1.035765856504440308e-01 1.737780719995498657e-01 -7.983427494764328003e-02 1.101588234305381775e-01 -3.590007498860359192e-02 -3.596515452954918146e-04 8.528560400009155273e-03 7.839878648519515991e-02 2.336530946195125580e-02 -2.782464027404785156e-02 -1.607855707406997681e-01 -1.633370295166969299e-02 -1.164456177502870560e-02 4.195822775363922119e-02 -5.697033181786537170e-02 -1.003385186195373535e-01 -6.762665510177612305e-02 -1.054863072931766510e-02 5.930932238698005676e-02 -9.969860315322875977e-02 -2.517801225185394287e-01 -4.622245207428932190e-02 -1.008433569222688675e-02 1.506313681602478027e-01 4.482734203338623047e-02 1.620518043637275696e-03 -6.767304241657257080e-02 4.405635874718427658e-03 -7.215704023838043213e-02 -1.855756901204586029e-02 -4.188004508614540100e-02 1.894301548600196838e-02 -4.712842777371406555e-02 -1.640094071626663208e-01 1.687499284744262695e-01 7.178828120231628418e-02 7.481222599744796753e-02 3.590598702430725098e-02 1.061004549264907837e-01 1.089740619063377380e-01 6.836454570293426514e-02 -2.059561200439929962e-02 8.957829326391220093e-02 6.010097637772560120e-02 -4.248328879475593567e-02 -7.929641753435134888e-02 -6.808880716562271118e-02 5.615579709410667419e-02 -1.588511168956756592e-01 1.110009029507637024e-01 4.595020040869712830e-02 -1.067661046981811523e-01 8.242315798997879028e-02 -7.093536108732223511e-02 1.797988712787628174e-01 3.478853777050971985e-02 -1.346161365509033203e-01 -3.758925199508666992e-02 -1.014594063162803650e-01 4.067501798272132874e-02 -8.766488730907440186e-02 -1.739948987960815430e-02 1.423467602580785751e-02 9.138071537017822266e-02 9.761653840541839600e-02 -3.549420461058616638e-02 1.071266010403633118e-01 -5.152885243296623230e-02 -6.397962570190429688e-03 -1.310358196496963501e-02 -4.055581986904144287e-02 -1.377941817045211792e-01 -3.800134733319282532e-02 -1.366286426782608032e-01 6.957755237817764282e-02 7.380792405456304550e-03 3.116871044039726257e-02 -8.785729110240936279e-02 6.382218003273010254e-02 9.321492910385131836e-02 7.376570999622344971e-02 1.151615381240844727e-01 2.793686687946319580e-01 2.198334224522113800e-02 1.289315372705459595e-01 6.607060134410858154e-02 -7.416938245296478271e-02 -5.757568404078483582e-02 -4.551757127046585083e-02 -7.483373582363128662e-02 4.657068103551864624e-02 6.658285111188888550e-02 -1.072226837277412415e-01 2.084895968437194824e-02 -5.849368125200271606e-02 4.953594878315925598e-02 -3.658970817923545837e-02 7.330127805471420288e-02 7.708747684955596924e-02 3.881822526454925537e-02 8.304167538881301880e-02 -1.047347187995910645e-01 -1.279397867619991302e-02 -9.207584708929061890e-02 -1.742158085107803345e-01
1.950791571289300919e-03 -8.339430391788482666e-02 -3.056681528687477112e-02 4.581788182258605957e-02 6.553877145051956177e-02 -7.461351808160543442e-03 6.952860206365585327e-02 7.768111675977706909e-02 2.663706429302692413e-02 -3.769099712371826172e-03 4.323977977037429810e-02 -3.522911667823791504e-02 -2.468168176710605621e-02 -1.194291189312934875e-01 9.740325063467025757e-02 8.739288896322250366e-02 8.491686545312404633e-03 8.989793807268142700e-02 -1.163122281432151794e-01 -2.742647565901279449e-02 -1.369917988777160645e-01 6.353551894426345825e-02 -4.930947721004486084e-02 -1.406574547290802002e-01 -9.833984076976776123e-03 -6.559118628501892090e-02 1.184798851609230042e-01 -1.599864289164543152e-02 2.653050003573298454e-03 -8.118308335542678833e-02 1.681768149137496948e-01 -1.733540892601013184e-01 3.687337040901184082e-02 9.988542646169662476e-02 2.363142091780900955e-03 2.408904582262039185e-02 -1.430775690823793411e-02 1.315407752990722656e-01 9.954865276813507080e-02 -5.964443832635879517e-02 -1.030163913965225220e-01 -2.806458435952663422e-02 6.071750074625015259e-03 -7.157953828573226929e-02 -1.247103735804557800e-01 2.225583791732788086e-01 -1.485611349344253540e-01 3.703726455569267273e-02 -1.294589340686798096e-01 -1.197872869670391083e-02 -6.937476247549057007e-02 1.020259503275156021e-02 -2.101767435669898987e-02 4.160562902688980103e-02 1.219903901219367981e-01 4.327261820435523987e-02 -9.651996940374374390e-02 1.964800432324409485e-02 3.555120527744293213e-02 -1.400825828313827515e-01 2.969867363572120667e-02 -7.336317747831344604e-02 1.517572551965713501e-01 4.762455821037292480e-02 -4.835778102278709412e-02 1.228310018777847290e-01 2.976643666625022888e-02 -3.503189980983734131e-02 2.092342637479305267e-02 1.209058091044425964e-01 -1.473242491483688354e-01 -8.869609981775283813e-02 -3.239930421113967896e-02 3.368439385667443275e-03 -7.679313421249389648e-02 5.277407169342041016e-02 -5.534368380904197693e-02 -1.977206021547317505e-02 1.119731292128562927e-01 -2.110447883605957031e-01 -2.025896124541759491e-02 -7.333052158355712891e-02 -1.470814049243927002e-01 6.746853888034820557e-02 1.655913144350051880e-01 1.173345558345317841e-02 2.020870894193649292e-02 6.317191570997238159e-02 -5.673719197511672974e-02 -2.199576795101165771e-02 2.808693796396255493e-03 1.639698632061481476e-02 -6.756349653005599976e-02 4.017538577318191528e-02 8.251218497753143311e-02 3.145139664411544800e-02 1.810282655060291290e-02 1.413916945457458496e-01 -1.205562576651573181e-01 -3.351528942584991455e-02 -2.691170200705528259e-02 -2.618448249995708466e-02 7.346846908330917358e-02 -4.449602216482162476e-02 1.470425575971603394e-01 -1.039646342396736145e-01 -2.023169398307800293e-02 2.480227127671241760e-02 -6.012168526649475098e-02 9.876058995723724365e-02 8.329968899488449097e-02 -7.397665083408355713e-02 7.322412729263305664e-02 -1.261121779680252075e-01 6.138031557202339172e-02 -1.886393874883651733e-02 -8.022297918796539307e-02 -1.110375449061393738e-01 -8.276668190956115723e-02 2.387703862041234970e-03 2.729231491684913635e-02 -3.402993455529212952e-02 5.507731437683105469e-02 9.741080552339553833e-02 1.776305586099624634e-01 -1.102474853396415710e-01 -4.350646957755088806e-02 6.841362267732620239e-02
