1.325357407331466675e-01 1.097899451851844788e-01 2.177015319466590881e-02 -1.359319686889648438e-01 6.879119575023651123e-02 -1.340226829051971436e-01 7.411643862724304199e-02 -7.027466595172882080e-02 -2.934144735336303711e-01 1.324103176593780518e-01 1.825079172849655151e-01 9.181070327758789062e-02 2.683894149959087372e-02 -1.160271838307380676e-01 -2.315822839736938477e-01 2.193757891654968262e-02 8.940223604440689087e-02 2.531339041888713837e-02 -4.396827518939971924e-02 1.522091869264841080e-02 8.830098807811737061e-02 -9.580763056874275208e-03 -8.047978579998016357e-02 -3.966480493545532227e-02 8.784908056259155273e-02 -7.080843299627304077e-02 -5.604039132595062256e-02 3.250672295689582825e-02 1.331218183040618896e-01 -1.953705772757530212e-02 -5.139142274856567383e-02 4.114416986703872681e-02 -1.185412611812353134e-02 6.459552049636840820e-01 5.101490765810012817e-03 9.011664241552352905e-02 1.082087866961956024e-02 -1.277300119400024414e-01 3.429687768220901489e-02 -2.479337528347969055e-02 -1.268004719167947769e-02 6.510089337825775146e-02 8.917716145515441895e-02 -7.715624757111072540e-03 -1.832661181688308716e-01 -2.815483883023262024e-02 -2.939334698021411896e-02 5.345756188035011292e-02 -2.702894248068332672e-02 -3.293694555759429932e-02 7.162946276366710663e-03 1.007198393344879150e-01 -1.093022972345352173e-01 1.076193526387214661e-02 2.516776695847511292e-02 -1.893127150833606720e-02 5.024095997214317322e-02 9.603589773178100586e-03 1.824116334319114685e-02 4.432523623108863831e-02 -5.203831940889358521e-02 1.212325319647789001e-01 -1.616745591163635254e-01 -6.626884639263153076e-02 1.702058315277099609e-02 9.196580201387405396e-02 -1.579001545906066895e-01 1.623596996068954468e-01 -8.322911337018013000e-03 -1.386269629001617432e-01 4.931107535958290100e-02 -4.950325936079025269e-02 2.019334584474563599e-01 -4.989847540855407715e-02 -8.898483961820602417e-02 4.967699199914932251e-02 8.113881573081016541e-03 -9.985427372157573700e-03 -2.434079162776470184e-02 8.435074985027313232e-02 -5.833464488387107849e-02 1.042328029870986938e-02 5.163386464118957520e-02 -3.936315327882766724e-02 2.287790412083268166e-03 -1.019452959299087524e-01 -1.801496371626853943e-02 1.057717017829418182e-02 1.080144494771957397e-01 3.570500761270523071e-02 -6.911773979663848877e-02 2.154507115483283997e-02 7.153123617172241211e-03 -4.616643302142620087e-03 -9.423110634088516235e-02 1.457167565822601318e-01 1.032825931906700134e-02 6.402589380741119385e-02 3.677020221948623657e-02 -7.962561212480068207e-03 -4.296439141035079956e-02 -9.823521971702575684e-02 1.073375046253204346e-01 6.156823784112930298e-02 1.689285337924957275e-01 -4.646436870098114014e-02 4.009780287742614746e-02 -4.907834157347679138e-02 -1.012870892882347107e-01 -1.207281425595283508e-01 -1.228475663810968399e-02 -6.624398380517959595e-02 1.108027063310146332e-02 2.440183907747268677e-01 1.675399579107761383e-02 3.655296564102172852e-02 8.183024078607559204e-02 -4.198986664414405823e-02 1.820800453424453735e-02 1.802163082174956799e-03 -5.502111092209815979e-02 1.481975466012954712e-01 -6.175329163670539856e-02 -3.602126240730285645e-02 5.821151286363601685e-02 -1.781638525426387787e-02 1.124450266361236572e-01 -2.753877080976963043e-02
4.024760425090789795e-02 -3.257059752941131592e-01 6.533721834421157837e-02 -1.074204966425895691e-01 8.313060551881790161e-02 -2.997615747153759003e-02 2.203088440001010895e-02 -1.632920056581497192e-01 -2.849997766315937042e-02 3.195498138666152954e-02 7.862077653408050537e-02 -4.999358206987380981e-02 2.842369377613067627e-01 8.226607739925384521e-02 -1.993244979530572891e-03 1.279212534427642822e-01 5.542300641536712646e-02 -7.256749272346496582e-02 6.949120014905929565e-02 9.052488207817077637e-02 -7.843193598091602325e-03 -2.692815288901329041e-02 -1.939122751355171204e-02 1.280138939619064331e-01 6.441364437341690063e-02 1.081908419728279114e-01 -7.372769713401794434e-02 -7.545966655015945435e-03 -1.877158582210540771e-01 3.435908257961273193e-02 1.698610782623291016e-01 -1.807873486541211605e-03 4.076543077826499939e-02 -8.701051771640777588e-02 1.007296144962310791e-01 -6.269887089729309082e-02 4.495806992053985596e-02 -1.229497883468866348e-02 3.597550839185714722e-02 1.159403920173645020e-01 -8.065056800842285156e-02 -1.565808653831481934e-01 -9.037068486213684082e-02 1.244523562490940094e-02 1.926546543836593628e-01 9.718851000070571899e-02 2.386468648910522461e-02 1.084132269024848938e-01 -4.540799185633659363e-02 -3.421678673475980759e-03 5.286982282996177673e-02 3.285232186317443848e-02 9.195408970117568970e-02 -1.784747242927551270e-01 -1.284414380788803101e-01 -5.132941529154777527e-02 2.865041494369506836e-01 -2.026285976171493530e-01 -8.034252375364303589e-02 3.660862520337104797e-02 -9.244809299707412720e-02 -1.490350216627120972e-01 9.713397175073623657e-02 1.197302713990211487e-01 -5.831762403249740601e-02 7.697366178035736084e-02 4.642955586314201355e-02 1.553131341934204102e-01 -8.318822830915451050e-02 1.140783168375492096e-02 9.812691062688827515e-02 3.096988052129745483e-02 2.167141437530517578e-01 -1.837957799434661865e-01 -7.083829957991838455e-03 -1.686116009950637817e-01 8.205050230026245117e-02 -2.832712233066558838e-01 2.144204676151275635e-01 2.697102129459381104e-01 8.521527051925659180e-02 2.210357226431369781e-02 -2.252220511436462402e-01 -1.303674280643463135e-01 8.688193745911121368e-03 -6.967035681009292603e-02 -4.786289483308792114e-02 -7.206085324287414551e-02 -8.393225073814392090e-02 -5.232129991054534912e-02 2.323909476399421692e-02 -7.171393185853958130e-02 5.817187950015068054e-02 -4.746710136532783508e-02 4.473743960261344910e-02 7.083685696125030518e-02 1.982572488486766815e-02 -6.744223088026046753e-02 -1.623764820396900177e-02 -1.422333568334579468e-01 -3.285252675414085388e-02 3.921850025653839111e-02 9.052051603794097900e-02 -1.997759332880377769e-03 1.785768419504165649e-01 1.751926392316818237e-01 -1.587511152029037476e-01 -5.251729362498736009e-06 2.266745269298553467e-01 -2.244465351104736328e-01 -1.575835607945919037e-02 -1.394736021757125854e-01 7.140532135963439941e-02 6.623501330614089966e-02 2.281006276607513428e-01 -1.643508672714233398e-01 2.031596899032592773e-01 5.432635173201560974e-02 -2.271820753812789917e-01 -7.226658612489700317e-02 1.242009103298187256e-01 -1.811169087886810303e-02 -8.775813132524490356e-02 1.354301571846008301e-01 1.551544666290283203e-01 1.321052163839340210e-01 -9.608542919158935547e-02 -1.627575606107711792e-02
-2.333065494894981384e-02 2.883513923734426498e-03 5.106384307146072388e-02 -2.162247002124786377e-01 4.240916669368743896e-02 -1.305796355009078979e-01 9.770581126213073730e-02 -9.388064593076705933e-02 -2.208733409643173218e-01 5.278905853629112244e-02 2.126644402742385864e-01 -6.016793102025985718e-02 9.252981841564178467e-02 -1.102972924709320068e-01 -2.730998210608959198e-02 8.944637328386306763e-02 -2.558842599391937256e-01 -1.404605060815811157e-02 8.488829247653484344e-03 5.584988743066787720e-02 1.435496658086776733e-01 -1.366967856884002686e-01 -1.131206378340721130e-02 2.966390922665596008e-02 -2.565348334610462189e-02 1.418202370405197144e-01 -1.111272126436233521e-01 7.438512891530990601e-02 -6.083704903721809387e-02 1.341554671525955200e-01 -2.673285305500030518e-01 -3.748794198036193848e-01 2.807232737541198730e-02 4.278520867228507996e-02 -1.637161970138549805e-01 8.148431777954101562e-02 2.733255550265312195e-02 8.981630206108093262e-02 3.281118720769882202e-02 2.088068425655364990e-01 -2.211404591798782349e-02 3.424622118473052979e-03 -5.055821314454078674e-02 6.256739795207977295e-02 -2.395829409360885620e-01 -4.838977009057998657e-02 2.459883503615856171e-02 1.821416169404983521e-01 1.189204379916191101e-01 -1.735620200634002686e-01 8.082725852727890015e-02 -4.440268501639366150e-02 -1.068411618471145630e-01 9.228197485208511353e-02 4.869496449828147888e-02 -1.269796490669250488e-01 3.127937670797109604e-03 -1.732423529028892517e-02 7.806473970413208008e-02 -5.756415799260139465e-02 -8.721473813056945801e-02 -1.673555672168731689e-01 -2.623836100101470947e-01 1.812344044446945190e-02 -8.645606040954589844e-02 4.046065732836723328e-02 -1.064311061054468155e-02 1.635749191045761108e-01 3.692991659045219421e-02 2.247611880302429199e-01 -1.677225083112716675e-01 9.381902962923049927e-02 9.256114251911640167e-03 -5.856347456574440002e-02 -1.434531807899475098e-01 -6.865277141332626343e-02 1.606130152940750122e-01 -2.479682862758636475e-02 4.873744398355484009e-02 -2.321811467409133911e-01 -5.969916936010122299e-03 4.917761683464050293e-02 -5.753760784864425659e-02 -1.124598309397697449e-01 -8.237194269895553589e-02 7.857637852430343628e-02 -9.897875040769577026e-02 4.835204407572746277e-02 5.271922424435615540e-02 2.137278765439987183e-01 -1.050255727022886276e-02 3.951912000775337219e-02 -9.829085320234298706e-03 3.657778352499008179e-02 7.232762873172760010e-02 6.331920623779296875e-02 -2.200616151094436646e-02 5.786931514739990234e-02 4.986532032489776611e-02 5.081964284181594849e-02 2.849216107279062271e-03 7.453255355358123779e-02 -8.897040784358978271e-02 1.450157165527343750e-02 -1.769450306892395020e-01 1.722256466746330261e-02 7.562892511487007141e-03 1.630738526582717896e-01 -3.492327407002449036e-02 -3.248485922813415527e-02 -8.624017238616943359e-02 1.748678237199783325e-01 -1.873006857931613922e-02 1.961919367313385010e-01 -7.741977274417877197e-02 1.390159130096435547e-02 -1.892896443605422974e-01 -1.450725924223661423e-02 -2.144369930028915405e-01 -7.648001611232757568e-02 3.387093544006347656e-02 5.711951851844787598e-02 -1.503959447145462036e-01 9.297428280115127563e-02 4.273303318768739700e-03 4.651710391044616699e-02 -1.147546097636222839e-01 2.970975823700428009e-02
-4.251582548022270203e-02 -2.048882842063903809e-01 4.266560077667236328e-02 5.104916095733642578e-01 4.857933148741722107e-02 -1.394412368535995483e-01 -4.964472725987434387e-02 6.463450379669666290e-03 -2.642297446727752686e-01 -8.898390829563140869e-02 2.522992491722106934e-01 6.070358678698539734e-02 -1.848936639726161957e-02 1.009016558527946472e-01 -1.765725314617156982e-01 4.403144493699073792e-02 8.785688132047653198e-02 4.895395413041114807e-02 -1.435423940420150757e-01 -5.718608945608139038e-02 -8.540517091751098633e-02 3.098705708980560303e-01 4.349016118794679642e-03 1.078757271170616150e-01 2.109845578670501709e-01 -7.643815129995346069e-02 -1.358446106314659119e-02 -9.315954893827438354e-02 5.627875775098800659e-02 -1.117361262440681458e-01 -3.120950609445571899e-02 3.789107874035835266e-02 3.345516743138432503e-03 -2.478303574025630951e-02 6.288412958383560181e-02 3.976018726825714111e-02 -1.538571268320083618e-01 1.560296565294265747e-01 -5.990305170416831970e-02 2.206089496612548828e-01 2.921225428581237793e-01 -4.056932777166366577e-02 -1.626226902008056641e-01 7.490095216780900955e-03 -4.024885222315788269e-02 2.446887455880641937e-02 -1.165404766798019409e-01 1.318699494004249573e-02 5.072247236967086792e-02 -1.098189875483512878e-02 -4.846412315964698792e-02 -6.722538918256759644e-02 1.429470926523208618e-01 -6.831616908311843872e-02 -6.856732815504074097e-02 3.404483795166015625e-01 -7.703155279159545898e-02 -1.376745551824569702e-01 1.294002961367368698e-02 -1.286781020462512970e-02 2.726123929023742676e-01 -6.230946257710456848e-02 1.728084087371826172e-01 5.393029749393463135e-02 9.367776662111282349e-02 -2.005190588533878326e-02 1.113113686442375183e-01 -6.257381290197372437e-02 -1.321138292551040649e-01 -6.290917396545410156e-01 2.198186516761779785e-01 -1.287001818418502808e-01 2.270347028970718384e-01 8.177353069186210632e-03 1.620446443557739258e-01 2.465158887207508087e-02 -6.921965628862380981e-02 3.916123136878013611e-02 1.315473318099975586e-01 -6.326019763946533203e-02 -1.744880527257919312e-01 -4.500738903880119324e-02 -2.248829416930675507e-02 -1.625029891729354858e-01 4.636869207024574280e-02 -3.010435700416564941e-01 1.303444989025592804e-02 -2.908211573958396912e-02 5.600337684154510498e-02 1.444201078265905380e-02 -1.512543261051177979e-01 2.938957326114177704e-02 5.063654109835624695e-02 7.848186418414115906e-03 -1.249681338667869568e-01 7.634552568197250366e-02 -4.625619947910308838e-02 1.282462850213050842e-02 -1.126835271716117859e-01 2.667149528861045837e-02 -4.888990893959999084e-02 7.593642920255661011e-02 2.651752531528472900e-01 3.647901862859725952e-02 5.962156504392623901e-02 -3.899720311164855957e-02 -1.196281015872955322e-01 -9.307247400283813477e-02 1.312322914600372314e-01 7.161387056112289429e-02 -9.265949577093124390e-02 1.905422955751419067e-01 -4.869616031646728516e-02 -2.881082594394683838e-01 4.237127676606178284e-02 -2.948459386825561523e-01 4.771885648369789124e-02 1.488382518291473389e-01 -1.301154196262359619e-01 9.413178265094757080e-02 -1.845233887434005737e-02 -1.908355951309204102e-01 -5.621629953384399414e-02 -7.409827411174774170e-02 -1.405774988234043121e-02 -2.255786359310150146e-01 -1.366879492998123169e-01 -1.119067966938018799e-01
-1.462789475917816162e-01 5.681984499096870422e-02 2.093349955976009369e-02 1.160009857267141342e-02 2.088644504547119141e-01 -9.764513932168483734e-03 1.275205463171005249e-01 -2.080643475055694580e-01 -1.505796164274215698e-01 1.970254033803939819e-01 2.107216566801071167e-01 -1.176993101835250854e-01 -6.906132400035858154e-02 -2.350247930735349655e-03 -1.577595025300979614e-01 -1.103170812129974365e-01 -2.383636385202407837e-01 4.100004211068153381e-02 -7.187566161155700684e-02 1.839140951633453369e-01 6.471949815750122070e-02 7.164599373936653137e-03 -6.777949631214141846e-02 2.610649354755878448e-02 6.346134096384048462e-02 4.017386585474014282e-02 9.989150799810886383e-03 -1.080918759107589722e-01 1.271077394485473633e-01 6.840883195400238037e-02 -7.254378497600555420e-02 -6.158557534217834473e-02 7.498678565025329590e-02 1.437553763389587402e-02 -1.252892762422561646e-01 -1.625249832868576050e-01 8.472384512424468994e-02 -6.366059184074401855e-02 2.256288677453994751e-01 -1.608482152223587036e-01 1.829360239207744598e-02 -6.891904026269912720e-02 2.484878059476613998e-03 3.663820773363113403e-02 4.328762367367744446e-02 3.913868218660354614e-02 -3.016038797795772552e-02 -5.527002364397048950e-02 -1.981834918260574341e-01 -8.459948748350143433e-02 9.852362424135208130e-02 -1.599950194358825684e-01 -9.280296415090560913e-02 3.197926282882690430e-02 -5.560245737433433533e-02 8.594427257776260376e-02 -9.481257759034633636e-03 -6.150510907173156738e-02 -6.724971532821655273e-02 2.312978357076644897e-02 1.031669974327087402e-01 1.733430624008178711e-01 1.873460561037063599e-01 1.218891665339469910e-01 -1.348889432847499847e-03 2.050127536058425903e-01 1.088113784790039062e-01 -1.598787009716033936e-01 2.021390348672866821e-01 -1.441633254289627075e-01 8.224491775035858154e-02 -6.038573011755943298e-02 6.154484301805496216e-02 4.086263850331306458e-02 -1.034948453307151794e-01 7.594152539968490601e-02 1.049925163388252258e-01 -5.568794533610343933e-02 -4.379654303193092346e-02 -2.813143134117126465e-01 1.277480274438858032e-01 -7.576171774417161942e-03 -1.550220102071762085e-01 1.761176884174346924e-01 3.142721205949783325e-02 -1.484535448253154755e-02 4.611771181225776672e-02 5.187452957034111023e-02 -5.955808237195014954e-02 3.299520909786224365e-02 -9.746920317411422729e-02 -1.109548434615135193e-01 3.212673962116241455e-01 -9.777796268463134766e-02 1.099196076393127441e-01 2.531832456588745117e-01 2.809042111039161682e-02 3.016095794737339020e-02 1.024295296519994736e-02 -1.119581013917922974e-01 8.622977137565612793e-02 3.176276013255119324e-02 7.369489222764968872e-02 5.348064750432968140e-02 2.136201560497283936e-01 1.867251843214035034e-01 -8.016452193260192871e-02 1.010013371706008911e-01 -3.347975388169288635e-02 8.022636175155639648e-02 -1.387273222208023071e-01 4.235980287194252014e-02 2.090825438499450684e-01 -2.546521723270416260e-01 -3.936579450964927673e-02 -2.073544710874557495e-01 -1.030609831213951111e-01 -2.075110562145709991e-02 3.997295349836349487e-02 -3.344521522521972656e-01 2.486696541309356689e-01 -4.155082255601882935e-02 -1.098261326551437378e-01 -1.331712603569030762e-01 5.812187492847442627e-02 -1.032732948660850525e-01 -2.233498264104127884e-03 1.231960486620664597e-02
-8.160430938005447388e-03 1.322698444128036499e-01 8.495061844587326050e-02 1.002813577651977539e-01 2.187669090926647186e-02 4.518042802810668945e-01 -1.555254012346267700e-01 1.221941411495208740e-01 2.271005511283874512e-02 -9.439534693956375122e-02 2.069099545478820801e-01 -1.124270111322402954e-01 3.439621329307556152e-01 -7.612358033657073975e-02 1.009045839309692383e-01 -2.119257487356662750e-02 -7.324060052633285522e-02 2.641133032739162445e-02 -8.243083208799362183e-02 1.207257807254791260e-02 -7.623239606618881226e-02 -9.229648858308792114e-02 -5.494152754545211792e-02 -1.102117262780666351e-02 1.191116720438003540e-01 4.948291555047035217e-02 7.691534236073493958e-03 -1.374278515577316284e-01 4.669736325740814209e-02 -7.271892577409744263e-02 -4.069155082106590271e-02 -8.502493053674697876e-02 -2.898080050945281982e-01 4.268185198307037354e-01 -2.131634205579757690e-01 5.243983492255210876e-02 -1.236796844750642776e-02 -1.138989105820655823e-01 3.589334189891815186e-01 -7.085962593555450439e-02 -1.933984607458114624e-01 6.882286071777343750e-02 -7.360811531543731689e-02 9.237499535083770752e-02 1.716748625040054321e-01 -2.070599496364593506e-01 -1.587073951959609985e-01 -8.973437547683715820e-02 -2.123751640319824219e-01 1.441360414028167725e-01 -1.968222856521606445e-01 -9.774542599916458130e-02 2.399686910212039948e-02 -2.328374050557613373e-02 1.092564873397350311e-02 -1.919741481542587280e-01 -1.742363274097442627e-01 1.062901914119720459e-01 -9.520513564348220825e-02 2.476496621966362000e-02 -7.600591331720352173e-02 1.000026389956474304e-01 2.381094172596931458e-02 2.376840412616729736e-01 2.038552239537239075e-02 2.069765515625476837e-02 -1.257852315902709961e-01 5.360412225127220154e-02 -6.194917485117912292e-02 -2.723092138767242432e-01 -8.570354431867599487e-03 6.484761089086532593e-02 1.363109201192855835e-01 5.632984265685081482e-02 -5.218588747084140778e-03 -4.779458977282047272e-03 -1.145229786634445190e-01 2.796405367553234100e-02 6.994201242923736572e-02 -1.200143247842788696e-01 -3.269869461655616760e-02 1.639000326395034790e-02 -1.984607428312301636e-02 1.795967519283294678e-01 4.931272193789482117e-02 1.251944750547409058e-01 1.354779675602912903e-02 -1.933891773223876953e-01 -1.888349354267120361e-01 -5.669271573424339294e-02 2.359334081411361694e-01 1.570598185062408447e-01 8.194669336080551147e-02 2.265075407922267914e-02 2.702696248888969421e-02 8.608134835958480835e-02 4.076078906655311584e-02 -1.112161427736282349e-01 -5.114231631159782410e-02 -2.014300599694252014e-02 -9.484402090311050415e-02 -2.086713016033172607e-01 2.537250518798828125e-01 -2.759572304785251617e-02 1.842188276350498199e-02 5.663234740495681763e-02 1.608621031045913696e-01 -7.220184057950973511e-02 -1.868408620357513428e-01 -1.733541786670684814e-01 8.325421065092086792e-02 2.135764509439468384e-01 -1.717921793460845947e-01 4.832423627376556396e-01 -4.974140971899032593e-02 -7.281999289989471436e-02 1.900694519281387329e-02 -3.148453682661056519e-02 1.112059410661458969e-02 -1.200061962008476257e-01 5.409208312630653381e-02 1.134686991572380066e-01 -9.550181776285171509e-02 -1.335010081529617310e-01 1.337783336639404297e-01 9.687326103448867798e-02 2.863309532403945923e-02 1.068497672677040100e-01
1.048749033361673355e-02 1.259247809648513794e-01 1.468488574028015137e-01 5.254172161221504211e-02 7.534703612327575684e-02 1.613939367234706879e-02 -1.713133305311203003e-01 3.803922235965728760e-02 9.359210729598999023e-02 2.645362354815006256e-02 -1.868503168225288391e-02 3.024948202073574066e-02 -1.751889288425445557e-02 3.283746540546417236e-01 7.166135311126708984e-02 -6.375724077224731445e-02 2.371718175709247589e-02 2.071216516196727753e-02 -1.003539264202117920e-01 4.070230200886726379e-02 -1.615711748600006104e-01 3.104548528790473938e-02 -3.579550608992576599e-02 1.491843760013580322e-01 -8.567676693201065063e-02 4.498327150940895081e-02 -6.508263200521469116e-02 1.280221436172723770e-02 2.412253245711326599e-02 2.962764911353588104e-02 -2.923139184713363647e-02 7.792887836694717407e-02 -1.298709660768508911e-01 -1.409743726253509521e-01 2.902230061590671539e-02 -9.202298521995544434e-02 5.037572607398033142e-02 -6.364692747592926025e-02 -6.730841100215911865e-02 3.654420003294944763e-02 2.149916812777519226e-02 1.249047182500362396e-02 -7.618714869022369385e-02 1.474906951189041138e-01 -1.405105143785476685e-01 3.756989724934101105e-03 -2.399294227361679077e-01 1.293704658746719360e-01 -8.381791412830352783e-02 2.374329715967178345e-01 -1.368241757154464722e-01 9.910315275192260742e-02 -9.010574966669082642e-02 9.108755737543106079e-03 2.735085487365722656e-01 -2.656405791640281677e-02 5.166501924395561218e-02 -5.513369687832891941e-04 5.304626375436782837e-02 2.808976219967007637e-03 3.012677188962697983e-03 -1.456391252577304840e-02 1.406356226652860641e-02 4.143949970602989197e-02 -5.813889950513839722e-02 -4.736193642020225525e-02 -6.669227033853530884e-02 -8.772428333759307861e-02 -1.033804193139076233e-01 -1.006245836615562439e-01 -4.896153882145881653e-02 2.532620355486869812e-02 1.407133042812347412e-01 -3.755145147442817688e-02 5.412280932068824768e-02 -1.919993944466114044e-02 -3.215650841593742371e-02 1.741150021553039551e-02 -1.314940601587295532e-01 5.246062204241752625e-02 -1.178016066551208496e-01 6.652541458606719971e-02 -4.689638689160346985e-02 -3.534907400608062744e-01 3.009339869022369385e-01 2.545797266066074371e-02 -5.407481640577316284e-02 1.940333470702171326e-02 1.395801305770874023e-01 6.412402540445327759e-02 1.893736869096755981e-01 6.009095534682273865e-02 -1.474398374557495117e-02 -5.192569643259048462e-02 3.232211107388138771e-03 -4.302433505654335022e-02 8.152768714353442192e-04 3.164403140544891357e-03 2.483810782432556152e-01 6.305284053087234497e-02 -1.087110675871372223e-02 -1.505447030067443848e-01 6.108301877975463867e-02 6.025324389338493347e-02 3.651254624128341675e-02 1.258152872323989868e-01 -7.950672507286071777e-02 -1.308701187372207642e-01 9.455073624849319458e-03 8.913982659578323364e-03 7.144641876220703125e-02 -1.459859907627105713e-01 -9.348462522029876709e-02 4.983181133866310120e-03 5.764872580766677856e-02 9.585456550121307373e-02 1.211498826742172241e-01 -5.064293742179870605e-02 -1.399235874414443970e-01 1.426726393401622772e-02 3.597311303019523621e-02 -8.909160643815994263e-02 -1.039182394742965698e-01 -4.713974893093109131e-02 -3.026351518929004669e-02 -8.962624520063400269e-02 1.083469614386558533e-01 -6.894219666719436646e-02
-1.263913363218307495e-01 -8.684580028057098389e-02 8.979494869709014893e-02 1.319855302572250366e-01 1.244609206914901733e-01 1.685315184295177460e-02 5.525510758161544800e-02 -1.665030270814895630e-01 -1.078547760844230652e-01 1.052262634038925171e-01 1.214316114783287048e-01 -1.978232413530349731e-01 -7.564673572778701782e-02 -1.373383700847625732e-01 -1.786241382360458374e-01 4.207145422697067261e-02 -1.668795794248580933e-01 -1.054703444242477417e-01 -7.293312251567840576e-02 -3.689928213134407997e-03 7.156351208686828613e-02 -2.094208151102066040e-01 -5.771348252892494202e-03 -3.508583083748817444e-02 2.629535496234893799e-01 -5.635456740856170654e-02 4.124505445361137390e-02 -8.396509103477001190e-03 1.548016071319580078e-01 1.229811087250709534e-01 -8.805553428828716278e-03 6.277990993112325668e-03 1.796405464410781860e-01 -6.035957485437393188e-02 -3.596619144082069397e-02 -6.051904335618019104e-02 1.332882493734359741e-01 -9.063626080751419067e-02 -8.322636038064956665e-02 -1.198022738099098206e-01 -2.317668348550796509e-01 8.206703700125217438e-03 -1.218272820115089417e-01 -2.368941344320774078e-02 -1.274709962308406830e-02 -3.838507458567619324e-02 -8.621184527873992920e-02 -2.934792079031467438e-02 8.636573702096939087e-02 4.504121374338865280e-03 -1.207416281104087830e-01 -1.711458526551723480e-02 7.470326125621795654e-02 2.972756884992122650e-02 -4.805624485015869141e-02 1.230595558881759644e-01 -9.321169555187225342e-02 5.072885006666183472e-02 3.323468938469886780e-02 5.319983139634132385e-02 1.414762623608112335e-02 1.599372713826596737e-03 1.686392873525619507e-01 1.124453172087669373e-01 -9.993759542703628540e-02 2.060773968696594238e-01 -1.117403283715248108e-01 -5.604077875614166260e-02 1.079196110367774963e-01 9.733220189809799194e-02 3.410375490784645081e-02 -1.182049065828323364e-01 9.147835522890090942e-02 2.857995033264160156e-02 -2.748396433889865875e-02 3.051547892391681671e-02 -1.737774312496185303e-01 -6.892806291580200195e-02 -8.525003492832183838e-02 -1.839274354279041290e-02 -8.926026523113250732e-03 -1.381351891905069351e-02 -9.973828494548797607e-02 8.042265474796295166e-02 -4.606824368238449097e-02 5.418775230646133423e-02 6.529644876718521118e-02 4.899790510535240173e-03 2.340634353458881378e-02 7.908745110034942627e-02 -5.211910977959632874e-02 -8.874385803937911987e-02 1.652599126100540161e-01 5.048551410436630249e-02 -5.057889223098754883e-02 9.966453909873962402e-02 1.164367515593767166e-02 5.737734492868185043e-03 4.769311472773551941e-02 -1.967401057481765747e-02 -3.683728352189064026e-02 1.131410971283912659e-01 8.931540697813034058e-02 -1.631524711847305298e-01 1.984623074531555176e-01 -3.347247093915939331e-02 -8.063656091690063477e-02 2.302882820367813110e-02 -1.734808981418609619e-01 1.160507649183273315e-02 -1.365731507539749146e-01 -1.355152279138565063e-01 6.711464375257492065e-02 1.271723583340644836e-02 -6.362175196409225464e-02 -1.720715612173080444e-01 -1.103195175528526306e-01 2.300044447183609009e-01 1.010143011808395386e-01 1.197225647047162056e-03 7.390490919351577759e-02 -9.541574865579605103e-02 9.105992317199707031e-02 -4.811889305710792542e-02 3.120654029771685600e-03 -5.410250648856163025e-02 -9.398304857313632965e-03 -5.634876713156700134e-02
-8.913671970367431641e-02 -6.556817889213562012e-02 2.138871513307094574e-02 6.445421278476715088e-02 1.123296394944190979e-01 6.163284182548522949e-02 1.165571808815002441e-02 1.732101477682590485e-02 -1.103825047612190247e-01 1.406463235616683960e-01 1.940273344516754150e-01 8.316583186388015747e-02 -4.427905678749084473e-01 -1.966690421104431152e-01 1.851666718721389771e-01 -1.057467758655548096e-01 6.602384895086288452e-02 -1.700845547020435333e-02 1.721037179231643677e-01 9.974581748247146606e-02 1.054563075304031372e-01 -1.304220110177993774e-01 -5.566681548953056335e-02 7.331714779138565063e-02 9.780246764421463013e-03 -1.246428713202476501e-01 2.457970082759857178e-01 -7.819315046072006226e-02 1.482888162136077881e-01 -6.325689144432544708e-03 -1.197969615459442139e-01 9.345941990613937378e-02 3.824138045310974121e-01 7.220124453306198120e-02 -1.282446682453155518e-01 8.514922112226486206e-03 -5.609051510691642761e-02 -4.878998547792434692e-02 -1.251545846462249756e-01 1.098781591281294823e-03 3.965306654572486877e-02 -6.729900091886520386e-02 1.004471182823181152e-01 5.885120108723640442e-02 -1.489783376455307007e-01 -7.201422005891799927e-02 1.408994793891906738e-01 1.430298238992691040e-01 -1.090280339121818542e-01 -1.040924564003944397e-01 -5.711343884468078613e-02 -1.295659411698579788e-02 3.687987104058265686e-02 -2.036460489034652710e-02 7.273263484239578247e-02 1.284931600093841553e-02 -8.546312898397445679e-02 1.266837269067764282e-01 2.569139003753662109e-01 -3.673452883958816528e-02 1.518920511007308960e-01 -5.914737284183502197e-02 -2.274541109800338745e-01 1.445054113864898682e-01 -2.540236897766590118e-02 -5.154002574272453785e-04 -3.037633299827575684e-01 4.749733805656433105e-01 1.191162019968032837e-01 -3.200060874223709106e-02 -3.820003569126129150e-02 -4.002318531274795532e-02 -1.934295594692230225e-01 1.366551816463470459e-01 -5.316381901502609253e-02 -1.099863648414611816e-01 -1.489232480525970459e-01 -6.857596337795257568e-02 -5.539075285196304321e-02 -7.079420983791351318e-02 1.333526372909545898e-01 -4.666711390018463135e-02 1.300884336233139038e-01 1.187129393219947815e-01 -1.370735019445419312e-01 -2.439591847360134125e-02 -8.657895773649215698e-02 1.161153092980384827e-01 4.636083322111517191e-04 1.465524584054946899e-01 -3.857486695051193237e-02 -7.158964127302169800e-02 4.989274963736534119e-02 -1.313895802013576031e-03 3.407246898859739304e-03 6.363311409950256348e-02 -9.520940482616424561e-02 1.187803521752357483e-01 -6.434630602598190308e-02 2.441808581352233887e-01 -8.632487803697586060e-02 1.140581667423248291e-01 1.240195333957672119e-02 -8.311737328767776489e-02 7.972574979066848755e-02 -1.215835958719253540e-01 -2.359116673469543457e-01 -7.892157137393951416e-02 -9.457854181528091431e-02 1.917904764413833618e-01 -4.534173011779785156e-02 -7.795030623674392700e-02 1.015050187706947327e-01 1.738091856241226196e-01 -1.239458918571472168e-01 1.421417146921157837e-01 -2.247488349676132202e-01 -1.206012517213821411e-01 -2.865253016352653503e-02 -1.993414610624313354e-01 3.722395747900009155e-02 1.006596535444259644e-01 -8.844604343175888062e-02 -5.208795517683029175e-02 -1.876027584075927734e-01 2.092401385307312012e-01 3.040617145597934723e-02 2.751786410808563232e-01
-1.791199147701263428e-01 6.657651066780090332e-02 1.990852318704128265e-02 -8.973184227943420410e-02 5.499730631709098816e-02 -3.184577077627182007e-02 -5.006215721368789673e-02 3.854928910732269287e-02 -1.432872116565704346e-01 2.905935235321521759e-02 2.025674134492874146e-01 -7.753540575504302979e-02 -1.656518504023551941e-02 8.157934993505477905e-02 -2.994727715849876404e-02 4.832210391759872437e-02 1.083137467503547668e-01 2.507111988961696625e-02 -7.688798010349273682e-02 6.142228096723556519e-02 3.286801651120185852e-02 -4.145711287856101990e-02 9.231537580490112305e-03 1.970533747225999832e-03 1.424431502819061279e-01 4.093344137072563171e-02 1.450057327747344971e-01 5.065811052918434143e-02 -1.170891374349594116e-01 -1.286190701648592949e-03 -3.611324727535247803e-02 5.520939826965332031e-03 -1.123990956693887711e-02 -1.309768408536911011e-01 1.195657476782798767e-01 -1.023777574300765991e-01 1.318681836128234863e-01 -3.249760344624519348e-02 6.931656040251255035e-03 -1.219856142997741699e-01 -2.720125019550323486e-03 1.104099377989768982e-01 2.006041351705789566e-03 -9.740921109914779663e-02 -3.509931638836860657e-02 9.213790297508239746e-02 6.690745800733566284e-02 9.432061016559600830e-02 1.202596500515937805e-01 -5.630427598953247070e-02 -2.514246292412281036e-02 5.160155519843101501e-02 1.100454032421112061e-01 3.889742121100425720e-02 -1.239906400442123413e-01 4.267752543091773987e-02 1.000602096319198608e-01 -1.411236822605133057e-01 6.858722120523452759e-02 1.438640207052230835e-01 5.059857666492462158e-02 -2.099498175084590912e-03 1.437454968690872192e-01 4.906956478953361511e-02 4.029571637511253357e-02 1.122555658221244812e-01 -3.893316909670829773e-02 -4.451735317707061768e-02 -3.870756179094314575e-02 1.180640794336795807e-02 4.332514107227325439e-02 -9.358892589807510376e-02 1.004672273993492126e-01 1.026184037327766418e-01 -3.201298043131828308e-02 8.024820685386657715e-02 2.946500107645988464e-02 1.740581914782524109e-02 -8.909460902214050293e-02 -5.437357723712921143e-02 -8.548797667026519775e-02 3.567819669842720032e-02 -9.021064639091491699e-02 4.596242681145668030e-02 -1.392898857593536377e-01 -5.889659281820058823e-03 1.138972267508506775e-01 3.853430505841970444e-03 -8.070982992649078369e-02 2.229769080877304077e-01 -2.724218368530273438e-02 6.486009061336517334e-02 1.364813446998596191e-01 5.901673808693885803e-03 -8.179463446140289307e-02 2.427391149103641510e-02 6.698082387447357178e-02 5.416455864906311035e-02 -6.482604891061782837e-02 -1.451028734445571899e-01 -8.598084002733230591e-02 -4.332042858004570007e-02 6.142811104655265808e-02 -1.927557401359081268e-02 1.687171757221221924e-01 1.549417078495025635e-01 2.571496879681944847e-03 1.679852791130542755e-02 1.048983708024024963e-01 1.978023499250411987e-01 -2.593061141669750214e-02 -1.777912974357604980e-01 -7.903876155614852905e-02 -1.381933689117431641e-01 7.919980585575103760e-02 1.220623478293418884e-01 2.576623857021331787e-02 1.679358333349227905e-01 7.120994850993156433e-03 7.078646868467330933e-02 -2.209664136171340942e-02 -8.800567127764225006e-03 1.384594142436981201e-01 -1.721665263175964355e-02 4.246061667799949646e-02 6.198416650295257568e-02 3.405569121241569519e-02 7.832980155944824219e-02
-2.260355055332183838e-01 -2.856223881244659424e-01 3.677489235997200012e-02 -5.208597332239151001e-02 2.489416450262069702e-01 -1.717987805604934692e-01 2.087576389312744141e-01 -2.157621085643768311e-01 -1.019199118018150330e-01 3.554533720016479492e-01 5.194775462150573730e-01 -2.546804249286651611e-01 -2.911780476570129395e-01 -6.055806577205657959e-02 -5.189806222915649414e-02 1.555443853139877319e-01 7.950066030025482178e-02 -9.151683002710342407e-02 1.562295258045196533e-01 1.621877998113632202e-01 4.604423418641090393e-03 -9.660204499959945679e-02 5.383427068591117859e-02 -6.637253612279891968e-02 3.238697052001953125e-01 1.385116130113601685e-01 1.664464175701141357e-01 -2.214278429746627808e-01 8.820412307977676392e-02 1.757778674364089966e-01 -7.671374082565307617e-02 -6.978326290845870972e-02 1.597641408443450928e-01 2.928501926362514496e-02 9.756159782409667969e-02 -9.975085407495498657e-02 1.230965629220008850e-01 7.234282791614532471e-02 1.058311834931373596e-01 -2.343249469995498657e-01 -9.984697401523590088e-02 -2.379084825515747070e-01 -3.780709579586982727e-02 4.805046319961547852e-02 -5.927873030304908752e-02 1.052394211292266846e-01 -2.394089940935373306e-03 9.642799384891986847e-03 1.340112835168838501e-02 -5.118479207158088684e-02 1.737246364355087280e-01 2.180287055671215057e-02 -3.779052942991256714e-02 3.133381158113479614e-02 -5.213307589292526245e-02 1.970804333686828613e-01 -1.187188699841499329e-01 -5.008967593312263489e-02 1.727334707975387573e-01 3.586032241582870483e-02 -2.125531136989593506e-01 -6.617223471403121948e-02 -2.561294138431549072e-01 8.014864474534988403e-02 3.214653953909873962e-02 3.127181231975555420e-01 -3.691453486680984497e-02 1.322727203369140625e-01 4.802856147289276123e-01 5.373341590166091919e-02 -3.023280005436390638e-04 5.439261347055435181e-02 -2.129026800394058228e-01 -1.191447749733924866e-01 -3.222541511058807373e-01 1.756687313318252563e-01 4.346769303083419800e-02 -1.186695098876953125e-01 8.494963496923446655e-02 -4.211255013942718506e-01 1.736545115709304810e-01 1.362174376845359802e-02 6.718432903289794922e-02 1.481676250696182251e-01 -8.945245295763015747e-02 5.294224992394447327e-02 1.486069988459348679e-03 8.493547327816486359e-03 9.350385516881942749e-02 2.458526287227869034e-03 -5.892984569072723389e-03 -1.306020468473434448e-01 2.702524065971374512e-01 6.125000491738319397e-02 3.203828930854797363e-01 3.934641778469085693e-01 -7.075274735689163208e-02 -1.533612310886383057e-01 -1.959510520100593567e-02 -2.978972531855106354e-02 7.030039280652999878e-02 3.213945925235748291e-01 -6.959180347621440887e-03 -1.246458813548088074e-01 4.732465445995330811e-01 -1.225461810827255249e-02 -8.611287176609039307e-02 1.371236890554428101e-01 -1.652112416923046112e-02 6.369465589523315430e-02 -6.299098581075668335e-02 8.713765442371368408e-02 1.750373840332031250e-01 -3.031748346984386444e-02 -1.073406040668487549e-01 -1.186354532837867737e-01 -2.099316418170928955e-01 -6.250645965337753296e-02 -2.377740573137998581e-03 -6.556321680545806885e-02 2.521578967571258545e-01 -1.860603839159011841e-01 1.034241989254951477e-01 -4.692482948303222656e-02 -6.300988793373107910e-02 1.949218809604644775e-01 -1.235982105135917664e-01 2.015406638383865356e-01
8.689939975738525391e-02 -1.934277079999446869e-02 8.432914316654205322e-02 -1.137960925698280334e-01 2.978525124490261078e-02 3.147184252738952637e-01 -3.337233886122703552e-02 -1.422902792692184448e-01 -1.364542096853256226e-01 -1.186820417642593384e-01 2.556484341621398926e-01 2.226717323064804077e-01 -1.051602140069007874e-02 1.999079436063766479e-02 -9.496799111366271973e-02 5.199188739061355591e-02 1.061489209532737732e-01 9.905349463224411011e-02 5.524396151304244995e-02 4.918017238378524780e-02 -1.199285499751567841e-02 4.691335558891296387e-02 -5.106993764638900757e-02 -6.374908983707427979e-02 8.825174719095230103e-02 -5.153772234916687012e-02 -6.950699537992477417e-02 1.193107962608337402e-01 -1.999388821423053741e-02 -4.388909786939620972e-02 -1.622072421014308929e-02 -4.454456735402345657e-03 -6.659419834613800049e-02 -1.774318814277648926e-01 -5.898612365126609802e-02 -5.344021692872047424e-02 -4.607711359858512878e-02 -9.039919078350067139e-02 1.568333208560943604e-01 -4.300232976675033569e-02 1.520794630050659180e-01 2.732347929850220680e-04 6.847932189702987671e-02 3.032868355512619019e-02 4.112920165061950684e-02 -7.543093524873256683e-03 1.218093279749155045e-02 -8.397921919822692871e-02 3.266309946775436401e-02 -5.783855542540550232e-02 5.571244657039642334e-02 -8.256120979785919189e-02 -4.577726125717163086e-02 -6.367510557174682617e-02 7.530988007783889771e-02 -8.429436385631561279e-02 3.944746404886245728e-02 -1.341038793325424194e-01 -6.449061632156372070e-02 9.182529896497726440e-02 1.489444971084594727e-01 8.657098561525344849e-02 3.335937559604644775e-01 -7.790986448526382446e-02 3.049479238688945770e-02 4.898713156580924988e-02 3.634310886263847351e-02 -1.514207720756530762e-01 4.068079590797424316e-02 -1.950934976339340210e-01 7.315067946910858154e-02 5.857059732079505920e-02 2.359439283609390259e-01 -3.052366152405738831e-02 -5.449886620044708252e-02 -9.066545963287353516e-02 2.358245849609375000e-02 -6.728110462427139282e-02 -3.904972225427627563e-02 -1.251915842294692993e-01 -4.113816842436790466e-02 6.961674988269805908e-02 -1.520462483167648315e-01 -1.050262060016393661e-02 6.075774878263473511e-02 -4.904823377728462219e-02 4.283117875456809998e-02 -2.754224278032779694e-02 2.474797703325748444e-02 1.134736463427543640e-01 -1.043165251612663269e-01 1.164475679397583008e-01 -7.394612580537796021e-02 3.096547722816467285e-02 6.473591923713684082e-02 8.789810538291931152e-02 8.190723508596420288e-02 -8.174245804548263550e-02 -3.144836518913507462e-03 1.480523310601711273e-02 2.943286299705505371e-02 -3.671054840087890625e-01 5.549185350537300110e-02 -1.072577312588691711e-01 2.209143936634063721e-01 7.359024137258529663e-02 8.177947998046875000e-02 2.293600142002105713e-02 9.319551289081573486e-02 -4.671728983521461487e-02 1.790546178817749023e-01 1.330443918704986572e-01 -4.360958468168973923e-03 -2.914516031742095947e-01 6.883697956800460815e-02 3.844843013212084770e-03 -4.485948011279106140e-02 -1.336233783513307571e-02 -2.318198978900909424e-02 1.088741607964038849e-02 1.376335173845291138e-01 3.891253843903541565e-02 3.952007740736007690e-02 -5.181081965565681458e-02 5.219499021768569946e-02 -2.521819062530994415e-02 -4.588957875967025757e-03 -1.824350468814373016e-02
-9.818878769874572754e-02 -2.885933816432952881e-01 2.115609496831893921e-02 -1.391924768686294556e-01 4.529274255037307739e-02 -1.984029859304428101e-01 1.820691376924514771e-01 -1.119903922080993652e-01 -2.130046337842941284e-01 -9.485315531492233276e-02 5.696581006050109863e-01 -9.704812616109848022e-02 -4.547652900218963623e-01 1.012581214308738708e-01 3.307883813977241516e-02 2.787246406078338623e-01 -8.512896299362182617e-02 -2.308088168501853943e-02 -5.995969846844673157e-02 9.490128606557846069e-03 3.510692715644836426e-02 -7.998155057430267334e-02 -2.094480581581592560e-02 -1.544730216264724731e-01 2.391511797904968262e-01 5.895024165511131287e-03 -1.617268323898315430e-01 2.774777449667453766e-02 9.141867607831954956e-02 1.546452380716800690e-02 1.924458146095275879e-02 9.638334810733795166e-02 2.131589502096176147e-01 1.421430520713329315e-02 1.354671716690063477e-01 1.328752338886260986e-01 1.043013632297515869e-01 1.917388439178466797e-01 6.742674391716718674e-03 -6.792081147432327271e-02 -2.342028357088565826e-02 1.374861318618059158e-02 -1.631809324026107788e-01 8.552351593971252441e-02 -4.360334575176239014e-02 1.180372461676597595e-01 -2.072267606854438782e-02 -1.094011217355728149e-01 5.650135874748229980e-02 4.833925142884254456e-02 1.314025372266769409e-01 2.392816245555877686e-01 -5.346637219190597534e-02 -2.212688177824020386e-01 -3.399672359228134155e-02 -1.485269814729690552e-01 2.685706615447998047e-01 1.893296539783477783e-01 1.214124709367752075e-01 1.807422935962677002e-01 9.482034295797348022e-02 -1.904162392020225525e-02 1.702759563922882080e-01 -1.235306486487388611e-01 2.230476215481758118e-02 1.504718363285064697e-01 -3.907098621129989624e-02 4.089963734149932861e-01 -1.898171962238848209e-03 -9.697473794221878052e-02 2.286792732775211334e-02 -5.583266541361808777e-02 -1.887258291244506836e-01 -1.346549950540065765e-02 -8.093699067831039429e-02 -2.397356033325195312e-01 -9.829431027173995972e-02 -1.134027838706970215e-01 1.174519807100296021e-01 -1.182437688112258911e-01 1.465375721454620361e-01 -3.506210446357727051e-02 2.858294174075126648e-02 2.121070623397827148e-01 6.269046105444431305e-03 -7.563576102256774902e-02 -1.986865401268005371e-01 -3.890156373381614685e-02 1.044900640845298767e-01 1.130926907062530518e-01 2.708398997783660889e-01 -1.802016198635101318e-01 6.424399465322494507e-02 -9.587939083576202393e-02 -1.130106206983327866e-02 -6.179243326187133789e-02 2.410461893305182457e-03 -9.158535301685333252e-02 4.373406991362571716e-02 -1.592564135789871216e-01 -2.096085995435714722e-01 1.438167840242385864e-01 1.237722784280776978e-01 -2.472337335348129272e-01 2.195408046245574951e-01 -1.373727023601531982e-01 -1.960367560386657715e-01 -1.337469369173049927e-01 6.797975301742553711e-02 -6.258413195610046387e-02 2.667527832090854645e-02 3.250052630901336670e-01 1.456429213285446167e-01 3.280903100967407227e-01 2.227426320314407349e-01 9.135904163122177124e-02 -1.060830336064100266e-02 1.676590442657470703e-01 -1.490758359432220459e-02 -5.092558264732360840e-02 7.390227168798446655e-02 -2.858205139636993408e-01 -1.789445988833904266e-02 1.571574956178665161e-01 -1.746779233217239380e-01 4.023849219083786011e-02 -3.184976279735565186e-01 -2.195427268743515015e-01
4.886830598115921021e-02 6.553471833467483521e-02 -1.307345628738403320e-01 -6.001563742756843567e-02 -7.331103831529617310e-02 -4.140281304717063904e-02 -1.187630072236061096e-01 8.127447962760925293e-02 4.009034484624862671e-02 6.289492547512054443e-02 4.550279676914215088e-02 -8.057737350463867188e-02 2.672524005174636841e-02 3.427084982395172119e-01 -8.288843184709548950e-02 1.611795723438262939e-01 8.074943907558917999e-03 -2.593443170189857483e-02 -9.522127360105514526e-02 -1.152593940496444702e-01 1.501457840204238892e-01 -1.773519068956375122e-02 -2.510835789144039154e-02 -7.571677118539810181e-02 1.508327294141054153e-02 -6.090668588876724243e-02 -3.908907994627952576e-03 -8.525819517672061920e-03 1.310218423604965210e-01 -4.512305185198783875e-02 7.609594613313674927e-02 -3.824822232127189636e-02 -2.353664487600326538e-01 1.293947398662567139e-01 -9.734018892049789429e-02 6.236079335212707520e-02 1.089331582188606262e-01 -2.570609189569950104e-02 2.151966840028762817e-01 1.791640371084213257e-01 4.941841587424278259e-02 3.161560744047164917e-02 2.038687020540237427e-01 1.335103511810302734e-01 -7.103890646249055862e-03 -1.035386770963668823e-01 -1.335402727127075195e-01 1.427994519472122192e-01 -5.269636213779449463e-02 -5.601721629500389099e-02 -6.214953213930130005e-02 3.745491802692413330e-02 9.066935628652572632e-02 -1.276818811893463135e-01 -1.489512324333190918e-01 -1.172331050038337708e-01 1.977529674768447876e-01 -1.257016807794570923e-01 4.903782531619071960e-02 3.727597370743751526e-02 -3.540621325373649597e-02 4.894490540027618408e-02 5.680989101529121399e-02 1.630754023790359497e-01 -3.872116282582283020e-02 2.194353193044662476e-02 3.122965060174465179e-02 1.146170217543840408e-02 7.954856008291244507e-02 2.939979359507560730e-02 2.785705924034118652e-01 1.614850908517837524e-01 8.905003964900970459e-02 -6.130566820502281189e-02 -2.387998253107070923e-02 -7.833755761384963989e-02 -1.785373687744140625e-01 2.703151702880859375e-01 -2.061322778463363647e-01 1.036436669528484344e-02 2.566160261631011963e-02 -2.454633265733718872e-02 2.257571183145046234e-02 1.755289435386657715e-01 2.319329977035522461e-02 -6.929016858339309692e-02 8.608124218881130219e-03 -7.551423460245132446e-02 -1.624729037284851074e-01 2.366812899708747864e-02 5.179458111524581909e-02 7.517681270837783813e-02 -3.478498756885528564e-02 -1.033237650990486145e-01 3.509406745433807373e-02 9.991656988859176636e-03 -2.576003223657608032e-02 6.206562742590904236e-02 1.531524658203125000e-01 1.081982348114252090e-02 -5.652210116386413574e-02 -9.044999629259109497e-02 -2.169225364923477173e-03 -6.588497012853622437e-02 -5.697365105152130127e-02 8.794838935136795044e-02 -3.919639438390731812e-02 -3.138751536607742310e-02 -7.005181163549423218e-02 -1.559435576200485229e-01 -1.233060285449028015e-02 3.607925027608871460e-02 -6.907057017087936401e-02 1.248713284730911255e-01 8.567345328629016876e-03 -1.020691096782684326e-01 -6.651751697063446045e-03 -5.353587865829467773e-02 9.634514339268207550e-03 -7.971829921007156372e-02 2.589741535484790802e-02 1.052492856979370117e-01 -8.530345559120178223e-02 -5.787719413638114929e-02 1.059142425656318665e-01 -1.182461809366941452e-02 7.472935318946838379e-02 -4.070728272199630737e-02
1.358855962753295898e-01 -1.464015543460845947e-01 -6.938069709576666355e-04 8.146053180098533630e-03 -9.260990656912326813e-03 -1.553724985569715500e-02 2.192032150924205780e-02 1.655830442905426025e-02 2.074879109859466553e-01 -5.003343522548675537e-02 6.252261251211166382e-02 1.197910052724182606e-03 1.760941892862319946e-01 9.882500022649765015e-02 -2.362169027328491211e-01 1.383295804262161255e-01 6.874413788318634033e-02 6.215682718902826309e-03 -2.585195191204547882e-02 3.286167979240417480e-02 9.106691181659698486e-02 1.705289930105209351e-01 2.723531424999237061e-02 6.589061021804809570e-02 -1.077947206795215607e-02 5.726859439164400101e-03 -6.749194860458374023e-02 -4.185503814369440079e-03 -1.355853956192731857e-02 -1.033381298184394836e-01 4.806315526366233826e-02 9.792829304933547974e-02 -1.344410628080368042e-01 -2.492866478860378265e-02 9.032845497131347656e-02 4.480341076850891113e-02 1.094642207026481628e-01 2.515697479248046875e-02 1.193861570209264755e-02 3.316110000014305115e-02 -2.914291992783546448e-02 -1.663948968052864075e-02 -8.865888416767120361e-02 1.112583428621292114e-01 -9.106979519128799438e-02 -1.820904016494750977e-02 1.705800183117389679e-02 -3.160238638520240784e-02 -1.309481635689735413e-02 -9.072802960872650146e-02 -1.400640159845352173e-01 5.566214397549629211e-02 3.142965957522392273e-03 -2.760712243616580963e-02 -2.480916678905487061e-02 5.732792243361473083e-02 -2.905429340898990631e-02 -1.454289853572845459e-01 -5.084378644824028015e-02 4.922693967819213867e-02 2.488224022090435028e-02 1.834070868790149689e-02 -6.875630468130111694e-02 -1.345884241163730621e-02 1.966017484664916992e-02 1.912934146821498871e-02 -1.614651978015899658e-01 -5.818273872137069702e-02 -1.185040548443794250e-02 -1.036102846264839172e-01 8.916442282497882843e-03 -1.366446316242218018e-01 8.904953300952911377e-02 -1.090801209211349487e-01 -9.214203804731369019e-02 -2.953201346099376678e-02 -7.824114710092544556e-02 -1.019715219736099243e-01 -6.838572025299072266e-02 9.794753789901733398e-02 5.251953750848770142e-02 -1.543794721364974976e-01 6.120624765753746033e-02 -1.918886601924896240e-01 1.237446218729019165e-01 9.084451943635940552e-02 1.097717955708503723e-01 -7.835808396339416504e-02 -7.239334750920534134e-03 -5.862074345350265503e-02 -9.432732313871383667e-02 6.905375421047210693e-02 -7.266522943973541260e-02 1.231681182980537415e-02 -9.817762672901153564e-02 -2.272668033838272095e-01 -1.243944931775331497e-02 -3.180335834622383118e-02 -3.918909281492233276e-02 1.318678166717290878e-02 -2.571924030780792236e-02 -6.298944354057312012e-02 -6.474712863564491272e-03 1.041854098439216614e-01 -2.436619251966476440e-01 -3.276186529546976089e-03 -1.227457076311111450e-01 -3.761434927582740784e-02 1.367167830467224121e-01 4.337410628795623779e-02 -2.341490611433982849e-02 8.466634154319763184e-02 2.310333028435707092e-02 -8.434846252202987671e-02 1.818210445344448090e-02 -6.789228320121765137e-02 -1.111507788300514221e-01 1.472153961658477783e-01 -1.341806817799806595e-02 8.288705348968505859e-02 8.298680186271667480e-02 2.117646858096122742e-02 -4.787100851535797119e-02 -1.001183222979307175e-02 -3.711089864373207092e-02 -2.186128869652748108e-02 7.421193271875381470e-02 5.745688080787658691e-02
9.427415579557418823e-02 1.004263609647750854e-01 -1.095755919814109802e-01 7.055094838142395020e-02 -5.125841498374938965e-02 -7.290824502706527710e-02 1.677313745021820068e-01 1.577104330062866211e-01 1.476643383502960205e-01 -1.352036893367767334e-01 -3.087468743324279785e-01 1.251342743635177612e-01 5.333056673407554626e-02 1.850869208574295044e-01 5.491520464420318604e-02 4.250181019306182861e-01 6.563613563776016235e-02 8.066590875387191772e-02 -1.414852887392044067e-01 -6.627394258975982666e-02 -2.756933569908142090e-01 -1.637982949614524841e-02 -7.661857455968856812e-02 -8.258128911256790161e-02 -1.021369993686676025e-01 -1.877179741859436035e-01 -9.103371202945709229e-02 1.039244085550308228e-01 -5.098420381546020508e-02 2.919063530862331390e-02 -3.802155330777168274e-02 -8.122159168124198914e-03 -2.616689354181289673e-02 2.042405456304550171e-01 2.033073902130126953e-01 1.712468564510345459e-01 -2.149049341678619385e-01 5.837113782763481140e-02 2.091653458774089813e-02 -1.784757524728775024e-02 9.771803766489028931e-02 -5.090886354446411133e-02 4.281163215637207031e-02 1.027074530720710754e-01 1.401619911193847656e-01 1.792902350425720215e-01 -4.393067955970764160e-02 -1.353662461042404175e-01 8.804373443126678467e-02 1.080251578241586685e-02 -1.576779037714004517e-01 -1.264119148254394531e-01 -1.253197193145751953e-01 -3.316062316298484802e-02 -1.721304506063461304e-01 -1.434262245893478394e-01 1.432428658008575439e-01 -9.252930432558059692e-02 2.009675651788711548e-02 -1.721039600670337677e-02 -1.783558130264282227e-01 -1.630874276161193848e-01 8.885572850704193115e-02 8.792615681886672974e-02 8.684794604778289795e-02 -1.632144115865230560e-02 6.626547127962112427e-02 -7.447146624326705933e-02 1.020362973213195801e-02 -2.054504901170730591e-01 5.192092806100845337e-02 2.538138926029205322e-01 -1.210399204865098000e-03 7.402410730719566345e-03 2.094545364379882812e-01 -1.269864588975906372e-01 -7.641088962554931641e-02 -1.671703457832336426e-01 -1.764314174652099609e-01 5.980141833424568176e-02 1.905276179313659668e-01 4.483816772699356079e-02 -5.878107249736785889e-02 3.990414738655090332e-02 -1.036985889077186584e-01 -1.414811909198760986e-01 -8.330536074936389923e-03 -2.060667127370834351e-01 1.159665286540985107e-01 -2.552067637443542480e-01 -1.724605262279510498e-02 1.149104312062263489e-01 1.335357315838336945e-02 -7.291225343942642212e-02 -1.724679917097091675e-01 -1.048897057771682739e-01 1.916157156229019165e-01 6.938922405242919922e-02 8.829630166292190552e-02 3.683177754282951355e-02 -7.539450377225875854e-02 -1.170446798205375671e-01 7.320441305637359619e-02 6.765475869178771973e-02 -2.681085765361785889e-01 1.468351930379867554e-01 4.653866589069366455e-02 -6.975818425416946411e-02 -8.398406207561492920e-02 -1.493574678897857666e-01 3.073482811450958252e-01 -7.841583341360092163e-02 -1.190834045410156250e-01 -9.284176677465438843e-02 1.620444804430007935e-01 2.976983040571212769e-02 1.017917767167091370e-01 -1.111404001712799072e-01 3.545076027512550354e-02 -1.208764091134071350e-01 -3.216886147856712341e-02 -4.353223741054534912e-02 3.380349138751626015e-03 -1.276666671037673950e-01 4.458430036902427673e-02 4.945594444870948792e-02 -1.750473491847515106e-02 5.781320482492446899e-02
4.077596589922904968e-02 -5.098653584718704224e-02 -1.145567372441291809e-01 7.371493615210056305e-03 9.397493302822113037e-02 1.020176708698272705e-01 1.445325557142496109e-02 -4.684893786907196045e-02 -4.028644859790802002e-01 5.508045852184295654e-02 1.234351024031639099e-01 -4.373000189661979675e-02 -4.253822863101959229e-01 1.474661827087402344e-01 -7.960905134677886963e-02 5.826123803853988647e-02 1.436488479375839233e-01 9.628760069608688354e-02 1.525975912809371948e-01 5.507158860564231873e-02 7.668580114841461182e-02 -1.045731157064437866e-01 -8.420216292142868042e-02 1.230430081486701965e-01 6.977884471416473389e-02 1.331023126840591431e-01 8.554606139659881592e-02 -8.988873660564422607e-02 4.189250990748405457e-02 5.342829972505569458e-02 -1.002792827785015106e-02 -1.253107190132141113e-02 1.107360571622848511e-01 2.818465828895568848e-01 4.977612569928169250e-02 -1.338240969926118851e-02 1.968501657247543335e-01 6.254956126213073730e-02 8.356923237442970276e-03 -3.176513314247131348e-02 -1.090613827109336853e-01 -2.076009288430213928e-02 2.136406488716602325e-02 -8.242969959974288940e-02 -1.415868997573852539e-01 -6.784219760447740555e-03 6.076572462916374207e-02 -1.386563945561647415e-02 2.182095050811767578e-01 5.612125247716903687e-02 9.574607014656066895e-02 2.435054816305637360e-02 1.352012753486633301e-01 -1.146602630615234375e-01 3.257651999592781067e-02 1.154845207929611206e-01 1.387903746217489243e-02 9.263426065444946289e-03 -1.559151560068130493e-01 1.393683999776840210e-01 -1.320412158966064453e-01 -3.019306063652038574e-02 3.670213818550109863e-01 2.479475438594818115e-01 -1.374844461679458618e-01 8.599428087472915649e-02 -5.942317843437194824e-02 1.024745032191276550e-01 1.456629484891891479e-02 7.189104706048965454e-02 1.228219196200370789e-01 -1.074779406189918518e-01 1.963112801313400269e-01 -1.009045243263244629e-01 -7.858474552631378174e-02 8.885627985000610352e-02 7.368755340576171875e-02 -9.501823782920837402e-02 -1.340690702199935913e-01 2.609334886074066162e-01 7.908998429775238037e-02 -8.420953899621963501e-02 -1.003554835915565491e-01 -9.799437224864959717e-02 -5.532969534397125244e-02 -3.246007487177848816e-02 1.396307162940502167e-02 -2.472609654068946838e-02 1.617591828107833862e-01 2.257254347205162048e-02 -2.112035453319549561e-02 -1.017923727631568909e-01 9.701254218816757202e-02 2.622602693736553192e-02 -5.399531871080398560e-02 8.021981269121170044e-02 6.197089329361915588e-02 2.097970992326736450e-02 1.237329747527837753e-02 4.371961578726768494e-02 -1.533802896738052368e-01 3.301061317324638367e-02 4.428441449999809265e-02 7.541763782501220703e-02 1.344572901725769043e-01 -1.059011965990066528e-01 -2.054501175880432129e-01 1.279358118772506714e-01 1.754126399755477905e-01 -4.636373836547136307e-03 -6.563031673431396484e-02 -2.769731879234313965e-01 2.470323443412780762e-02 -2.259797751903533936e-01 2.034804522991180420e-01 -1.381457597017288208e-01 6.951015442609786987e-02 -1.720081567764282227e-01 -1.010222285985946655e-01 2.129764761775732040e-03 5.439187586307525635e-02 -1.420417129993438721e-01 9.316787123680114746e-02 1.326390951871871948e-01 -9.155654907226562500e-02 -1.154954060912132263e-01 4.740959033370018005e-02 9.281687438488006592e-02
-8.089726418256759644e-02 -1.717452406883239746e-01 -5.812639743089675903e-02 -1.177471950650215149e-01 1.532119512557983398e-01 7.705925405025482178e-02 -1.513849198818206787e-01 -1.034712418913841248e-01 -1.186334639787673950e-01 1.400188803672790527e-01 2.597455680370330811e-01 4.198221489787101746e-03 5.412123724818229675e-02 9.839031845331192017e-03 4.556887596845626831e-02 2.590248882770538330e-01 2.173458039760589600e-01 2.525517642498016357e-01 3.940236270427703857e-01 1.401334702968597412e-01 1.585520207881927490e-01 -1.024194713681936264e-02 9.155613183975219727e-02 3.729476407170295715e-02 4.689870029687881470e-02 3.280614912509918213e-01 5.679659917950630188e-02 8.648769557476043701e-02 -9.082090854644775391e-02 3.845327347517013550e-02 -2.934745699167251587e-02 2.435896173119544983e-02 9.780919551849365234e-02 -1.819646060466766357e-01 -1.510147005319595337e-01 -2.635337412357330322e-02 1.184721440076828003e-01 -5.112298130989074707e-01 -7.572477310895919800e-02 -1.429646313190460205e-01 -5.109501630067825317e-02 1.294981129467487335e-02 5.784015357494354248e-02 -7.090368866920471191e-02 -8.027124404907226562e-02 -1.415225863456726074e-01 -2.243086099624633789e-01 -5.778833106160163879e-02 -8.577580004930496216e-02 1.149163991212844849e-01 6.790620833635330200e-02 6.602813303470611572e-02 3.036193251609802246e-01 7.476662099361419678e-02 -9.091711789369583130e-02 2.004975825548171997e-02 -1.594302617013454437e-02 -2.179640345275402069e-02 -3.868177533149719238e-02 -1.757651865482330322e-01 1.635170131921768188e-01 3.239525854587554932e-02 7.878622412681579590e-02 -3.414892777800559998e-02 -7.625883817672729492e-02 1.427190899848937988e-01 9.586569666862487793e-02 2.997348783537745476e-03 1.854062378406524658e-01 -2.460383772850036621e-01 -7.008688896894454956e-02 1.128067970275878906e-01 -1.081178709864616394e-02 4.290566220879554749e-02 5.816723406314849854e-02 1.245055720210075378e-01 -1.578148640692234039e-02 5.879750102758407593e-02 -1.869033426046371460e-01 -5.110768601298332214e-02 4.244119301438331604e-02 1.297394931316375732e-01 1.166225038468837738e-02 7.419138215482234955e-03 2.610837854444980621e-02 -8.588489145040512085e-02 -1.015926674008369446e-01 4.835983365774154663e-02 -7.162921130657196045e-02 8.680785074830055237e-03 8.488558232784271240e-02 -6.932885199785232544e-02 -3.424597904086112976e-02 -9.294051676988601685e-02 -3.876699134707450867e-02 7.312143594026565552e-02 -6.002574414014816284e-02 -9.685583412647247314e-02 1.824754476547241211e-02 -1.593220531940460205e-01 6.835070252418518066e-02 2.123962789773941040e-01 -7.683703303337097168e-02 -1.606164723634719849e-01 1.590844988822937012e-01 -1.821312457323074341e-01 1.299200113862752914e-02 -1.268188953399658203e-01 -6.863602995872497559e-02 1.962475478649139404e-01 8.614282310009002686e-02 4.735168218612670898e-01 3.042644821107387543e-02 -5.543924123048782349e-02 4.453726485371589661e-02 4.374861717224121094e-02 -8.559540659189224243e-02 -1.008533462882041931e-01 2.478856220841407776e-02 1.010837033390998840e-01 1.615530401468276978e-01 -1.188378781080245972e-01 -6.644930690526962280e-02 -6.941328197717666626e-02 -1.915820389986038208e-01 -4.191243648529052734e-02 -5.631802976131439209e-02 -1.169348508119583130e-01
2.125663682818412781e-02 4.211028665304183960e-02 -3.768861293792724609e-02 4.275966063141822815e-02 -4.366173967719078064e-02 -1.165439374744892120e-02 -6.417373195290565491e-03 7.326093316078186035e-02 -1.545155048370361328e-01 -3.656452521681785583e-02 1.895459443330764771e-01 -1.355550065636634827e-02 1.299572736024856567e-01 -5.934372544288635254e-02 1.157205477356910706e-01 -1.507489830255508423e-01 -9.100573509931564331e-02 3.427102416753768921e-02 -4.426860511302947998e-01 -2.580995671451091766e-03 1.710635572671890259e-01 -6.814015656709671021e-02 -3.192922472953796387e-02 4.682042822241783142e-02 -4.168293997645378113e-02 -9.820897132158279419e-02 2.326974086463451385e-02 2.968000620603561401e-02 -1.325540095567703247e-01 6.888604909181594849e-02 -6.456565577536821365e-03 -1.199551578611135483e-02 1.659760922193527222e-01 1.272211596369743347e-02 7.915621995925903320e-02 -2.705366350710391998e-04 3.938011825084686279e-02 -1.062860339879989624e-01 -1.301637291908264160e-01 -8.568242192268371582e-02 -5.334011511877179146e-04 -4.505174979567527771e-02 1.447853446006774902e-01 -7.472275197505950928e-02 -3.919939696788787842e-02 2.076124586164951324e-02 3.190347179770469666e-02 -1.549896597862243652e-02 -8.894535899162292480e-02 -5.341633781790733337e-02 -1.617076694965362549e-01 5.195744708180427551e-02 -2.698232885450124741e-03 -3.418321488425135612e-03 -2.799948677420616150e-02 -5.050787702202796936e-02 4.551289975643157959e-02 8.253609389066696167e-02 9.439402818679809570e-02 1.396049279719591141e-02 5.852834880352020264e-02 5.205062683671712875e-03 -2.154875248670578003e-01 7.731246948242187500e-02 -8.718430995941162109e-02 -2.618069015443325043e-02 -1.911290287971496582e-01 3.517184257507324219e-01 6.271103024482727051e-02 1.683868914842605591e-01 -4.820322617888450623e-02 -4.084143042564392090e-02 -1.799810677766799927e-02 8.922837674617767334e-02 -4.639853164553642273e-02 -9.134018793702125549e-03 -9.642456471920013428e-02 1.239292602986097336e-02 -5.788709968328475952e-03 -6.992504745721817017e-02 -1.188029497861862183e-01 -1.641339249908924103e-02 1.528341323137283325e-02 2.129103988409042358e-02 -1.788330972194671631e-01 3.569943457841873169e-02 -3.250225633382797241e-02 -4.873013868927955627e-02 -4.912823438644409180e-02 1.051596626639366150e-01 -2.984490618109703064e-02 7.628020644187927246e-02 1.140591278672218323e-01 -2.361283265054225922e-02 -1.176764518022537231e-01 -8.523558825254440308e-02 -2.049727551639080048e-02 4.537719860672950745e-02 2.541984617710113525e-02 5.726501345634460449e-02 -1.572777032852172852e-01 8.528506755828857422e-02 9.501833468675613403e-02 1.032102331519126892e-01 -7.294952869415283203e-02 6.120093539357185364e-02 -1.883869175799190998e-03 -8.252156898379325867e-03 -8.569450676441192627e-02 -1.800711601972579956e-01 4.230874404311180115e-02 -6.624948978424072266e-02 -1.065703630447387695e-01 1.260777711868286133e-01 4.726381972432136536e-02 1.960405893623828888e-02 -5.236109718680381775e-02 -4.204355925321578979e-02 -1.595556735992431641e-01 -3.823411837220191956e-02 5.351287778466939926e-03 -4.149074107408523560e-02 1.341015379875898361e-02 -6.416094955056905746e-03 2.707478962838649750e-02 -1.467381231486797333e-02 -3.864457458257675171e-02 1.562605798244476318e-02
-1.444666995666921139e-03 -8.265744894742965698e-02 4.130025953054428101e-02 1.563268005847930908e-01 1.115882992744445801e-01 4.881201777607202530e-03 -3.164375200867652893e-02 4.363504704087972641e-03 3.322745114564895630e-02 9.662522934377193451e-03 1.718120872974395752e-01 -4.918987862765789032e-03 6.558648496866226196e-02 -1.393379867076873779e-01 4.048235714435577393e-03 5.028387159109115601e-02 2.158734053373336792e-01 -1.752885058522224426e-02 8.936907351016998291e-02 1.409106403589248657e-01 7.998299598693847656e-02 -8.451510965824127197e-02 2.483391389250755310e-02 3.172237053513526917e-02 1.182596310973167419e-01 -3.044799901545047760e-02 -1.396504193544387817e-01 4.582681506872177124e-02 -4.966829344630241394e-02 7.956646382808685303e-02 1.502343118190765381e-01 -4.587829485535621643e-02 1.223662961274385452e-02 -5.978544056415557861e-02 5.453809350728988647e-02 7.532628625631332397e-02 -6.459103524684906006e-02 -7.048185914754867554e-02 1.243851482868194580e-01 -1.158360391855239868e-01 -5.687178671360015869e-02 -8.092990145087242126e-03 -1.320195943117141724e-01 4.485812410712242126e-02 -5.060540884733200073e-02 -1.705173030495643616e-02 6.896362756378948689e-04 -9.763492271304130554e-04 1.746508642099797726e-03 -1.554211378097534180e-01 3.645825758576393127e-02 6.386305391788482666e-02 7.604458928108215332e-02 3.179760649800300598e-02 1.870838180184364319e-02 -7.295061647891998291e-02 -1.355544477701187134e-01 3.085177391767501831e-02 8.155585080385208130e-02 -2.311006635427474976e-01 7.181369513273239136e-02 5.428325757384300232e-02 -4.724340885877609253e-02 1.065563708543777466e-01 -4.762318730354309082e-02 5.054432526230812073e-02 -1.660013198852539062e-02 -6.302034109830856323e-02 1.269944310188293457e-01 -1.067208871245384216e-01 -6.369516998529434204e-02 -3.102857433259487152e-02 2.509466744959354401e-02 -1.882695034146308899e-02 -3.227434307336807251e-02 -9.121499024331569672e-03 5.731068179011344910e-02 3.901172056794166565e-02 2.186390012502670288e-02 4.414164274930953979e-02 -4.705878347158432007e-02 7.415075600147247314e-02 -2.398216538131237030e-02 4.415571317076683044e-02 8.514551818370819092e-02 1.150180175900459290e-01 1.004294604063034058e-01 4.748786240816116333e-02 9.250568598508834839e-02 1.521078795194625854e-01 -1.911876909434795380e-02 5.963354557752609253e-02 -2.322752727195620537e-03 1.617497503757476807e-01 6.357152014970779419e-02 1.155055016279220581e-01 -3.122117742896080017e-02 -7.549457997083663940e-02 -5.304380878806114197e-02 3.884718194603919983e-02 -3.860148414969444275e-02 1.039030477404594421e-01 1.012376248836517334e-01 9.183258563280105591e-02 1.373603343963623047e-01 -1.196796726435422897e-02 1.045231968164443970e-01 -6.946156919002532959e-02 4.641487821936607361e-02 9.412970393896102905e-02 2.603095583617687225e-02 3.514417409896850586e-01 -9.677410125732421875e-02 1.146775037050247192e-01 -9.261452406644821167e-02 -7.721406221389770508e-02 5.381957069039344788e-02 -3.413996100425720215e-02 -5.125043168663978577e-02 -6.257840245962142944e-02 1.602807343006134033e-01 1.268381774425506592e-01 -3.106581233441829681e-02 -1.941170394420623779e-01 2.147813886404037476e-02 9.732251614332199097e-02 5.627539008855819702e-02 -4.125358164310455322e-02
-8.265765011310577393e-02 2.470193803310394287e-02 1.530897021293640137e-01 8.582995086908340454e-02 -5.177418142557144165e-02 -1.190877482295036316e-01 4.438589327037334442e-03 6.926115602254867554e-02 -7.804341614246368408e-02 -1.125432737171649933e-02 1.813429594039916992e-02 1.424719672650098801e-02 1.645226627588272095e-01 -2.822177484631538391e-04 -1.543354541063308716e-01 -5.182861164212226868e-02 -5.626716837286949158e-02 3.329618601128458977e-03 -2.568516880273818970e-02 -2.489226125180721283e-02 -8.371444940567016602e-01 9.050797671079635620e-02 -1.794148422777652740e-02 -1.526920311152935028e-02 2.772221341729164124e-02 -5.418986827135086060e-02 -3.311169892549514771e-02 -1.025450229644775391e-02 -6.941463798284530640e-02 -4.306575655937194824e-02 -2.922276780009269714e-02 -7.338365912437438965e-02 -6.293857097625732422e-02 5.657980963587760925e-02 5.987638980150222778e-02 -6.160140782594680786e-02 1.365731749683618546e-02 1.739870458841323853e-01 -3.688185475766658783e-03 6.019797548651695251e-02 -4.389355331659317017e-02 5.605780333280563354e-02 1.289118081331253052e-01 2.710659243166446686e-02 1.201634034514427185e-01 1.233512833714485168e-01 -8.674802631139755249e-02 7.401579618453979492e-02 8.772009611129760742e-02 -6.284687668085098267e-02 5.639490485191345215e-02 -1.921957172453403473e-02 -1.226874366402626038e-01 5.829670280218124390e-02 9.428474120795726776e-03 -7.274813950061798096e-02 -6.288670748472213745e-02 -1.038010045886039734e-01 -6.449260562658309937e-02 -2.269238792359828949e-02 -6.373472511768341064e-02 1.251437216997146606e-01 -2.803903520107269287e-01 -8.317574858665466309e-02 1.023868694901466370e-01 -1.921476610004901886e-02 5.001598596572875977e-02 1.417705863714218140e-01 -2.680444158613681793e-02 9.749686717987060547e-02 -5.462897475808858871e-03 -1.295440923422574997e-02 4.326356574892997742e-03 -6.051546707749366760e-02 1.640883237123489380e-01 -3.371862461790442467e-03 -1.571562327444553375e-02 -1.239245310425758362e-01 -9.171277284622192383e-02 1.815148629248142242e-02 -1.094943434000015259e-01 -9.587104432284832001e-03 -6.173396483063697815e-02 -2.281837612390518188e-01 6.131554953753948212e-03 -1.650471091270446777e-01 -3.194998949766159058e-02 -9.011135250329971313e-02 5.158448964357376099e-02 -1.032331436872482300e-01 -5.991647765040397644e-02 5.052746087312698364e-02 -1.420611632056534290e-03 -2.790804579854011536e-02 -7.370477914810180664e-02 6.197902932763099670e-02 2.690689871087670326e-03 1.036124378442764282e-01 1.215998269617557526e-02 2.840521633625030518e-01 -3.214471787214279175e-02 4.678285866975784302e-02 6.452854722738265991e-02 1.217073425650596619e-01 -3.619259595870971680e-02 -7.283630967140197754e-02 1.645134761929512024e-02 -1.663531959056854248e-01 -8.314042538404464722e-02 -2.566115371882915497e-02 -9.923670440912246704e-03 1.249940991401672363e-01 -5.461785942316055298e-03 1.349582225084304810e-01 -1.999495029449462891e-01 -1.311049014329910278e-01 4.642189294099807739e-02 -1.581006199121475220e-01 -2.851484715938568115e-02 -3.272971883416175842e-02 1.367112505249679089e-03 -6.867478787899017334e-02 1.895429939031600952e-02 -4.159061610698699951e-02 1.381397545337677002e-01 1.290947385132312775e-02 1.024544313549995422e-01 1.002838313579559326e-01
-1.213485840708017349e-02 1.283503770828247070e-01 2.327256835997104645e-02 -8.697747439146041870e-02 8.137656003236770630e-02 -4.884568601846694946e-02 6.806717813014984131e-02 -7.581459730863571167e-02 -2.977572977542877197e-01 -3.707943856716156006e-02 1.048228368163108826e-01 1.255550188943743706e-03 1.833979338407516479e-01 -1.174544841051101685e-01 -2.073305472731590271e-02 6.692935712635517120e-04 -4.098222404718399048e-02 -5.589373782277107239e-02 4.425842687487602234e-02 9.112956374883651733e-02 9.398979693651199341e-02 3.033267557621002197e-01 -8.672898262739181519e-02 -1.049914509057998657e-01 7.287686225026845932e-03 -3.341112518683075905e-03 -1.462706923484802246e-02 9.585357620380818844e-04 -3.486858308315277100e-02 5.850001052021980286e-02 6.824997812509536743e-02 3.029574872925877571e-03 -3.376996889710426331e-02 8.879175037145614624e-02 -6.135161221027374268e-02 8.973944187164306641e-02 8.110035955905914307e-02 -4.667908325791358948e-02 -2.125140465795993805e-02 -6.590296328067779541e-02 1.070204451680183411e-01 -1.588478684425354004e-01 1.185670718550682068e-01 3.471520170569419861e-02 -1.497258245944976807e-01 -1.249897405505180359e-01 1.789385676383972168e-01 8.014535903930664062e-02 2.026421390473842621e-02 -6.719376146793365479e-02 -7.150143384933471680e-02 8.332239091396331787e-02 4.815779626369476318e-02 1.239377260208129883e-01 6.688953191041946411e-02 -6.116558238863945007e-02 1.391535997390747070e-01 3.433541581034660339e-02 -2.668052911758422852e-02 1.085161493392661214e-04 9.439649060368537903e-03 -2.110529541969299316e-01 -2.097665518522262573e-01 5.047124624252319336e-02 -2.726532518863677979e-02 1.049129664897918701e-01 -1.647605746984481812e-01 4.367365837097167969e-01 -6.201580539345741272e-02 2.977467514574527740e-02 -3.941981121897697449e-02 1.337909325957298279e-02 -7.436023652553558350e-02 -9.914164990186691284e-02 -1.183924600481987000e-01 -5.146822333335876465e-02 -3.593640401959419250e-03 -3.821120783686637878e-02 -6.220059096813201904e-02 -1.032151803374290466e-01 -1.749546383507549763e-03 -1.072628423571586609e-02 -1.209276448935270309e-02 -2.755066938698291779e-02 -1.798534244298934937e-01 -2.235994674265384674e-03 -1.743078827857971191e-01 4.331185296177864075e-02 -6.692717969417572021e-02 1.107028126716613770e-01 9.986804798245429993e-03 1.406707614660263062e-02 1.185390129685401917e-01 7.150952704250812531e-03 -3.669662401080131531e-02 -1.028013043105602264e-02 -4.953879490494728088e-02 4.903523996472358704e-02 -2.249379269778728485e-02 -4.224080592393875122e-02 -8.266167342662811279e-02 -1.124178171157836914e-01 3.837142139673233032e-02 2.932177484035491943e-02 3.180401772260665894e-02 2.598844468593597412e-03 -7.552864402532577515e-02 1.156799420714378357e-01 1.258268207311630249e-01 -2.585708163678646088e-02 -7.256191968917846680e-02 6.792923063039779663e-02 -2.351310662925243378e-02 3.848722875118255615e-01 5.467559024691581726e-02 4.120835289359092712e-02 3.672979399561882019e-02 -3.495376557111740112e-02 3.502505645155906677e-02 -1.206116080284118652e-01 7.831858098506927490e-02 -2.639428526163101196e-02 -1.020015329122543335e-01 1.006956920027732849e-01 -2.292097732424736023e-02 1.513807326555252075e-01 8.604511618614196777e-02 4.637369140982627869e-02
-1.078184880316257477e-02 1.988872885704040527e-01 -8.777472376823425293e-02 -1.865395009517669678e-01 1.329698711633682251e-01 -5.643122270703315735e-02 5.456705763936042786e-02 -1.102159842848777771e-01 -3.772642835974693298e-02 6.276404112577438354e-02 1.098354309797286987e-01 2.136146090924739838e-02 -1.088147237896919250e-01 -1.010957956314086914e-01 1.166552901268005371e-01 -6.535291671752929688e-03 4.776049405336380005e-02 -8.713156729936599731e-02 2.094779536128044128e-02 1.957260258495807648e-02 -6.665016710758209229e-02 1.011454537510871887e-01 -1.635248661041259766e-01 -9.331528842449188232e-02 -6.988063454627990723e-02 -1.552327908575534821e-02 -5.832313373684883118e-02 -6.657370924949645996e-02 -1.595612466335296631e-01 6.815523654222488403e-02 7.869197428226470947e-02 3.564830170944333076e-03 7.978431135416030884e-02 -3.672160506248474121e-01 1.191383674740791321e-01 -8.317634463310241699e-03 1.546152979135513306e-01 -6.996646523475646973e-02 -1.706103086471557617e-01 -7.433345541357994080e-03 -1.474044024944305420e-01 8.482838422060012817e-02 -1.720811128616333008e-01 8.166817575693130493e-02 2.880487591028213501e-02 -5.271133407950401306e-02 -1.203966140747070312e-01 1.645545810461044312e-01 -5.482077226042747498e-02 6.346019916236400604e-03 1.602120995521545410e-01 2.925673425197601318e-01 1.211897954344749451e-01 -1.291349530220031738e-02 -5.286632105708122253e-02 -1.644845157861709595e-01 -1.158083379268646240e-01 1.238389988429844379e-03 1.613557934761047363e-01 -8.606442064046859741e-02 -1.902092248201370239e-01 1.823683828115463257e-02 -1.734916418790817261e-01 -6.090152636170387268e-02 -1.672392785549163818e-01 1.027957126498222351e-01 -5.589987710118293762e-02 3.433397710323333740e-01 5.533104017376899719e-02 3.087804317474365234e-01 -1.256556063890457153e-01 -8.700890839099884033e-02 9.044370055198669434e-02 1.308347731828689575e-01 -9.302353113889694214e-02 -1.303295493125915527e-01 9.482188522815704346e-02 -7.204765081405639648e-02 9.169291704893112183e-03 1.138906478881835938e-01 -1.816919296979904175e-01 6.641573458909988403e-02 4.774791747331619263e-02 -2.525731362402439117e-02 -1.209410652518272400e-01 1.216547656804323196e-02 -2.299517095088958740e-01 -4.759439453482627869e-02 8.660698682069778442e-02 -1.539693027734756470e-01 5.333139374852180481e-02 -1.250520795583724976e-01 7.975640892982482910e-02 -2.559695206582546234e-02 -1.340153664350509644e-01 -1.041777431964874268e-01 -1.624336699023842812e-03 -9.197774529457092285e-02 -3.858302254229784012e-03 -6.397017836570739746e-02 -1.488645821809768677e-01 7.406368851661682129e-02 4.147759824991226196e-02 1.029542833566665649e-02 -3.429523110389709473e-01 8.861457556486129761e-02 5.472629517316818237e-02 -6.826691329479217529e-02 1.130001991987228394e-01 -1.185839548707008362e-01 -2.185500226914882660e-02 5.991777032613754272e-02 2.763130888342857361e-02 -2.750914990901947021e-01 -5.439148470759391785e-02 1.916331350803375244e-01 -5.138527229428291321e-02 -3.786046430468559265e-02 -4.461185261607170105e-02 6.716379523277282715e-02 1.366528272628784180e-01 1.906718909740447998e-01 -1.194717362523078918e-01 2.540982961654663086e-01 -1.235071197152137756e-01 1.645519882440567017e-01 1.031479388475418091e-01 2.153696566820144653e-01
-1.523236185312271118e-01 -5.535416305065155029e-02 1.710568740963935852e-02 1.489151362329721451e-02 -6.164573132991790771e-02 6.079323962330818176e-02 -1.160933002829551697e-01 3.427542373538017273e-02 -1.318949759006500244e-01 2.775049582123756409e-02 3.492463007569313049e-02 9.147811681032180786e-02 2.563649229705333710e-02 -8.694069087505340576e-02 2.342599183320999146e-01 -3.749924898147583008e-02 -7.134784758090972900e-02 4.308941215276718140e-02 -1.926856637001037598e-01 2.223091945052146912e-02 5.940559133887290955e-02 -1.453675776720046997e-01 -6.373533606529235840e-02 3.501532375812530518e-01 7.031711935997009277e-02 2.694360213354229927e-03 -9.294333308935165405e-02 7.761007547378540039e-02 -1.636106520891189575e-03 -1.658044871874153614e-03 -5.462710978463292122e-04 -3.566734725609421730e-03 6.228998303413391113e-02 -2.281574066728353500e-03 1.200013756752014160e-01 2.041905000805854797e-02 5.732326582074165344e-02 -9.767851233482360840e-02 -4.824834689497947693e-02 1.761318147182464600e-01 -4.584333673119544983e-02 1.099482029676437378e-01 8.410096913576126099e-02 8.346704766154289246e-03 -5.584207549691200256e-02 7.386168837547302246e-02 -6.654519587755203247e-02 2.170381369069218636e-03 2.809033030644059181e-03 -2.046551257371902466e-01 1.517330016940832138e-02 1.782942563295364380e-01 -1.723509281873703003e-02 8.210918307304382324e-02 1.540627926588058472e-01 8.972187642939388752e-04 1.449756473302841187e-01 5.554534494876861572e-02 -7.251762598752975464e-02 3.737353533506393433e-02 1.199264824390411377e-02 -1.125084385275840759e-01 -2.823059633374214172e-02 6.866362690925598145e-02 6.467989296652376652e-04 3.297784551978111267e-02 -2.888373658061027527e-02 2.119873613119125366e-01 3.588443994522094727e-02 -1.354580670595169067e-01 7.494265213608741760e-03 1.254451274871826172e-01 3.393282741308212280e-02 6.327694654464721680e-02 -3.345166519284248352e-02 -3.157096728682518005e-02 1.667284667491912842e-01 -9.378478676080703735e-02 1.414504200220108032e-01 4.661346226930618286e-02 5.528983473777770996e-02 -3.367958217859268188e-02 6.363271921873092651e-02 1.207156032323837280e-01 1.175719592720270157e-02 4.319187626242637634e-02 2.156619913876056671e-02 -7.640771567821502686e-03 -4.836011305451393127e-02 1.059902608394622803e-01 6.287125498056411743e-02 2.197635173797607422e-02 -2.377204969525337219e-02 9.988120198249816895e-02 3.180838748812675476e-02 -1.286214496940374374e-02 -1.363536342978477478e-02 -1.331718564033508301e-01 1.709273457527160645e-02 3.310693055391311646e-02 -6.922455877065658569e-02 2.856412529945373535e-02 -9.992722421884536743e-02 1.725661307573318481e-01 7.075321674346923828e-02 4.793705046176910400e-02 -1.512542087584733963e-02 -7.226879894733428955e-02 2.209153492003679276e-03 -9.275978803634643555e-02 -6.691706832498311996e-03 -4.618823155760765076e-02 -8.297706395387649536e-02 2.606950402259826660e-01 1.037707254290580750e-01 1.920882910490036011e-01 -3.301731497049331665e-02 8.784970268607139587e-03 -1.272579133510589600e-01 -1.597929447889328003e-01 1.118838116526603699e-01 -1.527596917003393173e-02 -3.108636289834976196e-02 -8.286400884389877319e-02 5.712940543889999390e-02 -7.090117037296295166e-02 1.863200031220912933e-02 -9.316967427730560303e-02
-3.627800196409225464e-02 -6.900130957365036011e-02 3.408126905560493469e-02 9.945125132799148560e-02 1.811844762414693832e-03 8.794315904378890991e-02 1.049630790948867798e-01 -7.669556140899658203e-02 -9.438715130090713501e-02 -9.520594030618667603e-03 6.981479376554489136e-02 6.364672631025314331e-02 -2.861030958592891693e-02 4.167313873767852783e-02 3.757757321000099182e-02 -6.005523609928786755e-04 2.542168796062469482e-01 4.676675051450729370e-02 -2.878711558878421783e-02 9.690471738576889038e-02 2.309826612472534180e-01 -6.687103956937789917e-02 1.656228154897689819e-01 -1.266369670629501343e-01 -2.184606529772281647e-02 1.485046744346618652e-01 -1.557945460081100464e-02 4.836666211485862732e-02 1.978399008512496948e-01 -1.723370403051376343e-01 -1.836852054111659527e-03 -1.551552861928939819e-01 -1.720259636640548706e-01 -1.390688568353652954e-01 9.785400703549385071e-03 1.035510078072547913e-01 9.962484240531921387e-02 5.635735765099525452e-02 1.089676544070243835e-01 2.389714866876602173e-02 1.477309167385101318e-01 8.778188377618789673e-02 1.362125873565673828e-01 6.905617564916610718e-02 -1.151236072182655334e-01 -1.071792915463447571e-01 1.748247891664505005e-01 1.853607892990112305e-01 -2.043040543794631958e-01 -3.696269541978836060e-02 6.486886180937290192e-03 -1.444062292575836182e-01 6.632844358682632446e-02 6.656317040324211121e-03 -7.704032585024833679e-03 -5.355924740433692932e-02 3.173717483878135681e-02 -2.164091169834136963e-01 8.036584407091140747e-02 1.113388091325759888e-01 -9.934401512145996094e-02 -8.264362066984176636e-02 -7.195412367582321167e-02 -2.506370097398757935e-02 1.954683810472488403e-01 1.082544550299644470e-01 -1.285337060689926147e-01 -9.419297426939010620e-02 -6.406018044799566269e-03 -8.561805635690689087e-02 4.209402948617935181e-03 8.036497235298156738e-02 8.243315666913986206e-02 8.061070740222930908e-02 -1.572537720203399658e-01 1.192428097128868103e-01 -4.570378363132476807e-02 2.469688355922698975e-01 7.580039091408252716e-03 -1.531032770872116089e-01 2.132415212690830231e-02 -3.919642418622970581e-03 2.447737753391265869e-02 -1.101577579975128174e-01 -1.927514821290969849e-01 2.512536048889160156e-01 3.311844468116760254e-01 -1.417470537126064301e-02 4.459399729967117310e-02 5.186637490987777710e-02 -1.062176227569580078e-01 8.183259516954421997e-02 1.286106370389461517e-02 -1.482225805521011353e-01 -4.781439434736967087e-03 2.121663128491491079e-04 -9.531106054782867432e-02 7.370439916849136353e-02 -3.703012363985180855e-03 8.701013401150703430e-03 -1.148766800761222839e-01 -5.932889506220817566e-02 1.140915043652057648e-02 2.381148934364318848e-02 2.094195634126663208e-01 8.722002804279327393e-02 1.790219992399215698e-01 -2.711283229291439056e-02 -1.020059809088706970e-01 -1.012051329016685486e-01 -6.311511248350143433e-02 -1.952668726444244385e-01 -1.139602363109588623e-01 1.584920883178710938e-01 -4.457566514611244202e-02 6.011825520545244217e-03 3.695307672023773193e-02 7.862042635679244995e-02 -3.607216849923133850e-02 -9.066203236579895020e-02 -1.941129937767982483e-02 2.637818083167076111e-02 -7.825995236635208130e-02 -8.034038543701171875e-02 1.916987001895904541e-01 -4.900759551674127579e-03 -2.049437016248703003e-01 -1.225525811314582825e-01
7.011102885007858276e-02 6.467618048191070557e-02 6.417164206504821777e-02 -1.338825821876525879e-01 -9.955253452062606812e-02 1.282750908285379410e-02 -1.746207326650619507e-01 -5.700148269534111023e-02 -6.968700140714645386e-02 -6.626490503549575806e-02 6.612561643123626709e-02 -1.343863364309072495e-02 -3.416217397898435593e-03 -1.208882182836532593e-01 -9.399981237947940826e-03 1.212605386972427368e-01 1.864406466484069824e-02 1.918685436248779297e-01 2.449205517768859863e-01 8.326302468776702881e-02 4.033832997083663940e-02 1.484722495079040527e-01 -1.797553300857543945e-01 6.189341843128204346e-02 -1.894417963922023773e-02 2.059298753738403320e-01 1.200945768505334854e-02 5.769795179367065430e-02 -1.298932135105133057e-01 -9.981776773929595947e-02 4.297406598925590515e-02 4.041581600904464722e-02 5.011116340756416321e-02 -1.118052471429109573e-02 1.176936775445938110e-01 -1.829735934734344482e-01 -5.274994969367980957e-01 -3.999017644673585892e-03 3.625392913818359375e-02 1.784789860248565674e-01 -1.475779432803392410e-02 5.219050869345664978e-02 6.573542207479476929e-02 -4.126887768507003784e-02 -1.578763574361801147e-01 -2.827152013778686523e-01 9.319234639406204224e-02 -7.708175480365753174e-02 4.391987994313240051e-02 1.214798614382743835e-01 9.368228167295455933e-02 -2.993555739521980286e-02 5.159041658043861389e-02 -1.254044026136398315e-01 -9.856870025396347046e-02 8.268135134130716324e-04 -6.042588874697685242e-02 -2.330828458070755005e-02 1.010209247469902039e-01 7.190821319818496704e-02 1.426948513835668564e-02 -8.358249068260192871e-02 -1.695787906646728516e-01 -3.268005093559622765e-03 3.983687236905097961e-02 -4.025283083319664001e-02 -4.949180409312248230e-02 1.613238155841827393e-01 -5.984276160597801208e-02 -4.384246841073036194e-02 2.883642911911010742e-01 2.016624435782432556e-02 -1.443720012903213501e-01 2.930223941802978516e-01 5.614073574542999268e-02 5.116861313581466675e-02 -6.677660346031188965e-02 2.258687764406204224e-01 4.209157824516296387e-02 1.143471300601959229e-01 2.698982656002044678e-01 -4.257444664835929871e-02 1.544738113880157471e-01 -2.057091295719146729e-01 1.486911922693252563e-01 -1.591615825891494751e-01 3.512787818908691406e-02 2.083919793367385864e-01 1.483381837606430054e-01 7.835496962070465088e-02 -1.206419020891189575e-01 6.023472547531127930e-02 -9.498009830713272095e-02 1.098871827125549316e-01 1.146395318210124969e-02 -3.859365731477737427e-02 -1.759725511074066162e-01 -2.286760658025741577e-01 -1.977209597826004028e-01 2.692170813679695129e-02 3.958598151803016663e-02 5.608791951090097427e-03 -1.629952192306518555e-01 4.941896721720695496e-02 -1.453471034765243530e-01 2.324536144733428955e-01 1.785531453788280487e-02 2.158192992210388184e-01 -1.648534834384918213e-01 -1.772131025791168213e-01 1.218383107334375381e-02 1.668369472026824951e-01 -5.976650863885879517e-02 -6.161564961075782776e-02 2.104185372591018677e-01 -7.006905972957611084e-02 7.157186418771743774e-02 -1.017381027340888977e-01 -5.838847253471612930e-03 3.844656050205230713e-02 5.635838955640792847e-02 1.119174435734748840e-01 -3.369444981217384338e-02 1.042301133275032043e-01 -1.376821994781494141e-01 -4.834787175059318542e-02 -3.754397854208946228e-02 -1.875745803117752075e-01
1.550377905368804932e-01 1.520503312349319458e-01 -4.085984453558921814e-02 1.090245600789785385e-02 -4.689948260784149170e-02 -1.198572441935539246e-01 -1.110171899199485779e-01 1.986022144556045532e-01 -8.399570733308792114e-02 -1.929588764905929565e-01 5.314124282449483871e-03 1.834513694047927856e-01 1.836720854043960571e-01 1.760796643793582916e-02 5.375957489013671875e-02 -2.348511014133691788e-03 9.924601763486862183e-02 1.133537068963050842e-01 1.108929887413978577e-01 -1.618945449590682983e-01 1.625534743070602417e-01 -4.608921334147453308e-02 -9.436143562197685242e-03 -6.782431900501251221e-02 -1.423399895429611206e-01 3.855147166177630424e-03 -6.755876541137695312e-01 6.682290136814117432e-02 -1.808957755565643311e-01 -7.220077514648437500e-02 6.611625105142593384e-02 -9.506239555776119232e-03 -9.653145074844360352e-02 1.291278898715972900e-01 1.325622107833623886e-02 8.452867716550827026e-02 -5.113290995359420776e-02 2.778550237417221069e-02 4.655340313911437988e-02 -1.035510525107383728e-01 8.651649951934814453e-02 -4.179326444864273071e-02 1.559681296348571777e-01 1.148304343223571777e-01 -2.031450569629669189e-01 -4.214652627706527710e-02 1.460514515638351440e-01 1.897053793072700500e-02 1.440186891704797745e-02 -5.975061655044555664e-02 4.858319461345672607e-02 8.931511081755161285e-03 -3.677268326282501221e-02 -2.556296624243259430e-02 1.160290762782096863e-01 1.573194563388824463e-02 1.078269928693771362e-01 -1.611026227474212646e-01 6.253553926944732666e-02 -6.813339889049530029e-02 -1.501150280237197876e-01 -4.364162310957908630e-02 -1.425238549709320068e-01 -8.579996973276138306e-02 -5.403096601366996765e-02 -1.007231026887893677e-01 -6.697294861078262329e-02 1.111537665128707886e-01 -6.517964601516723633e-02 3.871802240610122681e-02 7.776543498039245605e-02 -4.866924509406089783e-02 1.557059735059738159e-01 -5.035513639450073242e-02 4.714868962764739990e-02 -2.570486627519130707e-02 -4.284420982003211975e-02 7.807163149118423462e-02 6.871706992387771606e-02 -7.884336262941360474e-02 -2.033017389476299286e-02 -7.056332193315029144e-03 -1.098087355494499207e-01 2.552221529185771942e-02 -8.615436404943466187e-02 -3.631582856178283691e-02 -1.401477307081222534e-01 -3.917330875992774963e-02 3.613237664103507996e-02 2.517796456813812256e-01 -4.954319819808006287e-02 2.928125262260437012e-01 -1.440081894397735596e-01 -1.397680956870317459e-03 -2.027840353548526764e-02 -5.019822716712951660e-02 -1.766086742281913757e-02 -2.223334647715091705e-02 -3.020676411688327789e-02 5.123513564467430115e-02 -1.276063472032546997e-01 2.156190201640129089e-02 9.334862977266311646e-02 1.409119069576263428e-01 -1.378940604627132416e-02 3.028411418199539185e-03 1.314973384141921997e-01 4.904327541589736938e-02 -5.236069485545158386e-02 -1.187950558960437775e-02 -2.639846503734588623e-02 1.170478463172912598e-01 -2.203322574496269226e-02 2.505280077457427979e-01 -2.877181209623813629e-02 -6.667877733707427979e-02 1.562709808349609375e-01 1.900366507470607758e-02 -1.056366488337516785e-01 3.823969513177871704e-02 1.972328498959541321e-02 9.809077531099319458e-02 -1.922534406185150146e-01 1.468579052016139030e-03 -3.197509050369262695e-02 1.214019358158111572e-01 1.557372063398361206e-01 1.399340778589248657e-01
4.629329591989517212e-02 1.249677035957574844e-02 1.849940717220306396e-01 1.023729890584945679e-01 8.102361857891082764e-02 3.286364078521728516e-01 5.483719706535339355e-02 -6.372921168804168701e-02 -2.725672535598278046e-02 -6.263969838619232178e-02 1.230699941515922546e-01 -1.306833326816558838e-01 8.073391020298004150e-02 1.867421902716159821e-02 -4.433939699083566666e-03 6.028356775641441345e-02 -3.435251489281654358e-02 -4.546556249260902405e-02 -3.471702337265014648e-02 1.943439990282058716e-02 -6.002847105264663696e-02 -6.075572222471237183e-02 -9.574538469314575195e-02 5.969689227640628815e-03 9.618538618087768555e-02 2.518436871469020844e-02 4.667147621512413025e-02 3.581705987453460693e-01 -4.408224299550056458e-02 -4.364909231662750244e-02 2.771692350506782532e-02 -7.852604612708091736e-03 -2.368188649415969849e-02 -7.074166834354400635e-02 5.522751808166503906e-02 1.362914890050888062e-01 1.658651605248451233e-02 -4.800919070839881897e-02 2.781936526298522949e-01 -1.509138047695159912e-01 -9.593581408262252808e-02 -6.203370541334152222e-02 -1.090394034981727600e-01 -6.246426701545715332e-02 5.225375294685363770e-02 -8.766311407089233398e-02 -2.008186839520931244e-02 -5.414471030235290527e-02 -8.679720014333724976e-02 8.024807274341583252e-02 4.382278770208358765e-02 -2.464890293776988983e-02 -4.537689313292503357e-02 7.783394306898117065e-03 -1.199677027761936188e-02 -4.576919600367546082e-02 -1.466706991195678711e-01 -1.903920806944370270e-02 -9.772564470767974854e-02 2.177640562877058983e-03 7.366161793470382690e-02 -1.451815478503704071e-02 9.138394892215728760e-02 1.620744764804840088e-01 -1.543846726417541504e-01 1.472362596541643143e-02 -2.484182640910148621e-02 -8.525566011667251587e-02 -5.448748357594013214e-03 -1.001325845718383789e-01 -4.173517972230911255e-02 -8.827366679906845093e-02 1.583917289972305298e-01 1.597432605922222137e-02 -5.324669182300567627e-02 4.346762597560882568e-02 9.488675743341445923e-02 -1.503903977572917938e-02 1.321132481098175049e-02 1.706359237432479858e-01 -9.670166671276092529e-02 1.913099177181720734e-02 -7.912618666887283325e-02 -2.690582349896430969e-02 -8.352421224117279053e-02 -6.742841750383377075e-02 6.510844826698303223e-02 -3.878519684076309204e-02 -4.513001441955566406e-02 7.026897370815277100e-02 -2.322494797408580780e-02 6.851902604103088379e-02 -7.996411994099617004e-03 1.145037449896335602e-02 -1.575183123350143433e-02 1.013493016362190247e-01 -5.740925297141075134e-02 2.825039438903331757e-02 -6.141014397144317627e-02 -1.873334497213363647e-02 -2.576447464525699615e-02 -1.783775389194488525e-01 1.539779305458068848e-01 -5.501517094671726227e-03 1.244300827383995056e-01 3.312184941023588181e-03 -3.006903268396854401e-02 3.949432447552680969e-02 -7.735648751258850098e-02 -6.196227855980396271e-03 2.651387453079223633e-02 7.822569459676742554e-02 -8.484151959419250488e-02 -3.134109824895858765e-02 -7.488059252500534058e-02 -1.846838891506195068e-01 -4.819357022643089294e-02 5.704507604241371155e-02 5.688795074820518494e-02 2.643519267439842224e-02 1.535607576370239258e-01 -1.059339344501495361e-01 -2.175060473382472992e-02 1.629235409200191498e-02 3.530288115143775940e-02 5.361925065517425537e-02 3.870583325624465942e-02 4.806439392268657684e-03
-1.669136285781860352e-01 -1.090108975768089294e-01 1.344146132469177246e-01 -6.588550657033920288e-02 9.588768333196640015e-02 -1.319706141948699951e-01 -3.077056072652339935e-02 -7.935997843742370605e-02 -1.433406770229339600e-01 5.517987906932830811e-02 2.343686968088150024e-01 -5.149232596158981323e-02 1.698223203420639038e-01 -9.596815705299377441e-02 9.332594275474548340e-02 -1.001506373286247253e-01 -1.166561394929885864e-01 -8.390464633703231812e-02 2.354959249496459961e-01 2.777693420648574829e-02 3.513332307338714600e-01 -3.227505087852478027e-01 1.493469160050153732e-02 6.731651723384857178e-02 1.593955010175704956e-01 -1.785305291414260864e-01 -3.800460696220397949e-02 4.409889131784439087e-02 2.743936181068420410e-01 7.677505724132061005e-03 6.346371024847030640e-02 -1.878053396940231323e-01 1.668343544006347656e-01 1.705466657876968384e-01 2.417493611574172974e-02 -1.244203224778175354e-01 8.564155548810958862e-02 1.282811462879180908e-01 1.302388161420822144e-01 -7.629878073930740356e-02 5.273121595382690430e-02 5.774059891700744629e-02 3.255151212215423584e-01 -5.410083010792732239e-02 -1.284022480249404907e-01 -4.075592458248138428e-01 3.561736047267913818e-01 2.036950923502445221e-02 -1.504416018724441528e-01 1.664513954892754555e-03 7.514642179012298584e-02 -3.372766077518463135e-02 -1.959354849532246590e-03 3.155995160341262817e-02 8.263016492128372192e-02 -1.893959045410156250e-01 1.030769422650337219e-01 1.902675181627273560e-01 1.413989216089248657e-01 7.145524770021438599e-02 3.921552002429962158e-02 -6.508144736289978027e-02 4.524709656834602356e-02 4.677131306380033493e-03 -3.167141601443290710e-02 6.935130339115858078e-03 -3.691199719905853271e-01 1.802095621824264526e-01 -3.935343027114868164e-02 2.906056307256221771e-02 5.294845998287200928e-02 7.570834457874298096e-02 -2.541623413562774658e-01 2.845676243305206299e-01 -1.972947269678115845e-01 -1.752459555864334106e-01 8.409531414508819580e-02 5.007068440318107605e-02 -1.155679747462272644e-01 -2.652626484632492065e-03 3.235553205013275146e-02 -3.174845874309539795e-02 3.116822540760040283e-01 6.248887255787849426e-02 -7.236247509717941284e-02 2.881214022636413574e-01 2.460958957672119141e-01 3.376829028129577637e-01 -7.101739197969436646e-02 1.166583821177482605e-01 -8.014223538339138031e-03 -2.970765577629208565e-03 7.110212743282318115e-02 9.171805530786514282e-02 1.212250739336013794e-01 4.956157505512237549e-02 -1.611505001783370972e-01 -4.468185454607009888e-02 1.538034714758396149e-02 -1.711263321340084076e-02 3.737994655966758728e-02 1.226418092846870422e-01 -3.424904048442840576e-01 2.039592899382114410e-02 1.609808504581451416e-01 6.745769083499908447e-02 -7.353690266609191895e-02 -5.142647027969360352e-02 -2.111442834138870239e-01 -1.305483840405941010e-02 -2.561954259872436523e-01 2.635007202625274658e-01 1.724798679351806641e-01 3.535682559013366699e-01 -3.916552364826202393e-01 -7.237804122269153595e-03 -3.554713912308216095e-03 -2.179369181394577026e-01 -3.015475906431674957e-02 -5.077078342437744141e-01 2.243710868060588837e-02 1.283181756734848022e-01 1.860690303146839142e-02 -9.989997744560241699e-02 -1.728812605142593384e-01 4.331992566585540771e-02 -1.567330360412597656e-01 4.123620223253965378e-03
1.949826441705226898e-02 -1.510654091835021973e-01 1.838452368974685669e-01 -1.046964451670646667e-01 1.518039107322692871e-01 -1.090758368372917175e-01 6.751292943954467773e-02 -1.877636760473251343e-01 -3.393794596195220947e-02 4.271015897393226624e-02 2.218135297298431396e-01 4.848880693316459656e-02 -3.182567597832530737e-04 9.662839025259017944e-02 -5.840584263205528259e-02 -1.923589035868644714e-02 5.109087005257606506e-02 1.584299281239509583e-02 1.729303784668445587e-02 3.291210159659385681e-02 7.887275516986846924e-02 -3.160439804196357727e-02 -9.667468816041946411e-02 5.397996306419372559e-02 1.698378771543502808e-01 -2.923280233517289162e-03 2.921493537724018097e-02 -5.340211838483810425e-02 1.079443618655204773e-01 -3.959819972515106201e-01 -7.368603721261024475e-03 3.198665753006935120e-02 -4.216307774186134338e-02 -1.862820684909820557e-01 1.979839801788330078e-02 4.727871343493461609e-02 -7.521866261959075928e-02 -6.274943239986896515e-03 9.369538724422454834e-02 4.022456333041191101e-02 -7.809413224458694458e-02 -1.124759316444396973e-01 -7.860231399536132812e-02 -1.896052807569503784e-02 1.454981118440628052e-01 -7.407216820865869522e-03 -4.232635721564292908e-02 -9.474909305572509766e-02 -1.704102382063865662e-02 6.374687701463699341e-02 9.625308215618133545e-02 1.766449660062789917e-01 -2.923488616943359375e-02 -4.715241957455873489e-03 -1.048981249332427979e-01 -1.965410262346267700e-02 -4.791643843054771423e-02 -1.084580123424530029e-01 -2.017526477575302124e-01 -2.054315060377120972e-02 4.104163125157356262e-02 -1.517979055643081665e-01 2.826612293720245361e-01 3.427769616246223450e-02 -5.803765729069709778e-02 1.777024716138839722e-01 -5.502798408269882202e-02 4.799171537160873413e-02 -2.639158815145492554e-02 -1.453018635511398315e-01 -2.608678676187992096e-02 5.763609334826469421e-02 1.101513132452964783e-01 5.831101164221763611e-02 -4.743686318397521973e-02 -1.133391112089157104e-01 -3.970975056290626526e-02 -1.098425462841987610e-01 1.135762184858322144e-01 -6.531084328889846802e-02 9.430092573165893555e-02 7.198509573936462402e-02 2.672672569751739502e-01 -1.226421222090721130e-01 -8.589993230998516083e-03 -1.180292516946792603e-01 -7.082886248826980591e-02 8.116964995861053467e-02 5.690879654139280319e-03 8.948824834078550339e-04 6.549878418445587158e-02 4.209458082914352417e-02 1.630772501230239868e-01 -3.088281303644180298e-02 8.805081993341445923e-02 6.793200969696044922e-02 -8.613093197345733643e-02 3.310751542448997498e-02 1.204582974314689636e-01 -8.837967365980148315e-02 -7.123120129108428955e-02 7.193130254745483398e-02 3.641711920499801636e-02 -1.128907874226570129e-01 1.909541338682174683e-01 2.298684790730476379e-02 -1.472133025527000427e-02 -5.163756385445594788e-02 -5.594328790903091431e-02 3.918143734335899353e-02 3.672560676932334900e-02 2.971720099449157715e-01 9.074962139129638672e-02 1.441304236650466919e-01 -1.404137313365936279e-01 -2.096066623926162720e-01 -1.698697805404663086e-01 -1.867641322314739227e-02 1.123102754354476929e-01 8.429407328367233276e-02 8.189680427312850952e-02 3.542156144976615906e-02 -3.227360174059867859e-02 3.183586895465850830e-02 -6.710011512041091919e-02 7.052376121282577515e-02 -4.469468072056770325e-02 -3.251469461247324944e-03
